################################################################################
# Neural network connection values (weights and biases).
################################################################################
# Col  Name       Description
################################################################################
# 1    connection Neural network connection value.
# 2    t          Connection type (a = weight, b = bias).
# 3    index      Index enumerating weights.
# 4    l_s        Starting point layer (end point layer for biases).
# 5    n_s        Starting point neuron in starting layer (end point neuron for biases).
# 6    l_e        End point layer.
# 7    n_e        End point neuron in end layer.
################################################################################
#                      1 2         3     4     5     6     7
#             connection t     index   l_s   n_s   l_e   n_e
############################################################
 -2.2608929834233880E-02 a         1     0     1     1     1
 -1.1920943787625060E-01 a         2     0     1     1     2
  1.0986697506058671E-01 a         3     0     1     1     3
  5.9193357035330685E-02 a         4     0     1     1     4
 -7.0857367698881138E-02 a         5     0     1     1     5
 -7.4668895133490315E-02 a         6     0     1     1     6
  2.9769948753358835E-02 a         7     0     1     1     7
  1.8530637178570883E-02 a         8     0     1     1     8
  1.4552332002887162E-02 a         9     0     1     1     9
  9.0959524879951487E-02 a        10     0     1     1    10
  1.2674671118195754E-01 a        11     0     1     1    11
 -3.1465599026970464E-02 a        12     0     1     1    12
  1.1833463997364096E-01 a        13     0     1     1    13
 -5.3264361025647036E-02 a        14     0     1     1    14
  3.3915931922264740E-02 a        15     0     1     1    15
  7.3916480435550699E-02 a        16     0     1     1    16
  5.3438656583759098E-02 a        17     0     1     1    17
  1.6198546614738732E-01 a        18     0     1     1    18
 -4.2618250478304587E-04 a        19     0     1     1    19
  1.1139551939514819E-01 a        20     0     1     1    20
 -1.8817385129965361E-03 a        21     0     1     1    21
 -8.8840231267511199E-02 a        22     0     1     1    22
  1.0304507540818147E-01 a        23     0     1     1    23
  3.7698244267062281E-02 a        24     0     1     1    24
 -4.9008248228950328E-02 a        25     0     1     1    25
  9.0555271881195623E-02 a        26     0     2     1     1
 -2.4794291413212957E-01 a        27     0     2     1     2
  5.0057972008274623E-02 a        28     0     2     1     3
  1.2420777714365770E-01 a        29     0     2     1     4
 -1.0456741648844510E-02 a        30     0     2     1     5
 -1.1515208008182745E-01 a        31     0     2     1     6
 -1.1319556423885013E-01 a        32     0     2     1     7
  8.1008334034479948E-02 a        33     0     2     1     8
  6.6408384247947677E-02 a        34     0     2     1     9
  6.3165651617698437E-02 a        35     0     2     1    10
  1.1762326919261581E-01 a        36     0     2     1    11
 -5.8168329765136216E-02 a        37     0     2     1    12
  1.4467506981460226E-01 a        38     0     2     1    13
  1.7577912323287964E-01 a        39     0     2     1    14
 -3.9843053226358643E-02 a        40     0     2     1    15
  8.1785153076030306E-02 a        41     0     2     1    16
 -6.4767608699996676E-02 a        42     0     2     1    17
  6.6609835962827296E-02 a        43     0     2     1    18
 -1.8459146517730313E-01 a        44     0     2     1    19
 -3.3981866678423372E-02 a        45     0     2     1    20
 -1.6401563026189916E-02 a        46     0     2     1    21
  2.0764427138971997E-01 a        47     0     2     1    22
  2.2422686660578359E-01 a        48     0     2     1    23
 -6.2016063349377620E-02 a        49     0     2     1    24
  5.1900523004748560E-02 a        50     0     2     1    25
 -1.6208132536788980E-01 a        51     0     3     1     1
 -5.4022950042508164E-02 a        52     0     3     1     2
 -4.5404462678651010E-02 a        53     0     3     1     3
 -1.9533567385448539E-01 a        54     0     3     1     4
 -7.0870175341160718E-02 a        55     0     3     1     5
 -1.3738158270679485E-01 a        56     0     3     1     6
 -2.7848780562673123E-02 a        57     0     3     1     7
 -5.4241347944271497E-02 a        58     0     3     1     8
 -4.2046542731253751E-02 a        59     0     3     1     9
  6.6279467639701245E-02 a        60     0     3     1    10
  1.2313632428595792E-01 a        61     0     3     1    11
  2.9594510801629496E-02 a        62     0     3     1    12
 -3.4748246345580706E-02 a        63     0     3     1    13
  1.2162594805374102E-01 a        64     0     3     1    14
 -1.3356389289698523E-01 a        65     0     3     1    15
 -1.1193230527970062E-01 a        66     0     3     1    16
 -9.4242223163977706E-02 a        67     0     3     1    17
 -7.8237051841561073E-02 a        68     0     3     1    18
 -8.5657245943026469E-02 a        69     0     3     1    19
  1.6144597244674200E-01 a        70     0     3     1    20
 -9.7143936750657169E-03 a        71     0     3     1    21
 -6.6291524842683150E-02 a        72     0     3     1    22
 -1.4967011051652235E-01 a        73     0     3     1    23
  1.7884858383632632E-01 a        74     0     3     1    24
 -3.4264092106209044E-02 a        75     0     3     1    25
 -1.5227146138333347E-01 a        76     0     4     1     1
 -1.2917772300019734E-02 a        77     0     4     1     2
  9.5401598475294870E-03 a        78     0     4     1     3
  3.2087419708635642E-04 a        79     0     4     1     4
  9.2552220914179098E-02 a        80     0     4     1     5
 -9.7643808718956560E-03 a        81     0     4     1     6
  1.1488493885387518E-01 a        82     0     4     1     7
  4.8026775674057292E-03 a        83     0     4     1     8
 -1.3285856414607430E-01 a        84     0     4     1     9
 -9.1121774981452186E-04 a        85     0     4     1    10
 -8.8511087764326160E-03 a        86     0     4     1    11
  1.5635688759439784E-01 a        87     0     4     1    12
 -3.7887433984912885E-02 a        88     0     4     1    13
  3.1422854694368015E-02 a        89     0     4     1    14
 -1.1963618907102964E-01 a        90     0     4     1    15
 -1.1111470944015608E-01 a        91     0     4     1    16
  5.4086498536092424E-02 a        92     0     4     1    17
 -2.8259020054712168E-02 a        93     0     4     1    18
  1.3714783205992553E-01 a        94     0     4     1    19
  1.5397529486330733E-01 a        95     0     4     1    20
 -9.8975483303261461E-02 a        96     0     4     1    21
  3.9434086899758775E-03 a        97     0     4     1    22
 -8.1914023157268451E-02 a        98     0     4     1    23
  2.2030371110848371E-01 a        99     0     4     1    24
 -2.7057361411462044E-02 a       100     0     4     1    25
  5.5458519640389690E-02 a       101     0     5     1     1
  5.8544276390780664E-02 a       102     0     5     1     2
 -7.1213424399061601E-02 a       103     0     5     1     3
 -1.1265285666919188E-01 a       104     0     5     1     4
  6.0578409446873857E-02 a       105     0     5     1     5
  1.2026815699373231E-02 a       106     0     5     1     6
  9.3581848170962476E-02 a       107     0     5     1     7
 -7.9314599589480908E-02 a       108     0     5     1     8
 -3.4929855775278518E-02 a       109     0     5     1     9
 -1.1289870978893041E-01 a       110     0     5     1    10
  3.2861929973301619E-03 a       111     0     5     1    11
 -9.5024053644521420E-02 a       112     0     5     1    12
  2.1650914682033874E-02 a       113     0     5     1    13
  1.3699178563113796E-02 a       114     0     5     1    14
  3.4917522820789991E-02 a       115     0     5     1    15
 -6.8067619005313648E-02 a       116     0     5     1    16
  3.7672516389855519E-02 a       117     0     5     1    17
  7.1908688658721159E-02 a       118     0     5     1    18
  2.2671645207204980E-02 a       119     0     5     1    19
  7.6197676974669462E-02 a       120     0     5     1    20
  7.5608405004847584E-02 a       121     0     5     1    21
  3.1841123315134775E-03 a       122     0     5     1    22
 -7.7636455642622892E-03 a       123     0     5     1    23
  1.1342895532039388E-01 a       124     0     5     1    24
  1.1052390523212233E-02 a       125     0     5     1    25
 -5.5112142103166367E-02 a       126     0     6     1     1
 -3.3641882203722599E-02 a       127     0     6     1     2
 -4.0849645447780067E-02 a       128     0     6     1     3
 -5.0983116258053476E-02 a       129     0     6     1     4
  1.6284870893711209E-02 a       130     0     6     1     5
 -5.3278162214061557E-02 a       131     0     6     1     6
 -5.6175935765560944E-02 a       132     0     6     1     7
 -1.5549835158131280E-02 a       133     0     6     1     8
  4.9128837172028123E-02 a       134     0     6     1     9
  6.5663940061028325E-02 a       135     0     6     1    10
  3.7219938571593017E-02 a       136     0     6     1    11
  1.0411459196610949E-01 a       137     0     6     1    12
  1.6352073524373446E-03 a       138     0     6     1    13
 -1.0226407130416566E-01 a       139     0     6     1    14
  9.0897577718676320E-02 a       140     0     6     1    15
 -8.4282339377745971E-02 a       141     0     6     1    16
  5.9248990888012436E-02 a       142     0     6     1    17
 -6.3746909698983542E-02 a       143     0     6     1    18
  5.7987542276973017E-02 a       144     0     6     1    19
  9.0302502595549936E-02 a       145     0     6     1    20
 -1.7712856027698146E-03 a       146     0     6     1    21
  6.4905201380307281E-02 a       147     0     6     1    22
  1.4614994844725662E-01 a       148     0     6     1    23
 -1.0527915044808514E-01 a       149     0     6     1    24
  9.3617075628751115E-02 a       150     0     6     1    25
 -9.9692518421605966E-02 a       151     0     7     1     1
 -2.9888401206534253E-02 a       152     0     7     1     2
 -6.8733407896860851E-04 a       153     0     7     1     3
  8.2971303494939239E-02 a       154     0     7     1     4
  9.5588297780476589E-02 a       155     0     7     1     5
 -5.0349278699654172E-02 a       156     0     7     1     6
 -2.0689461369743558E-02 a       157     0     7     1     7
  4.6775076182868969E-02 a       158     0     7     1     8
  2.9584075140798714E-02 a       159     0     7     1     9
  2.4130525193550114E-04 a       160     0     7     1    10
 -5.7831221809624168E-02 a       161     0     7     1    11
  6.2781348335504824E-03 a       162     0     7     1    12
 -8.2721632499243019E-04 a       163     0     7     1    13
  5.9130175253847075E-02 a       164     0     7     1    14
 -5.3985354048374928E-02 a       165     0     7     1    15
 -6.5372933336345862E-02 a       166     0     7     1    16
  2.9438626265818311E-02 a       167     0     7     1    17
 -9.6206284450530880E-02 a       168     0     7     1    18
 -5.0159210925571560E-02 a       169     0     7     1    19
 -8.8422408440015088E-02 a       170     0     7     1    20
 -1.1469618883775953E-01 a       171     0     7     1    21
  2.3826836625940951E-03 a       172     0     7     1    22
 -5.2195449795084399E-02 a       173     0     7     1    23
 -9.2520355212845684E-02 a       174     0     7     1    24
  5.0335680238521904E-02 a       175     0     7     1    25
  7.0094232693079295E-02 a       176     0     8     1     1
  3.9096745148745416E-03 a       177     0     8     1     2
  5.6805768495140040E-03 a       178     0     8     1     3
 -4.6891140215028118E-02 a       179     0     8     1     4
 -3.3880520595298946E-02 a       180     0     8     1     5
  2.1750927448308637E-02 a       181     0     8     1     6
 -8.0693706694939013E-02 a       182     0     8     1     7
 -1.2724511995472870E-01 a       183     0     8     1     8
  8.0338868440492289E-02 a       184     0     8     1     9
 -2.3313273780393887E-02 a       185     0     8     1    10
  3.0913458296584515E-02 a       186     0     8     1    11
  1.8060438286436994E-01 a       187     0     8     1    12
  1.2102105527915782E-02 a       188     0     8     1    13
 -8.3042853723173757E-02 a       189     0     8     1    14
  1.0103931390614537E-01 a       190     0     8     1    15
  5.2332181347685656E-03 a       191     0     8     1    16
 -1.1343748954405236E-01 a       192     0     8     1    17
 -8.4832544423539852E-02 a       193     0     8     1    18
  1.7096597041121792E-02 a       194     0     8     1    19
 -1.6486554051313509E-03 a       195     0     8     1    20
 -1.0203021820204095E-01 a       196     0     8     1    21
  3.7243966444278916E-02 a       197     0     8     1    22
 -1.2728520923209635E-01 a       198     0     8     1    23
 -1.6459963375123568E-01 a       199     0     8     1    24
 -3.1981061960501031E-02 a       200     0     8     1    25
  2.7297587999726985E-01 a       201     0     9     1     1
  1.5046460623670660E-01 a       202     0     9     1     2
 -3.6272932399590771E-03 a       203     0     9     1     3
 -6.5828370351529386E-02 a       204     0     9     1     4
 -1.4048143295441870E-01 a       205     0     9     1     5
 -5.2198562657086278E-02 a       206     0     9     1     6
  1.4099128055569714E-02 a       207     0     9     1     7
 -1.5680005794991025E-01 a       208     0     9     1     8
 -8.8138404052614527E-03 a       209     0     9     1     9
 -1.9079141497331173E-01 a       210     0     9     1    10
 -3.5193993612723518E-02 a       211     0     9     1    11
 -4.7159627496290941E-02 a       212     0     9     1    12
  1.3011340602000751E-01 a       213     0     9     1    13
 -3.5893506406621548E-02 a       214     0     9     1    14
 -4.1273056930299402E-03 a       215     0     9     1    15
 -8.9889789809444384E-02 a       216     0     9     1    16
 -2.7282723940092214E-03 a       217     0     9     1    17
 -1.7081105197083390E-01 a       218     0     9     1    18
 -6.2746476830903716E-02 a       219     0     9     1    19
 -9.8565433036293601E-02 a       220     0     9     1    20
 -1.0993571506502355E-01 a       221     0     9     1    21
 -8.0444115521857984E-02 a       222     0     9     1    22
  4.4552684155014857E-02 a       223     0     9     1    23
 -2.5173683395146590E-01 a       224     0     9     1    24
 -4.6914325985696545E-02 a       225     0     9     1    25
  1.3579123012196121E-02 a       226     0    10     1     1
  2.1975025405600842E-03 a       227     0    10     1     2
 -2.9007379606083680E-02 a       228     0    10     1     3
 -1.6938836665925994E-01 a       229     0    10     1     4
  1.2772630314067385E-01 a       230     0    10     1     5
  3.5527441077800342E-02 a       231     0    10     1     6
 -3.0632857480896121E-02 a       232     0    10     1     7
 -5.6776293953766958E-03 a       233     0    10     1     8
  1.1331215874316300E-02 a       234     0    10     1     9
 -4.4685961112389400E-02 a       235     0    10     1    10
 -3.9055257722669698E-02 a       236     0    10     1    11
  3.8880818456933980E-01 a       237     0    10     1    12
 -8.5797316066322737E-02 a       238     0    10     1    13
 -1.2805245520372252E-01 a       239     0    10     1    14
 -2.3597925911575127E-02 a       240     0    10     1    15
 -8.0998543279144991E-02 a       241     0    10     1    16
 -2.3198128888607936E-02 a       242     0    10     1    17
 -4.4085286394086876E-02 a       243     0    10     1    18
 -3.2377416140642601E-02 a       244     0    10     1    19
 -6.3763257165199393E-04 a       245     0    10     1    20
 -7.8591400998516053E-02 a       246     0    10     1    21
 -1.0298994903799175E-01 a       247     0    10     1    22
 -8.2013748537317313E-02 a       248     0    10     1    23
 -2.8869109295281731E-01 a       249     0    10     1    24
 -6.5091085145165692E-02 a       250     0    10     1    25
 -9.0409280390504776E-02 a       251     0    11     1     1
 -1.5852019367776554E-01 a       252     0    11     1     2
  2.5645214409829239E-02 a       253     0    11     1     3
 -1.0754500200540729E-01 a       254     0    11     1     4
  5.8473386150072942E-02 a       255     0    11     1     5
 -7.9568507278108158E-02 a       256     0    11     1     6
  8.9516012332986811E-02 a       257     0    11     1     7
  4.0801198588466869E-02 a       258     0    11     1     8
 -3.0749021623899718E-02 a       259     0    11     1     9
  9.7897011844017182E-02 a       260     0    11     1    10
  2.7971655883390099E-02 a       261     0    11     1    11
  2.8713708672720861E-01 a       262     0    11     1    12
  3.0177938116754437E-02 a       263     0    11     1    13
  1.1757209390765668E-03 a       264     0    11     1    14
 -1.2132646640605284E-01 a       265     0    11     1    15
  1.2355899152164920E-01 a       266     0    11     1    16
  6.8318857165210897E-02 a       267     0    11     1    17
  6.4024446963558534E-03 a       268     0    11     1    18
 -9.3310042522202791E-02 a       269     0    11     1    19
 -3.8494510611207913E-02 a       270     0    11     1    20
 -6.2063507802445496E-02 a       271     0    11     1    21
  1.2237051185625472E-01 a       272     0    11     1    22
  1.3784190045947442E-01 a       273     0    11     1    23
 -3.2077363159370285E-02 a       274     0    11     1    24
 -3.7266357583881824E-03 a       275     0    11     1    25
 -1.3643072086654526E-01 a       276     0    12     1     1
 -2.2405219932859277E-01 a       277     0    12     1     2
 -3.7250928454864531E-02 a       278     0    12     1     3
  5.0476462630480716E-02 a       279     0    12     1     4
 -1.3552816114865518E-01 a       280     0    12     1     5
  2.6204902886366916E-02 a       281     0    12     1     6
  1.4303154402070067E-02 a       282     0    12     1     7
 -9.6458837314805524E-03 a       283     0    12     1     8
 -7.5540499552436266E-03 a       284     0    12     1     9
 -6.2701695772852423E-02 a       285     0    12     1    10
  1.5910259053445436E-01 a       286     0    12     1    11
  1.0203417144755134E-02 a       287     0    12     1    12
  9.1879540811757379E-02 a       288     0    12     1    13
  9.5331650235141452E-02 a       289     0    12     1    14
  4.4908524022255467E-02 a       290     0    12     1    15
 -4.9137607242870938E-02 a       291     0    12     1    16
  9.4269445372386906E-03 a       292     0    12     1    17
  6.7391123772301109E-02 a       293     0    12     1    18
 -1.6881378156451138E-01 a       294     0    12     1    19
  1.2840370395671369E-01 a       295     0    12     1    20
  1.3350242731599343E-01 a       296     0    12     1    21
 -4.7675533601514011E-02 a       297     0    12     1    22
  9.0123785238580376E-02 a       298     0    12     1    23
  1.5662612940253590E-01 a       299     0    12     1    24
  2.3356693482098467E-03 a       300     0    12     1    25
  2.8209792819102386E-01 a       301     0    13     1     1
 -1.8225276707737825E-02 a       302     0    13     1     2
  1.4617737051782636E-02 a       303     0    13     1     3
  6.9120036457801626E-02 a       304     0    13     1     4
 -8.9025822559666942E-02 a       305     0    13     1     5
  1.6221095250203110E-02 a       306     0    13     1     6
  1.1171288876930426E-01 a       307     0    13     1     7
 -2.9750284667465998E-02 a       308     0    13     1     8
 -3.9095470635983941E-03 a       309     0    13     1     9
 -1.3305213427525772E-01 a       310     0    13     1    10
 -6.3643396007251468E-02 a       311     0    13     1    11
  1.4135619336147716E-02 a       312     0    13     1    12
  2.8415319120182199E-02 a       313     0    13     1    13
  1.1715657718288386E-02 a       314     0    13     1    14
 -1.3805114500240311E-02 a       315     0    13     1    15
  8.2111209934523768E-02 a       316     0    13     1    16
  1.2717657861817853E-02 a       317     0    13     1    17
 -9.4001956583410512E-02 a       318     0    13     1    18
  4.9223111417386594E-03 a       319     0    13     1    19
 -1.7504714683518566E-01 a       320     0    13     1    20
  5.0343005489638049E-02 a       321     0    13     1    21
 -1.1842174450754551E-01 a       322     0    13     1    22
 -1.1344244275103429E-01 a       323     0    13     1    23
 -2.9418300409683698E-02 a       324     0    13     1    24
 -1.2876609350276044E-01 a       325     0    13     1    25
  2.7531774465438818E-02 a       326     0    14     1     1
 -1.8956660482154231E-01 a       327     0    14     1     2
 -4.5297411884186831E-02 a       328     0    14     1     3
  1.9484596173026052E-02 a       329     0    14     1     4
 -5.7551600871226280E-02 a       330     0    14     1     5
 -1.0710860893659313E-01 a       331     0    14     1     6
  4.7842376330802294E-02 a       332     0    14     1     7
 -4.8795246344988483E-02 a       333     0    14     1     8
 -7.4304548789862021E-02 a       334     0    14     1     9
  1.7151561391191734E-02 a       335     0    14     1    10
  1.7669059463350050E-02 a       336     0    14     1    11
  1.3942935577351873E-01 a       337     0    14     1    12
  9.9035927183962862E-03 a       338     0    14     1    13
 -7.0424430094616172E-02 a       339     0    14     1    14
 -5.7563025511804609E-02 a       340     0    14     1    15
 -9.3453179361804764E-02 a       341     0    14     1    16
 -4.8964664409582678E-02 a       342     0    14     1    17
  1.4710054945443462E-02 a       343     0    14     1    18
  2.8515535938772672E-02 a       344     0    14     1    19
  8.7967653615387935E-03 a       345     0    14     1    20
 -1.0417073865293680E-01 a       346     0    14     1    21
  1.2323296763783427E-01 a       347     0    14     1    22
  1.1959615401770451E-01 a       348     0    14     1    23
 -2.1345596343434559E-01 a       349     0    14     1    24
 -9.4456771580374063E-02 a       350     0    14     1    25
 -1.1019214666411058E-01 a       351     0    15     1     1
 -1.5299779569145838E-01 a       352     0    15     1     2
 -1.9704342312699758E-02 a       353     0    15     1     3
 -3.8461050326119104E-03 a       354     0    15     1     4
  1.0611581386390714E-01 a       355     0    15     1     5
 -7.0651059680073486E-02 a       356     0    15     1     6
  7.7592175584609124E-02 a       357     0    15     1     7
 -1.0554504348264798E-01 a       358     0    15     1     8
  5.1987842357307204E-02 a       359     0    15     1     9
  1.4147850714235247E-01 a       360     0    15     1    10
 -6.4104307707153960E-02 a       361     0    15     1    11
  1.9242405569943000E-01 a       362     0    15     1    12
  1.1740898248645179E-01 a       363     0    15     1    13
  1.1802283890342141E-01 a       364     0    15     1    14
 -9.2589091709241636E-02 a       365     0    15     1    15
  9.6625254654835874E-02 a       366     0    15     1    16
  1.2886767252492616E-02 a       367     0    15     1    17
 -6.8868232763007298E-02 a       368     0    15     1    18
  3.6815889524419151E-02 a       369     0    15     1    19
  1.2411216404807619E-01 a       370     0    15     1    20
  4.0820850751367944E-03 a       371     0    15     1    21
 -7.5068294845912792E-02 a       372     0    15     1    22
 -1.1195208348947966E-01 a       373     0    15     1    23
 -2.3149163609353224E-01 a       374     0    15     1    24
  2.6745665384400329E-02 a       375     0    15     1    25
 -3.0055231760243311E-02 a       376     0    16     1     1
 -2.2911926232051341E-01 a       377     0    16     1     2
  1.2527809547732222E-01 a       378     0    16     1     3
 -7.7208258590074942E-03 a       379     0    16     1     4
 -2.2811445684277029E-01 a       380     0    16     1     5
  4.7653775505528261E-02 a       381     0    16     1     6
  9.7095869126876764E-03 a       382     0    16     1     7
 -2.8477451958302688E-02 a       383     0    16     1     8
 -1.0297053002350059E-01 a       384     0    16     1     9
 -1.2735136859667748E-01 a       385     0    16     1    10
  3.2344453472962076E-01 a       386     0    16     1    11
 -2.7585781813161314E-01 a       387     0    16     1    12
 -1.8971485768170190E-02 a       388     0    16     1    13
  1.3402309194574041E-01 a       389     0    16     1    14
  4.9846724934847896E-02 a       390     0    16     1    15
  6.8720420211568295E-02 a       391     0    16     1    16
  3.6422107943780625E-02 a       392     0    16     1    17
  1.6343705825967172E-01 a       393     0    16     1    18
 -1.7293469623588842E-01 a       394     0    16     1    19
 -1.0254478612543096E-01 a       395     0    16     1    20
  2.0072688859725130E-02 a       396     0    16     1    21
  1.1106741689205364E-01 a       397     0    16     1    22
  2.8714312944720893E-01 a       398     0    16     1    23
 -3.4162914330715821E-01 a       399     0    16     1    24
  6.0089425281453578E-02 a       400     0    16     1    25
 -9.9581087073065941E-02 a       401     0    17     1     1
 -1.2652806910294634E-01 a       402     0    17     1     2
  9.6121271352562453E-03 a       403     0    17     1     3
  3.1355224439121511E-02 a       404     0    17     1     4
 -8.2103346617576033E-03 a       405     0    17     1     5
 -9.3035197397315958E-02 a       406     0    17     1     6
 -2.3508364687286815E-02 a       407     0    17     1     7
 -1.4762899047892339E-01 a       408     0    17     1     8
  8.5591328667771499E-02 a       409     0    17     1     9
 -1.5703484747579138E-01 a       410     0    17     1    10
  1.7934286552759696E-01 a       411     0    17     1    11
 -1.5032334845125542E-01 a       412     0    17     1    12
  1.6888095655442273E-01 a       413     0    17     1    13
  1.0490911490581151E-01 a       414     0    17     1    14
 -5.7938858966420544E-03 a       415     0    17     1    15
 -7.0722389176849643E-02 a       416     0    17     1    16
  7.7142370563042004E-02 a       417     0    17     1    17
 -6.5619595663087751E-03 a       418     0    17     1    18
 -1.1877953386904730E-01 a       419     0    17     1    19
 -1.0771245381543704E-01 a       420     0    17     1    20
 -1.3606791831088749E-01 a       421     0    17     1    21
  1.3262100313275504E-01 a       422     0    17     1    22
  1.6569619580090061E-01 a       423     0    17     1    23
 -1.8501993172601111E-01 a       424     0    17     1    24
 -4.7077105363340583E-03 a       425     0    17     1    25
  2.3937559635099728E-01 a       426     0    18     1     1
  9.6565074467269391E-02 a       427     0    18     1     2
 -4.7102737393487623E-02 a       428     0    18     1     3
 -9.7837981088637879E-02 a       429     0    18     1     4
 -1.1389844549455171E-01 a       430     0    18     1     5
 -6.6939123055393512E-02 a       431     0    18     1     6
  6.0770409507755106E-02 a       432     0    18     1     7
 -5.0248654886753980E-02 a       433     0    18     1     8
 -8.4404541923917997E-02 a       434     0    18     1     9
 -1.3057625429864977E-01 a       435     0    18     1    10
 -7.0389970697642829E-02 a       436     0    18     1    11
  6.9805224399682370E-02 a       437     0    18     1    12
  8.6797919077102159E-02 a       438     0    18     1    13
 -6.4927198727533164E-02 a       439     0    18     1    14
  1.2945448331202725E-01 a       440     0    18     1    15
 -1.5317887760113466E-02 a       441     0    18     1    16
  1.0185644155868566E-01 a       442     0    18     1    17
 -2.5829106934999346E-02 a       443     0    18     1    18
  1.0184472982886750E-01 a       444     0    18     1    19
 -4.1713062210042250E-02 a       445     0    18     1    20
 -1.4637700953628932E-01 a       446     0    18     1    21
  8.4015438660395413E-03 a       447     0    18     1    22
  4.4294849486060155E-02 a       448     0    18     1    23
 -2.0461367783672549E-01 a       449     0    18     1    24
  8.7651975839380149E-03 a       450     0    18     1    25
 -7.2635447784598392E-02 a       451     0    19     1     1
 -1.8449185021299980E-01 a       452     0    19     1     2
  4.9182959547659874E-02 a       453     0    19     1     3
 -9.8287638228207290E-03 a       454     0    19     1     4
 -4.0423247017532520E-02 a       455     0    19     1     5
  9.3259831892932247E-03 a       456     0    19     1     6
 -1.0694492111681173E-01 a       457     0    19     1     7
 -8.0193672076805528E-02 a       458     0    19     1     8
  7.4760758490144893E-02 a       459     0    19     1     9
 -1.8886170101887350E-02 a       460     0    19     1    10
  1.0543783067004342E-01 a       461     0    19     1    11
  1.0307768752598183E-01 a       462     0    19     1    12
  1.4096008526961259E-01 a       463     0    19     1    13
  3.5681470333737933E-02 a       464     0    19     1    14
  5.1530733642819928E-03 a       465     0    19     1    15
  3.7330772230379512E-02 a       466     0    19     1    16
 -7.7545300606782164E-02 a       467     0    19     1    17
  1.1242827038837321E-01 a       468     0    19     1    18
 -7.2631175778989768E-02 a       469     0    19     1    19
  1.7607726945105401E-02 a       470     0    19     1    20
 -5.3252333805668399E-02 a       471     0    19     1    21
  1.3903361183259536E-01 a       472     0    19     1    22
  1.2488772988304266E-01 a       473     0    19     1    23
  1.1905278421044697E-02 a       474     0    19     1    24
 -3.6075986673395045E-02 a       475     0    19     1    25
 -3.4397504510197330E-01 a       476     0    20     1     1
 -1.4001891970041053E-01 a       477     0    20     1     2
  8.0349341008406280E-03 a       478     0    20     1     3
 -7.4500490536816372E-02 a       479     0    20     1     4
  1.3291844732932731E-01 a       480     0    20     1     5
 -2.2994525832013439E-02 a       481     0    20     1     6
  8.7559178711648006E-02 a       482     0    20     1     7
 -1.2713900828229377E-01 a       483     0    20     1     8
 -9.2711886892105771E-02 a       484     0    20     1     9
 -7.3810356680640926E-02 a       485     0    20     1    10
  9.5015627739355346E-02 a       486     0    20     1    11
  2.3974306164812401E-01 a       487     0    20     1    12
 -7.0254561220818551E-02 a       488     0    20     1    13
  3.9594481898447817E-02 a       489     0    20     1    14
 -5.5698151093183122E-02 a       490     0    20     1    15
 -1.7315887182327272E-01 a       491     0    20     1    16
  4.2211848738329463E-02 a       492     0    20     1    17
  1.8136809989860808E-02 a       493     0    20     1    18
 -1.2135344749589709E-01 a       494     0    20     1    19
  2.0771822974338461E-01 a       495     0    20     1    20
 -2.0810772561318157E-02 a       496     0    20     1    21
 -2.0660360043407808E-02 a       497     0    20     1    22
 -2.1699006782547178E-01 a       498     0    20     1    23
  1.7056105523326798E-01 a       499     0    20     1    24
 -6.5120619279449482E-02 a       500     0    20     1    25
  1.9766208153157977E-01 a       501     0    21     1     1
  2.6112050694290814E-02 a       502     0    21     1     2
  1.5568430021152943E-02 a       503     0    21     1     3
  2.8754637592451404E-01 a       504     0    21     1     4
 -1.3826839430213650E-01 a       505     0    21     1     5
  8.7864402352590326E-02 a       506     0    21     1     6
  4.5492064839390764E-02 a       507     0    21     1     7
  2.1266490513731983E-02 a       508     0    21     1     8
 -1.0673353050462221E-01 a       509     0    21     1     9
 -1.0128372073029705E-01 a       510     0    21     1    10
 -5.4398594878608819E-05 a       511     0    21     1    11
  1.5343583047973944E-01 a       512     0    21     1    12
 -5.2251680905027222E-02 a       513     0    21     1    13
  5.0091343597162545E-02 a       514     0    21     1    14
  2.0129569807516602E-04 a       515     0    21     1    15
  7.7133574906866231E-02 a       516     0    21     1    16
  1.9287349005147150E-03 a       517     0    21     1    17
  2.8058764023752431E-02 a       518     0    21     1    18
  1.3132922427640722E-01 a       519     0    21     1    19
 -6.9033333124969825E-03 a       520     0    21     1    20
  7.1620543491855648E-02 a       521     0    21     1    21
  2.0527296875344499E-02 a       522     0    21     1    22
  6.1170255853814852E-02 a       523     0    21     1    23
 -7.5566730572469959E-02 a       524     0    21     1    24
  5.9299202454791474E-03 a       525     0    21     1    25
  6.1563937166226837E-02 a       526     0    22     1     1
  6.9937967394808717E-02 a       527     0    22     1     2
  4.7052413041217087E-02 a       528     0    22     1     3
 -6.7131378413387399E-02 a       529     0    22     1     4
  5.0039328554969023E-02 a       530     0    22     1     5
 -2.0253416261302058E-03 a       531     0    22     1     6
 -2.0938652681943868E-02 a       532     0    22     1     7
 -1.9823192071789408E-01 a       533     0    22     1     8
  8.4815610252053503E-02 a       534     0    22     1     9
 -2.0070392479687171E-01 a       535     0    22     1    10
  5.4884249112463562E-02 a       536     0    22     1    11
 -7.1487064129868619E-02 a       537     0    22     1    12
 -1.6202285895571066E-02 a       538     0    22     1    13
 -1.1022584900893911E-01 a       539     0    22     1    14
 -4.2966047941333539E-02 a       540     0    22     1    15
 -4.9738645541264837E-02 a       541     0    22     1    16
  6.0897446077386869E-02 a       542     0    22     1    17
 -4.4391075753082945E-02 a       543     0    22     1    18
 -3.4499959550814509E-02 a       544     0    22     1    19
  1.6911561261408328E-02 a       545     0    22     1    20
 -1.3457428721694123E-01 a       546     0    22     1    21
  1.1751140010792875E-01 a       547     0    22     1    22
 -1.1762054926263031E-01 a       548     0    22     1    23
 -7.0861946147913024E-02 a       549     0    22     1    24
  1.0637428456905201E-01 a       550     0    22     1    25
 -1.2623482324988833E-01 a       551     0    23     1     1
  4.8202422135788930E-02 a       552     0    23     1     2
  7.0022427109410756E-02 a       553     0    23     1     3
 -8.4345255089661494E-02 a       554     0    23     1     4
 -8.7326613861973858E-03 a       555     0    23     1     5
 -9.3789770254824101E-02 a       556     0    23     1     6
  7.9984052068021338E-02 a       557     0    23     1     7
 -1.3220589059429938E-01 a       558     0    23     1     8
  9.7884247830189466E-02 a       559     0    23     1     9
  1.6887184569696893E-02 a       560     0    23     1    10
  2.5070194247396208E-02 a       561     0    23     1    11
 -1.1385826096632214E-01 a       562     0    23     1    12
 -8.8980896220969108E-02 a       563     0    23     1    13
 -2.2756252006722443E-02 a       564     0    23     1    14
 -2.6567828877793881E-02 a       565     0    23     1    15
  3.3204247037572465E-02 a       566     0    23     1    16
  3.9443079390351229E-02 a       567     0    23     1    17
 -3.9306971520312282E-02 a       568     0    23     1    18
 -6.0979927641188272E-03 a       569     0    23     1    19
 -2.7629945936597029E-02 a       570     0    23     1    20
  7.0650062304851338E-02 a       571     0    23     1    21
 -7.9711403979473794E-02 a       572     0    23     1    22
 -2.9121912673374419E-03 a       573     0    23     1    23
  5.1737467394701510E-02 a       574     0    23     1    24
 -7.6672141129566759E-02 a       575     0    23     1    25
 -8.2729488132319826E-02 a       576     0    24     1     1
 -2.9391736265234815E-02 a       577     0    24     1     2
  1.0021898035841767E-01 a       578     0    24     1     3
 -1.0843105352700784E-02 a       579     0    24     1     4
  1.3647790646067560E-02 a       580     0    24     1     5
  6.6791795186407835E-02 a       581     0    24     1     6
  9.7337751409702369E-02 a       582     0    24     1     7
  3.6482849824415714E-02 a       583     0    24     1     8
  1.9442270599262151E-02 a       584     0    24     1     9
  6.2928626992677636E-02 a       585     0    24     1    10
  5.1048048125063035E-02 a       586     0    24     1    11
  4.9442580817969102E-02 a       587     0    24     1    12
  4.4182782044840496E-02 a       588     0    24     1    13
  1.0209876349329312E-01 a       589     0    24     1    14
 -7.9582078622415939E-02 a       590     0    24     1    15
  4.8763910003134757E-02 a       591     0    24     1    16
 -1.2852295869183185E-02 a       592     0    24     1    17
  4.2689021283227102E-02 a       593     0    24     1    18
 -1.2561895325337928E-02 a       594     0    24     1    19
  7.4202354165393045E-02 a       595     0    24     1    20
 -2.2876611959407232E-02 a       596     0    24     1    21
 -1.0434700243834825E-01 a       597     0    24     1    22
 -3.1067657343150239E-02 a       598     0    24     1    23
 -2.4036748669414030E-03 a       599     0    24     1    24
  6.5976691277136165E-02 a       600     0    24     1    25
 -3.7079782153188190E-02 a       601     0    25     1     1
  4.0910681991561726E-02 a       602     0    25     1     2
 -5.6895586715929473E-02 a       603     0    25     1     3
  1.1498119143291481E-01 a       604     0    25     1     4
 -1.6413170006089178E-01 a       605     0    25     1     5
  8.6999510629154037E-02 a       606     0    25     1     6
  1.3285153203238573E-01 a       607     0    25     1     7
  1.2366947414261879E-01 a       608     0    25     1     8
  6.8279428594140310E-02 a       609     0    25     1     9
 -2.4313903044185767E-01 a       610     0    25     1    10
  6.0885331604099646E-02 a       611     0    25     1    11
 -1.7427754894054032E-01 a       612     0    25     1    12
  2.5534726939177455E-03 a       613     0    25     1    13
 -1.7694887960889576E-02 a       614     0    25     1    14
 -2.1102995818156809E-02 a       615     0    25     1    15
  7.9263108867447044E-02 a       616     0    25     1    16
 -5.2202747121127165E-02 a       617     0    25     1    17
  1.5241768833931782E-01 a       618     0    25     1    18
 -6.9540816586745782E-02 a       619     0    25     1    19
  1.8092953853201855E-02 a       620     0    25     1    20
  3.1555562711400452E-03 a       621     0    25     1    21
  5.5668971542392753E-02 a       622     0    25     1    22
  1.0014224665388057E-01 a       623     0    25     1    23
 -4.5095267276618639E-02 a       624     0    25     1    24
 -2.7203806687544803E-02 a       625     0    25     1    25
  4.8761785444731871E-02 a       626     0    26     1     1
 -2.1385584675882970E-02 a       627     0    26     1     2
  6.1513399914064695E-02 a       628     0    26     1     3
 -1.3354803456867854E-02 a       629     0    26     1     4
 -2.1205816138631720E-03 a       630     0    26     1     5
 -2.7645303297439386E-03 a       631     0    26     1     6
 -3.3457757722084883E-02 a       632     0    26     1     7
  1.0343042627256403E-02 a       633     0    26     1     8
 -6.1227935718259255E-02 a       634     0    26     1     9
 -1.1572981576676267E-01 a       635     0    26     1    10
  7.7992200537050235E-02 a       636     0    26     1    11
 -2.1244964129200716E-01 a       637     0    26     1    12
 -1.4744749708540597E-01 a       638     0    26     1    13
 -3.1192965120300554E-02 a       639     0    26     1    14
 -6.5696641610101768E-03 a       640     0    26     1    15
 -9.0733796192820682E-02 a       641     0    26     1    16
  1.9053754949722963E-02 a       642     0    26     1    17
  2.0109852774496578E-01 a       643     0    26     1    18
  3.8591892362766902E-02 a       644     0    26     1    19
  6.8117002191012507E-02 a       645     0    26     1    20
  1.0788855530679346E-01 a       646     0    26     1    21
  2.6314667531299005E-02 a       647     0    26     1    22
 -6.0020272412368833E-02 a       648     0    26     1    23
  1.2502631839643827E-01 a       649     0    26     1    24
  5.8369851100575840E-02 a       650     0    26     1    25
  7.0561797518136904E-02 a       651     0    27     1     1
 -4.0355362186856911E-02 a       652     0    27     1     2
 -7.6042046814264436E-02 a       653     0    27     1     3
  2.1897656805860849E-01 a       654     0    27     1     4
  4.2973911095261164E-02 a       655     0    27     1     5
 -5.2378619456258921E-02 a       656     0    27     1     6
  2.6015021353375273E-02 a       657     0    27     1     7
  7.4555065680700416E-02 a       658     0    27     1     8
  3.4759685224576495E-02 a       659     0    27     1     9
 -2.6314632722095954E-01 a       660     0    27     1    10
 -6.1674220916039579E-02 a       661     0    27     1    11
  2.1517157111095538E-02 a       662     0    27     1    12
  1.8961005609153102E-02 a       663     0    27     1    13
 -2.2206000882020603E-03 a       664     0    27     1    14
  1.0980266976322624E-01 a       665     0    27     1    15
  2.9439162688522459E-02 a       666     0    27     1    16
 -1.1084346998642390E-01 a       667     0    27     1    17
  9.8795702711375666E-02 a       668     0    27     1    18
  1.3748679914324810E-01 a       669     0    27     1    19
 -7.7628455113909520E-02 a       670     0    27     1    20
 -2.4570954591049413E-02 a       671     0    27     1    21
  9.3847424897229373E-02 a       672     0    27     1    22
 -1.0420103700957938E-02 a       673     0    27     1    23
 -1.3671570176059297E-01 a       674     0    27     1    24
  3.3222443812594947E-02 a       675     0    27     1    25
  4.8928969049217855E-02 a       676     0    28     1     1
 -4.1673077882528782E-03 a       677     0    28     1     2
  1.8709728477054634E-02 a       678     0    28     1     3
  1.6742278969750765E-01 a       679     0    28     1     4
  3.3324189618883955E-02 a       680     0    28     1     5
 -8.0384287291237325E-02 a       681     0    28     1     6
 -6.6200900153688000E-02 a       682     0    28     1     7
 -4.6890194775114878E-03 a       683     0    28     1     8
  9.4032638980613291E-05 a       684     0    28     1     9
 -1.2031435863321732E-02 a       685     0    28     1    10
  6.2373163144930868E-02 a       686     0    28     1    11
 -1.0907318855677833E-01 a       687     0    28     1    12
  3.8336658350314058E-02 a       688     0    28     1    13
 -1.2813500348097886E-02 a       689     0    28     1    14
 -8.4888842170809567E-02 a       690     0    28     1    15
  8.5636434311525553E-02 a       691     0    28     1    16
 -3.4406997167013856E-02 a       692     0    28     1    17
  1.0096818148971584E-01 a       693     0    28     1    18
  4.6665055878797566E-02 a       694     0    28     1    19
  7.4447861287086983E-02 a       695     0    28     1    20
 -9.3317093769928083E-02 a       696     0    28     1    21
  7.1015031382873794E-02 a       697     0    28     1    22
 -7.7619842020020730E-02 a       698     0    28     1    23
  9.4033120422713015E-02 a       699     0    28     1    24
 -3.4997402192418099E-02 a       700     0    28     1    25
  1.3082597602196566E-01 a       701     0    29     1     1
  1.3390717568591451E-01 a       702     0    29     1     2
  9.7735825882709501E-02 a       703     0    29     1     3
  8.9788887057320563E-02 a       704     0    29     1     4
 -3.4856780063597957E-02 a       705     0    29     1     5
  8.6262446693601710E-02 a       706     0    29     1     6
 -4.4727297945078404E-02 a       707     0    29     1     7
 -1.4700864875113423E-01 a       708     0    29     1     8
 -9.0629077882595402E-02 a       709     0    29     1     9
  4.3886663739823986E-02 a       710     0    29     1    10
 -1.5709199909253133E-01 a       711     0    29     1    11
  9.9551675179247970E-02 a       712     0    29     1    12
  1.3464612441616075E-01 a       713     0    29     1    13
  2.8683898765262655E-04 a       714     0    29     1    14
 -7.2184497597448091E-02 a       715     0    29     1    15
  1.0730544445332249E-01 a       716     0    29     1    16
  8.4514205901503450E-02 a       717     0    29     1    17
 -8.1125874356527419E-02 a       718     0    29     1    18
  4.9595713308011546E-02 a       719     0    29     1    19
 -1.2590835733870431E-01 a       720     0    29     1    20
 -1.7110140835265717E-02 a       721     0    29     1    21
 -3.3079914351430456E-02 a       722     0    29     1    22
 -7.0959375827210736E-02 a       723     0    29     1    23
  8.2238478632131948E-04 a       724     0    29     1    24
  5.7123144471247507E-02 a       725     0    29     1    25
  1.4389781543618388E-01 a       726     0    30     1     1
 -1.2193814498872364E-01 a       727     0    30     1     2
 -2.8165779838592600E-02 a       728     0    30     1     3
  1.0612037794924668E-01 a       729     0    30     1     4
 -1.4681108026120765E-01 a       730     0    30     1     5
  5.3661362479770991E-02 a       731     0    30     1     6
  3.0628688948032327E-02 a       732     0    30     1     7
 -4.3621854295074911E-02 a       733     0    30     1     8
 -8.2393559437822408E-02 a       734     0    30     1     9
  1.5579038422726375E-02 a       735     0    30     1    10
  7.3483493117203619E-02 a       736     0    30     1    11
 -7.8019198509966900E-02 a       737     0    30     1    12
  6.4817001692151197E-02 a       738     0    30     1    13
  1.1213277547619442E-01 a       739     0    30     1    14
 -6.9642700677497643E-02 a       740     0    30     1    15
 -8.4970681005261187E-02 a       741     0    30     1    16
 -9.4265405883593792E-02 a       742     0    30     1    17
  1.7351862096176524E-02 a       743     0    30     1    18
 -2.5970702005802291E-02 a       744     0    30     1    19
  3.9828580231028744E-03 a       745     0    30     1    20
 -7.4043931968897442E-02 a       746     0    30     1    21
 -3.6068030772860957E-02 a       747     0    30     1    22
  2.1333312756695741E-02 a       748     0    30     1    23
  8.2398558451642623E-02 a       749     0    30     1    24
  1.0144519277849963E-01 a       750     0    30     1    25
  9.7294562335394602E-02 a       751     0    31     1     1
 -3.1354395618264863E-02 a       752     0    31     1     2
 -1.1091659376342726E-01 a       753     0    31     1     3
  5.0319268747473660E-02 a       754     0    31     1     4
  9.3423740798587313E-02 a       755     0    31     1     5
 -6.5037529705424063E-02 a       756     0    31     1     6
 -4.5186408176700211E-03 a       757     0    31     1     7
 -9.2589699151984062E-02 a       758     0    31     1     8
 -3.9483602955773377E-02 a       759     0    31     1     9
  1.9129713225344586E-01 a       760     0    31     1    10
 -1.6625261077207654E-01 a       761     0    31     1    11
  1.0373293135017776E-01 a       762     0    31     1    12
 -2.6118607695881084E-02 a       763     0    31     1    13
 -5.4971294782376154E-02 a       764     0    31     1    14
 -5.4753455973033389E-02 a       765     0    31     1    15
  2.0962366530157767E-01 a       766     0    31     1    16
  4.3749632842291900E-02 a       767     0    31     1    17
 -1.0390902177221363E-01 a       768     0    31     1    18
  1.2542729275695389E-02 a       769     0    31     1    19
  3.1989890365625752E-02 a       770     0    31     1    20
 -4.3307350934716084E-02 a       771     0    31     1    21
  3.4016080189430670E-02 a       772     0    31     1    22
  6.1519771462571947E-02 a       773     0    31     1    23
  1.4204249144273975E-01 a       774     0    31     1    24
  4.2293272707800325E-02 a       775     0    31     1    25
  1.6759863731311353E-01 a       776     0    32     1     1
  1.1868990192708670E-02 a       777     0    32     1     2
  8.0105149830373160E-02 a       778     0    32     1     3
  2.6966196164047451E-01 a       779     0    32     1     4
 -5.5484774148728370E-02 a       780     0    32     1     5
 -9.0522484965557468E-02 a       781     0    32     1     6
  1.2917078031964183E-01 a       782     0    32     1     7
 -1.3699136256533810E-03 a       783     0    32     1     8
 -4.7595876457158029E-03 a       784     0    32     1     9
 -1.0946920715706736E-02 a       785     0    32     1    10
 -4.1673563463731945E-02 a       786     0    32     1    11
 -5.0975959370514856E-02 a       787     0    32     1    12
  1.4989286452210867E-02 a       788     0    32     1    13
  4.1221761161966977E-02 a       789     0    32     1    14
  1.6751252691643792E-02 a       790     0    32     1    15
 -5.3827668177314256E-02 a       791     0    32     1    16
 -6.8770411927957853E-02 a       792     0    32     1    17
  2.0438263622985470E-01 a       793     0    32     1    18
  3.0053476755718629E-02 a       794     0    32     1    19
 -1.5363042025664694E-01 a       795     0    32     1    20
  7.0787444608258601E-02 a       796     0    32     1    21
  4.4760709883698749E-02 a       797     0    32     1    22
 -4.5958881578761726E-02 a       798     0    32     1    23
  2.6500930395749439E-02 a       799     0    32     1    24
 -6.9389471855304780E-02 a       800     0    32     1    25
 -1.3239704653340126E-01 a       801     0    33     1     1
 -8.8434615097068181E-02 a       802     0    33     1     2
  2.8927415735702872E-02 a       803     0    33     1     3
  5.3978165019188978E-02 a       804     0    33     1     4
 -1.3592986705449944E-01 a       805     0    33     1     5
  6.2456272517881849E-02 a       806     0    33     1     6
  5.1243059275629874E-02 a       807     0    33     1     7
  4.2924796607183638E-02 a       808     0    33     1     8
  4.4291467537584284E-02 a       809     0    33     1     9
 -2.4824299652531721E-02 a       810     0    33     1    10
 -9.4174444091613435E-02 a       811     0    33     1    11
 -9.9884953039256034E-03 a       812     0    33     1    12
  4.9270916991738460E-02 a       813     0    33     1    13
 -1.2322421750535391E-01 a       814     0    33     1    14
 -7.4220982443671729E-02 a       815     0    33     1    15
 -4.8985464512056237E-02 a       816     0    33     1    16
  1.0280769690706291E-01 a       817     0    33     1    17
  3.7520341596225290E-02 a       818     0    33     1    18
 -7.5517905253085507E-02 a       819     0    33     1    19
 -5.8364628771084351E-02 a       820     0    33     1    20
 -4.2674808487047071E-02 a       821     0    33     1    21
 -9.9185052271667962E-02 a       822     0    33     1    22
  7.9477572256806892E-02 a       823     0    33     1    23
 -1.5630420835989452E-03 a       824     0    33     1    24
 -2.6203439582306084E-02 a       825     0    33     1    25
  2.6395846457221550E-01 a       826     0    34     1     1
  1.7274174267252529E-02 a       827     0    34     1     2
  8.4488683764942854E-04 a       828     0    34     1     3
  1.6340555540744134E-01 a       829     0    34     1     4
  8.1812035337043162E-02 a       830     0    34     1     5
  8.0789993013943115E-02 a       831     0    34     1     6
  1.9412457997556164E-02 a       832     0    34     1     7
 -9.3544368525533134E-02 a       833     0    34     1     8
 -4.4295846029396298E-02 a       834     0    34     1     9
 -9.8866118975252229E-02 a       835     0    34     1    10
 -1.1889646971002595E-01 a       836     0    34     1    11
  2.7576791435516449E-02 a       837     0    34     1    12
  1.2412543039577761E-01 a       838     0    34     1    13
  2.3443999225501496E-02 a       839     0    34     1    14
  8.0096327419035725E-03 a       840     0    34     1    15
  6.2389613553943762E-02 a       841     0    34     1    16
 -1.7422567157413766E-02 a       842     0    34     1    17
 -8.5008448806467740E-02 a       843     0    34     1    18
  1.3574221082757504E-01 a       844     0    34     1    19
 -1.0025326847125952E-01 a       845     0    34     1    20
  9.7583422701693012E-02 a       846     0    34     1    21
 -4.6500463002552131E-02 a       847     0    34     1    22
 -3.9188256365361281E-02 a       848     0    34     1    23
  3.8557575227557282E-02 a       849     0    34     1    24
  2.3637248555160566E-03 a       850     0    34     1    25
  1.4989975155508189E-01 a       851     0    35     1     1
 -3.1595305728007755E-02 a       852     0    35     1     2
 -4.3906666912843909E-02 a       853     0    35     1     3
  6.5446183930397611E-02 a       854     0    35     1     4
 -8.3219791471203314E-02 a       855     0    35     1     5
  1.4978634132440095E-02 a       856     0    35     1     6
  3.1812133972894140E-02 a       857     0    35     1     7
  2.8961470736991970E-02 a       858     0    35     1     8
  7.8587476513870741E-02 a       859     0    35     1     9
 -4.6400929750217805E-02 a       860     0    35     1    10
 -7.7567189548510699E-04 a       861     0    35     1    11
 -7.2252397051652054E-02 a       862     0    35     1    12
  5.9400988401312027E-02 a       863     0    35     1    13
 -3.5746050057590309E-02 a       864     0    35     1    14
 -1.2245710762877945E-01 a       865     0    35     1    15
 -9.5615212656477336E-02 a       866     0    35     1    16
 -1.0157999300151797E-01 a       867     0    35     1    17
  4.7551634559557916E-02 a       868     0    35     1    18
  2.4419532651227174E-02 a       869     0    35     1    19
 -1.0655532617191754E-01 a       870     0    35     1    20
  1.1970542910101083E-01 a       871     0    35     1    21
  1.2150119426116709E-01 a       872     0    35     1    22
  7.2850163332869103E-02 a       873     0    35     1    23
 -6.0391541336364027E-02 a       874     0    35     1    24
 -4.4596781164662473E-02 a       875     0    35     1    25
 -6.0978338867587176E-02 a       876     0    36     1     1
 -4.6383057235346664E-02 a       877     0    36     1     2
 -1.2982550546947652E-01 a       878     0    36     1     3
  4.7420676584899596E-02 a       879     0    36     1     4
 -4.4883322211676194E-02 a       880     0    36     1     5
 -4.2718438305767124E-02 a       881     0    36     1     6
  6.7485047717975088E-02 a       882     0    36     1     7
  8.0633521452347125E-03 a       883     0    36     1     8
  1.2897456720039334E-02 a       884     0    36     1     9
 -2.6585544692948482E-01 a       885     0    36     1    10
  1.4277588262715345E-02 a       886     0    36     1    11
 -1.3531147729643772E-01 a       887     0    36     1    12
  3.2054314080195934E-02 a       888     0    36     1    13
 -9.9850065733276452E-03 a       889     0    36     1    14
 -3.3769409860651967E-02 a       890     0    36     1    15
  3.4288707725695866E-02 a       891     0    36     1    16
  1.5826172923382262E-02 a       892     0    36     1    17
  3.4844517843137926E-02 a       893     0    36     1    18
  8.8228164794037556E-02 a       894     0    36     1    19
  7.8207890308583123E-03 a       895     0    36     1    20
 -7.6113542661850553E-02 a       896     0    36     1    21
  5.3149349279128844E-02 a       897     0    36     1    22
  4.2686496940451943E-02 a       898     0    36     1    23
 -1.3496506021236451E-01 a       899     0    36     1    24
  9.3040884560217516E-02 a       900     0    36     1    25
 -6.1422569193852958E-02 a       901     0    37     1     1
  8.5725052988157129E-03 a       902     0    37     1     2
  1.8107584894386467E-02 a       903     0    37     1     3
  1.4422080037161422E-01 a       904     0    37     1     4
 -3.3861990317719699E-02 a       905     0    37     1     5
  6.0223445785988997E-02 a       906     0    37     1     6
  3.8406294052506806E-03 a       907     0    37     1     7
 -1.0306619443543158E-01 a       908     0    37     1     8
  3.2684619414131777E-03 a       909     0    37     1     9
 -5.2268552310294716E-02 a       910     0    37     1    10
  1.0217050844571690E-01 a       911     0    37     1    11
  2.1357621323008655E-02 a       912     0    37     1    12
 -9.8441343241350066E-02 a       913     0    37     1    13
  4.1903533518230986E-02 a       914     0    37     1    14
 -1.0718340982175395E-01 a       915     0    37     1    15
  2.7713585537237743E-02 a       916     0    37     1    16
  3.0498416162091074E-02 a       917     0    37     1    17
  1.2959181067482940E-02 a       918     0    37     1    18
  9.8942202551623532E-02 a       919     0    37     1    19
  7.2466407990917941E-02 a       920     0    37     1    20
  1.6436087030497447E-02 a       921     0    37     1    21
 -5.6474405934263325E-02 a       922     0    37     1    22
 -7.9544379614015254E-02 a       923     0    37     1    23
 -2.7157159045041436E-02 a       924     0    37     1    24
  4.3586577226623714E-02 a       925     0    37     1    25
  2.2551854355403292E-01 a       926     0    38     1     1
  8.6297530258951663E-02 a       927     0    38     1     2
 -1.0722330122369071E-01 a       928     0    38     1     3
  5.9969733877955261E-02 a       929     0    38     1     4
  9.9987164024557457E-02 a       930     0    38     1     5
  7.2325530721354336E-02 a       931     0    38     1     6
 -1.4013934586451424E-01 a       932     0    38     1     7
  8.9337791260258689E-02 a       933     0    38     1     8
  3.5428104542672076E-02 a       934     0    38     1     9
 -3.1320325671601285E-02 a       935     0    38     1    10
 -1.6816923440272136E-01 a       936     0    38     1    11
 -6.6942713835941359E-02 a       937     0    38     1    12
 -1.3148205416133596E-02 a       938     0    38     1    13
 -2.6486525728705090E-02 a       939     0    38     1    14
  7.1738553434080796E-02 a       940     0    38     1    15
  4.1820148753321809E-02 a       941     0    38     1    16
  9.1631845090576786E-02 a       942     0    38     1    17
 -4.0408521125589028E-02 a       943     0    38     1    18
 -3.9459635788064981E-02 a       944     0    38     1    19
  6.8184182734110296E-02 a       945     0    38     1    20
  6.5712631572774044E-02 a       946     0    38     1    21
  2.6436886790022218E-02 a       947     0    38     1    22
 -1.6041985560162404E-02 a       948     0    38     1    23
  4.1954212996185583E-02 a       949     0    38     1    24
  2.8231201113220650E-03 a       950     0    38     1    25
  3.8335732210424335E-02 a       951     0    39     1     1
  6.8665238810979773E-02 a       952     0    39     1     2
  2.8773125127326393E-03 a       953     0    39     1     3
  1.4312465432471752E-01 a       954     0    39     1     4
 -2.5273590566544716E-02 a       955     0    39     1     5
 -5.6440707017992198E-02 a       956     0    39     1     6
 -5.2877173266999637E-02 a       957     0    39     1     7
 -4.2546360484236843E-02 a       958     0    39     1     8
 -4.1001770536826389E-02 a       959     0    39     1     9
 -2.9352713402923444E-03 a       960     0    39     1    10
 -4.6398218000664501E-02 a       961     0    39     1    11
 -4.2071430020284559E-02 a       962     0    39     1    12
  1.9179288435375627E-02 a       963     0    39     1    13
 -9.1156153726977732E-02 a       964     0    39     1    14
  6.9057364455402309E-02 a       965     0    39     1    15
 -3.3020351798249074E-02 a       966     0    39     1    16
  5.8228492070350564E-03 a       967     0    39     1    17
  1.1054033857767213E-01 a       968     0    39     1    18
  5.6413817988611004E-02 a       969     0    39     1    19
  4.2091664133494106E-02 a       970     0    39     1    20
  1.0981686249799770E-01 a       971     0    39     1    21
  8.7006598776283472E-02 a       972     0    39     1    22
  7.3330972924928045E-03 a       973     0    39     1    23
  6.0300721696423816E-02 a       974     0    39     1    24
  2.0415847475558881E-02 a       975     0    39     1    25
 -1.0698873914187956E-01 a       976     0    40     1     1
 -1.8948380700004843E-02 a       977     0    40     1     2
 -3.5179194142352495E-02 a       978     0    40     1     3
  3.3025659802941143E-02 a       979     0    40     1     4
 -7.6983368155536976E-03 a       980     0    40     1     5
 -8.9137636860204747E-02 a       981     0    40     1     6
  8.4178681846474382E-02 a       982     0    40     1     7
  1.0326812986313350E-01 a       983     0    40     1     8
  3.4758212550802567E-02 a       984     0    40     1     9
 -2.1482883198435371E-01 a       985     0    40     1    10
  4.0468683527575128E-02 a       986     0    40     1    11
  5.8991708894234891E-02 a       987     0    40     1    12
  5.2887366369099104E-02 a       988     0    40     1    13
 -8.6035505297535023E-02 a       989     0    40     1    14
  4.5620254206277987E-02 a       990     0    40     1    15
  2.6816884519310694E-02 a       991     0    40     1    16
 -8.6155470177532115E-03 a       992     0    40     1    17
  1.3552033752380899E-01 a       993     0    40     1    18
  8.8741617423637689E-02 a       994     0    40     1    19
 -1.5315196271409003E-03 a       995     0    40     1    20
  1.3323884159093096E-02 a       996     0    40     1    21
  1.9968133987028239E-02 a       997     0    40     1    22
  4.9631596839459349E-02 a       998     0    40     1    23
  1.0071492382594593E-02 a       999     0    40     1    24
 -1.1103859000058280E-02 a      1000     0    40     1    25
  9.9831082354284451E-03 a      1001     0    41     1     1
  7.4578391868153779E-02 a      1002     0    41     1     2
 -4.0929537978903807E-02 a      1003     0    41     1     3
 -1.0040603252685229E-01 a      1004     0    41     1     4
  4.9672729951479637E-02 a      1005     0    41     1     5
  8.2324269741150188E-02 a      1006     0    41     1     6
  4.0396295021245102E-02 a      1007     0    41     1     7
  8.5125821269221968E-02 a      1008     0    41     1     8
  4.8595833613982960E-02 a      1009     0    41     1     9
  6.1387552422850628E-02 a      1010     0    41     1    10
  8.8478282608106029E-02 a      1011     0    41     1    11
  7.6614643262092547E-03 a      1012     0    41     1    12
 -4.9475245674403520E-02 a      1013     0    41     1    13
  2.2460268995776741E-02 a      1014     0    41     1    14
 -6.2842972777064993E-02 a      1015     0    41     1    15
 -6.5050565197624644E-04 a      1016     0    41     1    16
  1.0890123035606625E-01 a      1017     0    41     1    17
 -1.0227033158655102E-01 a      1018     0    41     1    18
 -5.6585117777898340E-02 a      1019     0    41     1    19
 -9.2450420140009273E-03 a      1020     0    41     1    20
 -7.9564867861493006E-03 a      1021     0    41     1    21
 -4.7148899916689996E-02 a      1022     0    41     1    22
 -3.3341212220927785E-02 a      1023     0    41     1    23
 -8.3931942788439046E-02 a      1024     0    41     1    24
  1.8824606636691943E-02 a      1025     0    41     1    25
  2.3313646204510521E-01 a      1026     0    42     1     1
 -1.7861390889304222E-02 a      1027     0    42     1     2
  4.8562046084593552E-02 a      1028     0    42     1     3
  1.1172753734003760E-01 a      1029     0    42     1     4
 -5.7202691419397905E-02 a      1030     0    42     1     5
  2.0903658585173877E-02 a      1031     0    42     1     6
  1.7700877881470511E-01 a      1032     0    42     1     7
 -2.0172499797138253E-03 a      1033     0    42     1     8
 -5.4623714812555846E-02 a      1034     0    42     1     9
 -3.1067440228584736E-01 a      1035     0    42     1    10
  6.9084796712145333E-02 a      1036     0    42     1    11
  5.0368084562795647E-03 a      1037     0    42     1    12
 -1.7131724872909482E-02 a      1038     0    42     1    13
 -9.8748649453868395E-02 a      1039     0    42     1    14
 -3.5538537101703419E-02 a      1040     0    42     1    15
  3.2550594558012250E-02 a      1041     0    42     1    16
 -8.4872517218966659E-02 a      1042     0    42     1    17
  7.0062292891148667E-02 a      1043     0    42     1    18
  3.6008467398774030E-02 a      1044     0    42     1    19
 -9.6355223010500049E-02 a      1045     0    42     1    20
  7.6426516307855269E-02 a      1046     0    42     1    21
  1.2542116506460024E-01 a      1047     0    42     1    22
  5.4507802108115531E-02 a      1048     0    42     1    23
 -1.6431735820369383E-02 a      1049     0    42     1    24
  5.4341999012068869E-02 a      1050     0    42     1    25
  6.1778500350999778E-02 a      1051     0    43     1     1
  9.0007827983719285E-02 a      1052     0    43     1     2
  8.4086737169887044E-02 a      1053     0    43     1     3
 -2.8758695644400083E-02 a      1054     0    43     1     4
  4.6541340421879254E-02 a      1055     0    43     1     5
  7.9773993334464430E-02 a      1056     0    43     1     6
  6.6172966743320502E-03 a      1057     0    43     1     7
  1.0975999070948272E-02 a      1058     0    43     1     8
  9.0030669601061531E-03 a      1059     0    43     1     9
 -3.8326374354845989E-02 a      1060     0    43     1    10
 -4.4039835811485913E-02 a      1061     0    43     1    11
 -3.8073538100084674E-02 a      1062     0    43     1    12
  5.4954087650529490E-02 a      1063     0    43     1    13
 -6.8489630133029833E-02 a      1064     0    43     1    14
 -7.5370291308864395E-04 a      1065     0    43     1    15
  3.6092109278651689E-02 a      1066     0    43     1    16
 -3.8618552071901881E-02 a      1067     0    43     1    17
 -7.4011261034518563E-02 a      1068     0    43     1    18
  6.1579425776832612E-02 a      1069     0    43     1    19
  7.0097273899537030E-02 a      1070     0    43     1    20
  6.4137097798192488E-02 a      1071     0    43     1    21
  4.9260232535303351E-02 a      1072     0    43     1    22
 -3.9674867692525373E-02 a      1073     0    43     1    23
  1.1810541464123804E-01 a      1074     0    43     1    24
 -7.7975280235118932E-02 a      1075     0    43     1    25
  1.0219570033755550E-01 a      1076     0    44     1     1
  7.7559697697561214E-02 a      1077     0    44     1     2
  6.2065433184551377E-02 a      1078     0    44     1     3
  9.3758482582607036E-02 a      1079     0    44     1     4
 -4.8520580828740605E-02 a      1080     0    44     1     5
 -1.9574643968224989E-02 a      1081     0    44     1     6
  2.6738559873838694E-02 a      1082     0    44     1     7
  3.2646341401754042E-02 a      1083     0    44     1     8
 -4.1743108551015908E-02 a      1084     0    44     1     9
 -2.1929535598313152E-01 a      1085     0    44     1    10
 -3.3196091007430165E-02 a      1086     0    44     1    11
 -1.5495197181766904E-01 a      1087     0    44     1    12
  5.1561431551653276E-02 a      1088     0    44     1    13
  1.5781703616901843E-02 a      1089     0    44     1    14
 -4.8937864201919361E-02 a      1090     0    44     1    15
  8.3747697639580086E-03 a      1091     0    44     1    16
  1.8123730735740542E-02 a      1092     0    44     1    17
  3.0478898596973090E-02 a      1093     0    44     1    18
  3.1382799040811711E-02 a      1094     0    44     1    19
 -1.4309409991705624E-01 a      1095     0    44     1    20
 -1.4508600887411138E-01 a      1096     0    44     1    21
 -9.1099748469327460E-02 a      1097     0    44     1    22
  7.9568658057497160E-02 a      1098     0    44     1    23
  6.1518871882130982E-02 a      1099     0    44     1    24
  1.8308077956624154E-02 a      1100     0    44     1    25
  6.0462869141454087E-02 a      1101     0    45     1     1
  2.9018979617540696E-02 a      1102     0    45     1     2
  1.0821070119504499E-01 a      1103     0    45     1     3
  9.2225526516123979E-02 a      1104     0    45     1     4
  8.4075937461266029E-02 a      1105     0    45     1     5
 -4.3797427068730549E-02 a      1106     0    45     1     6
  2.3820616325210521E-02 a      1107     0    45     1     7
  6.3145474628244241E-02 a      1108     0    45     1     8
  5.0164133618538380E-02 a      1109     0    45     1     9
 -8.7978099242897193E-02 a      1110     0    45     1    10
 -7.3642013716173849E-02 a      1111     0    45     1    11
 -8.9979737143854460E-02 a      1112     0    45     1    12
  3.8108620229524784E-02 a      1113     0    45     1    13
 -1.2039108941946649E-02 a      1114     0    45     1    14
 -1.6810096192986238E-02 a      1115     0    45     1    15
 -1.6199862340629412E-02 a      1116     0    45     1    16
 -7.1595044379568859E-02 a      1117     0    45     1    17
 -1.0875019600342931E-01 a      1118     0    45     1    18
 -1.0117939229577130E-01 a      1119     0    45     1    19
 -7.9204179301326144E-02 a      1120     0    45     1    20
 -1.5403863207166649E-02 a      1121     0    45     1    21
 -2.1663266688527451E-02 a      1122     0    45     1    22
 -2.8990635502098228E-02 a      1123     0    45     1    23
  6.7173196493565835E-03 a      1124     0    45     1    24
 -9.2210661182936887E-02 a      1125     0    45     1    25
  1.5822411206893125E-01 a      1126     0    46     1     1
  4.3320470490428233E-02 a      1127     0    46     1     2
  1.4778715638518415E-02 a      1128     0    46     1     3
  3.5141256235912487E-02 a      1129     0    46     1     4
  3.3387419356428083E-02 a      1130     0    46     1     5
  5.9364995312312152E-02 a      1131     0    46     1     6
  8.1037345549863596E-02 a      1132     0    46     1     7
 -5.6422423560705412E-02 a      1133     0    46     1     8
 -5.3854906077614985E-02 a      1134     0    46     1     9
 -1.9573250954874627E-01 a      1135     0    46     1    10
  1.8393009239827011E-02 a      1136     0    46     1    11
 -1.1525683723701409E-01 a      1137     0    46     1    12
  6.7632613658506466E-02 a      1138     0    46     1    13
  7.7606812275149650E-02 a      1139     0    46     1    14
 -1.8485667519299649E-02 a      1140     0    46     1    15
  4.1620232489898858E-02 a      1141     0    46     1    16
  3.8638800319721070E-02 a      1142     0    46     1    17
 -1.3343324325804479E-01 a      1143     0    46     1    18
  6.6512678258791966E-02 a      1144     0    46     1    19
 -1.8742763351358931E-02 a      1145     0    46     1    20
 -4.3400368126702560E-02 a      1146     0    46     1    21
 -4.5790038852857977E-02 a      1147     0    46     1    22
  2.7382948575141425E-02 a      1148     0    46     1    23
 -2.3707895868033811E-02 a      1149     0    46     1    24
 -1.8124030616043556E-02 a      1150     0    46     1    25
  1.5236839756688764E-01 a      1151     0    47     1     1
 -4.5288224236894464E-02 a      1152     0    47     1     2
  4.8935465446558815E-02 a      1153     0    47     1     3
 -6.5117420143221333E-02 a      1154     0    47     1     4
 -2.3313956592114955E-02 a      1155     0    47     1     5
  1.8289461555532811E-02 a      1156     0    47     1     6
  5.5784886399565573E-04 a      1157     0    47     1     7
 -7.5512177591148810E-02 a      1158     0    47     1     8
  4.8102565415637172E-03 a      1159     0    47     1     9
 -1.3037403703443654E-01 a      1160     0    47     1    10
 -1.0518878047421899E-01 a      1161     0    47     1    11
  1.8558083126649236E-02 a      1162     0    47     1    12
 -8.9643172330116705E-02 a      1163     0    47     1    13
  3.9922879893471645E-02 a      1164     0    47     1    14
  3.5922812031186371E-02 a      1165     0    47     1    15
  1.7166607527174071E-01 a      1166     0    47     1    16
  1.3346926388716729E-01 a      1167     0    47     1    17
 -4.9079131563687213E-02 a      1168     0    47     1    18
  4.4072943339996132E-02 a      1169     0    47     1    19
  1.2016989252524919E-01 a      1170     0    47     1    20
 -5.4889235764432297E-02 a      1171     0    47     1    21
  1.1473673939770798E-01 a      1172     0    47     1    22
 -3.6711164391795677E-02 a      1173     0    47     1    23
  2.0085567372611116E-01 a      1174     0    47     1    24
 -9.4483711975326956E-02 a      1175     0    47     1    25
 -1.1406973761344753E-01 a      1176     0    48     1     1
  1.5201120923829579E-02 a      1177     0    48     1     2
  1.0944934746774015E-01 a      1178     0    48     1     3
 -6.7090064020192366E-02 a      1179     0    48     1     4
 -5.9673654571814505E-02 a      1180     0    48     1     5
  2.2151793778799559E-02 a      1181     0    48     1     6
  5.8854219538819015E-03 a      1182     0    48     1     7
  4.3469022565442716E-02 a      1183     0    48     1     8
  6.5899441551671822E-02 a      1184     0    48     1     9
  7.1211687717928449E-02 a      1185     0    48     1    10
 -6.0912367350649158E-02 a      1186     0    48     1    11
  1.0517391161197907E-01 a      1187     0    48     1    12
 -4.6697032611084023E-02 a      1188     0    48     1    13
  9.3739631218499139E-02 a      1189     0    48     1    14
  6.1812880530716291E-02 a      1190     0    48     1    15
  1.1928581182330190E-02 a      1191     0    48     1    16
  1.1515913116640526E-02 a      1192     0    48     1    17
 -1.1893002217964761E-01 a      1193     0    48     1    18
  4.0762403561221593E-02 a      1194     0    48     1    19
  4.2895629575623047E-02 a      1195     0    48     1    20
  5.9020757326581137E-02 a      1196     0    48     1    21
  1.4415946595612088E-02 a      1197     0    48     1    22
  4.8822918648341283E-02 a      1198     0    48     1    23
 -5.0605620989721767E-02 a      1199     0    48     1    24
 -1.5640301811953399E-02 a      1200     0    48     1    25
  3.5508810476096768E-02 a      1201     0    49     1     1
 -2.4232526035340977E-02 a      1202     0    49     1     2
 -3.1625044200448191E-02 a      1203     0    49     1     3
 -2.4302344397497677E-02 a      1204     0    49     1     4
 -6.2282797066390255E-02 a      1205     0    49     1     5
 -5.9091047203424986E-02 a      1206     0    49     1     6
 -3.4801761132601056E-02 a      1207     0    49     1     7
  6.0642047537140441E-02 a      1208     0    49     1     8
 -2.7275733104909841E-03 a      1209     0    49     1     9
 -1.5364662728370101E-01 a      1210     0    49     1    10
 -4.4219921338742918E-02 a      1211     0    49     1    11
 -4.3234621756427956E-02 a      1212     0    49     1    12
  1.8753820591718560E-02 a      1213     0    49     1    13
 -3.9332637081533946E-03 a      1214     0    49     1    14
  5.1216293711913267E-02 a      1215     0    49     1    15
  8.1184448602291293E-02 a      1216     0    49     1    16
 -8.4205405028673283E-02 a      1217     0    49     1    17
 -3.3800567259724523E-02 a      1218     0    49     1    18
  5.4193897614202000E-02 a      1219     0    49     1    19
  1.6636697823882021E-02 a      1220     0    49     1    20
  1.2073157357104911E-02 a      1221     0    49     1    21
  6.9822076594947075E-02 a      1222     0    49     1    22
  1.2445019215463425E-02 a      1223     0    49     1    23
 -5.8909487474697814E-03 a      1224     0    49     1    24
  8.2402011204946224E-02 a      1225     0    49     1    25
  9.7632115420225110E-03 a      1226     0    50     1     1
  1.0336740786685014E-01 a      1227     0    50     1     2
 -6.3050871824280971E-02 a      1228     0    50     1     3
  6.5998072293014590E-02 a      1229     0    50     1     4
  1.1585102558866812E-01 a      1230     0    50     1     5
 -1.0368216974883639E-01 a      1231     0    50     1     6
  1.5367677546362751E-01 a      1232     0    50     1     7
 -9.6320731362795245E-02 a      1233     0    50     1     8
  8.4584008288496965E-02 a      1234     0    50     1     9
 -1.4379470006888917E-01 a      1235     0    50     1    10
 -2.8993632213216623E-02 a      1236     0    50     1    11
 -6.5341956550372698E-02 a      1237     0    50     1    12
 -1.7361907626290456E-02 a      1238     0    50     1    13
  7.3343045864389583E-02 a      1239     0    50     1    14
  5.9257899946072487E-02 a      1240     0    50     1    15
  1.2057651350667983E-01 a      1241     0    50     1    16
  1.0107947510701105E-01 a      1242     0    50     1    17
  1.6966048889979254E-02 a      1243     0    50     1    18
  1.1834757829057840E-01 a      1244     0    50     1    19
 -2.4673688712106706E-02 a      1245     0    50     1    20
 -2.3738795667771827E-02 a      1246     0    50     1    21
  4.5736047305860131E-02 a      1247     0    50     1    22
  8.9837352868840665E-03 a      1248     0    50     1    23
 -7.2036604629233433E-02 a      1249     0    50     1    24
  8.1858298177573507E-02 a      1250     0    50     1    25
  1.4621423602769383E-02 a      1251     0    51     1     1
  4.5301097739793211E-02 a      1252     0    51     1     2
 -4.2851480254991192E-02 a      1253     0    51     1     3
  2.5239179354327037E-02 a      1254     0    51     1     4
  9.2610077218903478E-02 a      1255     0    51     1     5
 -7.7088540424459701E-02 a      1256     0    51     1     6
 -2.2803000277822442E-02 a      1257     0    51     1     7
  8.9881426048162391E-02 a      1258     0    51     1     8
 -1.6350397745486831E-02 a      1259     0    51     1     9
  1.8148019309441418E-02 a      1260     0    51     1    10
  1.0657966252455445E-01 a      1261     0    51     1    11
  1.1330458938990953E-01 a      1262     0    51     1    12
 -8.1777019285382002E-02 a      1263     0    51     1    13
 -8.2234224371588879E-02 a      1264     0    51     1    14
  4.0881158494993568E-02 a      1265     0    51     1    15
 -5.8737244915980889E-02 a      1266     0    51     1    16
  6.8121124573149963E-02 a      1267     0    51     1    17
 -6.0614698296730808E-02 a      1268     0    51     1    18
 -9.2831329262569165E-02 a      1269     0    51     1    19
  9.7673686955884256E-02 a      1270     0    51     1    20
 -6.8324774659422036E-02 a      1271     0    51     1    21
 -3.8985941469245354E-02 a      1272     0    51     1    22
 -7.2723502640186760E-02 a      1273     0    51     1    23
  1.0351760377925377E-01 a      1274     0    51     1    24
  8.3478802263649760E-02 a      1275     0    51     1    25
 -5.1238636700791547E-02 a      1276     0    52     1     1
  8.3850478800051947E-02 a      1277     0    52     1     2
  1.0424713633306272E-01 a      1278     0    52     1     3
 -4.1455584066365771E-02 a      1279     0    52     1     4
  1.1652325182613789E-01 a      1280     0    52     1     5
 -4.8947401313220812E-02 a      1281     0    52     1     6
  4.5133208349275492E-02 a      1282     0    52     1     7
 -2.2453988286957115E-02 a      1283     0    52     1     8
  7.6312788217281644E-02 a      1284     0    52     1     9
 -9.8858920588992066E-02 a      1285     0    52     1    10
  7.7392289625471686E-03 a      1286     0    52     1    11
 -6.0496031802830617E-03 a      1287     0    52     1    12
 -1.0283298125749347E-01 a      1288     0    52     1    13
  8.9290260361915078E-02 a      1289     0    52     1    14
  2.1593722249762899E-03 a      1290     0    52     1    15
  7.2847539315626444E-02 a      1291     0    52     1    16
 -1.1150325022615717E-02 a      1292     0    52     1    17
  7.1525008825495839E-02 a      1293     0    52     1    18
 -1.9630996679848682E-02 a      1294     0    52     1    19
 -6.0492102709789206E-02 a      1295     0    52     1    20
 -1.1378899899834953E-01 a      1296     0    52     1    21
  4.4766979457767350E-02 a      1297     0    52     1    22
 -3.4473423599206805E-02 a      1298     0    52     1    23
  1.2709374507602716E-01 a      1299     0    52     1    24
 -8.2083469725043476E-02 a      1300     0    52     1    25
 -2.0800126543875073E-03 a      1301     0    53     1     1
 -8.9128630251704526E-03 a      1302     0    53     1     2
 -5.3721290814862772E-02 a      1303     0    53     1     3
 -9.7230296312288328E-02 a      1304     0    53     1     4
 -7.7365907598559575E-02 a      1305     0    53     1     5
  1.0350949322903191E-01 a      1306     0    53     1     6
  3.7340463871332177E-02 a      1307     0    53     1     7
  2.0248071219226688E-02 a      1308     0    53     1     8
  1.0835853528649751E-01 a      1309     0    53     1     9
 -3.2427393228277701E-02 a      1310     0    53     1    10
 -6.8066471013185650E-02 a      1311     0    53     1    11
 -1.1912288276240508E-01 a      1312     0    53     1    12
  2.4360672275117370E-02 a      1313     0    53     1    13
 -1.9927174920888316E-02 a      1314     0    53     1    14
  7.2860324873052010E-02 a      1315     0    53     1    15
 -3.7836866252839225E-02 a      1316     0    53     1    16
 -7.9942344361843831E-03 a      1317     0    53     1    17
 -2.0797178251684312E-02 a      1318     0    53     1    18
 -1.0076666983255059E-01 a      1319     0    53     1    19
  1.0814228779167703E-01 a      1320     0    53     1    20
  5.9863464135565890E-02 a      1321     0    53     1    21
  4.7763230270490148E-03 a      1322     0    53     1    22
 -1.8167208487647989E-03 a      1323     0    53     1    23
 -6.9920360889274127E-02 a      1324     0    53     1    24
 -1.8517195359614633E-02 a      1325     0    53     1    25
 -1.5063968587380566E-01 a      1326     0    54     1     1
 -1.2008980644835583E-01 a      1327     0    54     1     2
  1.9595742144609709E-02 a      1328     0    54     1     3
 -1.2190914414680754E-01 a      1329     0    54     1     4
 -2.6730641697757747E-02 a      1330     0    54     1     5
  5.4647727666796583E-02 a      1331     0    54     1     6
  1.1732866727123636E-01 a      1332     0    54     1     7
 -2.2022865992233014E-02 a      1333     0    54     1     8
 -8.5062492764633651E-02 a      1334     0    54     1     9
  5.8986407090869594E-03 a      1335     0    54     1    10
  1.0722254444183575E-01 a      1336     0    54     1    11
  4.0379287120278565E-03 a      1337     0    54     1    12
  1.7421331228886811E-02 a      1338     0    54     1    13
  4.2285708655117202E-02 a      1339     0    54     1    14
 -2.1178461582018835E-02 a      1340     0    54     1    15
 -1.7171842727035428E-02 a      1341     0    54     1    16
  3.8333815409063450E-02 a      1342     0    54     1    17
 -9.6684588963980560E-03 a      1343     0    54     1    18
  6.8400630823977085E-02 a      1344     0    54     1    19
  8.6035427319463287E-03 a      1345     0    54     1    20
  1.2715670498922440E-02 a      1346     0    54     1    21
 -1.3000451281582196E-02 a      1347     0    54     1    22
  8.8169021554555665E-02 a      1348     0    54     1    23
  6.4854338391383035E-02 a      1349     0    54     1    24
  1.2111276364714084E-01 a      1350     0    54     1    25
 -4.4704097392151441E-02 a      1351     0    55     1     1
  3.7913366731367651E-02 a      1352     0    55     1     2
  5.7923828652212878E-02 a      1353     0    55     1     3
 -6.5512289543900093E-02 a      1354     0    55     1     4
  5.2917731249197193E-02 a      1355     0    55     1     5
 -1.7817397492890956E-02 a      1356     0    55     1     6
  2.5744331823994954E-02 a      1357     0    55     1     7
 -1.3790437708776707E-01 a      1358     0    55     1     8
  1.0174866480795101E-02 a      1359     0    55     1     9
 -1.9412113623141530E-01 a      1360     0    55     1    10
  1.4357371687485287E-01 a      1361     0    55     1    11
  2.7580744368840570E-02 a      1362     0    55     1    12
  3.3376440546816856E-02 a      1363     0    55     1    13
 -9.0106533153823692E-02 a      1364     0    55     1    14
 -8.0347638741680397E-02 a      1365     0    55     1    15
  9.9552962345488605E-02 a      1366     0    55     1    16
  1.1133926110264263E-01 a      1367     0    55     1    17
 -6.0095975707756613E-02 a      1368     0    55     1    18
 -2.1875847029239055E-03 a      1369     0    55     1    19
  2.9830033092533348E-02 a      1370     0    55     1    20
 -4.8218184938465317E-02 a      1371     0    55     1    21
  8.5850848375142147E-02 a      1372     0    55     1    22
  1.4793990927227814E-02 a      1373     0    55     1    23
 -9.7077219987515201E-02 a      1374     0    55     1    24
  8.4756183661279863E-02 a      1375     0    55     1    25
 -7.9623215220911869E-02 a      1376     0    56     1     1
  1.1589168701499673E-01 a      1377     0    56     1     2
  1.1218896951924799E-01 a      1378     0    56     1     3
 -2.6370740785855683E-02 a      1379     0    56     1     4
  5.7150740800857545E-02 a      1380     0    56     1     5
 -6.8010364947530433E-02 a      1381     0    56     1     6
 -4.2897092249140081E-02 a      1382     0    56     1     7
 -1.6230855838805960E-01 a      1383     0    56     1     8
 -9.8677337490734207E-02 a      1384     0    56     1     9
 -1.4793175828726718E-01 a      1385     0    56     1    10
 -6.7531112307489649E-02 a      1386     0    56     1    11
 -6.7459375300008312E-02 a      1387     0    56     1    12
 -3.3644029011387008E-02 a      1388     0    56     1    13
  5.1072572948529682E-02 a      1389     0    56     1    14
 -8.0810390569072826E-02 a      1390     0    56     1    15
  1.3912941762675557E-01 a      1391     0    56     1    16
  2.9647835314897536E-02 a      1392     0    56     1    17
 -6.4616057132471053E-02 a      1393     0    56     1    18
 -5.5804234113033029E-02 a      1394     0    56     1    19
  7.0863950026461120E-02 a      1395     0    56     1    20
  1.2597207353658444E-02 a      1396     0    56     1    21
  4.2703694818371121E-02 a      1397     0    56     1    22
 -1.3276374213463521E-01 a      1398     0    56     1    23
  1.7744565600174800E-01 a      1399     0    56     1    24
 -4.0587091365200896E-02 a      1400     0    56     1    25
  5.0353854938545183E-02 a      1401     0    57     1     1
  1.0357276998531825E-01 a      1402     0    57     1     2
  6.0457543904217009E-02 a      1403     0    57     1     3
  6.0112732527254110E-02 a      1404     0    57     1     4
 -1.1395137363793890E-02 a      1405     0    57     1     5
 -5.0106564194276948E-02 a      1406     0    57     1     6
  2.2199455908284073E-02 a      1407     0    57     1     7
 -1.1195776782372301E-01 a      1408     0    57     1     8
 -6.7652350304056905E-02 a      1409     0    57     1     9
 -6.5791943704525471E-02 a      1410     0    57     1    10
  1.0151512829157115E-01 a      1411     0    57     1    11
  5.1737599705817539E-02 a      1412     0    57     1    12
 -1.6866542303190960E-02 a      1413     0    57     1    13
 -4.3325989639371752E-02 a      1414     0    57     1    14
 -5.1561601041264990E-02 a      1415     0    57     1    15
  9.0083098786607349E-02 a      1416     0    57     1    16
  6.8372628120425050E-02 a      1417     0    57     1    17
  2.9637187440299767E-03 a      1418     0    57     1    18
 -6.4216362967207410E-02 a      1419     0    57     1    19
 -2.3459556948539809E-02 a      1420     0    57     1    20
 -2.7110828785082440E-02 a      1421     0    57     1    21
 -3.1822372065371439E-02 a      1422     0    57     1    22
 -2.6517232903466526E-02 a      1423     0    57     1    23
 -5.4095420746934622E-03 a      1424     0    57     1    24
 -1.0128172359434615E-01 a      1425     0    57     1    25
 -1.1104998105496097E-01 a      1426     0    58     1     1
  1.0137447924845332E-01 a      1427     0    58     1     2
 -3.9350400448181014E-02 a      1428     0    58     1     3
  1.7779393611531944E-02 a      1429     0    58     1     4
  5.5985075663041679E-02 a      1430     0    58     1     5
  4.7657424857498812E-02 a      1431     0    58     1     6
 -6.3214986071340989E-02 a      1432     0    58     1     7
 -6.8114120246152515E-02 a      1433     0    58     1     8
  7.3774241511529295E-02 a      1434     0    58     1     9
 -4.5221916427410129E-02 a      1435     0    58     1    10
  3.6348014216456490E-02 a      1436     0    58     1    11
 -7.9748536991299065E-02 a      1437     0    58     1    12
  9.4824959216784771E-02 a      1438     0    58     1    13
  7.3723698222266917E-02 a      1439     0    58     1    14
 -8.8869797344930515E-02 a      1440     0    58     1    15
 -1.3462968930024711E-03 a      1441     0    58     1    16
 -1.6387447913933560E-02 a      1442     0    58     1    17
 -1.3405232930092305E-02 a      1443     0    58     1    18
  4.2741425278726909E-02 a      1444     0    58     1    19
  2.4694964463849264E-02 a      1445     0    58     1    20
 -7.1601036101552662E-02 a      1446     0    58     1    21
  1.8919160579003207E-02 a      1447     0    58     1    22
  8.7717191801984923E-02 a      1448     0    58     1    23
 -1.0141191322904698E-03 a      1449     0    58     1    24
 -1.2936876289118073E-02 a      1450     0    58     1    25
 -1.0539464524627934E-01 a      1451     0    59     1     1
  3.0468477500494185E-03 a      1452     0    59     1     2
  7.6512960838733789E-03 a      1453     0    59     1     3
 -8.4695525437239617E-03 a      1454     0    59     1     4
 -1.3803357565563598E-01 a      1455     0    59     1     5
 -1.0840658654540225E-01 a      1456     0    59     1     6
  6.4771809748522688E-02 a      1457     0    59     1     7
 -4.2822568955137905E-02 a      1458     0    59     1     8
 -6.6844331940169352E-02 a      1459     0    59     1     9
 -3.3671803904245519E-02 a      1460     0    59     1    10
  3.2495333222744019E-02 a      1461     0    59     1    11
 -1.8981060098642591E-01 a      1462     0    59     1    12
  1.1333410061652249E-01 a      1463     0    59     1    13
 -9.1721676715849534E-02 a      1464     0    59     1    14
 -8.8289686172078434E-03 a      1465     0    59     1    15
 -5.2384398263884115E-02 a      1466     0    59     1    16
 -1.0955019774171228E-01 a      1467     0    59     1    17
 -3.7355149542190220E-03 a      1468     0    59     1    18
 -2.5081032825872242E-02 a      1469     0    59     1    19
 -3.6376339386437584E-02 a      1470     0    59     1    20
  5.7718118612872071E-02 a      1471     0    59     1    21
 -9.6565167320318501E-02 a      1472     0    59     1    22
  1.9995304390531329E-01 a      1473     0    59     1    23
 -8.4158756160032266E-02 a      1474     0    59     1    24
 -1.5509608292383677E-02 a      1475     0    59     1    25
 -2.1054991802936213E-01 a      1476     0    60     1     1
 -2.2056362617021676E-02 a      1477     0    60     1     2
 -5.5904666195330771E-02 a      1478     0    60     1     3
 -1.8620676714925258E-01 a      1479     0    60     1     4
  4.1456186196498282E-02 a      1480     0    60     1     5
 -6.6976309167651127E-02 a      1481     0    60     1     6
  8.7739860821103563E-02 a      1482     0    60     1     7
 -3.9575137927034029E-02 a      1483     0    60     1     8
  1.1442242363473136E-01 a      1484     0    60     1     9
 -7.9898096955533432E-02 a      1485     0    60     1    10
  9.8995816621457039E-02 a      1486     0    60     1    11
 -1.7072187172582162E-01 a      1487     0    60     1    12
  1.1730561762462847E-01 a      1488     0    60     1    13
  6.8156281837600030E-02 a      1489     0    60     1    14
 -9.9097377017377558E-02 a      1490     0    60     1    15
  7.4959074109932869E-02 a      1491     0    60     1    16
 -8.5063476830495532E-02 a      1492     0    60     1    17
 -3.5240606091791457E-02 a      1493     0    60     1    18
 -3.8612894596461403E-02 a      1494     0    60     1    19
 -5.8372066902976708E-03 a      1495     0    60     1    20
 -8.6677829296872219E-02 a      1496     0    60     1    21
 -7.5658187866449733E-02 a      1497     0    60     1    22
  1.4732019687783804E-01 a      1498     0    60     1    23
  5.8068892409436357E-02 a      1499     0    60     1    24
  1.8139600139167511E-01 a      1500     0    60     1    25
  9.7251659102725568E-02 a      1501     0    61     1     1
 -6.5553755187491750E-02 a      1502     0    61     1     2
 -6.3952842801686421E-02 a      1503     0    61     1     3
  2.7896490795316857E-02 a      1504     0    61     1     4
 -5.5639538224798418E-02 a      1505     0    61     1     5
  7.1374418425804373E-02 a      1506     0    61     1     6
  8.5080426543537951E-02 a      1507     0    61     1     7
  7.9563084497846562E-02 a      1508     0    61     1     8
  2.8950314989289124E-02 a      1509     0    61     1     9
  5.1300672669909739E-03 a      1510     0    61     1    10
 -4.1247910372858243E-02 a      1511     0    61     1    11
 -1.0020185273489055E-01 a      1512     0    61     1    12
 -7.5084089743157348E-02 a      1513     0    61     1    13
  3.4038464680581373E-02 a      1514     0    61     1    14
 -7.3635492846603492E-02 a      1515     0    61     1    15
 -6.7377697954185342E-02 a      1516     0    61     1    16
 -4.9776039826888364E-02 a      1517     0    61     1    17
 -1.8567825589574108E-02 a      1518     0    61     1    18
 -8.9338696761768976E-02 a      1519     0    61     1    19
  4.8430921417400456E-02 a      1520     0    61     1    20
 -5.5053078043457507E-02 a      1521     0    61     1    21
  6.3376451697943386E-03 a      1522     0    61     1    22
  8.3719317484540298E-02 a      1523     0    61     1    23
  1.0643268438795889E-01 a      1524     0    61     1    24
  5.7521993142881069E-02 a      1525     0    61     1    25
 -1.4680959659441914E-01 a      1526     0    62     1     1
 -1.0064011270617808E-01 a      1527     0    62     1     2
 -5.7861639449798816E-02 a      1528     0    62     1     3
 -1.2883034281561995E-01 a      1529     0    62     1     4
  1.0438623275946743E-01 a      1530     0    62     1     5
 -5.3154473778303513E-02 a      1531     0    62     1     6
  1.6078490213624450E-01 a      1532     0    62     1     7
  7.4777897605434213E-02 a      1533     0    62     1     8
  1.1063257321237517E-01 a      1534     0    62     1     9
 -8.9824632504859878E-02 a      1535     0    62     1    10
  8.1688296522156353E-02 a      1536     0    62     1    11
  2.0575812355610082E-01 a      1537     0    62     1    12
  1.9967818060732230E-02 a      1538     0    62     1    13
  6.3987619147549274E-02 a      1539     0    62     1    14
 -9.7377750558595710E-02 a      1540     0    62     1    15
 -8.4810970280966735E-02 a      1541     0    62     1    16
  1.1037425459251141E-01 a      1542     0    62     1    17
  1.7674661069249201E-02 a      1543     0    62     1    18
  1.1370717885506972E-01 a      1544     0    62     1    19
  1.1729914753467112E-01 a      1545     0    62     1    20
 -3.5855395665156484E-02 a      1546     0    62     1    21
 -6.9202719585428910E-02 a      1547     0    62     1    22
  7.3700969234317709E-02 a      1548     0    62     1    23
  9.1600247086000980E-02 a      1549     0    62     1    24
 -5.7964871152724154E-02 a      1550     0    62     1    25
  8.1909984128349406E-02 a      1551     0    63     1     1
  8.2586118668382363E-02 a      1552     0    63     1     2
 -3.9633572475046390E-02 a      1553     0    63     1     3
  9.5143433356206952E-02 a      1554     0    63     1     4
 -1.0015808763959802E-01 a      1555     0    63     1     5
 -7.2484563108084002E-02 a      1556     0    63     1     6
  8.9907522239731918E-02 a      1557     0    63     1     7
 -2.9070437973985740E-02 a      1558     0    63     1     8
 -7.8737128375801740E-02 a      1559     0    63     1     9
  1.6746422585607084E-02 a      1560     0    63     1    10
 -2.7174878741015747E-03 a      1561     0    63     1    11
  1.0058999308318214E-01 a      1562     0    63     1    12
  6.3689093490539916E-02 a      1563     0    63     1    13
  1.0811705064956018E-01 a      1564     0    63     1    14
  4.1017079960960781E-02 a      1565     0    63     1    15
 -7.3517719199156714E-02 a      1566     0    63     1    16
 -7.3591874484930020E-03 a      1567     0    63     1    17
 -1.0806681692645113E-01 a      1568     0    63     1    18
 -4.9025877652743521E-02 a      1569     0    63     1    19
  7.5347143604622649E-02 a      1570     0    63     1    20
 -2.1048820956525809E-02 a      1571     0    63     1    21
  2.3849405618659877E-02 a      1572     0    63     1    22
  7.8478756573434980E-03 a      1573     0    63     1    23
  6.5659424221880716E-02 a      1574     0    63     1    24
  7.4567708864256271E-03 a      1575     0    63     1    25
 -8.6950591309679137E-02 a      1576     0    64     1     1
 -9.6969019597778108E-02 a      1577     0    64     1     2
  9.0222506678445780E-02 a      1578     0    64     1     3
 -7.3430253330773368E-02 a      1579     0    64     1     4
 -7.6523992169668972E-02 a      1580     0    64     1     5
  7.2259357316628386E-02 a      1581     0    64     1     6
 -5.3286829090724450E-02 a      1582     0    64     1     7
  6.2125962918987573E-02 a      1583     0    64     1     8
 -9.2869747545190770E-02 a      1584     0    64     1     9
 -1.2144385536300159E-01 a      1585     0    64     1    10
  1.6022226745565301E-02 a      1586     0    64     1    11
 -2.2730297567330979E-01 a      1587     0    64     1    12
  8.5351694726840691E-02 a      1588     0    64     1    13
 -9.8518688367498705E-02 a      1589     0    64     1    14
  5.3178387127203221E-02 a      1590     0    64     1    15
 -8.4003406517219621E-03 a      1591     0    64     1    16
  3.9183925994822857E-02 a      1592     0    64     1    17
  4.6367926585089050E-02 a      1593     0    64     1    18
 -2.5885309505971805E-02 a      1594     0    64     1    19
  2.5937409183702385E-02 a      1595     0    64     1    20
 -1.1013004154401065E-01 a      1596     0    64     1    21
 -5.6341524372336131E-02 a      1597     0    64     1    22
  8.9885882243300450E-02 a      1598     0    64     1    23
 -4.2385362851238319E-02 a      1599     0    64     1    24
  1.6195162405749411E-01 a      1600     0    64     1    25
 -4.7040324284166907E-02 a      1601     0    65     1     1
 -9.5429997286850241E-02 a      1602     0    65     1     2
 -7.2607337407899653E-02 a      1603     0    65     1     3
 -4.0659418341158805E-02 a      1604     0    65     1     4
 -1.5649239892990541E-01 a      1605     0    65     1     5
 -5.3835674666786862E-02 a      1606     0    65     1     6
  2.4848628521877972E-02 a      1607     0    65     1     7
  1.2909710845610634E-01 a      1608     0    65     1     8
 -9.8179174840123387E-04 a      1609     0    65     1     9
  6.5395218244677034E-02 a      1610     0    65     1    10
 -5.6969451501175439E-02 a      1611     0    65     1    11
 -2.0330365391415259E-01 a      1612     0    65     1    12
  1.6234877989663624E-02 a      1613     0    65     1    13
 -2.3467051633407735E-02 a      1614     0    65     1    14
 -3.7766513920853582E-02 a      1615     0    65     1    15
  4.4866477839928809E-02 a      1616     0    65     1    16
  8.4141956796848535E-02 a      1617     0    65     1    17
  3.2280560567486724E-02 a      1618     0    65     1    18
  5.0255884179537594E-02 a      1619     0    65     1    19
  2.8322094469946019E-02 a      1620     0    65     1    20
 -4.6941062706754664E-03 a      1621     0    65     1    21
  4.2647089947018893E-02 a      1622     0    65     1    22
  1.7939898903742232E-01 a      1623     0    65     1    23
