################################################################################
# Neural network connection values (weights and biases).
################################################################################
# Col  Name       Description
################################################################################
# 1    connection Neural network connection value.
# 2    t          Connection type (a = weight, b = bias).
# 3    index      Index enumerating weights.
# 4    l_s        Starting point layer (end point layer for biases).
# 5    n_s        Starting point neuron in starting layer (end point neuron for biases).
# 6    l_e        End point layer.
# 7    n_e        End point neuron in end layer.
################################################################################
#                      1 2         3     4     5     6     7
#             connection t     index   l_s   n_s   l_e   n_e
############################################################
  1.0186351686267513E-01 a         1     0     1     1     1
 -3.8635269051238180E-02 a         2     0     1     1     2
  2.1298626166784451E-01 a         3     0     1     1     3
 -8.8178501076470489E-02 a         4     0     1     1     4
  7.2845011063083720E-02 a         5     0     1     1     5
  7.5127328776364258E-02 a         6     0     1     1     6
  5.2466366129300626E-02 a         7     0     1     1     7
  8.8353534952498956E-03 a         8     0     1     1     8
 -1.6144529413128414E-01 a         9     0     1     1     9
 -1.6498619745293864E-02 a        10     0     1     1    10
 -8.8571051828255504E-02 a        11     0     1     1    11
 -1.9875690562370277E-01 a        12     0     1     1    12
 -8.3941980800199031E-02 a        13     0     1     1    13
  1.5475166026909939E-01 a        14     0     1     1    14
  1.2638481293548845E-01 a        15     0     1     1    15
  1.1306512680712175E-01 a        16     0     1     1    16
 -3.3244497007827001E-02 a        17     0     1     1    17
 -8.1205917813243739E-02 a        18     0     1     1    18
  8.5281700847896880E-02 a        19     0     1     1    19
 -6.6385754913947936E-02 a        20     0     1     1    20
 -7.4391449570877066E-02 a        21     0     1     1    21
 -8.8341762138778798E-03 a        22     0     1     1    22
 -1.3612006447735822E-01 a        23     0     1     1    23
 -1.7859804817838129E-01 a        24     0     1     1    24
 -1.4727341448936243E-01 a        25     0     1     1    25
  4.7403902785532817E-02 a        26     0     2     1     1
  9.8388230237541740E-03 a        27     0     2     1     2
  3.3509475323421273E-02 a        28     0     2     1     3
  7.9363276324689092E-02 a        29     0     2     1     4
 -1.2830438465858138E-01 a        30     0     2     1     5
  9.7838950409174202E-02 a        31     0     2     1     6
  3.2820984710045908E-01 a        32     0     2     1     7
  3.3728435484617673E-02 a        33     0     2     1     8
  6.0585292367552904E-02 a        34     0     2     1     9
 -5.4311335379881032E-03 a        35     0     2     1    10
  5.6807696129366203E-02 a        36     0     2     1    11
  1.6721232357152099E-01 a        37     0     2     1    12
 -2.5355235214852745E-01 a        38     0     2     1    13
  1.7859588835492723E-01 a        39     0     2     1    14
 -1.2382188019766191E-02 a        40     0     2     1    15
  2.4693661192374014E-01 a        41     0     2     1    16
  6.4287685887851762E-02 a        42     0     2     1    17
  9.8485680333397829E-02 a        43     0     2     1    18
 -7.9339179074939786E-02 a        44     0     2     1    19
 -2.4249580137461810E-01 a        45     0     2     1    20
  1.0241915887194178E-01 a        46     0     2     1    21
 -4.0047842449350453E-03 a        47     0     2     1    22
  8.2237435166757106E-02 a        48     0     2     1    23
  2.0450018498835446E-02 a        49     0     2     1    24
  1.5769052852096332E-01 a        50     0     2     1    25
  1.3566909810756100E-02 a        51     0     3     1     1
 -6.6952339231663202E-02 a        52     0     3     1     2
 -2.5780310139585583E-01 a        53     0     3     1     3
 -1.4271930243343833E-02 a        54     0     3     1     4
 -2.1348353907675460E-01 a        55     0     3     1     5
  1.0608541614133304E-01 a        56     0     3     1     6
  7.1565410645944433E-02 a        57     0     3     1     7
  7.9610161172199434E-02 a        58     0     3     1     8
 -2.8340881600432643E-02 a        59     0     3     1     9
 -6.1371110963811322E-02 a        60     0     3     1    10
  1.0942033683177818E-01 a        61     0     3     1    11
 -1.4133308639503211E-02 a        62     0     3     1    12
 -1.0218646512798868E-01 a        63     0     3     1    13
  3.7174912232344197E-02 a        64     0     3     1    14
  1.0224830157730018E-01 a        65     0     3     1    15
  1.0250558765099567E-01 a        66     0     3     1    16
  8.8524422045848372E-02 a        67     0     3     1    17
 -1.8591197180508418E-01 a        68     0     3     1    18
  1.6292462116937911E-01 a        69     0     3     1    19
  5.0912693275955490E-02 a        70     0     3     1    20
 -7.4223008154798431E-02 a        71     0     3     1    21
  1.3901156906920190E-01 a        72     0     3     1    22
 -4.6949317556703000E-02 a        73     0     3     1    23
  7.9731193121351254E-02 a        74     0     3     1    24
 -2.9971045908288130E-01 a        75     0     3     1    25
  5.8218910498815446E-02 a        76     0     4     1     1
 -6.4771289140013982E-02 a        77     0     4     1     2
 -5.9571850760959250E-03 a        78     0     4     1     3
  1.2504552738930791E-01 a        79     0     4     1     4
  1.2478836966212094E-01 a        80     0     4     1     5
 -3.7202528452599047E-02 a        81     0     4     1     6
 -5.3011477451040479E-03 a        82     0     4     1     7
 -4.7354041147756064E-02 a        83     0     4     1     8
  4.2165808694995435E-02 a        84     0     4     1     9
 -1.5836979424177797E-01 a        85     0     4     1    10
 -3.9016067818512676E-02 a        86     0     4     1    11
 -1.6106474880643534E-01 a        87     0     4     1    12
  1.9504329463386802E-01 a        88     0     4     1    13
  1.2637050988811518E-01 a        89     0     4     1    14
  2.0405794415688419E-02 a        90     0     4     1    15
  1.3389966042666293E-01 a        91     0     4     1    16
 -1.3884326035385819E-01 a        92     0     4     1    17
 -1.4681243353297924E-01 a        93     0     4     1    18
 -1.2409298441595683E-01 a        94     0     4     1    19
 -8.1923724973868808E-02 a        95     0     4     1    20
 -3.7083450337327004E-02 a        96     0     4     1    21
 -1.9845035405032474E-01 a        97     0     4     1    22
 -1.8917332371593383E-02 a        98     0     4     1    23
 -7.4279070106222658E-02 a        99     0     4     1    24
 -6.4422197113851234E-02 a       100     0     4     1    25
  1.3316741874611984E-01 a       101     0     5     1     1
  1.2768015558028126E-02 a       102     0     5     1     2
  1.0361684393581283E-01 a       103     0     5     1     3
  6.2954602096120485E-02 a       104     0     5     1     4
 -4.2921744538098874E-03 a       105     0     5     1     5
 -3.4292141692494990E-02 a       106     0     5     1     6
 -7.5676518420445954E-02 a       107     0     5     1     7
 -8.3204857348866512E-02 a       108     0     5     1     8
  2.0996410754721448E-03 a       109     0     5     1     9
  4.5202512817543094E-03 a       110     0     5     1    10
  5.9114184175651299E-02 a       111     0     5     1    11
 -2.4931110030114525E-02 a       112     0     5     1    12
  1.1149231725598596E-01 a       113     0     5     1    13
 -1.2834374303367691E-02 a       114     0     5     1    14
  2.0691047742648207E-02 a       115     0     5     1    15
 -1.4758810479038395E-01 a       116     0     5     1    16
 -1.0746102670542493E-01 a       117     0     5     1    17
 -1.3815627949113707E-01 a       118     0     5     1    18
  2.1527713390687387E-03 a       119     0     5     1    19
 -9.1029145021504485E-02 a       120     0     5     1    20
  7.2301223463563560E-02 a       121     0     5     1    21
 -2.6166388913402158E-02 a       122     0     5     1    22
  8.7275293070917526E-02 a       123     0     5     1    23
 -1.6540339408049259E-01 a       124     0     5     1    24
 -9.4440905119705598E-02 a       125     0     5     1    25
  6.2246573672812153E-02 a       126     0     6     1     1
  1.5770951066425515E-01 a       127     0     6     1     2
  1.6369212238415645E-01 a       128     0     6     1     3
  7.7256533810726835E-02 a       129     0     6     1     4
 -2.5453004526829449E-02 a       130     0     6     1     5
  9.4626391204793381E-02 a       131     0     6     1     6
 -9.7211173034710510E-02 a       132     0     6     1     7
  1.2957915390115574E-01 a       133     0     6     1     8
 -4.7259951230512826E-02 a       134     0     6     1     9
  3.6951782114682619E-01 a       135     0     6     1    10
  2.4317742791329700E-02 a       136     0     6     1    11
 -1.2576310643724903E-01 a       137     0     6     1    12
 -4.9055748434931892E-02 a       138     0     6     1    13
 -4.3604256501637940E-02 a       139     0     6     1    14
  6.9643954261925892E-02 a       140     0     6     1    15
  2.3835317999575961E-01 a       141     0     6     1    16
 -2.1066742047168444E-01 a       142     0     6     1    17
  1.7179574774270966E-02 a       143     0     6     1    18
  1.5984578293893090E-02 a       144     0     6     1    19
 -2.0995005270214201E-01 a       145     0     6     1    20
 -4.6389249762283952E-02 a       146     0     6     1    21
 -5.3683118581888185E-02 a       147     0     6     1    22
  9.7400403377120359E-02 a       148     0     6     1    23
 -3.8011605922892280E-02 a       149     0     6     1    24
  3.8520064272747301E-01 a       150     0     6     1    25
  1.9115527749272432E-01 a       151     0     7     1     1
 -1.6649753161380929E-01 a       152     0     7     1     2
  1.8931252320320116E-01 a       153     0     7     1     3
  5.5170686462336180E-02 a       154     0     7     1     4
  4.7926693409561455E-04 a       155     0     7     1     5
 -2.9988166549538071E-02 a       156     0     7     1     6
  2.9907921018312106E-01 a       157     0     7     1     7
 -5.7326184137056937E-02 a       158     0     7     1     8
  1.7398699984028093E-01 a       159     0     7     1     9
 -1.0804092083652812E-01 a       160     0     7     1    10
  6.4938834387289132E-02 a       161     0     7     1    11
 -7.3938025076988240E-02 a       162     0     7     1    12
 -7.0540259802968561E-04 a       163     0     7     1    13
  6.1647017048815728E-02 a       164     0     7     1    14
  1.9150860149224644E-01 a       165     0     7     1    15
 -8.8984112040250016E-02 a       166     0     7     1    16
 -8.3454407481484139E-02 a       167     0     7     1    17
  6.9601195920508258E-02 a       168     0     7     1    18
  6.1645340810360773E-03 a       169     0     7     1    19
  4.8440632527312726E-02 a       170     0     7     1    20
  5.1940848273954648E-02 a       171     0     7     1    21
 -5.6780516856097488E-02 a       172     0     7     1    22
  5.8120657510154314E-02 a       173     0     7     1    23
  1.9584888934734118E-01 a       174     0     7     1    24
  2.1766123010268937E-01 a       175     0     7     1    25
 -1.6460199948104545E-02 a       176     0     8     1     1
 -6.8224493143431958E-02 a       177     0     8     1     2
  1.7844411211992348E-01 a       178     0     8     1     3
  6.9302547938865193E-04 a       179     0     8     1     4
  1.2394875961874559E-01 a       180     0     8     1     5
 -1.2280761271010571E-01 a       181     0     8     1     6
 -2.6231219039099977E-02 a       182     0     8     1     7
 -1.1124663742633197E-01 a       183     0     8     1     8
 -2.0031966578043064E-01 a       184     0     8     1     9
  1.2228747410886469E-01 a       185     0     8     1    10
 -2.0123881822033229E-01 a       186     0     8     1    11
 -1.0430138592699588E-01 a       187     0     8     1    12
 -4.1195436480105646E-01 a       188     0     8     1    13
 -2.4784603421182855E-02 a       189     0     8     1    14
  9.9573622835736633E-02 a       190     0     8     1    15
  1.8612287791546295E-01 a       191     0     8     1    16
 -2.9397381434858524E-03 a       192     0     8     1    17
 -1.1949983220827794E-01 a       193     0     8     1    18
 -7.6705100845857813E-02 a       194     0     8     1    19
 -7.5487264769651688E-02 a       195     0     8     1    20
 -2.1272536002227144E-02 a       196     0     8     1    21
  2.7104476636936120E-01 a       197     0     8     1    22
 -1.4451710651516345E-01 a       198     0     8     1    23
 -4.0876126921836842E-02 a       199     0     8     1    24
  4.5172983630520386E-02 a       200     0     8     1    25
  1.7571195442743270E-02 a       201     0     9     1     1
 -2.3214678522249843E-02 a       202     0     9     1     2
 -1.9575955731394507E-01 a       203     0     9     1     3
  1.0214472137817107E-01 a       204     0     9     1     4
  9.6499625774523423E-02 a       205     0     9     1     5
 -1.0821176269993368E-02 a       206     0     9     1     6
  4.1522990168082839E-03 a       207     0     9     1     7
 -1.3806317040922564E-01 a       208     0     9     1     8
 -1.4056389850527590E-01 a       209     0     9     1     9
  1.4039091672318768E-01 a       210     0     9     1    10
  1.1325516957300837E-01 a       211     0     9     1    11
  9.2083287512183323E-02 a       212     0     9     1    12
  1.2268849194185702E-01 a       213     0     9     1    13
 -5.2165983474367059E-02 a       214     0     9     1    14
 -1.7835759917986829E-02 a       215     0     9     1    15
 -5.8523078776265933E-02 a       216     0     9     1    16
 -1.2919952400403617E-01 a       217     0     9     1    17
  1.4036270377995055E-01 a       218     0     9     1    18
  1.6487424299554207E-01 a       219     0     9     1    19
  8.6988579191268733E-02 a       220     0     9     1    20
  7.0149544970942709E-02 a       221     0     9     1    21
  1.4477271525016822E-01 a       222     0     9     1    22
 -4.1392824660026313E-02 a       223     0     9     1    23
  1.2499723418186835E-01 a       224     0     9     1    24
 -2.6106327850373982E-02 a       225     0     9     1    25
  1.3537551006748361E-01 a       226     0    10     1     1
  1.6874763685503438E-01 a       227     0    10     1     2
  2.1446844853241831E-01 a       228     0    10     1     3
  1.7694708142881346E-01 a       229     0    10     1     4
  1.4301941158337303E-01 a       230     0    10     1     5
  1.2811123505152400E-01 a       231     0    10     1     6
 -3.0623846515009351E-02 a       232     0    10     1     7
 -8.0087658004542692E-02 a       233     0    10     1     8
 -3.2098549597418660E-02 a       234     0    10     1     9
  7.9794836976766065E-03 a       235     0    10     1    10
  1.4932466731728131E-01 a       236     0    10     1    11
 -1.5180187885328211E-01 a       237     0    10     1    12
  1.2672031121181568E-01 a       238     0    10     1    13
  7.0533741344022812E-03 a       239     0    10     1    14
  1.0271630949310301E-01 a       240     0    10     1    15
 -4.5854003091031902E-02 a       241     0    10     1    16
 -4.6903806540538009E-02 a       242     0    10     1    17
  1.4268421029839584E-01 a       243     0    10     1    18
  2.8825570622539425E-03 a       244     0    10     1    19
 -1.3032580810328404E-01 a       245     0    10     1    20
  6.7072961440564696E-02 a       246     0    10     1    21
 -1.5074569512111022E-01 a       247     0    10     1    22
 -6.4069295672436133E-02 a       248     0    10     1    23
 -1.6592537837716823E-01 a       249     0    10     1    24
 -1.3645689202020750E-01 a       250     0    10     1    25
  4.0063331038525156E-02 a       251     0    11     1     1
  7.6042761935427694E-02 a       252     0    11     1     2
 -2.9444605678675035E-02 a       253     0    11     1     3
 -5.1063178063349882E-02 a       254     0    11     1     4
 -9.9698750103242792E-03 a       255     0    11     1     5
 -2.3003753930720933E-02 a       256     0    11     1     6
 -1.8889135278290007E-02 a       257     0    11     1     7
  5.6048712771977503E-02 a       258     0    11     1     8
 -9.0656673427379972E-02 a       259     0    11     1     9
 -1.1520410501546427E-01 a       260     0    11     1    10
 -1.1294151148631211E-01 a       261     0    11     1    11
 -3.7211637629527713E-02 a       262     0    11     1    12
  2.3144466005109504E-01 a       263     0    11     1    13
 -7.1096640143945511E-02 a       264     0    11     1    14
 -1.4411541229215488E-01 a       265     0    11     1    15
 -4.0315162429548766E-02 a       266     0    11     1    16
  9.7482121275712791E-03 a       267     0    11     1    17
 -1.0458705183273392E-01 a       268     0    11     1    18
 -1.5778009405408594E-01 a       269     0    11     1    19
  1.0938219515272414E-01 a       270     0    11     1    20
 -7.4604427357163492E-03 a       271     0    11     1    21
 -1.2338256506280386E-01 a       272     0    11     1    22
  3.1694097973440541E-02 a       273     0    11     1    23
 -1.2856202830816565E-02 a       274     0    11     1    24
 -1.2170621646432059E-01 a       275     0    11     1    25
  1.3533243224103184E-01 a       276     0    12     1     1
 -2.5055567717342458E-01 a       277     0    12     1     2
 -1.2929649579043578E-01 a       278     0    12     1     3
 -3.6451157139910673E-01 a       279     0    12     1     4
 -5.8546896317030785E-02 a       280     0    12     1     5
 -8.4340851193608263E-02 a       281     0    12     1     6
  4.6887107761732855E-01 a       282     0    12     1     7
 -1.1431064123947693E-01 a       283     0    12     1     8
 -2.1917804497883742E-01 a       284     0    12     1     9
  3.9324956879033882E-02 a       285     0    12     1    10
 -6.8905899995696615E-02 a       286     0    12     1    11
  2.0573536663998446E-01 a       287     0    12     1    12
 -3.4204893264960856E-01 a       288     0    12     1    13
 -2.1706897135858175E-01 a       289     0    12     1    14
  1.6337213152027158E-01 a       290     0    12     1    15
  3.6881019305478629E-01 a       291     0    12     1    16
  2.6097266280401998E-01 a       292     0    12     1    17
  2.1015553927472244E-02 a       293     0    12     1    18
 -1.4698504201583459E-02 a       294     0    12     1    19
 -1.6889124478099946E-01 a       295     0    12     1    20
  2.2730806121776859E-01 a       296     0    12     1    21
  4.3204862137712841E-01 a       297     0    12     1    22
 -9.5910160867066760E-02 a       298     0    12     1    23
 -1.3162917616389838E-01 a       299     0    12     1    24
  2.0971042221811440E-01 a       300     0    12     1    25
 -1.0261251115797379E-01 a       301     0    13     1     1
 -5.7833234270207132E-02 a       302     0    13     1     2
 -1.8601535004606479E-01 a       303     0    13     1     3
 -2.0153561764291678E-01 a       304     0    13     1     4
  9.6115307383987519E-02 a       305     0    13     1     5
  2.3830026830627399E-01 a       306     0    13     1     6
 -1.9584688996974103E-01 a       307     0    13     1     7
 -9.6716470827120579E-03 a       308     0    13     1     8
 -1.6546805544028986E-01 a       309     0    13     1     9
  9.7595939464182005E-02 a       310     0    13     1    10
  1.0393591749118906E-02 a       311     0    13     1    11
  7.0134681309192010E-02 a       312     0    13     1    12
 -3.7841043428208965E-01 a       313     0    13     1    13
 -3.8417903959014627E-01 a       314     0    13     1    14
 -3.4418182532171160E-02 a       315     0    13     1    15
  1.9965668600729938E-01 a       316     0    13     1    16
  2.5535799562686822E-02 a       317     0    13     1    17
 -8.0535769528463044E-02 a       318     0    13     1    18
  5.8009873346678745E-02 a       319     0    13     1    19
 -7.9734762356451230E-02 a       320     0    13     1    20
 -7.8069048195891569E-03 a       321     0    13     1    21
  1.1559912212366159E-01 a       322     0    13     1    22
 -1.7031944801702614E-01 a       323     0    13     1    23
 -2.2025280342896650E-02 a       324     0    13     1    24
  2.6787984159237437E-02 a       325     0    13     1    25
 -1.0617554368497208E-01 a       326     0    14     1     1
  7.3791874896201454E-02 a       327     0    14     1     2
  3.4208739965844302E-02 a       328     0    14     1     3
 -4.0827077867483012E-02 a       329     0    14     1     4
 -1.7341061680344941E-01 a       330     0    14     1     5
 -4.7602210876736037E-02 a       331     0    14     1     6
  1.6669634075156550E-02 a       332     0    14     1     7
 -2.0927163314276038E-03 a       333     0    14     1     8
  8.2588684477295171E-02 a       334     0    14     1     9
  1.5733432377141948E-01 a       335     0    14     1    10
  8.3077138274238859E-03 a       336     0    14     1    11
 -2.4231379851595039E-01 a       337     0    14     1    12
 -3.0584955568696526E-01 a       338     0    14     1    13
 -6.1980936525262785E-02 a       339     0    14     1    14
 -7.7675840137078858E-02 a       340     0    14     1    15
 -1.1114526017176307E-02 a       341     0    14     1    16
 -1.5282904991399818E-01 a       342     0    14     1    17
  5.7467071002746728E-02 a       343     0    14     1    18
  9.9732118731503658E-02 a       344     0    14     1    19
  3.6609708248081622E-02 a       345     0    14     1    20
 -8.1630259542603542E-02 a       346     0    14     1    21
 -8.9281785555079304E-02 a       347     0    14     1    22
  4.4511447333898307E-02 a       348     0    14     1    23
  4.0782234802284684E-02 a       349     0    14     1    24
  3.3060434720650356E-01 a       350     0    14     1    25
  1.5214633138517197E-01 a       351     0    15     1     1
 -5.0340376412038687E-02 a       352     0    15     1     2
  1.4703815498793263E-01 a       353     0    15     1     3
  2.5167421078099678E-01 a       354     0    15     1     4
  8.4770224562456517E-02 a       355     0    15     1     5
 -2.1445396156913238E-02 a       356     0    15     1     6
  2.7382292592526219E-01 a       357     0    15     1     7
 -7.6064045199496447E-03 a       358     0    15     1     8
  2.8513695268020219E-02 a       359     0    15     1     9
 -2.4247077127913208E-01 a       360     0    15     1    10
  4.8498173136137766E-02 a       361     0    15     1    11
  1.1767950189110078E-01 a       362     0    15     1    12
  3.2437919765161849E-01 a       363     0    15     1    13
  1.2406814535990490E-01 a       364     0    15     1    14
  9.6519848900573635E-02 a       365     0    15     1    15
 -3.0737980015723282E-02 a       366     0    15     1    16
  1.0559068795855853E-01 a       367     0    15     1    17
 -2.8831043036883934E-02 a       368     0    15     1    18
 -4.8013257267233767E-02 a       369     0    15     1    19
 -1.1757282817081133E-01 a       370     0    15     1    20
  5.1605831035261715E-02 a       371     0    15     1    21
  1.1451467274539272E-01 a       372     0    15     1    22
  8.0578444647391376E-02 a       373     0    15     1    23
  1.1131651571536740E-01 a       374     0    15     1    24
 -1.1344321599181194E-01 a       375     0    15     1    25
  1.3614102881974587E-02 a       376     0    16     1     1
  1.3897528611491292E-01 a       377     0    16     1     2
  3.7383983957605033E-02 a       378     0    16     1     3
 -5.2052506296762377E-02 a       379     0    16     1     4
 -1.5917477022658855E-01 a       380     0    16     1     5
  1.6298504808744696E-01 a       381     0    16     1     6
  1.1868156845103088E-01 a       382     0    16     1     7
 -1.5416855945697477E-01 a       383     0    16     1     8
  9.5809191940693650E-02 a       384     0    16     1     9
 -1.5035506702313917E-01 a       385     0    16     1    10
 -5.1602612020166527E-03 a       386     0    16     1    11
 -6.7089411637364010E-02 a       387     0    16     1    12
  7.9565012025291079E-02 a       388     0    16     1    13
  3.5684186356910980E-02 a       389     0    16     1    14
  8.6566155509090303E-02 a       390     0    16     1    15
 -1.1987064483454279E-02 a       391     0    16     1    16
  1.9508117951468765E-01 a       392     0    16     1    17
 -9.5206099903229036E-02 a       393     0    16     1    18
  1.1952489714267391E-01 a       394     0    16     1    19
 -3.7679811036503794E-02 a       395     0    16     1    20
  7.2804260894186956E-02 a       396     0    16     1    21
  1.9447963399030913E-01 a       397     0    16     1    22
 -1.2949656965839407E-01 a       398     0    16     1    23
 -1.9284136110065572E-01 a       399     0    16     1    24
 -5.2205251131465014E-01 a       400     0    16     1    25
  1.1854640058432397E-01 a       401     0    17     1     1
 -1.8362665975585543E-01 a       402     0    17     1     2
 -1.5719598053290282E-01 a       403     0    17     1     3
 -5.8390155981423719E-02 a       404     0    17     1     4
  9.0420660870723049E-02 a       405     0    17     1     5
 -5.6112332681539756E-02 a       406     0    17     1     6
  1.8474913473963872E-01 a       407     0    17     1     7
 -1.0850424600700795E-01 a       408     0    17     1     8
 -1.0276081062939224E-01 a       409     0    17     1     9
  2.9033945863117594E-01 a       410     0    17     1    10
 -5.1804225077531504E-02 a       411     0    17     1    11
  1.0729504940737708E-01 a       412     0    17     1    12
 -3.9805630986773954E-01 a       413     0    17     1    13
  2.0481098486362637E-01 a       414     0    17     1    14
  2.8029511375724248E-01 a       415     0    17     1    15
  2.2274307740340193E-01 a       416     0    17     1    16
  1.2749548529459973E-01 a       417     0    17     1    17
  6.1119149173266114E-02 a       418     0    17     1    18
  1.7860098611297719E-02 a       419     0    17     1    19
 -2.8186457495207859E-02 a       420     0    17     1    20
 -1.0068862490038955E-01 a       421     0    17     1    21
  2.1697968225131931E-01 a       422     0    17     1    22
 -4.1941786974624216E-02 a       423     0    17     1    23
  1.1987312241083171E-02 a       424     0    17     1    24
  2.7242383738712395E-01 a       425     0    17     1    25
  3.6415221930684263E-02 a       426     0    18     1     1
 -1.4608204498991816E-02 a       427     0    18     1     2
  3.3231767233215248E-01 a       428     0    18     1     3
  1.1299753590986331E-01 a       429     0    18     1     4
 -8.9636633477314029E-02 a       430     0    18     1     5
  9.1178908103093995E-02 a       431     0    18     1     6
  9.5936031608061176E-02 a       432     0    18     1     7
  1.6867844235294610E-01 a       433     0    18     1     8
  7.0182972622771844E-02 a       434     0    18     1     9
 -2.5780053596236624E-01 a       435     0    18     1    10
  2.2383451203278112E-01 a       436     0    18     1    11
 -3.7554388248746060E-03 a       437     0    18     1    12
  6.5687359114478108E-02 a       438     0    18     1    13
  5.9716893254597461E-02 a       439     0    18     1    14
 -3.9671226375460632E-02 a       440     0    18     1    15
  3.1784130066985017E-01 a       441     0    18     1    16
 -2.1803623291214763E-01 a       442     0    18     1    17
 -1.7705460340121013E-01 a       443     0    18     1    18
  6.9050276222799162E-04 a       444     0    18     1    19
 -1.4356404310265364E-01 a       445     0    18     1    20
 -1.8310958008939525E-02 a       446     0    18     1    21
 -2.8430426979422725E-02 a       447     0    18     1    22
  2.9550384594165174E-01 a       448     0    18     1    23
  2.4089451485735952E-01 a       449     0    18     1    24
  8.7855219826138919E-02 a       450     0    18     1    25
 -2.4291971793644881E-02 a       451     0    19     1     1
 -1.0409143150467680E-01 a       452     0    19     1     2
  8.3106951277810745E-02 a       453     0    19     1     3
  9.4791235559973777E-02 a       454     0    19     1     4
 -8.0520898917855091E-02 a       455     0    19     1     5
  5.7460228876391184E-02 a       456     0    19     1     6
 -2.3591596108092014E-02 a       457     0    19     1     7
 -1.4202697532548486E-01 a       458     0    19     1     8
  2.7792625628948213E-03 a       459     0    19     1     9
 -1.8488777209107082E-01 a       460     0    19     1    10
  5.1626610887222403E-02 a       461     0    19     1    11
  2.0966858365771349E-02 a       462     0    19     1    12
 -1.7979658524248829E-01 a       463     0    19     1    13
 -1.0948779260127948E-01 a       464     0    19     1    14
 -4.1593820721670491E-02 a       465     0    19     1    15
  1.1398075995843426E-01 a       466     0    19     1    16
  9.4151348566177372E-03 a       467     0    19     1    17
 -6.0774828220629414E-02 a       468     0    19     1    18
 -1.1368040159995872E-01 a       469     0    19     1    19
 -5.6696184007008030E-02 a       470     0    19     1    20
  4.3743766819773246E-02 a       471     0    19     1    21
  3.4408375846231312E-02 a       472     0    19     1    22
 -8.9571174464760678E-02 a       473     0    19     1    23
 -9.4750748783302363E-02 a       474     0    19     1    24
 -9.9223869730180922E-02 a       475     0    19     1    25
 -1.0483603549470609E-01 a       476     0    20     1     1
 -5.0510209505657891E-02 a       477     0    20     1     2
 -1.2179672003843349E-01 a       478     0    20     1     3
 -1.8483980344336701E-01 a       479     0    20     1     4
  5.8679693780445678E-02 a       480     0    20     1     5
  4.2029204144856259E-02 a       481     0    20     1     6
 -6.4443733922389015E-02 a       482     0    20     1     7
 -8.0638134091597286E-02 a       483     0    20     1     8
 -1.8320659468525669E-02 a       484     0    20     1     9
  1.9342857462755082E-02 a       485     0    20     1    10
  1.5366475591769455E-01 a       486     0    20     1    11
  3.5888210704307318E-02 a       487     0    20     1    12
 -1.0155089332516526E-01 a       488     0    20     1    13
  5.4244087966699307E-02 a       489     0    20     1    14
 -1.6579109126413316E-01 a       490     0    20     1    15
  3.1597041013189714E-01 a       491     0    20     1    16
  7.0336437270791641E-02 a       492     0    20     1    17
 -1.6229062114077149E-02 a       493     0    20     1    18
 -8.0195869969872963E-02 a       494     0    20     1    19
 -1.0940515840058038E-01 a       495     0    20     1    20
 -5.8156591253124224E-02 a       496     0    20     1    21
 -9.1364397960118065E-03 a       497     0    20     1    22
 -4.0944762979456761E-02 a       498     0    20     1    23
 -1.3096335004083979E-02 a       499     0    20     1    24
 -4.6735965859660028E-02 a       500     0    20     1    25
 -1.8768096074623933E-01 a       501     0    21     1     1
 -6.9629672360082481E-03 a       502     0    21     1     2
 -7.3752923860056774E-02 a       503     0    21     1     3
  8.4256755806673116E-03 a       504     0    21     1     4
 -7.4136863994342314E-02 a       505     0    21     1     5
  1.3104241224618399E-01 a       506     0    21     1     6
 -9.6912959865152748E-02 a       507     0    21     1     7
 -9.3167186738452784E-02 a       508     0    21     1     8
 -4.5916550187879421E-02 a       509     0    21     1     9
 -2.8128995040534577E-01 a       510     0    21     1    10
 -4.5085206518691995E-02 a       511     0    21     1    11
 -1.9531690464444010E-01 a       512     0    21     1    12
 -5.5977387639516880E-03 a       513     0    21     1    13
 -3.0695829415673459E-01 a       514     0    21     1    14
 -2.5898066330870806E-01 a       515     0    21     1    15
 -4.3410723292992462E-02 a       516     0    21     1    16
 -2.2691961833108686E-02 a       517     0    21     1    17
 -3.2749356584713751E-01 a       518     0    21     1    18
  9.5221685563110531E-02 a       519     0    21     1    19
 -2.3863474095903386E-01 a       520     0    21     1    20
  1.9350817066947990E-01 a       521     0    21     1    21
  5.2972200211699676E-02 a       522     0    21     1    22
 -8.9260631330058109E-03 a       523     0    21     1    23
  1.5811740906370864E-01 a       524     0    21     1    24
 -3.6816846368606376E-01 a       525     0    21     1    25
  1.8374225579530456E-02 a       526     0    22     1     1
 -1.0644189622071466E-01 a       527     0    22     1     2
  2.0055646666442464E-01 a       528     0    22     1     3
 -9.7012569540466942E-02 a       529     0    22     1     4
 -1.2601727461871981E-01 a       530     0    22     1     5
  1.1689451885379405E-01 a       531     0    22     1     6
 -1.8335908077663035E-01 a       532     0    22     1     7
 -6.8112277829448065E-02 a       533     0    22     1     8
  6.1837508096719722E-02 a       534     0    22     1     9
  2.6819382298137670E-03 a       535     0    22     1    10
  3.0316804443085408E-02 a       536     0    22     1    11
 -7.8926616827071833E-02 a       537     0    22     1    12
 -3.1469490303659683E-02 a       538     0    22     1    13
 -2.0698284283977356E-01 a       539     0    22     1    14
 -1.0733715367694979E-01 a       540     0    22     1    15
 -1.3133993705796798E-01 a       541     0    22     1    16
  1.9411971984898352E-01 a       542     0    22     1    17
 -2.4175030876483092E-01 a       543     0    22     1    18
  1.9352305068894612E-01 a       544     0    22     1    19
 -2.5303818091988972E-01 a       545     0    22     1    20
 -5.3678944288681238E-02 a       546     0    22     1    21
  1.0144161770730870E-01 a       547     0    22     1    22
 -4.1149438547121907E-02 a       548     0    22     1    23
 -1.9228609983494113E-01 a       549     0    22     1    24
 -2.8021139780228765E-01 a       550     0    22     1    25
  6.8252095198267138E-02 a       551     0    23     1     1
 -4.9440265746288764E-03 a       552     0    23     1     2
  3.2199135104896337E-01 a       553     0    23     1     3
  1.5743023464772088E-01 a       554     0    23     1     4
  6.1681334946361049E-02 a       555     0    23     1     5
  3.1198992960328548E-02 a       556     0    23     1     6
  1.7623363357328731E-01 a       557     0    23     1     7
 -1.4287539059394738E-01 a       558     0    23     1     8
  1.2714047350281238E-01 a       559     0    23     1     9
 -5.1012447668235900E-02 a       560     0    23     1    10
 -5.3209738907164690E-04 a       561     0    23     1    11
  4.4756306223889597E-02 a       562     0    23     1    12
 -2.1411094449365700E-01 a       563     0    23     1    13
 -1.8590959138448784E-01 a       564     0    23     1    14
 -1.3336884438027555E-01 a       565     0    23     1    15
 -8.7330880530921362E-02 a       566     0    23     1    16
  1.7724304973602920E-01 a       567     0    23     1    17
 -8.4114539945831346E-02 a       568     0    23     1    18
  1.5874795842572437E-01 a       569     0    23     1    19
  2.9260923180814941E-02 a       570     0    23     1    20
  3.6124924390003726E-02 a       571     0    23     1    21
  2.5475195273701222E-04 a       572     0    23     1    22
  7.7469419937762256E-03 a       573     0    23     1    23
 -1.7446747486071490E-01 a       574     0    23     1    24
 -2.1279754988158270E-01 a       575     0    23     1    25
 -5.8642932117555190E-02 a       576     0    24     1     1
 -1.4700267729087746E-01 a       577     0    24     1     2
  1.9380485529671121E-01 a       578     0    24     1     3
  1.1502084560449011E-01 a       579     0    24     1     4
  1.4887397890636384E-01 a       580     0    24     1     5
  4.1246458449105433E-02 a       581     0    24     1     6
  1.4704271236046168E-01 a       582     0    24     1     7
  1.3843769950290992E-02 a       583     0    24     1     8
  1.3072105403217824E-01 a       584     0    24     1     9
 -6.0674526978778252E-02 a       585     0    24     1    10
 -2.0144117743865139E-01 a       586     0    24     1    11
 -1.0100253201590742E-01 a       587     0    24     1    12
 -1.5939501728166347E-01 a       588     0    24     1    13
 -5.9561626144083835E-02 a       589     0    24     1    14
 -1.7402473857588915E-01 a       590     0    24     1    15
 -3.2915754765533753E-02 a       591     0    24     1    16
  5.5603128963782632E-02 a       592     0    24     1    17
 -3.0096519835603255E-02 a       593     0    24     1    18
  1.1791946243318595E-01 a       594     0    24     1    19
 -9.5273131818793754E-04 a       595     0    24     1    20
  1.3173681873250759E-01 a       596     0    24     1    21
  1.1737553214724890E-01 a       597     0    24     1    22
 -1.8507914958301058E-01 a       598     0    24     1    23
 -4.8352193487305913E-02 a       599     0    24     1    24
 -1.4897306009581635E-01 a       600     0    24     1    25
 -1.6017681673908185E-01 a       601     0    25     1     1
 -8.6735040642182154E-02 a       602     0    25     1     2
  1.6399339880461689E-01 a       603     0    25     1     3
  2.3799205845636894E-02 a       604     0    25     1     4
 -1.3890518188633413E-01 a       605     0    25     1     5
  1.2472299853301412E-01 a       606     0    25     1     6
 -2.2001969207674981E-02 a       607     0    25     1     7
 -2.6848770480260478E-02 a       608     0    25     1     8
 -8.2481076360258282E-02 a       609     0    25     1     9
 -2.7560720801182076E-01 a       610     0    25     1    10
  4.6535343617876236E-02 a       611     0    25     1    11
  1.0501198352050704E-01 a       612     0    25     1    12
  5.1638277654624420E-02 a       613     0    25     1    13
  1.4455317386189107E-01 a       614     0    25     1    14
  2.6766188803203392E-02 a       615     0    25     1    15
  7.7315559882862026E-02 a       616     0    25     1    16
  1.5436681021176449E-01 a       617     0    25     1    17
 -1.2110482816643738E-01 a       618     0    25     1    18
 -1.5072519817079771E-01 a       619     0    25     1    19
 -1.3110924018894038E-01 a       620     0    25     1    20
  1.5487733758964582E-02 a       621     0    25     1    21
  1.8835099633492883E-01 a       622     0    25     1    22
 -4.4375826088499451E-02 a       623     0    25     1    23
  1.2686891452614643E-01 a       624     0    25     1    24
 -1.3806828676460761E-01 a       625     0    25     1    25
  1.8947755860257864E-01 a       626     0    26     1     1
 -5.0270437664883441E-02 a       627     0    26     1     2
  2.3976560995052884E-01 a       628     0    26     1     3
 -5.7837550303525345E-03 a       629     0    26     1     4
 -1.0886823976696329E-01 a       630     0    26     1     5
 -1.9990475271115322E-02 a       631     0    26     1     6
  1.5738182283331420E-01 a       632     0    26     1     7
 -1.7447902883073155E-01 a       633     0    26     1     8
 -2.7236775286358407E-02 a       634     0    26     1     9
  8.2803708567612710E-02 a       635     0    26     1    10
 -1.8658579240247536E-01 a       636     0    26     1    11
  1.6822723943234155E-02 a       637     0    26     1    12
 -2.8463659173818372E-03 a       638     0    26     1    13
 -1.9267842802042155E-02 a       639     0    26     1    14
 -3.9642342907483467E-02 a       640     0    26     1    15
 -3.4448777546790504E-01 a       641     0    26     1    16
  1.1508431690477956E-01 a       642     0    26     1    17
 -1.3218798712940835E-04 a       643     0    26     1    18
 -5.6738373706962705E-02 a       644     0    26     1    19
 -9.8764480352737327E-02 a       645     0    26     1    20
  1.6518463628822669E-01 a       646     0    26     1    21
 -1.3499185252694118E-01 a       647     0    26     1    22
 -1.6107154561536005E-01 a       648     0    26     1    23
 -1.8339384565454322E-01 a       649     0    26     1    24
 -2.0259556500606093E-02 a       650     0    26     1    25
 -5.5084445644554947E-02 a       651     0    27     1     1
 -4.9167218689127316E-02 a       652     0    27     1     2
  2.2712297276298959E-01 a       653     0    27     1     3
  6.4464863334180708E-02 a       654     0    27     1     4
 -8.3690323106556233E-02 a       655     0    27     1     5
  3.3820556187339340E-02 a       656     0    27     1     6
 -1.8860111231650492E-01 a       657     0    27     1     7
 -1.2521123721279942E-01 a       658     0    27     1     8
  6.1618957988624212E-02 a       659     0    27     1     9
  1.7803510635563211E-03 a       660     0    27     1    10
 -8.0907358578813111E-03 a       661     0    27     1    11
  1.0600268138624991E-01 a       662     0    27     1    12
  1.7873709502032983E-01 a       663     0    27     1    13
 -4.8593434537393475E-02 a       664     0    27     1    14
 -1.6636809542406517E-01 a       665     0    27     1    15
 -1.7836312744670894E-02 a       666     0    27     1    16
 -1.6761582165513583E-01 a       667     0    27     1    17
  9.0121384910474556E-02 a       668     0    27     1    18
  6.9308541654599751E-02 a       669     0    27     1    19
 -4.2142950734182380E-02 a       670     0    27     1    20
 -2.8882222953571936E-02 a       671     0    27     1    21
 -1.8857570344971417E-01 a       672     0    27     1    22
 -6.5355981639382303E-03 a       673     0    27     1    23
  2.7733639852822561E-01 a       674     0    27     1    24
  9.3886472239389784E-02 a       675     0    27     1    25
  2.0332384312316826E-01 a       676     0    28     1     1
 -2.3945392588943579E-01 a       677     0    28     1     2
  2.0773878392052575E-01 a       678     0    28     1     3
  1.2670850405912384E-01 a       679     0    28     1     4
  8.5691964678352203E-02 a       680     0    28     1     5
  5.1386522783015082E-03 a       681     0    28     1     6
  6.0713388813371030E-02 a       682     0    28     1     7
  7.8118917112860203E-02 a       683     0    28     1     8
 -1.2236373330493291E-01 a       684     0    28     1     9
 -7.3704460626907692E-02 a       685     0    28     1    10
 -1.5509114139080071E-02 a       686     0    28     1    11
  1.3730938708281154E-01 a       687     0    28     1    12
 -2.3293579548778788E-02 a       688     0    28     1    13
 -1.3624927106233803E-01 a       689     0    28     1    14
 -1.0226884004478154E-01 a       690     0    28     1    15
  3.9218403569906916E-03 a       691     0    28     1    16
  2.1522796327343674E-01 a       692     0    28     1    17
 -1.3069697645756956E-01 a       693     0    28     1    18
 -1.2738545153487674E-01 a       694     0    28     1    19
 -1.3807147964616720E-01 a       695     0    28     1    20
 -7.3989124050419297E-02 a       696     0    28     1    21
  3.2587872954472692E-02 a       697     0    28     1    22
 -6.7377179929552819E-02 a       698     0    28     1    23
 -1.3196045668075543E-01 a       699     0    28     1    24
  1.5459761106621814E-01 a       700     0    28     1    25
 -1.3419548147866450E-01 a       701     0    29     1     1
  1.0814851013886523E-01 a       702     0    29     1     2
  1.9633656420040210E-01 a       703     0    29     1     3
  1.4557072395184112E-01 a       704     0    29     1     4
  4.4822497379268904E-02 a       705     0    29     1     5
  3.6142505634847361E-02 a       706     0    29     1     6
  8.7072567201781720E-02 a       707     0    29     1     7
  6.0112732166401950E-02 a       708     0    29     1     8
  2.6057117667173890E-02 a       709     0    29     1     9
 -1.0947292749511692E-01 a       710     0    29     1    10
  1.1976253897706676E-01 a       711     0    29     1    11
 -6.9144927269817039E-02 a       712     0    29     1    12
 -9.8328639233839027E-02 a       713     0    29     1    13
  1.1141579784167971E-01 a       714     0    29     1    14
 -2.8779259454183921E-02 a       715     0    29     1    15
 -1.9881842042777730E-02 a       716     0    29     1    16
  3.4014528830243612E-02 a       717     0    29     1    17
 -1.7064109094082328E-01 a       718     0    29     1    18
  1.3863070982135769E-01 a       719     0    29     1    19
  2.5831212747644602E-02 a       720     0    29     1    20
 -5.5217174094998815E-02 a       721     0    29     1    21
  8.3684363126968697E-02 a       722     0    29     1    22
  2.5367211877890879E-02 a       723     0    29     1    23
  1.4324328255754931E-01 a       724     0    29     1    24
 -1.1212650270540997E-01 a       725     0    29     1    25
  4.6258776480771827E-02 a       726     0    30     1     1
  1.5084576807078276E-02 a       727     0    30     1     2
  4.2110882379009520E-02 a       728     0    30     1     3
  9.1660395207831917E-03 a       729     0    30     1     4
  7.7786707917994954E-02 a       730     0    30     1     5
  1.6511062646104649E-01 a       731     0    30     1     6
 -2.0545399573417777E-02 a       732     0    30     1     7
  7.5117880331923251E-02 a       733     0    30     1     8
  1.0777982019659638E-01 a       734     0    30     1     9
 -2.8631095082965241E-01 a       735     0    30     1    10
 -1.3969959153687977E-01 a       736     0    30     1    11
  1.0495020110564821E-01 a       737     0    30     1    12
 -1.4373149156893658E-01 a       738     0    30     1    13
  1.7306846211166037E-02 a       739     0    30     1    14
 -1.5755107517983261E-01 a       740     0    30     1    15
 -1.3226264251347242E-01 a       741     0    30     1    16
 -1.9923242452531173E-02 a       742     0    30     1    17
 -1.4430808641481840E-01 a       743     0    30     1    18
  1.8017873856448810E-01 a       744     0    30     1    19
 -9.5509939851599113E-02 a       745     0    30     1    20
  3.4522735388789826E-02 a       746     0    30     1    21
 -1.5424882304030346E-01 a       747     0    30     1    22
  8.7196411259737330E-02 a       748     0    30     1    23
  5.0378911513981439E-02 a       749     0    30     1    24
  2.6889198257925219E-02 a       750     0    30     1    25
 -5.4951624242923221E-02 a       751     0    31     1     1
 -1.7453276474977691E-01 a       752     0    31     1     2
 -1.2102634832929961E-01 a       753     0    31     1     3
 -1.1284155161957961E-01 a       754     0    31     1     4
 -7.1828774923968539E-02 a       755     0    31     1     5
  1.7178176932885042E-01 a       756     0    31     1     6
  6.4265608292934248E-02 a       757     0    31     1     7
  7.9069158467759262E-02 a       758     0    31     1     8
 -6.3167351375147354E-02 a       759     0    31     1     9
 -1.2804192370859099E-01 a       760     0    31     1    10
  8.7097298334738296E-02 a       761     0    31     1    11
  8.6208474185185305E-02 a       762     0    31     1    12
 -1.0766595072790335E-01 a       763     0    31     1    13
  8.4067870328601205E-02 a       764     0    31     1    14
  1.0756433608615833E-01 a       765     0    31     1    15
  3.0477966805948449E-02 a       766     0    31     1    16
  1.3345372967700311E-01 a       767     0    31     1    17
  2.0632348616709137E-02 a       768     0    31     1    18
  1.4611238078304487E-01 a       769     0    31     1    19
  2.5673444025683508E-02 a       770     0    31     1    20
 -6.9873863406330394E-02 a       771     0    31     1    21
 -1.8806879822375829E-02 a       772     0    31     1    22
 -1.5730950141915973E-01 a       773     0    31     1    23
 -2.1862875298531415E-01 a       774     0    31     1    24
  1.5805607566733071E-01 a       775     0    31     1    25
 -1.0499299028766174E-01 a       776     0    32     1     1
 -1.4925777905532966E-01 a       777     0    32     1     2
  3.0421975421283585E-02 a       778     0    32     1     3
 -3.6279665886570681E-02 a       779     0    32     1     4
 -2.8622027590204970E-02 a       780     0    32     1     5
  1.5734994258983240E-01 a       781     0    32     1     6
  1.1865355216134094E-01 a       782     0    32     1     7
 -2.8439781872469172E-03 a       783     0    32     1     8
 -1.6085611512213627E-01 a       784     0    32     1     9
  4.8708769928568606E-03 a       785     0    32     1    10
  9.9458272492168986E-02 a       786     0    32     1    11
 -8.8888941919620587E-02 a       787     0    32     1    12
  1.3341813626475865E-01 a       788     0    32     1    13
 -9.6101737439479626E-02 a       789     0    32     1    14
 -2.7486750381925307E-01 a       790     0    32     1    15
 -1.2898982709612325E-01 a       791     0    32     1    16
 -7.2174136101243276E-03 a       792     0    32     1    17
 -1.5567663412599625E-01 a       793     0    32     1    18
 -7.0598650909622224E-02 a       794     0    32     1    19
  1.7017136982328698E-01 a       795     0    32     1    20
  1.9115289124395664E-02 a       796     0    32     1    21
 -2.1084989892683778E-01 a       797     0    32     1    22
 -2.4911051152549928E-02 a       798     0    32     1    23
  1.1637290612451674E-03 a       799     0    32     1    24
 -1.0791976091162565E-01 a       800     0    32     1    25
 -1.8091425012066859E-02 a       801     0    33     1     1
  9.0110380559626474E-02 a       802     0    33     1     2
 -8.7545107130146765E-02 a       803     0    33     1     3
 -5.5663812181606112E-02 a       804     0    33     1     4
 -1.3469232254981889E-01 a       805     0    33     1     5
 -6.6719490544389623E-02 a       806     0    33     1     6
 -8.8224323575353831E-03 a       807     0    33     1     7
  4.3912214809438195E-02 a       808     0    33     1     8
 -9.2883546874335060E-02 a       809     0    33     1     9
 -1.2996530080329000E-01 a       810     0    33     1    10
  8.7671073426327573E-02 a       811     0    33     1    11
 -1.4768703043383444E-01 a       812     0    33     1    12
  1.7305894626450158E-01 a       813     0    33     1    13
  1.9590951800700615E-01 a       814     0    33     1    14
 -1.2310872623818379E-01 a       815     0    33     1    15
  1.6608083328824391E-01 a       816     0    33     1    16
 -2.6380397770165332E-04 a       817     0    33     1    17
 -1.1002245552676738E-01 a       818     0    33     1    18
 -7.5999057735221087E-02 a       819     0    33     1    19
  1.2484657177175350E-01 a       820     0    33     1    20
  1.6560417771656707E-01 a       821     0    33     1    21
  3.1549936121336170E-01 a       822     0    33     1    22
 -4.4329797619059946E-02 a       823     0    33     1    23
 -6.4665794460453006E-03 a       824     0    33     1    24
 -2.2736265570482400E-01 a       825     0    33     1    25
  1.3578318493866409E-01 a       826     0    34     1     1
 -6.8970990957813505E-02 a       827     0    34     1     2
  5.2502751485840583E-02 a       828     0    34     1     3
 -8.7956746546519332E-02 a       829     0    34     1     4
 -1.1349386776463007E-01 a       830     0    34     1     5
  2.0040943140742815E-02 a       831     0    34     1     6
  1.3788511722469249E-01 a       832     0    34     1     7
  6.5081817446152448E-02 a       833     0    34     1     8
  7.6167923932910234E-02 a       834     0    34     1     9
 -1.3466132677602075E-01 a       835     0    34     1    10
  1.4818177097120761E-02 a       836     0    34     1    11
 -3.3409066517041286E-02 a       837     0    34     1    12
  2.6897809002944185E-02 a       838     0    34     1    13
 -6.6442953900723772E-02 a       839     0    34     1    14
  1.2522741751542954E-01 a       840     0    34     1    15
  5.6988467617091997E-02 a       841     0    34     1    16
  1.6222466336449454E-01 a       842     0    34     1    17
 -2.9801203563806417E-02 a       843     0    34     1    18
 -7.2156314216032663E-02 a       844     0    34     1    19
 -4.1196649094568542E-02 a       845     0    34     1    20
  1.5633310570137790E-01 a       846     0    34     1    21
  2.6137862771831194E-02 a       847     0    34     1    22
  1.1743839343648427E-01 a       848     0    34     1    23
 -1.1343590920328442E-01 a       849     0    34     1    24
  1.3907100196199042E-02 a       850     0    34     1    25
 -2.9765102920697962E-04 a       851     0    35     1     1
  2.9071135525042485E-01 a       852     0    35     1     2
 -2.2705112139781497E-01 a       853     0    35     1     3
  1.5985452232920241E-01 a       854     0    35     1     4
 -6.7421609585362960E-02 a       855     0    35     1     5
  4.2795224964625900E-02 a       856     0    35     1     6
  3.6839342844422515E-02 a       857     0    35     1     7
 -8.5404364868250066E-02 a       858     0    35     1     8
  1.7506116995589002E-02 a       859     0    35     1     9
 -1.5013970072334143E-01 a       860     0    35     1    10
  5.6883229870835182E-02 a       861     0    35     1    11
 -6.4985560560486266E-02 a       862     0    35     1    12
  3.3791355101684661E-01 a       863     0    35     1    13
 -1.4975833028831181E-02 a       864     0    35     1    14
 -5.0557613365380831E-02 a       865     0    35     1    15
  2.7002794296856714E-01 a       866     0    35     1    16
  6.0070145952287352E-02 a       867     0    35     1    17
 -9.1703026870219417E-02 a       868     0    35     1    18
 -1.5276968326996947E-02 a       869     0    35     1    19
  1.6780775589848823E-01 a       870     0    35     1    20
 -2.8927613109522944E-02 a       871     0    35     1    21
  4.1221265962163844E-01 a       872     0    35     1    22
  1.7579473676559040E-01 a       873     0    35     1    23
  2.8300784223748976E-01 a       874     0    35     1    24
 -3.1035069616556343E-01 a       875     0    35     1    25
 -9.5106805244562873E-02 a       876     0    36     1     1
 -1.8738094655545612E-01 a       877     0    36     1     2
 -1.8594020855241011E-01 a       878     0    36     1     3
 -1.1530591987201043E-01 a       879     0    36     1     4
  6.8793102050791685E-02 a       880     0    36     1     5
  1.9681388305056327E-01 a       881     0    36     1     6
  5.8897612111632670E-02 a       882     0    36     1     7
 -1.6582190937189353E-01 a       883     0    36     1     8
  4.4420085734317619E-02 a       884     0    36     1     9
  1.7291527918472022E-01 a       885     0    36     1    10
 -2.1347019878239712E-02 a       886     0    36     1    11
  1.3405740733321134E-01 a       887     0    36     1    12
 -9.1729992948248740E-03 a       888     0    36     1    13
 -2.3778461240120657E-01 a       889     0    36     1    14
  1.2996762375168555E-01 a       890     0    36     1    15
  2.2213923322666199E-02 a       891     0    36     1    16
 -9.0527906160704580E-02 a       892     0    36     1    17
  4.6700192573579921E-02 a       893     0    36     1    18
  8.0315482555581588E-02 a       894     0    36     1    19
  4.2244657249558656E-02 a       895     0    36     1    20
  1.1506149750974692E-01 a       896     0    36     1    21
  1.6733450395593282E-03 a       897     0    36     1    22
  3.2423116697566097E-02 a       898     0    36     1    23
  3.0469236825053245E-02 a       899     0    36     1    24
  8.0944996810836042E-03 a       900     0    36     1    25
  2.3357377690325359E-01 a       901     0    37     1     1
  1.7590100795018250E-02 a       902     0    37     1     2
 -5.2577914037754386E-02 a       903     0    37     1     3
 -6.2083185622930338E-02 a       904     0    37     1     4
  1.0840513849024161E-02 a       905     0    37     1     5
  8.7987197871509618E-02 a       906     0    37     1     6
  4.3624632724856838E-03 a       907     0    37     1     7
  2.2068629933549681E-02 a       908     0    37     1     8
 -1.5060077418043158E-01 a       909     0    37     1     9
 -8.7836140628847009E-02 a       910     0    37     1    10
  6.3087379797087631E-02 a       911     0    37     1    11
 -1.2481595150622249E-01 a       912     0    37     1    12
 -1.8340250286735035E-01 a       913     0    37     1    13
 -3.7370295373378970E-01 a       914     0    37     1    14
  1.0142123714331255E-01 a       915     0    37     1    15
 -6.6132613451261590E-02 a       916     0    37     1    16
  1.9072735798630680E-01 a       917     0    37     1    17
 -4.5466079087022972E-02 a       918     0    37     1    18
 -2.6019636969140728E-02 a       919     0    37     1    19
  9.5430598698413444E-02 a       920     0    37     1    20
  2.8469155349801017E-01 a       921     0    37     1    21
  1.2694318533898930E-01 a       922     0    37     1    22
  8.0935517849341748E-02 a       923     0    37     1    23
 -9.2379674719678270E-02 a       924     0    37     1    24
  1.6972796354349040E-01 a       925     0    37     1    25
  2.2432469156856921E-01 a       926     0    38     1     1
 -1.1770805269774799E-01 a       927     0    38     1     2
 -1.6068467462126365E-01 a       928     0    38     1     3
 -1.4478878530894365E-01 a       929     0    38     1     4
 -3.3587506965900980E-02 a       930     0    38     1     5
  9.0007304111356268E-02 a       931     0    38     1     6
 -1.3878290843636298E-01 a       932     0    38     1     7
 -4.6965649586650005E-02 a       933     0    38     1     8
  1.5173908058502117E-01 a       934     0    38     1     9
 -1.9745265832091860E-01 a       935     0    38     1    10
  6.4898235317988294E-03 a       936     0    38     1    11
 -2.6955987633341338E-01 a       937     0    38     1    12
  1.3884583450004551E-01 a       938     0    38     1    13
 -1.0868641685619280E-02 a       939     0    38     1    14
  1.5431653787304722E-01 a       940     0    38     1    15
 -1.9026969233656987E-01 a       941     0    38     1    16
  2.2236011786077728E-01 a       942     0    38     1    17
 -9.5261485925709891E-02 a       943     0    38     1    18
  1.2145775908456738E-01 a       944     0    38     1    19
  1.3224063277385220E-01 a       945     0    38     1    20
  3.7283148539960304E-01 a       946     0    38     1    21
  9.3735288643482267E-02 a       947     0    38     1    22
 -6.5825201757783072E-02 a       948     0    38     1    23
  8.5449219028417275E-02 a       949     0    38     1    24
  4.8922863302898779E-02 a       950     0    38     1    25
  6.3972600399606325E-02 a       951     0    39     1     1
  8.5389753956294251E-02 a       952     0    39     1     2
  3.2251506828114118E-02 a       953     0    39     1     3
 -2.5187998636588341E-02 a       954     0    39     1     4
 -1.1611743874120845E-01 a       955     0    39     1     5
  1.3555766238472103E-01 a       956     0    39     1     6
 -3.3452335666344241E-01 a       957     0    39     1     7
  5.5380682049338138E-02 a       958     0    39     1     8
  9.9630484603104905E-02 a       959     0    39     1     9
 -5.5146938720609745E-02 a       960     0    39     1    10
 -1.2685641253374810E-01 a       961     0    39     1    11
 -1.5561800056151145E-01 a       962     0    39     1    12
  1.5042346852319990E-02 a       963     0    39     1    13
 -1.2450201225407695E-01 a       964     0    39     1    14
  1.2750131812763596E-01 a       965     0    39     1    15
  3.9970155326007638E-02 a       966     0    39     1    16
  1.0895550729011508E-01 a       967     0    39     1    17
 -2.6757388609279099E-02 a       968     0    39     1    18
  1.7181965909579233E-01 a       969     0    39     1    19
 -1.4759413109091329E-01 a       970     0    39     1    20
  5.4147951889746977E-02 a       971     0    39     1    21
  1.1514307967701208E-01 a       972     0    39     1    22
 -1.8141094936197152E-01 a       973     0    39     1    23
  1.7238544245783974E-01 a       974     0    39     1    24
 -1.0437447440245226E-01 a       975     0    39     1    25
  1.7238912378847565E-01 a       976     0    40     1     1
  4.9603649906227391E-02 a       977     0    40     1     2
  1.4108420268404248E-01 a       978     0    40     1     3
  4.1050568862799293E-02 a       979     0    40     1     4
  1.4064876791045788E-01 a       980     0    40     1     5
  1.8659209947189220E-01 a       981     0    40     1     6
 -1.2229620802003570E-01 a       982     0    40     1     7
 -6.2688135293474209E-02 a       983     0    40     1     8
 -5.8940695104283083E-02 a       984     0    40     1     9
 -1.2295459152149892E-01 a       985     0    40     1    10
 -1.5558325495888151E-01 a       986     0    40     1    11
  7.6656841665403055E-02 a       987     0    40     1    12
 -8.0357877206112940E-02 a       988     0    40     1    13
 -3.8546852969226574E-02 a       989     0    40     1    14
  3.7448907725758172E-02 a       990     0    40     1    15
  1.4206126824645865E-01 a       991     0    40     1    16
  8.3657587088383639E-02 a       992     0    40     1    17
 -5.2047320754971441E-02 a       993     0    40     1    18
 -2.4321710645725334E-02 a       994     0    40     1    19
 -1.1220221530427940E-02 a       995     0    40     1    20
  9.4593656091344097E-02 a       996     0    40     1    21
 -1.1645597933178825E-01 a       997     0    40     1    22
  1.2854068439361160E-01 a       998     0    40     1    23
 -1.2747183860362731E-02 a       999     0    40     1    24
 -6.6012309329217062E-02 a      1000     0    40     1    25
  1.4873641633958784E-01 a      1001     0    41     1     1
 -1.2714385380167645E-01 a      1002     0    41     1     2
 -8.7922820214144909E-02 a      1003     0    41     1     3
  1.2865063579830954E-01 a      1004     0    41     1     4
  7.3808362219177068E-02 a      1005     0    41     1     5
  1.6046263234766053E-01 a      1006     0    41     1     6
 -6.3293468272855161E-02 a      1007     0    41     1     7
 -1.0332956923918149E-01 a      1008     0    41     1     8
 -8.5100462927346313E-02 a      1009     0    41     1     9
  5.2349738715055612E-02 a      1010     0    41     1    10
 -2.2357535952604818E-01 a      1011     0    41     1    11
 -1.5756250484277162E-01 a      1012     0    41     1    12
 -6.0933421759861925E-03 a      1013     0    41     1    13
  8.0941526731258887E-03 a      1014     0    41     1    14
  1.4503522529639315E-01 a      1015     0    41     1    15
  3.8172918001392317E-02 a      1016     0    41     1    16
 -3.3321020905938491E-02 a      1017     0    41     1    17
 -1.4472935760846928E-01 a      1018     0    41     1    18
 -1.1341980145805945E-01 a      1019     0    41     1    19
 -1.3621958332473669E-01 a      1020     0    41     1    20
  2.1024061054444931E-01 a      1021     0    41     1    21
 -1.4048036179414927E-01 a      1022     0    41     1    22
  5.9022126684626891E-02 a      1023     0    41     1    23
 -2.1793057421834283E-01 a      1024     0    41     1    24
 -2.2207770493344747E-01 a      1025     0    41     1    25
 -2.2998080955817991E-02 a      1026     0    42     1     1
 -1.1300427091964091E-01 a      1027     0    42     1     2
 -3.3886760694085177E-01 a      1028     0    42     1     3
 -1.9152562571548268E-01 a      1029     0    42     1     4
  4.6762823072535417E-02 a      1030     0    42     1     5
 -8.4909962797640584E-02 a      1031     0    42     1     6
 -1.5391458889542719E-02 a      1032     0    42     1     7
  7.9021127790563653E-02 a      1033     0    42     1     8
  1.2023193181882896E-01 a      1034     0    42     1     9
  1.1384048467989990E-02 a      1035     0    42     1    10
  1.1567356563745872E-01 a      1036     0    42     1    11
  4.1038283083226219E-02 a      1037     0    42     1    12
 -8.3456573379198817E-02 a      1038     0    42     1    13
 -2.2161566121676490E-01 a      1039     0    42     1    14
  1.5571418969083751E-02 a      1040     0    42     1    15
  4.2636347698686169E-02 a      1041     0    42     1    16
  2.0906751576152596E-01 a      1042     0    42     1    17
 -1.7311753784154654E-01 a      1043     0    42     1    18
 -2.2738830317322777E-02 a      1044     0    42     1    19
 -1.8930229040112444E-02 a      1045     0    42     1    20
  2.7254865535282236E-01 a      1046     0    42     1    21
  4.1534307295703912E-02 a      1047     0    42     1    22
 -1.0667342724647845E-01 a      1048     0    42     1    23
  1.1100416456498555E-01 a      1049     0    42     1    24
 -1.7245074523725851E-01 a      1050     0    42     1    25
 -1.1234935057980448E-01 a      1051     0    43     1     1
  9.7195916101114249E-02 a      1052     0    43     1     2
  1.4807868089141973E-01 a      1053     0    43     1     3
 -3.8829935635250772E-02 a      1054     0    43     1     4
  8.7718178765369744E-03 a      1055     0    43     1     5
 -1.2099252862029485E-01 a      1056     0    43     1     6
 -9.0865472155036264E-02 a      1057     0    43     1     7
  1.2649743289638229E-01 a      1058     0    43     1     8
  7.2229405768504770E-02 a      1059     0    43     1     9
 -1.5974963861087635E-01 a      1060     0    43     1    10
 -5.7157016408468951E-02 a      1061     0    43     1    11
 -1.5361908408449762E-01 a      1062     0    43     1    12
 -7.6116315954492919E-02 a      1063     0    43     1    13
  8.0397671269852131E-02 a      1064     0    43     1    14
  1.7801131235280016E-01 a      1065     0    43     1    15
 -7.9642368616461900E-02 a      1066     0    43     1    16
  3.9971409646517568E-02 a      1067     0    43     1    17
  6.1272041477723971E-02 a      1068     0    43     1    18
  8.8553181347865911E-02 a      1069     0    43     1    19
 -6.7398137872277206E-02 a      1070     0    43     1    20
  7.5731347268871901E-02 a      1071     0    43     1    21
 -1.1469602046716414E-02 a      1072     0    43     1    22
  1.0008744390002411E-01 a      1073     0    43     1    23
  1.6509571399546433E-01 a      1074     0    43     1    24
  4.6412103792100763E-02 a      1075     0    43     1    25
  5.5196763676584368E-02 a      1076     0    44     1     1
  2.3162642677453896E-02 a      1077     0    44     1     2
 -9.5775773117518462E-02 a      1078     0    44     1     3
  1.2235868823956338E-01 a      1079     0    44     1     4
 -1.2755934701235219E-01 a      1080     0    44     1     5
  4.8398059371202673E-02 a      1081     0    44     1     6
 -8.0491168286432838E-02 a      1082     0    44     1     7
  1.4988879163837163E-01 a      1083     0    44     1     8
  1.7470128538566279E-01 a      1084     0    44     1     9
  9.0587392253336244E-02 a      1085     0    44     1    10
  7.3383964911661617E-02 a      1086     0    44     1    11
  5.7577369341752914E-02 a      1087     0    44     1    12
 -3.7025894291682709E-02 a      1088     0    44     1    13
 -1.9309511578999808E-01 a      1089     0    44     1    14
  1.3677255961138782E-01 a      1090     0    44     1    15
  6.3101677429827710E-02 a      1091     0    44     1    16
 -9.6023361404741339E-02 a      1092     0    44     1    17
  6.6329620310647389E-02 a      1093     0    44     1    18
 -8.1624128247273185E-03 a      1094     0    44     1    19
  4.4897146688758445E-02 a      1095     0    44     1    20
  1.4565538400494979E-01 a      1096     0    44     1    21
 -6.0888480087340068E-02 a      1097     0    44     1    22
 -4.5443017850339239E-02 a      1098     0    44     1    23
  1.4501469540385689E-01 a      1099     0    44     1    24
  7.8212599581583466E-03 a      1100     0    44     1    25
  1.3123671377313720E-01 a      1101     0    45     1     1
 -5.6850741797321365E-02 a      1102     0    45     1     2
  1.8513931917149062E-01 a      1103     0    45     1     3
  8.0407938653166186E-02 a      1104     0    45     1     4
 -4.6155447648635217E-02 a      1105     0    45     1     5
  1.6833979182622161E-01 a      1106     0    45     1     6
 -1.7017413460722816E-01 a      1107     0    45     1     7
 -2.2174717777193490E-02 a      1108     0    45     1     8
  1.0723981111721652E-01 a      1109     0    45     1     9
  5.9013854523019264E-02 a      1110     0    45     1    10
 -1.4283205987854673E-02 a      1111     0    45     1    11
 -1.0015037006666856E-01 a      1112     0    45     1    12
  9.4579911467453676E-02 a      1113     0    45     1    13
 -1.6565512261064264E-01 a      1114     0    45     1    14
 -6.0893545550830826E-02 a      1115     0    45     1    15
 -6.7339416863013632E-02 a      1116     0    45     1    16
  8.7544373017273858E-02 a      1117     0    45     1    17
  5.6394454492822432E-02 a      1118     0    45     1    18
  2.6732538784412278E-02 a      1119     0    45     1    19
 -1.8504053705036205E-01 a      1120     0    45     1    20
 -1.1481377750825085E-01 a      1121     0    45     1    21
 -5.7501017579269550E-02 a      1122     0    45     1    22
 -2.9407665549467381E-02 a      1123     0    45     1    23
  1.5606823281778512E-01 a      1124     0    45     1    24
 -7.2706988456854346E-02 a      1125     0    45     1    25
  1.1859748979133874E-01 a      1126     0    46     1     1
  1.2452065954493528E-01 a      1127     0    46     1     2
  1.0030450241702421E-01 a      1128     0    46     1     3
  9.2190211869623520E-02 a      1129     0    46     1     4
  9.9267264450005999E-02 a      1130     0    46     1     5
  7.9563152779436486E-02 a      1131     0    46     1     6
 -2.8943873064035580E-01 a      1132     0    46     1     7
  2.1688848323694533E-02 a      1133     0    46     1     8
  1.3910987790219614E-01 a      1134     0    46     1     9
 -2.1539116010035519E-01 a      1135     0    46     1    10
  2.4451908860139371E-02 a      1136     0    46     1    11
  4.0865365493166061E-03 a      1137     0    46     1    12
  1.9539812813894741E-01 a      1138     0    46     1    13
 -9.1915703427146389E-02 a      1139     0    46     1    14
  9.1140240982930838E-03 a      1140     0    46     1    15
  3.1362007299008449E-01 a      1141     0    46     1    16
 -4.4913652352162235E-02 a      1142     0    46     1    17
 -1.1720550600939550E-01 a      1143     0    46     1    18
  2.9200710065639849E-02 a      1144     0    46     1    19
 -3.2326258188690581E-02 a      1145     0    46     1    20
 -2.4515349059062878E-02 a      1146     0    46     1    21
 -1.8937222497357291E-04 a      1147     0    46     1    22
 -7.6891202548054371E-02 a      1148     0    46     1    23
  1.9979975109896816E-01 a      1149     0    46     1    24
 -7.8555829239547389E-02 a      1150     0    46     1    25
  1.2614797865990968E-01 a      1151     0    47     1     1
 -1.0896611058326958E-01 a      1152     0    47     1     2
  1.2930968428111173E-01 a      1153     0    47     1     3
 -5.1153885870054379E-02 a      1154     0    47     1     4
 -2.6125499202573704E-02 a      1155     0    47     1     5
  1.2877342511464437E-01 a      1156     0    47     1     6
  2.8170575066213582E-01 a      1157     0    47     1     7
  4.3583964409229042E-02 a      1158     0    47     1     8
 -5.8244957389874299E-02 a      1159     0    47     1     9
 -7.8228363020374295E-02 a      1160     0    47     1    10
 -7.9654780917026213E-02 a      1161     0    47     1    11
 -8.4834679304394839E-02 a      1162     0    47     1    12
 -1.4765822420592944E-01 a      1163     0    47     1    13
  1.7751659216177004E-01 a      1164     0    47     1    14
  8.5949697158740193E-02 a      1165     0    47     1    15
 -7.5032313619187982E-02 a      1166     0    47     1    16
 -6.7491105520923522E-02 a      1167     0    47     1    17
  6.8696924906268761E-02 a      1168     0    47     1    18
  1.9785451439569925E-02 a      1169     0    47     1    19
 -1.9353484603721968E-01 a      1170     0    47     1    20
  1.7732300351873226E-01 a      1171     0    47     1    21
  3.8146753627416242E-02 a      1172     0    47     1    22
  3.0865294542454496E-02 a      1173     0    47     1    23
 -2.0090343524330959E-01 a      1174     0    47     1    24
 -3.4814415087148387E-02 a      1175     0    47     1    25
 -1.2469816593572304E-02 a      1176     0    48     1     1
 -2.1916525298421408E-01 a      1177     0    48     1     2
 -4.9555259983024036E-01 a      1178     0    48     1     3
  8.5268903933435308E-02 a      1179     0    48     1     4
  3.0976225295307115E-02 a      1180     0    48     1     5
 -2.6114814063398675E-02 a      1181     0    48     1     6
 -6.1476368283188941E-02 a      1182     0    48     1     7
 -1.4630951306454193E-01 a      1183     0    48     1     8
 -5.1788967496559063E-02 a      1184     0    48     1     9
 -1.9411084902193573E-01 a      1185     0    48     1    10
  5.9638416368285332E-02 a      1186     0    48     1    11
  8.5119850549172871E-02 a      1187     0    48     1    12
  8.9214519499808603E-02 a      1188     0    48     1    13
 -3.4782597980172597E-01 a      1189     0    48     1    14
 -7.9926994358863759E-02 a      1190     0    48     1    15
  4.1462586418485124E-02 a      1191     0    48     1    16
  9.6887014824443299E-02 a      1192     0    48     1    17
 -1.1674170969622222E-01 a      1193     0    48     1    18
  1.7528223172002813E-01 a      1194     0    48     1    19
 -2.7967376381609847E-02 a      1195     0    48     1    20
 -5.1531170510864775E-02 a      1196     0    48     1    21
  4.0850611123249302E-02 a      1197     0    48     1    22
 -2.2320933692581818E-01 a      1198     0    48     1    23
 -6.1863572348863319E-02 a      1199     0    48     1    24
 -2.8778377539747690E-01 a      1200     0    48     1    25
  1.7487830232474025E-01 a      1201     0    49     1     1
  4.2885579817928843E-02 a      1202     0    49     1     2
 -4.3242327359718125E-01 a      1203     0    49     1     3
  3.5697176817181563E-02 a      1204     0    49     1     4
  4.2083566655094190E-02 a      1205     0    49     1     5
  8.8820676557385125E-02 a      1206     0    49     1     6
  6.3326474406115107E-02 a      1207     0    49     1     7
 -1.7598616934648158E-02 a      1208     0    49     1     8
 -1.1641751868134018E-01 a      1209     0    49     1     9
 -1.2425393446701105E-01 a      1210     0    49     1    10
  1.8406181877921629E-01 a      1211     0    49     1    11
 -1.3937458522013602E-01 a      1212     0    49     1    12
  6.8079473002669547E-02 a      1213     0    49     1    13
 -3.5018877879025684E-01 a      1214     0    49     1    14
 -1.2776003381276487E-02 a      1215     0    49     1    15
 -1.8437484837629775E-01 a      1216     0    49     1    16
  9.8776518095260779E-02 a      1217     0    49     1    17
 -2.4823617031444858E-01 a      1218     0    49     1    18
 -1.2267555398655888E-01 a      1219     0    49     1    19
  2.5000083894613251E-01 a      1220     0    49     1    20
  1.4961920034176396E-01 a      1221     0    49     1    21
 -3.3630266035050954E-01 a      1222     0    49     1    22
 -1.1680560978139110E-01 a      1223     0    49     1    23
  3.2940150928226608E-01 a      1224     0    49     1    24
 -3.4413432616732903E-01 a      1225     0    49     1    25
  9.2816650025738925E-02 a      1226     0    50     1     1
 -1.4517924512508754E-01 a      1227     0    50     1     2
  6.7862854780941825E-02 a      1228     0    50     1     3
  7.2198260569340353E-02 a      1229     0    50     1     4
  3.1130818079497059E-02 a      1230     0    50     1     5
 -1.0844757712745537E-01 a      1231     0    50     1     6
  2.6501372687334640E-01 a      1232     0    50     1     7
 -7.6418714779201063E-02 a      1233     0    50     1     8
  1.0726277057230546E-01 a      1234     0    50     1     9
  1.5261546923671843E-01 a      1235     0    50     1    10
 -2.6170212734678966E-01 a      1236     0    50     1    11
 -2.1159845071697722E-01 a      1237     0    50     1    12
 -1.6961195770204676E-02 a      1238     0    50     1    13
 -6.1248431242423122E-03 a      1239     0    50     1    14
 -2.1027812963726356E-02 a      1240     0    50     1    15
 -4.8461483312023226E-02 a      1241     0    50     1    16
  2.8995222807628895E-02 a      1242     0    50     1    17
  1.8211673595831443E-01 a      1243     0    50     1    18
  1.0514220419851832E-01 a      1244     0    50     1    19
  1.1415835940335677E-02 a      1245     0    50     1    20
  2.2118131332671057E-01 a      1246     0    50     1    21
  7.5215848464744633E-02 a      1247     0    50     1    22
 -1.4910592485059108E-02 a      1248     0    50     1    23
 -2.9040724634568377E-03 a      1249     0    50     1    24
 -1.3062852288848104E-01 a      1250     0    50     1    25
  2.2606643604020735E-02 a      1251     0    51     1     1
  5.8813593819995437E-02 a      1252     0    51     1     2
  1.2173494270313781E-01 a      1253     0    51     1     3
  5.1040082128505831E-02 a      1254     0    51     1     4
  4.4808555995686776E-02 a      1255     0    51     1     5
 -8.7048568267300785E-02 a      1256     0    51     1     6
 -2.2134619424500282E-01 a      1257     0    51     1     7
  1.2263101538706875E-01 a      1258     0    51     1     8
  7.0008632511461097E-02 a      1259     0    51     1     9
 -5.0142217329522759E-02 a      1260     0    51     1    10
  1.8428543613671133E-02 a      1261     0    51     1    11
 -1.0792997298813099E-01 a      1262     0    51     1    12
  1.1284621561885137E-01 a      1263     0    51     1    13
 -1.4460234164581243E-01 a      1264     0    51     1    14
 -1.5629764421376549E-02 a      1265     0    51     1    15
 -1.2070248090137810E-01 a      1266     0    51     1    16
 -8.9053236003078295E-02 a      1267     0    51     1    17
 -1.1389010177945497E-01 a      1268     0    51     1    18
  6.8627498805884632E-02 a      1269     0    51     1    19
 -1.8379224009591777E-01 a      1270     0    51     1    20
 -5.7594451016662482E-02 a      1271     0    51     1    21
 -2.9634189513360911E-02 a      1272     0    51     1    22
 -1.0877521122929223E-01 a      1273     0    51     1    23
 -6.9664448578671226E-02 a      1274     0    51     1    24
  3.6904891726458687E-02 a      1275     0    51     1    25
 -8.1214842888006775E-02 a      1276     0    52     1     1
 -1.2433431140979617E-01 a      1277     0    52     1     2
 -4.4239532985735619E-01 a      1278     0    52     1     3
 -4.7343048130755128E-02 a      1279     0    52     1     4
 -4.1921588446114627E-02 a      1280     0    52     1     5
  7.1994608287070192E-03 a      1281     0    52     1     6
 -5.0425005305962313E-02 a      1282     0    52     1     7
 -1.4189767095849407E-01 a      1283     0    52     1     8
  1.2805361018939995E-01 a      1284     0    52     1     9
  3.9927455684452155E-02 a      1285     0    52     1    10
 -1.6579975677420589E-01 a      1286     0    52     1    11
 -5.3886202012900203E-02 a      1287     0    52     1    12
 -2.2187841454289850E-01 a      1288     0    52     1    13
 -5.2297599977496730E-02 a      1289     0    52     1    14
 -1.1050447749151458E-02 a      1290     0    52     1    15
 -6.8972246469660006E-02 a      1291     0    52     1    16
 -1.7182368072804811E-02 a      1292     0    52     1    17
 -1.3588022898911176E-01 a      1293     0    52     1    18
 -1.2968463832412797E-01 a      1294     0    52     1    19
  8.9755921682390036E-02 a      1295     0    52     1    20
 -2.4587303768877515E-02 a      1296     0    52     1    21
 -1.7765475144978823E-01 a      1297     0    52     1    22
  1.7778091566930374E-02 a      1298     0    52     1    23
 -9.6011160478504734E-02 a      1299     0    52     1    24
 -1.6819284006791696E-01 a      1300     0    52     1    25
  1.0555301539592428E-01 a      1301     0    53     1     1
 -5.8100004852794533E-02 a      1302     0    53     1     2
 -4.2457082563179743E-01 a      1303     0    53     1     3
 -6.4051753219509566E-02 a      1304     0    53     1     4
 -1.4580903739984594E-02 a      1305     0    53     1     5
 -1.4915298106617175E-01 a      1306     0    53     1     6
  2.4835653205593175E-01 a      1307     0    53     1     7
  3.8965276176493278E-02 a      1308     0    53     1     8
  1.0744734807162806E-01 a      1309     0    53     1     9
  3.0498634334989427E-01 a      1310     0    53     1    10
  1.8262546604924274E-01 a      1311     0    53     1    11
  1.5335534106799489E-01 a      1312     0    53     1    12
 -3.4999563631285147E-02 a      1313     0    53     1    13
 -1.0995507531707466E-01 a      1314     0    53     1    14
 -9.7432579995125210E-02 a      1315     0    53     1    15
 -2.1156921976681051E-01 a      1316     0    53     1    16
  2.5622215035207963E-01 a      1317     0    53     1    17
  7.8285079853555511E-02 a      1318     0    53     1    18
 -2.0869360657629690E-01 a      1319     0    53     1    19
  8.4060870759002121E-02 a      1320     0    53     1    20
  2.2606466944413559E-01 a      1321     0    53     1    21
 -2.0625558821252621E-01 a      1322     0    53     1    22
 -1.9246672027325884E-01 a      1323     0    53     1    23
 -1.6738230967667446E-02 a      1324     0    53     1    24
  3.7583491698561844E-02 a      1325     0    53     1    25
  1.0924956121743824E-01 a      1326     0    54     1     1
 -4.8667969181568370E-02 a      1327     0    54     1     2
  8.9411124310036061E-02 a      1328     0    54     1     3
  1.2575603427134502E-01 a      1329     0    54     1     4
  1.3827830762911117E-01 a      1330     0    54     1     5
 -8.5576781363853868E-02 a      1331     0    54     1     6
 -3.8483286157179419E-01 a      1332     0    54     1     7
  2.0374182661114260E-01 a      1333     0    54     1     8
  4.6263395459499784E-02 a      1334     0    54     1     9
 -1.7066972683202927E-01 a      1335     0    54     1    10
  2.7765972733695987E-01 a      1336     0    54     1    11
  7.3096759102672437E-02 a      1337     0    54     1    12
  4.2120084862089180E-01 a      1338     0    54     1    13
 -1.4090420831268283E-01 a      1339     0    54     1    14
  4.1551845425481203E-02 a      1340     0    54     1    15
  1.2670552048341488E-01 a      1341     0    54     1    16
  5.3332874941686981E-02 a      1342     0    54     1    17
  5.8401469797778015E-02 a      1343     0    54     1    18
  7.8161068283512131E-02 a      1344     0    54     1    19
  1.2075823390397394E-01 a      1345     0    54     1    20
 -1.8394944874598745E-01 a      1346     0    54     1    21
  1.1864402599360832E-01 a      1347     0    54     1    22
 -2.3734793882027524E-01 a      1348     0    54     1    23
  3.1369726421623884E-01 a      1349     0    54     1    24
  7.2556425642508707E-02 a      1350     0    54     1    25
  1.0823842848646648E-01 a      1351     0    55     1     1
 -8.8843144137966835E-03 a      1352     0    55     1     2
 -8.6395117927125356E-02 a      1353     0    55     1     3
  8.3728432735548516E-02 a      1354     0    55     1     4
 -1.1153478534392015E-02 a      1355     0    55     1     5
 -1.3960425339078950E-01 a      1356     0    55     1     6
  1.3200957078958064E-01 a      1357     0    55     1     7
  9.3345554791909729E-02 a      1358     0    55     1     8
  5.0252365221293956E-02 a      1359     0    55     1     9
  1.8447194866123487E-01 a      1360     0    55     1    10
 -1.8355198660477517E-01 a      1361     0    55     1    11
  4.6104559292251310E-02 a      1362     0    55     1    12
 -3.0610799504447850E-01 a      1363     0    55     1    13
  1.5197016021470500E-01 a      1364     0    55     1    14
 -3.4304070317304106E-02 a      1365     0    55     1    15
  1.2182623605717224E-01 a      1366     0    55     1    16
  2.1230296453023187E-01 a      1367     0    55     1    17
 -6.2976668383934023E-02 a      1368     0    55     1    18
 -5.0405619638505886E-03 a      1369     0    55     1    19
  2.0474374287787499E-02 a      1370     0    55     1    20
  3.8119732729837222E-02 a      1371     0    55     1    21
 -4.6550701720847146E-02 a      1372     0    55     1    22
 -8.7771444086821804E-02 a      1373     0    55     1    23
 -2.7915975970699083E-02 a      1374     0    55     1    24
 -2.2039590875897330E-01 a      1375     0    55     1    25
  5.6715882823181893E-02 a      1376     0    56     1     1
  2.0288806116124131E-02 a      1377     0    56     1     2
  6.3556824436266104E-02 a      1378     0    56     1     3
  1.0213484991334391E-01 a      1379     0    56     1     4
  9.1489831105137490E-02 a      1380     0    56     1     5
  3.5677355349421055E-02 a      1381     0    56     1     6
  2.1031989985704665E-02 a      1382     0    56     1     7
  1.2663294087497337E-01 a      1383     0    56     1     8
  3.3735021866702020E-02 a      1384     0    56     1     9
 -1.4693740287976231E-01 a      1385     0    56     1    10
 -1.4218915171420554E-01 a      1386     0    56     1    11
  8.3858692501115509E-02 a      1387     0    56     1    12
  1.3405276520458831E-01 a      1388     0    56     1    13
 -8.2552094036827908E-02 a      1389     0    56     1    14
  3.2095443950693026E-02 a      1390     0    56     1    15
 -3.4605987755403512E-03 a      1391     0    56     1    16
  1.6890839076321795E-01 a      1392     0    56     1    17
 -2.5489271006704628E-01 a      1393     0    56     1    18
  4.5768365198636751E-02 a      1394     0    56     1    19
 -2.3028583250866444E-02 a      1395     0    56     1    20
  1.7952827814850766E-01 a      1396     0    56     1    21
 -6.4640694427469531E-02 a      1397     0    56     1    22
 -1.8981258028295053E-01 a      1398     0    56     1    23
 -1.9224389496326044E-01 a      1399     0    56     1    24
 -3.3495730537537249E-01 a      1400     0    56     1    25
  8.0989678933817852E-02 a      1401     0    57     1     1
 -2.1299942240217831E-02 a      1402     0    57     1     2
  7.0145860810677016E-02 a      1403     0    57     1     3
 -7.2627340405048854E-02 a      1404     0    57     1     4
 -1.5891313573773030E-01 a      1405     0    57     1     5
  2.5814989453718788E-02 a      1406     0    57     1     6
  1.4999493613316964E-01 a      1407     0    57     1     7
 -1.0817837336066828E-01 a      1408     0    57     1     8
 -4.7650061695307319E-02 a      1409     0    57     1     9
  3.2006268649927588E-01 a      1410     0    57     1    10
 -2.2595562613336098E-01 a      1411     0    57     1    11
 -9.3704426047341069E-02 a      1412     0    57     1    12
 -2.7123268014917723E-01 a      1413     0    57     1    13
  1.7027794323780712E-01 a      1414     0    57     1    14
 -2.1604235139634574E-02 a      1415     0    57     1    15
  6.0803483296409729E-02 a      1416     0    57     1    16
  1.6092023775897407E-01 a      1417     0    57     1    17
  1.7943196432298317E-01 a      1418     0    57     1    18
 -1.1740190485642535E-01 a      1419     0    57     1    19
  4.5728183830659422E-02 a      1420     0    57     1    20
 -1.6112773167673823E-02 a      1421     0    57     1    21
  6.9790314440323326E-02 a      1422     0    57     1    22
  6.9463331630761307E-02 a      1423     0    57     1    23
 -1.4612911302014092E-01 a      1424     0    57     1    24
  2.1320289199600143E-01 a      1425     0    57     1    25
  1.3751341633087863E-01 a      1426     0    58     1     1
 -1.7038985119270034E-01 a      1427     0    58     1     2
 -2.1904262267740376E-01 a      1428     0    58     1     3
 -1.9841347952919494E-01 a      1429     0    58     1     4
 -5.9961678129588344E-02 a      1430     0    58     1     5
 -1.0125507447234421E-01 a      1431     0    58     1     6
  1.7829889020719157E-02 a      1432     0    58     1     7
 -5.9967804423440789E-02 a      1433     0    58     1     8
 -1.0830377088636119E-01 a      1434     0    58     1     9
  1.2219492763723694E-01 a      1435     0    58     1    10
 -1.0115926832770003E-01 a      1436     0    58     1    11
  7.3718716305399362E-02 a      1437     0    58     1    12
  1.0997008714343974E-02 a      1438     0    58     1    13
  2.0195810882315154E-01 a      1439     0    58     1    14
 -1.7844392690702127E-01 a      1440     0    58     1    15
  2.1672420592498132E-02 a      1441     0    58     1    16
 -5.6193688090476132E-02 a      1442     0    58     1    17
 -1.7308759384260497E-01 a      1443     0    58     1    18
 -9.9016659204985286E-03 a      1444     0    58     1    19
  4.0851024242221277E-02 a      1445     0    58     1    20
 -1.1416201111653426E-01 a      1446     0    58     1    21
 -2.4610553061950649E-01 a      1447     0    58     1    22
  3.2733040345088261E-02 a      1448     0    58     1    23
 -2.4771640126434519E-01 a      1449     0    58     1    24
  3.1930935324971677E-01 a      1450     0    58     1    25
  3.1118512166060375E-02 a      1451     0    59     1     1
  8.1051610639327198E-03 a      1452     0    59     1     2
  1.7103506555049455E-01 a      1453     0    59     1     3
  1.7381508904648008E-01 a      1454     0    59     1     4
  4.6227543057891757E-02 a      1455     0    59     1     5
 -9.1140484461244453E-02 a      1456     0    59     1     6
  1.0616660778348545E-01 a      1457     0    59     1     7
  1.0723460766904779E-01 a      1458     0    59     1     8
  2.1378222413898307E-01 a      1459     0    59     1     9
 -1.0058569369482856E-01 a      1460     0    59     1    10
  1.0971500328671766E-01 a      1461     0    59     1    11
  6.9881243129705395E-02 a      1462     0    59     1    12
  1.4606533590588924E-01 a      1463     0    59     1    13
 -4.2590841334206536E-01 a      1464     0    59     1    14
  1.1564955102425317E-01 a      1465     0    59     1    15
  6.9336983781987965E-02 a      1466     0    59     1    16
  1.3013778093904071E-01 a      1467     0    59     1    17
  7.4447950235761826E-02 a      1468     0    59     1    18
  2.0293828421244976E-02 a      1469     0    59     1    19
  5.3928093179773179E-02 a      1470     0    59     1    20
  7.7585333178834204E-02 a      1471     0    59     1    21
  1.9431778740663180E-01 a      1472     0    59     1    22
 -8.4633848936505079E-02 a      1473     0    59     1    23
 -2.3657958836141738E-01 a      1474     0    59     1    24
  3.4571327536455532E-02 a      1475     0    59     1    25
  4.8199861749726892E-03 a      1476     0    60     1     1
 -3.5046345357918562E-01 a      1477     0    60     1     2
 -5.7011643540088319E-01 a      1478     0    60     1     3
  2.6330518113771517E-02 a      1479     0    60     1     4
 -1.6930185124891514E-01 a      1480     0    60     1     5
  3.4732463073974297E-03 a      1481     0    60     1     6
  8.3741163486707049E-01 a      1482     0    60     1     7
 -1.0903934912418997E-01 a      1483     0    60     1     8
 -1.0409335622130336E-02 a      1484     0    60     1     9
  6.0833380671911108E-01 a      1485     0    60     1    10
 -2.4622591281780121E-01 a      1486     0    60     1    11
  3.2448260583124156E-01 a      1487     0    60     1    12
  1.9449015853175440E-02 a      1488     0    60     1    13
  2.9249753995411709E-01 a      1489     0    60     1    14
  2.5232783303464268E-01 a      1490     0    60     1    15
 -3.1219651378155914E-02 a      1491     0    60     1    16
  1.0143418396053264E-01 a      1492     0    60     1    17
  7.1378004166597453E-02 a      1493     0    60     1    18
  4.2087782795615890E-02 a      1494     0    60     1    19
 -4.6451455035547595E-02 a      1495     0    60     1    20
  2.0515043574112207E-01 a      1496     0    60     1    21
  1.0447835700685563E-01 a      1497     0    60     1    22
  3.9870671056828330E-02 a      1498     0    60     1    23
 -2.9662123750819464E-01 a      1499     0    60     1    24
  8.2461006525293523E-01 a      1500     0    60     1    25
  4.7092310802294021E-02 a      1501     0    61     1     1
 -4.7164983894368795E-02 a      1502     0    61     1     2
 -3.0284187433524810E-02 a      1503     0    61     1     3
  7.1203807823870438E-02 a      1504     0    61     1     4
 -3.4663366034485783E-02 a      1505     0    61     1     5
  1.1178669288254171E-02 a      1506     0    61     1     6
 -2.3863579757417705E-01 a      1507     0    61     1     7
  1.0199312464641512E-01 a      1508     0    61     1     8
  7.2808660640260300E-02 a      1509     0    61     1     9
 -2.1431821354570735E-01 a      1510     0    61     1    10
  1.9299036800174635E-01 a      1511     0    61     1    11
  1.4976872704409498E-02 a      1512     0    61     1    12
  4.4433967024688686E-01 a      1513     0    61     1    13
 -3.2205659060012315E-01 a      1514     0    61     1    14
 -2.5029143635770534E-01 a      1515     0    61     1    15
  3.3177359943735174E-01 a      1516     0    61     1    16
 -3.3360984042835870E-02 a      1517     0    61     1    17
 -3.1846132002111407E-02 a      1518     0    61     1    18
 -6.0017324192216760E-02 a      1519     0    61     1    19
  2.2439482323663973E-01 a      1520     0    61     1    20
 -9.4759867649604534E-02 a      1521     0    61     1    21
  8.4967353275946789E-02 a      1522     0    61     1    22
 -2.4720560674712441E-02 a      1523     0    61     1    23
  1.8809521051522632E-01 a      1524     0    61     1    24
  7.7527988747842051E-03 a      1525     0    61     1    25
 -1.0183418344003849E-01 a      1526     0    62     1     1
 -8.9022200640795274E-02 a      1527     0    62     1     2
  2.4648747406041971E-01 a      1528     0    62     1     3
 -8.6395189151485710E-02 a      1529     0    62     1     4
 -6.5867607841594941E-02 a      1530     0    62     1     5
  1.4127064752275124E-03 a      1531     0    62     1     6
  2.0721305220767869E-03 a      1532     0    62     1     7
  9.7196860968279383E-02 a      1533     0    62     1     8
  5.4958854270895995E-02 a      1534     0    62     1     9
 -1.9934807648779898E-01 a      1535     0    62     1    10
 -7.6595168580072273E-02 a      1536     0    62     1    11
 -3.0732574386153372E-02 a      1537     0    62     1    12
 -1.9596446227348965E-01 a      1538     0    62     1    13
 -2.9021604908820586E-01 a      1539     0    62     1    14
  2.2027450284968920E-02 a      1540     0    62     1    15
 -2.8994539468196695E-01 a      1541     0    62     1    16
  1.9563841849877631E-01 a      1542     0    62     1    17
 -1.2527702947209549E-01 a      1543     0    62     1    18
  2.2164676235492403E-01 a      1544     0    62     1    19
 -1.9678850393093575E-01 a      1545     0    62     1    20
  9.1356304964552118E-02 a      1546     0    62     1    21
  1.0554680912209871E-01 a      1547     0    62     1    22
 -4.2855439878991188E-02 a      1548     0    62     1    23
 -2.5316191087460338E-01 a      1549     0    62     1    24
 -1.7417844977537406E-01 a      1550     0    62     1    25
  6.9654415569845196E-02 a      1551     0    63     1     1
 -2.2087794432134431E-01 a      1552     0    63     1     2
 -7.9891277613903244E-02 a      1553     0    63     1     3
 -6.0515803636685878E-02 a      1554     0    63     1     4
  5.0048803364431058E-02 a      1555     0    63     1     5
  3.0523208339575947E-02 a      1556     0    63     1     6
 -1.0070788711923942E-01 a      1557     0    63     1     7
 -5.6911217276765992E-02 a      1558     0    63     1     8
  1.2164115615717662E-01 a      1559     0    63     1     9
  1.4502276004111522E-02 a      1560     0    63     1    10
  1.2923626138281416E-01 a      1561     0    63     1    11
  1.7704496677664422E-01 a      1562     0    63     1    12
  8.8740304164963285E-02 a      1563     0    63     1    13
 -3.1653323324066590E-01 a      1564     0    63     1    14
 -2.5623624100619119E-01 a      1565     0    63     1    15
  2.3178795854275286E-01 a      1566     0    63     1    16
 -1.3855144349782936E-01 a      1567     0    63     1    17
 -1.4199344058466756E-01 a      1568     0    63     1    18
  1.5072252963887148E-01 a      1569     0    63     1    19
  1.7658995429413914E-02 a      1570     0    63     1    20
 -1.2921252936082234E-01 a      1571     0    63     1    21
  6.0341051331464557E-02 a      1572     0    63     1    22
 -1.5975602786509580E-01 a      1573     0    63     1    23
 -1.7151858786636104E-01 a      1574     0    63     1    24
 -2.3848980525637919E-01 a      1575     0    63     1    25
 -4.7892941452874933E-02 a      1576     0    64     1     1
  2.2418075839318316E-01 a      1577     0    64     1     2
  6.7532986976493944E-02 a      1578     0    64     1     3
  2.3449940052637799E-02 a      1579     0    64     1     4
 -9.8119970798414627E-02 a      1580     0    64     1     5
  1.5295992906569603E-01 a      1581     0    64     1     6
 -2.5690023498217810E-02 a      1582     0    64     1     7
  1.5720288803185919E-01 a      1583     0    64     1     8
 -1.5824918430456875E-01 a      1584     0    64     1     9
 -2.7666447907248803E-01 a      1585     0    64     1    10
  1.6807808680295272E-01 a      1586     0    64     1    11
  8.3701457592814055E-02 a      1587     0    64     1    12
  1.9043685191242649E-01 a      1588     0    64     1    13
 -3.2260423435804125E-02 a      1589     0    64     1    14
 -7.5783377921378028E-02 a      1590     0    64     1    15
 -2.7338401076195121E-02 a      1591     0    64     1    16
 -1.2073498509570355E-01 a      1592     0    64     1    17
  4.1149328364691380E-02 a      1593     0    64     1    18
 -1.2713257947080112E-01 a      1594     0    64     1    19
  1.2502579316276266E-01 a      1595     0    64     1    20
  7.1844206105130995E-02 a      1596     0    64     1    21
  2.9239906700500284E-01 a      1597     0    64     1    22
 -1.3191790663408415E-01 a      1598     0    64     1    23
 -7.8487210901059673E-02 a      1599     0    64     1    24
 -5.2592082159135342E-02 a      1600     0    64     1    25
 -1.6305523617079401E-01 b      1601     1     1
 -5.5926680870304157E-01 b      1602     1     2
  4.4983944731321374E-01 b      1603     1     3
 -5.3835076788274960E-01 b      1604     1     4
 -6.2475290463215705E-01 b      1605     1     5
 -4.9798365699881934E-03 b      1606     1     6
  3.9245954537750982E-01 b      1607     1     7
 -5.8812108139335517E-01 b      1608     1     8
 -8.7861764091958561E-02 b      1609     1     9
 -2.4739015329121039E-01 b      1610     1    10
 -6.1948652182598221E-02 b      1611     1    11
 -6.6346758828193075E-01 b      1612     1    12
 -7.0181111712046729E-01 b      1613     1    13
  6.5485589763136365E-01 b      1614     1    14
  5.0288073511816056E-01 b      1615     1    15
 -5.4740526485198360E-01 b      1616     1    16
  1.7649172806612534E-01 b      1617     1    17
 -4.6554391037585702E-01 b      1618     1    18
 -6.1087901604661088E-01 b      1619     1    19
 -6.6906211867348719E-01 b      1620     1    20
  1.7446030719571098E-01 b      1621     1    21
  5.9793911160702151E-02 b      1622     1    22
  5.5360335870665367E-01 b      1623     1    23
 -6.9275179404907283E-01 b      1624     1    24
  2.2124965756405307E-01 b      1625     1    25
 -7.6452245448468417E-02 a      1626     1     1     2     1
 -3.2198745126351180E-01 a      1627     1     1     2     2
  2.0601748920443870E-02 a      1628     1     1     2     3
