################################################################################
# Neural network connection values (weights and biases).
################################################################################
# Col  Name       Description
################################################################################
# 1    connection Neural network connection value.
# 2    t          Connection type (a = weight, b = bias).
# 3    index      Index enumerating weights.
# 4    l_s        Starting point layer (end point layer for biases).
# 5    n_s        Starting point neuron in starting layer (end point neuron for biases).
# 6    l_e        End point layer.
# 7    n_e        End point neuron in end layer.
################################################################################
#                      1 2         3     4     5     6     7
#             connection t     index   l_s   n_s   l_e   n_e
############################################################
 -9.3014080895053475E-02 a         1     0     1     1     1
  3.3748166122016698E-01 a         2     0     1     1     2
 -2.8131052756192110E-01 a         3     0     1     1     3
  1.1484143226569217E-01 a         4     0     1     1     4
  2.5803075462695979E-01 a         5     0     1     1     5
  5.4191006326930594E-02 a         6     0     1     1     6
 -2.9706348742338077E-02 a         7     0     1     1     7
 -7.8945336136565472E-02 a         8     0     1     1     8
 -1.4789120030518119E-01 a         9     0     1     1     9
 -1.6885064682178829E-02 a        10     0     1     1    10
  5.5099517990824562E-02 a        11     0     1     1    11
  1.7517842778227813E-01 a        12     0     1     1    12
  1.1594125895848657E-01 a        13     0     1     1    13
  1.5264950931099497E-01 a        14     0     1     1    14
  6.6381829967375711E-02 a        15     0     1     1    15
 -2.8532528828635378E-01 a        16     0     1     1    16
  1.1006222339203459E-01 a        17     0     1     1    17
  1.7729529608091549E-01 a        18     0     1     1    18
  4.2280081891685486E-02 a        19     0     1     1    19
  3.4536346577118499E-01 a        20     0     1     1    20
  1.4447999767756726E-02 a        21     0     1     1    21
 -1.1972182896682787E-01 a        22     0     1     1    22
 -2.3114256470722352E-01 a        23     0     1     1    23
  1.3267680260731779E-01 a        24     0     1     1    24
 -5.9551700521823091E-02 a        25     0     1     1    25
 -1.3008198959599648E-01 a        26     0     2     1     1
  1.7016994630441470E-01 a        27     0     2     1     2
  9.0306142224269442E-02 a        28     0     2     1     3
 -6.6814147531651866E-02 a        29     0     2     1     4
  1.0202962504985343E-01 a        30     0     2     1     5
  2.0462558681397211E-01 a        31     0     2     1     6
 -1.4219417985374967E-02 a        32     0     2     1     7
  1.3530282842788698E-02 a        33     0     2     1     8
 -9.1146236521740392E-02 a        34     0     2     1     9
  7.2372126479385967E-03 a        35     0     2     1    10
 -1.0813263049753631E-01 a        36     0     2     1    11
  5.4591435365451621E-02 a        37     0     2     1    12
 -2.7014080027996778E-02 a        38     0     2     1    13
 -1.4386759433653609E-01 a        39     0     2     1    14
 -1.1489582340990849E-01 a        40     0     2     1    15
 -5.4259682311095891E-01 a        41     0     2     1    16
  1.2887994720286794E-01 a        42     0     2     1    17
 -4.5435998945836276E-02 a        43     0     2     1    18
  1.1823627079835972E-01 a        44     0     2     1    19
 -1.5893161195615860E-02 a        45     0     2     1    20
  5.6463396047944654E-02 a        46     0     2     1    21
  1.2650476436295238E-01 a        47     0     2     1    22
  2.7357875987312202E-01 a        48     0     2     1    23
  3.3240128737899871E-01 a        49     0     2     1    24
  1.3062111377545188E-01 a        50     0     2     1    25
  1.5780146009344248E-01 a        51     0     3     1     1
  4.6890617588588301E-01 a        52     0     3     1     2
  1.5243850450965735E-01 a        53     0     3     1     3
 -3.6836857369227614E-02 a        54     0     3     1     4
  3.7974756887690440E-02 a        55     0     3     1     5
  6.0578932722884851E-02 a        56     0     3     1     6
  9.6480373143933512E-02 a        57     0     3     1     7
  3.7764960451650939E-02 a        58     0     3     1     8
  2.5612934186818294E-02 a        59     0     3     1     9
  5.3515900403355288E-01 a        60     0     3     1    10
 -8.2615251883639246E-02 a        61     0     3     1    11
  2.2329713903293025E-01 a        62     0     3     1    12
 -2.4196811389822048E-02 a        63     0     3     1    13
 -2.0142112387810690E-01 a        64     0     3     1    14
  4.8798780534902469E-02 a        65     0     3     1    15
 -2.3074408616525433E-01 a        66     0     3     1    16
  3.3375635591095537E-01 a        67     0     3     1    17
 -1.3823715605541267E-01 a        68     0     3     1    18
  2.6111681029507228E-01 a        69     0     3     1    19
  2.3882212713792375E-01 a        70     0     3     1    20
  2.5332600059092303E-01 a        71     0     3     1    21
 -6.5563761678957153E-02 a        72     0     3     1    22
 -1.1115383949744392E-01 a        73     0     3     1    23
 -4.0442127492491382E-02 a        74     0     3     1    24
  1.1418599780153764E-01 a        75     0     3     1    25
 -1.7213181662167601E-01 a        76     0     4     1     1
  5.7948230104383380E-02 a        77     0     4     1     2
 -1.1874681933483740E-02 a        78     0     4     1     3
  5.4694890076571842E-02 a        79     0     4     1     4
  2.5847533126581623E-01 a        80     0     4     1     5
 -9.6262349247373313E-02 a        81     0     4     1     6
  3.4843752955637415E-03 a        82     0     4     1     7
 -1.9579557567649708E-01 a        83     0     4     1     8
 -1.9504272358433014E-01 a        84     0     4     1     9
  9.5311150279641405E-02 a        85     0     4     1    10
 -1.2187713013883539E-01 a        86     0     4     1    11
  5.4537902026374774E-01 a        87     0     4     1    12
 -1.0201546099961312E-01 a        88     0     4     1    13
  1.5666311620039755E-01 a        89     0     4     1    14
 -7.2429467508231746E-02 a        90     0     4     1    15
 -1.4537254704815769E-01 a        91     0     4     1    16
  5.2181068633067551E-01 a        92     0     4     1    17
 -3.7285835603856635E-02 a        93     0     4     1    18
 -1.7586964211563552E-01 a        94     0     4     1    19
  1.4277068092427708E-01 a        95     0     4     1    20
  3.0627654814558675E-01 a        96     0     4     1    21
  6.4730521242566924E-02 a        97     0     4     1    22
 -6.3141034035306576E-02 a        98     0     4     1    23
  2.8933495558605957E-02 a        99     0     4     1    24
 -2.8111060132711430E-01 a       100     0     4     1    25
 -1.4740015154463934E-01 a       101     0     5     1     1
 -7.9692585629900628E-02 a       102     0     5     1     2
 -4.4301812357131494E-02 a       103     0     5     1     3
  1.6387381320598551E-01 a       104     0     5     1     4
  1.3680314091835574E-01 a       105     0     5     1     5
 -1.3357346729949357E-01 a       106     0     5     1     6
 -7.2519494528237263E-02 a       107     0     5     1     7
  8.0729102808942063E-02 a       108     0     5     1     8
  8.3578724633087492E-02 a       109     0     5     1     9
  1.4902703479951596E-01 a       110     0     5     1    10
  1.4145988738790344E-01 a       111     0     5     1    11
 -1.2092686965963664E-01 a       112     0     5     1    12
  8.1355394900303940E-02 a       113     0     5     1    13
  7.2745128579431079E-02 a       114     0     5     1    14
 -3.8066648131433380E-02 a       115     0     5     1    15
 -2.5876417254791943E-02 a       116     0     5     1    16
 -1.4087285525748031E-01 a       117     0     5     1    17
  8.1791017668238319E-02 a       118     0     5     1    18
  2.1968247928994103E-01 a       119     0     5     1    19
 -1.2289509439421661E-01 a       120     0     5     1    20
  1.5040843130396431E-01 a       121     0     5     1    21
  8.5127951327470017E-02 a       122     0     5     1    22
 -2.5011809709146043E-02 a       123     0     5     1    23
  3.7398593692400178E-03 a       124     0     5     1    24
 -8.2423799986369520E-02 a       125     0     5     1    25
  6.4462762822754066E-02 a       126     0     6     1     1
 -2.0445540833322987E-01 a       127     0     6     1     2
 -2.6007286523326463E-02 a       128     0     6     1     3
 -8.9527919774002561E-03 a       129     0     6     1     4
  1.1121522203258061E-01 a       130     0     6     1     5
  1.2156057339419658E-01 a       131     0     6     1     6
  7.0004644350763853E-02 a       132     0     6     1     7
  1.6860249579483080E-01 a       133     0     6     1     8
  7.8664548511123908E-02 a       134     0     6     1     9
  3.1893078806827783E-02 a       135     0     6     1    10
  4.4947834007801266E-03 a       136     0     6     1    11
 -1.6312080931734163E-01 a       137     0     6     1    12
  2.7545063293032418E-01 a       138     0     6     1    13
  1.0818157083295057E-01 a       139     0     6     1    14
  1.1181376810126820E-01 a       140     0     6     1    15
 -4.4552893132336895E-02 a       141     0     6     1    16
  3.1763935195887327E-02 a       142     0     6     1    17
 -6.9147021849569421E-03 a       143     0     6     1    18
 -9.3113835201628803E-02 a       144     0     6     1    19
 -9.8784611069727954E-02 a       145     0     6     1    20
  1.1379466013845514E-01 a       146     0     6     1    21
 -8.9698116879652887E-02 a       147     0     6     1    22
 -8.0249502991881771E-02 a       148     0     6     1    23
 -8.9833136705182892E-02 a       149     0     6     1    24
 -1.4079493607601135E-01 a       150     0     6     1    25
  2.0889162801926864E-01 a       151     0     7     1     1
 -4.0567883557122382E-02 a       152     0     7     1     2
  1.7698230509566626E-01 a       153     0     7     1     3
 -1.0378932539609124E-01 a       154     0     7     1     4
  1.7609240521784550E-01 a       155     0     7     1     5
 -1.1436826569433316E-01 a       156     0     7     1     6
 -7.6529214735574891E-02 a       157     0     7     1     7
  8.5335472533432447E-02 a       158     0     7     1     8
  2.3450245001812331E-01 a       159     0     7     1     9
  5.8817529193521276E-02 a       160     0     7     1    10
 -2.9462986365719538E-02 a       161     0     7     1    11
 -1.7777712841923354E-01 a       162     0     7     1    12
  2.0579264032281150E-01 a       163     0     7     1    13
  1.5450034101619645E-01 a       164     0     7     1    14
  7.3158745898671499E-03 a       165     0     7     1    15
 -1.1669432785833607E-02 a       166     0     7     1    16
 -5.5306378782621395E-02 a       167     0     7     1    17
  6.9333386002526694E-03 a       168     0     7     1    18
  5.1216470112739595E-02 a       169     0     7     1    19
  3.6769140267891604E-02 a       170     0     7     1    20
 -6.2308563867278864E-02 a       171     0     7     1    21
  1.7531860071170680E-01 a       172     0     7     1    22
  2.0097614782850695E-01 a       173     0     7     1    23
 -8.1955432560825506E-02 a       174     0     7     1    24
  1.0682993395590817E-01 a       175     0     7     1    25
 -6.6611087711103051E-02 a       176     0     8     1     1
 -1.0232723663742366E-01 a       177     0     8     1     2
  1.8466768606808159E-01 a       178     0     8     1     3
 -6.5548620554536103E-03 a       179     0     8     1     4
  9.0015911917948041E-02 a       180     0     8     1     5
 -1.3514081276062301E-01 a       181     0     8     1     6
  1.2569428016733695E-02 a       182     0     8     1     7
  1.1905919939156775E-01 a       183     0     8     1     8
  2.9025371516988658E-02 a       184     0     8     1     9
 -7.8120871847080040E-02 a       185     0     8     1    10
  1.6384598859305333E-01 a       186     0     8     1    11
 -1.6969592014639151E-01 a       187     0     8     1    12
  6.6161465921073817E-02 a       188     0     8     1    13
  1.8762961085098467E-01 a       189     0     8     1    14
  1.2018895466114386E-01 a       190     0     8     1    15
 -1.7601272659319911E-03 a       191     0     8     1    16
  1.5017764775552186E-01 a       192     0     8     1    17
  9.1527611605508638E-02 a       193     0     8     1    18
 -4.2055757882921443E-02 a       194     0     8     1    19
  2.9878141387591785E-02 a       195     0     8     1    20
 -1.6468000805516768E-02 a       196     0     8     1    21
  4.6733455648355335E-02 a       197     0     8     1    22
  8.0827133763887477E-02 a       198     0     8     1    23
  6.7241739444469451E-03 a       199     0     8     1    24
 -2.0100492626766928E-02 a       200     0     8     1    25
  9.6705278134392947E-02 a       201     0     9     1     1
 -2.3858489124651749E-01 a       202     0     9     1     2
  9.9443093496818541E-02 a       203     0     9     1     3
 -1.4299153167077801E-02 a       204     0     9     1     4
 -7.2411440845468980E-02 a       205     0     9     1     5
  1.9973693207107318E-01 a       206     0     9     1     6
  7.7815508482781084E-02 a       207     0     9     1     7
 -4.2279472027198284E-02 a       208     0     9     1     8
  1.4005900660820572E-01 a       209     0     9     1     9
  3.1751138083724317E-01 a       210     0     9     1    10
  2.7488251506511013E-01 a       211     0     9     1    11
  1.5047235220003496E-01 a       212     0     9     1    12
 -7.6643299616801427E-02 a       213     0     9     1    13
 -1.8389283504891763E-02 a       214     0     9     1    14
 -3.1354508927148361E-02 a       215     0     9     1    15
 -1.2826093848639769E-01 a       216     0     9     1    16
  3.3351029701663099E-01 a       217     0     9     1    17
  9.5139334703240583E-02 a       218     0     9     1    18
  2.5432529099394380E-01 a       219     0     9     1    19
  2.1002180138958135E-01 a       220     0     9     1    20
  1.7239578658264424E-02 a       221     0     9     1    21
 -1.6965788379716862E-01 a       222     0     9     1    22
 -3.6812935514979178E-01 a       223     0     9     1    23
  5.2018096255528043E-02 a       224     0     9     1    24
 -1.0027123689530887E-01 a       225     0     9     1    25
 -2.1316035275825884E-01 a       226     0    10     1     1
 -2.4918543291375460E-02 a       227     0    10     1     2
 -3.1590777006261572E-01 a       228     0    10     1     3
  6.6640189838192310E-02 a       229     0    10     1     4
 -7.3073853674142195E-02 a       230     0    10     1     5
 -8.8974710439307075E-02 a       231     0    10     1     6
  2.6138531621789984E-01 a       232     0    10     1     7
  1.7522090940001525E-02 a       233     0    10     1     8
  5.4078664035195650E-02 a       234     0    10     1     9
 -1.6999865973720280E-01 a       235     0    10     1    10
  6.7166911862184299E-03 a       236     0    10     1    11
  1.0567597521906075E-01 a       237     0    10     1    12
  1.1069593634036978E-01 a       238     0    10     1    13
 -1.1752605058425946E-02 a       239     0    10     1    14
  2.3961875776312595E-02 a       240     0    10     1    15
 -5.4061910304893365E-02 a       241     0    10     1    16
  1.1639457862215842E-01 a       242     0    10     1    17
  1.2038477145864070E-01 a       243     0    10     1    18
  1.6805095076003954E-01 a       244     0    10     1    19
  1.8601466609375444E-01 a       245     0    10     1    20
 -1.8337458167224575E-02 a       246     0    10     1    21
 -1.7432361437815930E-01 a       247     0    10     1    22
  2.5927950614571295E-02 a       248     0    10     1    23
 -1.6268700607885989E-02 a       249     0    10     1    24
 -2.0513902598601669E-02 a       250     0    10     1    25
 -1.8719240289713013E-01 a       251     0    11     1     1
  6.4884046702662290E-02 a       252     0    11     1     2
  1.3228190579096565E-03 a       253     0    11     1     3
 -2.3955308787890827E-02 a       254     0    11     1     4
 -1.2071854522009451E-01 a       255     0    11     1     5
 -1.0683224317735733E-01 a       256     0    11     1     6
  9.3555868378918036E-02 a       257     0    11     1     7
  2.4668092697221922E-02 a       258     0    11     1     8
 -4.9703573951115895E-02 a       259     0    11     1     9
 -1.8275818383783608E-02 a       260     0    11     1    10
 -2.0836321512482936E-02 a       261     0    11     1    11
  3.1740537498321890E-02 a       262     0    11     1    12
 -1.4872952006078347E-01 a       263     0    11     1    13
 -1.9836632693866782E-01 a       264     0    11     1    14
  1.4681688178422221E-02 a       265     0    11     1    15
  1.4341792342312254E-01 a       266     0    11     1    16
  1.1713189914892967E-03 a       267     0    11     1    17
 -5.3351469530014628E-02 a       268     0    11     1    18
  1.4151895381011206E-01 a       269     0    11     1    19
  3.5579182750954948E-03 a       270     0    11     1    20
  1.3174587768181081E-01 a       271     0    11     1    21
 -1.0626339391848560E-01 a       272     0    11     1    22
  3.0454766172442603E-02 a       273     0    11     1    23
 -2.3951911794164137E-03 a       274     0    11     1    24
 -6.0391804288989853E-02 a       275     0    11     1    25
  1.6115523054192915E-01 a       276     0    12     1     1
  6.1528211004866065E-02 a       277     0    12     1     2
 -5.4514621420910139E-02 a       278     0    12     1     3
  1.5405177155972768E-01 a       279     0    12     1     4
  1.9298579536488791E-01 a       280     0    12     1     5
 -2.7516812047570699E-02 a       281     0    12     1     6
  2.0354203288684165E-02 a       282     0    12     1     7
 -2.6957685914032910E-02 a       283     0    12     1     8
  1.1914204936499888E-01 a       284     0    12     1     9
 -3.0808814874084278E-01 a       285     0    12     1    10
  7.3888214143337169E-02 a       286     0    12     1    11
 -8.6756017823782394E-02 a       287     0    12     1    12
  1.7976801961038150E-01 a       288     0    12     1    13
 -4.1934060931609063E-02 a       289     0    12     1    14
  2.0919348115780622E-02 a       290     0    12     1    15
 -1.3633749134605014E-01 a       291     0    12     1    16
  3.1339222881961039E-02 a       292     0    12     1    17
 -8.5146495697228972E-02 a       293     0    12     1    18
 -8.7627648551920442E-02 a       294     0    12     1    19
  2.5841011921006707E-01 a       295     0    12     1    20
 -6.8612635968938587E-02 a       296     0    12     1    21
 -3.9552707631940479E-02 a       297     0    12     1    22
 -1.1234054377220544E-01 a       298     0    12     1    23
 -8.8646578771175905E-02 a       299     0    12     1    24
 -4.4135734279784823E-02 a       300     0    12     1    25
  8.5208869722345940E-02 a       301     0    13     1     1
  9.3308439468860388E-02 a       302     0    13     1     2
 -1.5089413060698417E-01 a       303     0    13     1     3
  1.7429645848739764E-01 a       304     0    13     1     4
  1.0893039292684145E-01 a       305     0    13     1     5
  7.9974847757131401E-02 a       306     0    13     1     6
  7.9712069426976992E-02 a       307     0    13     1     7
 -5.8722675523023210E-02 a       308     0    13     1     8
 -1.0687680166983489E-01 a       309     0    13     1     9
 -1.2267179321095180E-01 a       310     0    13     1    10
 -1.1045029991161440E-01 a       311     0    13     1    11
  1.4277189076799228E-02 a       312     0    13     1    12
 -6.1138934739326405E-02 a       313     0    13     1    13
  2.9976418319531732E-02 a       314     0    13     1    14
 -5.9661493612362566E-02 a       315     0    13     1    15
 -1.5920083514953845E-01 a       316     0    13     1    16
  1.8476258009518809E-01 a       317     0    13     1    17
  5.0042259639419689E-02 a       318     0    13     1    18
 -6.9814824418740679E-02 a       319     0    13     1    19
 -1.2517462515970676E-01 a       320     0    13     1    20
 -2.4365035162640165E-02 a       321     0    13     1    21
  8.0490472925292926E-03 a       322     0    13     1    22
  1.6888270587319545E-01 a       323     0    13     1    23
  1.2702537994795182E-01 a       324     0    13     1    24
 -3.7559646239741777E-02 a       325     0    13     1    25
  2.0019224541851852E-01 a       326     0    14     1     1
 -1.9299048134445407E-01 a       327     0    14     1     2
  1.1200137905040491E-01 a       328     0    14     1     3
 -1.5980713491253859E-01 a       329     0    14     1     4
  9.6490872693453314E-03 a       330     0    14     1     5
  2.1677735187611799E-01 a       331     0    14     1     6
  4.7307188994874606E-02 a       332     0    14     1     7
  1.5417277180665220E-01 a       333     0    14     1     8
 -8.0212504966688081E-02 a       334     0    14     1     9
 -6.8357273408372804E-02 a       335     0    14     1    10
  3.5925795338644484E-01 a       336     0    14     1    11
 -1.1425556701396100E-01 a       337     0    14     1    12
  1.7019839694982108E-02 a       338     0    14     1    13
  7.7925802891123705E-02 a       339     0    14     1    14
 -1.5535099289746349E-01 a       340     0    14     1    15
 -1.3176050604389639E-01 a       341     0    14     1    16
 -5.6100430453002753E-02 a       342     0    14     1    17
  1.5415211793991077E-01 a       343     0    14     1    18
  1.2310352474242836E-01 a       344     0    14     1    19
 -6.8619803168918178E-02 a       345     0    14     1    20
 -1.4638319597072039E-01 a       346     0    14     1    21
  1.0476730521439084E-01 a       347     0    14     1    22
  6.3844521183020440E-03 a       348     0    14     1    23
  4.1211940338178779E-02 a       349     0    14     1    24
  5.6223107524076187E-02 a       350     0    14     1    25
  1.5256942433466678E-01 a       351     0    15     1     1
 -2.7020703757852421E-01 a       352     0    15     1     2
 -1.0208748168483686E-01 a       353     0    15     1     3
 -8.0624954454493081E-02 a       354     0    15     1     4
 -1.7734563998326555E-01 a       355     0    15     1     5
  3.3024862926038928E-01 a       356     0    15     1     6
 -1.5837086321907870E-01 a       357     0    15     1     7
  1.4742584875059123E-01 a       358     0    15     1     8
  1.6489661260816668E-01 a       359     0    15     1     9
  1.2077555972082406E-01 a       360     0    15     1    10
  3.1179003692737611E-01 a       361     0    15     1    11
 -1.1657671186719951E-01 a       362     0    15     1    12
  4.8918980141369452E-02 a       363     0    15     1    13
 -1.8947680227970051E-01 a       364     0    15     1    14
 -2.2142401532829717E-02 a       365     0    15     1    15
 -1.5306089184800678E-01 a       366     0    15     1    16
  8.8282566896253897E-02 a       367     0    15     1    17
  2.2875190254753480E-01 a       368     0    15     1    18
  1.0192234775167634E-01 a       369     0    15     1    19
  6.5605525769522943E-02 a       370     0    15     1    20
 -2.5325255619291703E-02 a       371     0    15     1    21
 -1.0560199030427930E-02 a       372     0    15     1    22
 -6.9698224813517562E-02 a       373     0    15     1    23
  2.0540214791166511E-01 a       374     0    15     1    24
  1.0812409145601766E-01 a       375     0    15     1    25
 -5.4898820332823804E-02 a       376     0    16     1     1
  2.5103895536654555E-02 a       377     0    16     1     2
 -5.1281338320114819E-02 a       378     0    16     1     3
  4.8485400684285009E-02 a       379     0    16     1     4
  1.6514605235945004E-01 a       380     0    16     1     5
  2.1117754968706476E-01 a       381     0    16     1     6
  2.9222501720657927E-02 a       382     0    16     1     7
 -3.6206552347518267E-02 a       383     0    16     1     8
 -1.1546275798584452E-01 a       384     0    16     1     9
  1.0808148527595472E-01 a       385     0    16     1    10
  2.2825522365434192E-01 a       386     0    16     1    11
 -1.0088079855473486E-01 a       387     0    16     1    12
 -3.4879656264034012E-02 a       388     0    16     1    13
 -5.2329203279392819E-02 a       389     0    16     1    14
 -1.4573496764604096E-01 a       390     0    16     1    15
 -3.5967155332268783E-02 a       391     0    16     1    16
  2.8574327715834447E-01 a       392     0    16     1    17
  9.3558802368634189E-02 a       393     0    16     1    18
  2.4531723345616815E-01 a       394     0    16     1    19
  2.6993668507146029E-01 a       395     0    16     1    20
  2.4124049278849236E-01 a       396     0    16     1    21
  3.2976961303904824E-03 a       397     0    16     1    22
 -3.1899102318603262E-01 a       398     0    16     1    23
 -1.0703138118138357E-01 a       399     0    16     1    24
 -1.1331968001214884E-01 a       400     0    16     1    25
 -7.6535656960594514E-02 a       401     0    17     1     1
 -1.3407506470007710E-01 a       402     0    17     1     2
 -2.9608377633287092E-01 a       403     0    17     1     3
  1.0136497249264426E-01 a       404     0    17     1     4
  3.2916729679825464E-03 a       405     0    17     1     5
 -1.4608104157544773E-02 a       406     0    17     1     6
  1.1296485886813944E-02 a       407     0    17     1     7
  9.9494275014503725E-02 a       408     0    17     1     8
  5.9958164487370368E-02 a       409     0    17     1     9
 -2.4841506786689263E-01 a       410     0    17     1    10
 -9.5887736818826355E-02 a       411     0    17     1    11
  6.2954881845099980E-02 a       412     0    17     1    12
 -1.6753412024937839E-02 a       413     0    17     1    13
 -9.9351388739772312E-02 a       414     0    17     1    14
  4.4963141924108482E-02 a       415     0    17     1    15
 -9.4665608067177623E-02 a       416     0    17     1    16
  9.2533298598478191E-03 a       417     0    17     1    17
  7.0140020034160283E-02 a       418     0    17     1    18
 -8.8419638830010153E-02 a       419     0    17     1    19
 -2.5017652172495269E-01 a       420     0    17     1    20
  1.9279107317616853E-02 a       421     0    17     1    21
 -1.6164221446975863E-01 a       422     0    17     1    22
  3.7772965450514208E-02 a       423     0    17     1    23
  1.9330389596452896E-01 a       424     0    17     1    24
  1.0161840539753676E-01 a       425     0    17     1    25
 -3.3716050327649037E-02 a       426     0    18     1     1
  2.1792216466161460E-01 a       427     0    18     1     2
  1.6418135884188212E-01 a       428     0    18     1     3
 -5.6032684196543284E-03 a       429     0    18     1     4
 -1.3467946953165746E-01 a       430     0    18     1     5
  1.4367836959103880E-01 a       431     0    18     1     6
  3.5786959573280777E-02 a       432     0    18     1     7
 -2.2606655993006938E-01 a       433     0    18     1     8
 -3.9502528626613853E-02 a       434     0    18     1     9
  8.0606857436157164E-01 a       435     0    18     1    10
 -4.3269006018514397E-02 a       436     0    18     1    11
  3.1494211949503575E-01 a       437     0    18     1    12
 -2.2740975982271178E-02 a       438     0    18     1    13
 -2.1093914756781756E-01 a       439     0    18     1    14
 -1.8299309680675199E-01 a       440     0    18     1    15
 -1.1411737151517982E-01 a       441     0    18     1    16
  4.0014394325931846E-01 a       442     0    18     1    17
  1.0737021502867980E-01 a       443     0    18     1    18
  2.7173275503193949E-02 a       444     0    18     1    19
 -2.4006504523836261E-03 a       445     0    18     1    20
  2.1643252268492000E-01 a       446     0    18     1    21
  4.8108101423736616E-02 a       447     0    18     1    22
 -3.9859207593813686E-02 a       448     0    18     1    23
 -1.2866688199809070E-02 a       449     0    18     1    24
  1.2962774125600474E-01 a       450     0    18     1    25
 -4.6757038914979870E-02 a       451     0    19     1     1
  2.8690745456374161E-02 a       452     0    19     1     2
 -1.9207823227760826E-01 a       453     0    19     1     3
  8.7431276726782914E-02 a       454     0    19     1     4
  2.0953086755601685E-01 a       455     0    19     1     5
 -1.0486354118931607E-01 a       456     0    19     1     6
  1.2538852865315417E-01 a       457     0    19     1     7
 -5.5474707011305222E-03 a       458     0    19     1     8
 -7.9512191620440736E-02 a       459     0    19     1     9
 -4.4192206047403793E-01 a       460     0    19     1    10
 -4.5848385567172845E-01 a       461     0    19     1    11
  1.0960644738370590E-01 a       462     0    19     1    12
  2.2191310173090315E-01 a       463     0    19     1    13
  2.1457966336000167E-01 a       464     0    19     1    14
  7.3875444770209006E-02 a       465     0    19     1    15
 -3.8917907200799706E-01 a       466     0    19     1    16
 -1.9354370479167472E-02 a       467     0    19     1    17
  1.0750975651258743E-01 a       468     0    19     1    18
 -1.1354060648489173E-01 a       469     0    19     1    19
  2.6185051816164923E-01 a       470     0    19     1    20
 -1.9149686977075581E-01 a       471     0    19     1    21
 -8.8711720714593822E-02 a       472     0    19     1    22
 -2.0908429818112313E-02 a       473     0    19     1    23
  1.8774511093059112E-01 a       474     0    19     1    24
 -2.3176664207785352E-01 a       475     0    19     1    25
  5.8284216012992246E-02 a       476     0    20     1     1
 -7.5482934827917098E-02 a       477     0    20     1     2
  6.6468272071776455E-02 a       478     0    20     1     3
 -1.1327523210484262E-01 a       479     0    20     1     4
  2.0550264581478801E-02 a       480     0    20     1     5
 -1.2121658938883384E-01 a       481     0    20     1     6
 -2.0270193417042573E-02 a       482     0    20     1     7
  3.3254376653552270E-02 a       483     0    20     1     8
  1.5795670786419871E-01 a       484     0    20     1     9
 -4.0590676912898055E-02 a       485     0    20     1    10
  3.3695751906236721E-02 a       486     0    20     1    11
  1.0711084926108773E-01 a       487     0    20     1    12
  7.1720042676010579E-02 a       488     0    20     1    13
  1.8647654877945100E-01 a       489     0    20     1    14
  5.5322508153809256E-02 a       490     0    20     1    15
 -2.1591307554489791E-01 a       491     0    20     1    16
  5.1869293609706747E-02 a       492     0    20     1    17
 -8.5571505635483477E-02 a       493     0    20     1    18
  8.4180753168675626E-02 a       494     0    20     1    19
 -1.3692625541684444E-01 a       495     0    20     1    20
 -4.3382689866747676E-02 a       496     0    20     1    21
  5.3308688105680388E-02 a       497     0    20     1    22
 -9.9167400468568270E-02 a       498     0    20     1    23
 -9.0682095122130629E-02 a       499     0    20     1    24
 -4.1301273167267852E-02 a       500     0    20     1    25
  1.6676682861226269E-01 a       501     0    21     1     1
 -1.2669017723019971E-01 a       502     0    21     1     2
 -1.3660045796769815E-01 a       503     0    21     1     3
 -1.1462185576379724E-01 a       504     0    21     1     4
  1.1630157423947543E-01 a       505     0    21     1     5
  2.2567757732087729E-01 a       506     0    21     1     6
 -1.7690340714753922E-02 a       507     0    21     1     7
  4.9309125129291045E-02 a       508     0    21     1     8
  1.2584718405287662E-01 a       509     0    21     1     9
  2.2935046209540066E-01 a       510     0    21     1    10
  2.1389987374934624E-02 a       511     0    21     1    11
  2.7799021396223983E-01 a       512     0    21     1    12
  1.7146265169702540E-01 a       513     0    21     1    13
 -4.2359567885189450E-02 a       514     0    21     1    14
  1.1062306528179271E-01 a       515     0    21     1    15
 -1.0030428694205522E-01 a       516     0    21     1    16
  3.1361304273284651E-03 a       517     0    21     1    17
  1.2998314880274087E-01 a       518     0    21     1    18
  1.1635403373404256E-01 a       519     0    21     1    19
 -2.2297800403752019E-01 a       520     0    21     1    20
  1.4152046910914193E-01 a       521     0    21     1    21
 -8.6048699096467771E-02 a       522     0    21     1    22
  4.4250543318778798E-02 a       523     0    21     1    23
  1.4193002167260657E-01 a       524     0    21     1    24
 -1.4459492734105118E-02 a       525     0    21     1    25
  9.5149854930975025E-02 a       526     0    22     1     1
  2.2746572685826149E-02 a       527     0    22     1     2
  4.6425970653433637E-02 a       528     0    22     1     3
  2.9398266738747129E-02 a       529     0    22     1     4
 -6.7288975942878235E-02 a       530     0    22     1     5
  4.3761137463142044E-02 a       531     0    22     1     6
 -1.1555386247361034E-01 a       532     0    22     1     7
 -1.9881683385198914E-01 a       533     0    22     1     8
 -1.1029973378858537E-01 a       534     0    22     1     9
 -2.0490929458946761E-01 a       535     0    22     1    10
 -8.6880106585892652E-02 a       536     0    22     1    11
  8.1128120140329676E-02 a       537     0    22     1    12
  2.0929605215963493E-01 a       538     0    22     1    13
  1.4732146570102431E-01 a       539     0    22     1    14
  1.6821535044643784E-01 a       540     0    22     1    15
 -6.0103106581931132E-02 a       541     0    22     1    16
  6.3602100827040958E-02 a       542     0    22     1    17
  1.1820440167562779E-01 a       543     0    22     1    18
 -1.2153370076143472E-01 a       544     0    22     1    19
  2.7916776699983159E-01 a       545     0    22     1    20
 -1.2036846670960780E-02 a       546     0    22     1    21
  4.4150258499504505E-02 a       547     0    22     1    22
 -1.0953260356440675E-01 a       548     0    22     1    23
 -5.8562370008753903E-02 a       549     0    22     1    24
  2.3503796051468802E-03 a       550     0    22     1    25
 -1.1317415136867812E-01 a       551     0    23     1     1
 -9.5950241137715289E-02 a       552     0    23     1     2
 -2.1537684606301088E-01 a       553     0    23     1     3
  1.1354523088744387E-01 a       554     0    23     1     4
 -6.6540646965297809E-02 a       555     0    23     1     5
  1.0232563568044764E-02 a       556     0    23     1     6
 -1.2460625655375668E-01 a       557     0    23     1     7
 -2.5116498993036831E-02 a       558     0    23     1     8
 -2.4178438266317180E-02 a       559     0    23     1     9
 -6.1215867469291856E-02 a       560     0    23     1    10
  3.3211483814502840E-02 a       561     0    23     1    11
  9.4176935002622128E-02 a       562     0    23     1    12
  3.1453767076482508E-03 a       563     0    23     1    13
 -5.1665649193322519E-02 a       564     0    23     1    14
 -1.6980251357542227E-03 a       565     0    23     1    15
 -5.0500599365109936E-02 a       566     0    23     1    16
 -1.5693127497960324E-01 a       567     0    23     1    17
  1.0185545261709808E-01 a       568     0    23     1    18
  1.4155892575195400E-01 a       569     0    23     1    19
  2.2547536475889091E-01 a       570     0    23     1    20
 -6.7547677589186741E-02 a       571     0    23     1    21
 -1.6545505774345201E-02 a       572     0    23     1    22
 -2.1127129455424631E-01 a       573     0    23     1    23
  1.3911587392264299E-01 a       574     0    23     1    24
 -4.1673008657030511E-02 a       575     0    23     1    25
 -1.3342758494289736E-01 a       576     0    24     1     1
  4.5370752541855297E-02 a       577     0    24     1     2
 -7.7123252793560984E-02 a       578     0    24     1     3
 -9.3001193015943243E-02 a       579     0    24     1     4
  1.8493106029380724E-01 a       580     0    24     1     5
  3.6669934681703299E-02 a       581     0    24     1     6
 -6.5099775054001677E-02 a       582     0    24     1     7
  1.2734076074124873E-01 a       583     0    24     1     8
  2.6961674939926881E-02 a       584     0    24     1     9
 -2.6158584182933148E-01 a       585     0    24     1    10
 -1.9127037395560179E-01 a       586     0    24     1    11
 -1.3834165638254647E-01 a       587     0    24     1    12
  1.1088581890576012E-01 a       588     0    24     1    13
 -1.0809332430912538E-01 a       589     0    24     1    14
 -2.8786494614521513E-02 a       590     0    24     1    15
 -4.2318111999471712E-02 a       591     0    24     1    16
 -1.0543242413378889E-01 a       592     0    24     1    17
 -9.6348912606148807E-02 a       593     0    24     1    18
 -1.1463330818357614E-01 a       594     0    24     1    19
  1.7692158744293787E-01 a       595     0    24     1    20
 -1.7503927781209919E-01 a       596     0    24     1    21
  4.0045648548693864E-02 a       597     0    24     1    22
 -2.1006373684638679E-01 a       598     0    24     1    23
 -5.8574711530639867E-02 a       599     0    24     1    24
  1.6432634560961223E-02 a       600     0    24     1    25
  2.4329429241396226E-02 a       601     0    25     1     1
  3.0666965582184674E-01 a       602     0    25     1     2
 -2.2752463445238905E-01 a       603     0    25     1     3
 -1.1600501549191641E-01 a       604     0    25     1     4
 -5.4672663353042709E-02 a       605     0    25     1     5
  9.0236445272080541E-03 a       606     0    25     1     6
  5.7681015653375536E-02 a       607     0    25     1     7
 -9.0446857179577761E-02 a       608     0    25     1     8
 -2.2163912266049640E-01 a       609     0    25     1     9
  1.1710533812404117E-01 a       610     0    25     1    10
 -5.7614641492292035E-02 a       611     0    25     1    11
  3.0252401422954750E-01 a       612     0    25     1    12
 -1.4165862010018063E-01 a       613     0    25     1    13
 -1.7125814290173938E-01 a       614     0    25     1    14
 -1.0317205316785129E-02 a       615     0    25     1    15
 -1.9930541205279984E-01 a       616     0    25     1    16
  1.7965050269440519E-01 a       617     0    25     1    17
 -4.9177149679417900E-02 a       618     0    25     1    18
  5.5062166199554091E-02 a       619     0    25     1    19
  1.4155438926396041E-01 a       620     0    25     1    20
  2.7085920089804721E-01 a       621     0    25     1    21
 -9.2988430151007967E-02 a       622     0    25     1    22
 -8.7072836008103768E-02 a       623     0    25     1    23
  1.3024937615635085E-01 a       624     0    25     1    24
  9.3003113121299996E-02 a       625     0    25     1    25
  6.7330728353302144E-02 a       626     0    26     1     1
 -9.8199817032460446E-02 a       627     0    26     1     2
  5.7573828171311112E-03 a       628     0    26     1     3
  1.0463944069610842E-01 a       629     0    26     1     4
  1.7805849868353246E-01 a       630     0    26     1     5
  9.0441756097298404E-02 a       631     0    26     1     6
 -1.3614330719038581E-01 a       632     0    26     1     7
 -9.3225528927154896E-02 a       633     0    26     1     8
  2.3737297996343190E-01 a       634     0    26     1     9
 -1.1146626393757102E-01 a       635     0    26     1    10
 -2.9921319886944023E-02 a       636     0    26     1    11
  1.7581486901864574E-01 a       637     0    26     1    12
  1.7977585339073693E-01 a       638     0    26     1    13
 -4.0638709305992837E-02 a       639     0    26     1    14
  6.5331611090504324E-02 a       640     0    26     1    15
 -1.2511669313618679E-01 a       641     0    26     1    16
  2.2828624942617792E-03 a       642     0    26     1    17
  1.2219836717627661E-01 a       643     0    26     1    18
  1.5955711566630643E-01 a       644     0    26     1    19
 -1.0960380552533514E-01 a       645     0    26     1    20
  4.6014483797824156E-02 a       646     0    26     1    21
  1.5676846180226375E-01 a       647     0    26     1    22
  1.2464313030285884E-02 a       648     0    26     1    23
 -8.7333953628285305E-02 a       649     0    26     1    24
  1.0614456937676228E-01 a       650     0    26     1    25
  2.1503329776572183E-02 a       651     0    27     1     1
 -5.7048457868519253E-02 a       652     0    27     1     2
 -1.2941131038741283E-02 a       653     0    27     1     3
  4.0819672874643385E-03 a       654     0    27     1     4
  9.1341294379968740E-02 a       655     0    27     1     5
  4.2399147504951079E-02 a       656     0    27     1     6
 -5.0006600273159806E-02 a       657     0    27     1     7
  7.9086970253957556E-02 a       658     0    27     1     8
 -3.5910484645978402E-02 a       659     0    27     1     9
 -2.1685978801126954E-01 a       660     0    27     1    10
  6.0325480113694062E-02 a       661     0    27     1    11
 -9.9612470520969373E-02 a       662     0    27     1    12
  1.4374845782183038E-01 a       663     0    27     1    13
 -5.9781826903947635E-02 a       664     0    27     1    14
 -5.4217503015313008E-02 a       665     0    27     1    15
  7.6548910004765871E-03 a       666     0    27     1    16
  1.9226974126747806E-01 a       667     0    27     1    17
  1.5329421487690181E-01 a       668     0    27     1    18
  8.7769501831288496E-02 a       669     0    27     1    19
  2.4389269036098510E-01 a       670     0    27     1    20
 -1.1346707660927027E-01 a       671     0    27     1    21
  4.7447752125928694E-02 a       672     0    27     1    22
 -2.4648680229953458E-02 a       673     0    27     1    23
 -4.3051493147425672E-02 a       674     0    27     1    24
 -1.4139901550606188E-01 a       675     0    27     1    25
  3.7420250526040151E-02 a       676     0    28     1     1
  1.2122911108910635E-01 a       677     0    28     1     2
  2.1787185654608760E-02 a       678     0    28     1     3
 -1.0245022532415693E-01 a       679     0    28     1     4
 -1.6337167322787718E-01 a       680     0    28     1     5
 -1.3663450996079013E-01 a       681     0    28     1     6
  1.5735277765260573E-02 a       682     0    28     1     7
  8.7574912120415904E-02 a       683     0    28     1     8
 -3.0420423340037476E-02 a       684     0    28     1     9
  1.1286565580100826E-01 a       685     0    28     1    10
 -1.1243227143090349E-01 a       686     0    28     1    11
  2.1196103065635330E-01 a       687     0    28     1    12
 -6.5542659998564096E-02 a       688     0    28     1    13
 -1.8206731309251131E-01 a       689     0    28     1    14
 -1.0801609459063519E-01 a       690     0    28     1    15
  1.5584043749247178E-01 a       691     0    28     1    16
  1.8997474594318761E-02 a       692     0    28     1    17
  1.2371381731819631E-01 a       693     0    28     1    18
  9.9598605489172598E-02 a       694     0    28     1    19
 -8.5914716317437315E-02 a       695     0    28     1    20
 -1.9428333536185027E-01 a       696     0    28     1    21
  8.5609572975557144E-02 a       697     0    28     1    22
 -1.8597357858043365E-01 a       698     0    28     1    23
  1.5969231688386443E-01 a       699     0    28     1    24
 -3.6656166200750379E-02 a       700     0    28     1    25
  1.1217821878110944E-01 a       701     0    29     1     1
 -4.7730554221261164E-02 a       702     0    29     1     2
  1.1266969192153042E-01 a       703     0    29     1     3
  1.4152240999101015E-01 a       704     0    29     1     4
  1.5669720620315558E-01 a       705     0    29     1     5
 -3.1427013030740344E-02 a       706     0    29     1     6
  1.1670966402036914E-01 a       707     0    29     1     7
  1.4247223991021540E-01 a       708     0    29     1     8
 -1.7029259063247190E-02 a       709     0    29     1     9
 -1.1185995819786662E-01 a       710     0    29     1    10
  1.6360279306932468E-01 a       711     0    29     1    11
 -1.2867685951717442E-01 a       712     0    29     1    12
  1.3058030496107378E-01 a       713     0    29     1    13
 -2.2651164245001729E-02 a       714     0    29     1    14
  8.4462272577318045E-02 a       715     0    29     1    15
 -5.3368601308318706E-02 a       716     0    29     1    16
  9.3435706128907808E-02 a       717     0    29     1    17
 -3.1812680753814541E-02 a       718     0    29     1    18
 -4.8129295164711546E-02 a       719     0    29     1    19
  1.4094154064917479E-02 a       720     0    29     1    20
  6.3768946868754478E-02 a       721     0    29     1    21
  1.5811415976830770E-01 a       722     0    29     1    22
 -3.8642659195243075E-02 a       723     0    29     1    23
  8.5058234109379252E-02 a       724     0    29     1    24
  1.1786690944223974E-01 a       725     0    29     1    25
 -4.9291736135863622E-02 a       726     0    30     1     1
  8.9133271585860527E-03 a       727     0    30     1     2
 -1.0218186829867837E-01 a       728     0    30     1     3
 -1.4948292586938186E-01 a       729     0    30     1     4
 -9.2174054961599347E-02 a       730     0    30     1     5
 -4.4921143049951470E-02 a       731     0    30     1     6
 -1.5447222599232607E-01 a       732     0    30     1     7
 -1.1173191765831117E-01 a       733     0    30     1     8
  9.4658958252739303E-02 a       734     0    30     1     9
  2.0438008318036760E-01 a       735     0    30     1    10
 -4.6913357353475252E-02 a       736     0    30     1    11
  4.4119320447762102E-02 a       737     0    30     1    12
 -2.0901675332020972E-01 a       738     0    30     1    13
 -1.9384152128559234E-01 a       739     0    30     1    14
 -1.0380491251995279E-01 a       740     0    30     1    15
  1.4393550446000564E-01 a       741     0    30     1    16
  8.3034360381699146E-02 a       742     0    30     1    17
 -6.9084090668284526E-02 a       743     0    30     1    18
  1.0081500749892926E-01 a       744     0    30     1    19
  1.3668943949908630E-02 a       745     0    30     1    20
 -9.8786611124859446E-03 a       746     0    30     1    21
 -5.8994031324061488E-02 a       747     0    30     1    22
 -3.8498990882797680E-03 a       748     0    30     1    23
  1.3475808119180543E-01 a       749     0    30     1    24
 -2.3316009616848127E-01 a       750     0    30     1    25
  7.3125316236179086E-02 a       751     0    31     1     1
  1.8293449870156767E-01 a       752     0    31     1     2
 -1.2216453491301281E-01 a       753     0    31     1     3
 -2.2493332235600480E-01 a       754     0    31     1     4
 -3.3331790464144508E-03 a       755     0    31     1     5
 -2.1016711409138361E-01 a       756     0    31     1     6
  2.0453825042804033E-01 a       757     0    31     1     7
 -8.4811615918492123E-02 a       758     0    31     1     8
 -2.6898700220532640E-01 a       759     0    31     1     9
  2.0648728813120498E-01 a       760     0    31     1    10
  1.6734014166523759E-01 a       761     0    31     1    11
  6.6735853236202670E-03 a       762     0    31     1    12
 -1.5904757176543008E-02 a       763     0    31     1    13
  1.8159571885969797E-02 a       764     0    31     1    14
 -4.1831178748829079E-02 a       765     0    31     1    15
 -1.6806156403065756E-01 a       766     0    31     1    16
  3.0317043001718635E-01 a       767     0    31     1    17
 -6.6306310489707615E-02 a       768     0    31     1    18
 -1.1163402191990711E-01 a       769     0    31     1    19
  2.2356417086718715E-02 a       770     0    31     1    20
 -7.3947347448941422E-02 a       771     0    31     1    21
  1.2162907290723951E-02 a       772     0    31     1    22
  1.0310016418860216E-01 a       773     0    31     1    23
  1.6437628736815940E-01 a       774     0    31     1    24
 -1.2748583602097119E-01 a       775     0    31     1    25
  1.3532242969930594E-01 a       776     0    32     1     1
 -5.9063931713360406E-02 a       777     0    32     1     2
  2.6223798030682109E-02 a       778     0    32     1     3
 -1.0624206398772486E-01 a       779     0    32     1     4
  6.9179416855980863E-02 a       780     0    32     1     5
  4.0861870435049213E-02 a       781     0    32     1     6
 -8.9762084911753540E-02 a       782     0    32     1     7
 -1.4755849630446133E-01 a       783     0    32     1     8
 -1.3397847576146890E-01 a       784     0    32     1     9
 -3.5878029924606938E-02 a       785     0    32     1    10
 -2.4152617309318957E-02 a       786     0    32     1    11
 -1.3143028111465549E-01 a       787     0    32     1    12
 -1.0440323607410214E-02 a       788     0    32     1    13
  1.1389884875353316E-01 a       789     0    32     1    14
  9.4432515689493748E-02 a       790     0    32     1    15
 -7.2163842049684609E-02 a       791     0    32     1    16
  6.2378807124243048E-02 a       792     0    32     1    17
  6.0806770560023163E-02 a       793     0    32     1    18
  1.0448563893536944E-01 a       794     0    32     1    19
  1.2186165351475370E-01 a       795     0    32     1    20
 -4.5081396263875737E-02 a       796     0    32     1    21
  2.4151009341239645E-02 a       797     0    32     1    22
  4.5096951072566074E-02 a       798     0    32     1    23
 -9.4154126739337166E-02 a       799     0    32     1    24
  3.5731585062912262E-02 a       800     0    32     1    25
  5.5555759980323582E-03 a       801     0    33     1     1
 -4.2384872191161327E-02 a       802     0    33     1     2
  1.2208428708514055E-01 a       803     0    33     1     3
  5.5611464710003534E-02 a       804     0    33     1     4
  1.5010336721255380E-01 a       805     0    33     1     5
 -1.0861284100337318E-01 a       806     0    33     1     6
 -1.9582295120447804E-05 a       807     0    33     1     7
  9.0422306926035201E-02 a       808     0    33     1     8
 -9.0730381106005314E-02 a       809     0    33     1     9
 -8.0427618384682195E-02 a       810     0    33     1    10
  4.9862137060708946E-02 a       811     0    33     1    11
 -1.1246731889934597E-01 a       812     0    33     1    12
  1.6334680256778700E-01 a       813     0    33     1    13
 -1.0249379714662465E-01 a       814     0    33     1    14
  9.2749388604100924E-02 a       815     0    33     1    15
 -1.0143723256600169E-01 a       816     0    33     1    16
  1.0227301995868117E-01 a       817     0    33     1    17
 -4.5627800046262046E-04 a       818     0    33     1    18
 -1.0049200525197476E-01 a       819     0    33     1    19
  8.2403923232330593E-03 a       820     0    33     1    20
 -1.0095884053395034E-02 a       821     0    33     1    21
 -5.3621814710368594E-02 a       822     0    33     1    22
  7.7013583704452604E-02 a       823     0    33     1    23
 -1.3767631739839220E-01 a       824     0    33     1    24
  1.6669173565978423E-01 a       825     0    33     1    25
 -5.6779961525357366E-02 a       826     0    34     1     1
 -1.4347163168833085E-01 a       827     0    34     1     2
  3.2133475849593772E-02 a       828     0    34     1     3
  3.4661952065054517E-03 a       829     0    34     1     4
  7.4109709535839216E-02 a       830     0    34     1     5
  1.5214694224908362E-01 a       831     0    34     1     6
  1.5539346286265149E-02 a       832     0    34     1     7
  1.5392363107652302E-01 a       833     0    34     1     8
 -2.8345170945465029E-02 a       834     0    34     1     9
 -7.1916366630672648E-02 a       835     0    34     1    10
  1.0087243678353447E-01 a       836     0    34     1    11
 -2.8505756235712540E-02 a       837     0    34     1    12
  7.7488497569705064E-02 a       838     0    34     1    13
  1.2979503970543252E-01 a       839     0    34     1    14
 -8.2058467138704974E-02 a       840     0    34     1    15
 -2.2553234665855920E-01 a       841     0    34     1    16
 -7.1985320742739875E-02 a       842     0    34     1    17
 -9.9885938333328581E-02 a       843     0    34     1    18
 -1.5789502870908190E-02 a       844     0    34     1    19
 -5.0121281916706450E-02 a       845     0    34     1    20
  9.1982985489325944E-02 a       846     0    34     1    21
  1.3854075165386398E-01 a       847     0    34     1    22
  3.0217264226278677E-02 a       848     0    34     1    23
 -2.3359539041457135E-02 a       849     0    34     1    24
 -7.5507984740393011E-02 a       850     0    34     1    25
  1.4305713408565282E-01 a       851     0    35     1     1
 -2.0913430295119526E-03 a       852     0    35     1     2
 -9.2734402400408483E-04 a       853     0    35     1     3
 -1.0671009260011993E-01 a       854     0    35     1     4
  7.9515827349403712E-02 a       855     0    35     1     5
  1.0912797871395961E-01 a       856     0    35     1     6
 -3.9384699816805112E-02 a       857     0    35     1     7
 -1.0192508267171403E-01 a       858     0    35     1     8
  7.5262493915458362E-02 a       859     0    35     1     9
 -1.4116033730757116E-01 a       860     0    35     1    10
  1.5211752263918996E-01 a       861     0    35     1    11
 -9.0736119574483132E-02 a       862     0    35     1    12
  1.1716254405476886E-01 a       863     0    35     1    13
 -9.0380696835931126E-02 a       864     0    35     1    14
 -7.9838037299120285E-02 a       865     0    35     1    15
 -3.4583976168583060E-02 a       866     0    35     1    16
 -9.1311614328365778E-03 a       867     0    35     1    17
 -1.3206651723794269E-01 a       868     0    35     1    18
  1.6132793294358946E-01 a       869     0    35     1    19
 -3.3518621390853404E-02 a       870     0    35     1    20
  1.6834360219855321E-01 a       871     0    35     1    21
 -1.1362592939568296E-01 a       872     0    35     1    22
  5.9047117541464550E-02 a       873     0    35     1    23
  5.5279851893676783E-02 a       874     0    35     1    24
 -8.2322341957969933E-02 a       875     0    35     1    25
  4.6526291345796972E-02 a       876     0    36     1     1
 -5.9246032362921357E-02 a       877     0    36     1     2
 -1.9232128196258622E-02 a       878     0    36     1     3
 -1.1664558310949054E-01 a       879     0    36     1     4
  1.9052797476900599E-01 a       880     0    36     1     5
  1.4894439750689350E-02 a       881     0    36     1     6
 -1.9111850859447964E-02 a       882     0    36     1     7
  8.4487868395266910E-02 a       883     0    36     1     8
  1.2641509312197133E-01 a       884     0    36     1     9
 -3.8588694148642362E-02 a       885     0    36     1    10
 -7.3768714347206402E-02 a       886     0    36     1    11
  3.0001148620801443E-02 a       887     0    36     1    12
  1.3059984824438847E-01 a       888     0    36     1    13
 -4.8791961240268196E-02 a       889     0    36     1    14
  9.8932379654609645E-02 a       890     0    36     1    15
 -1.6259332243352231E-01 a       891     0    36     1    16
  1.7249583096031258E-02 a       892     0    36     1    17
 -7.1766920780948928E-02 a       893     0    36     1    18
  8.2721211294835319E-03 a       894     0    36     1    19
  2.8956808432238412E-02 a       895     0    36     1    20
 -6.4594736752637785E-02 a       896     0    36     1    21
 -1.1783446991571155E-01 a       897     0    36     1    22
  2.2799184720676868E-01 a       898     0    36     1    23
  1.1110639974653275E-01 a       899     0    36     1    24
 -5.5136073676131457E-02 a       900     0    36     1    25
 -3.7918397560289634E-02 a       901     0    37     1     1
 -1.9693871406472963E-01 a       902     0    37     1     2
  4.4320776497666366E-02 a       903     0    37     1     3
 -1.4001929236147357E-03 a       904     0    37     1     4
  1.9463523088693604E-01 a       905     0    37     1     5
  6.6233569604790248E-03 a       906     0    37     1     6
 -3.6886413780194548E-02 a       907     0    37     1     7
  1.2250558262636532E-01 a       908     0    37     1     8
  1.0768181868438829E-01 a       909     0    37     1     9
 -1.9530734843741018E-01 a       910     0    37     1    10
  2.8859551219188599E-03 a       911     0    37     1    11
 -1.6039580974954010E-01 a       912     0    37     1    12
  7.4910438579654071E-02 a       913     0    37     1    13
  5.6920186974983487E-02 a       914     0    37     1    14
  1.7862266061736612E-01 a       915     0    37     1    15
 -1.0102622611554322E-01 a       916     0    37     1    16
 -4.3879737746106519E-02 a       917     0    37     1    17
  3.6586656091180426E-03 a       918     0    37     1    18
 -2.1467636904225706E-02 a       919     0    37     1    19
  7.1614102265999208E-02 a       920     0    37     1    20
 -1.3753644182827685E-01 a       921     0    37     1    21
 -6.5114471937121721E-02 a       922     0    37     1    22
  2.8923675968126047E-02 a       923     0    37     1    23
  5.7661243554340429E-02 a       924     0    37     1    24
 -5.1350502244057995E-02 a       925     0    37     1    25
  6.6274002967749573E-02 a       926     0    38     1     1
 -5.3246901715846714E-02 a       927     0    38     1     2
  5.2305893088578637E-02 a       928     0    38     1     3
  9.4261806719218202E-02 a       929     0    38     1     4
 -7.8556502998559513E-02 a       930     0    38     1     5
 -5.0620356556702356E-02 a       931     0    38     1     6
  1.2525826676645177E-01 a       932     0    38     1     7
  1.6945292488257552E-01 a       933     0    38     1     8
 -2.5605405725863489E-01 a       934     0    38     1     9
 -1.5492616131749390E-01 a       935     0    38     1    10
 -1.1409182315931522E-01 a       936     0    38     1    11
  1.8244417345467534E-01 a       937     0    38     1    12
  1.4949317951961008E-01 a       938     0    38     1    13
 -4.9625443707419774E-02 a       939     0    38     1    14
  2.4513610899310166E-02 a       940     0    38     1    15
 -1.6776463668308247E-01 a       941     0    38     1    16
  8.9492192767083589E-03 a       942     0    38     1    17
  3.5235022114868585E-02 a       943     0    38     1    18
  4.0808054146457211E-02 a       944     0    38     1    19
 -7.0063224098165872E-02 a       945     0    38     1    20
 -1.2023270312866277E-01 a       946     0    38     1    21
 -1.9060311679171482E-01 a       947     0    38     1    22
 -1.7054521204633410E-01 a       948     0    38     1    23
  1.2703603843389341E-01 a       949     0    38     1    24
  1.9357709429178635E-01 a       950     0    38     1    25
 -1.5189445271563573E-01 a       951     0    39     1     1
 -1.3208794972192212E-04 a       952     0    39     1     2
 -1.9403774842924715E-01 a       953     0    39     1     3
  1.1216970287351970E-01 a       954     0    39     1     4
 -2.5161495029371767E-01 a       955     0    39     1     5
 -1.7690029682154737E-01 a       956     0    39     1     6
  1.5533891891426568E-01 a       957     0    39     1     7
  2.2045412096485739E-01 a       958     0    39     1     8
 -3.0268407557258792E-01 a       959     0    39     1     9
 -3.1532392801013387E-02 a       960     0    39     1    10
 -3.6888641480113532E-03 a       961     0    39     1    11
  5.6339613768620636E-02 a       962     0    39     1    12
  9.3411509833546905E-03 a       963     0    39     1    13
 -5.1411941099956684E-02 a       964     0    39     1    14
 -4.8208662027363902E-02 a       965     0    39     1    15
 -1.1643655634673379E-01 a       966     0    39     1    16
  2.9560950179634049E-01 a       967     0    39     1    17
  1.7409803455616985E-01 a       968     0    39     1    18
  6.4033157890991357E-02 a       969     0    39     1    19
 -3.6540926509836376E-02 a       970     0    39     1    20
  8.1302989097014902E-02 a       971     0    39     1    21
 -2.5007077098183714E-02 a       972     0    39     1    22
  2.5976262204503265E-02 a       973     0    39     1    23
  1.0017731961295123E-01 a       974     0    39     1    24
  2.9276388974906581E-01 a       975     0    39     1    25
 -5.9924717664621527E-02 a       976     0    40     1     1
  2.5935502142909631E-02 a       977     0    40     1     2
  1.6917722397136226E-01 a       978     0    40     1     3
  3.9754732529489273E-02 a       979     0    40     1     4
  6.6085584928372465E-02 a       980     0    40     1     5
  2.0013611701320516E-01 a       981     0    40     1     6
  2.7564763857992957E-02 a       982     0    40     1     7
  1.8672870279108525E-01 a       983     0    40     1     8
  1.0520623606545855E-01 a       984     0    40     1     9
 -1.1268572667644626E-01 a       985     0    40     1    10
  2.0924041782112796E-01 a       986     0    40     1    11
 -2.0231092360990094E-01 a       987     0    40     1    12
 -1.0556600874578244E-02 a       988     0    40     1    13
 -5.9373186249448685E-02 a       989     0    40     1    14
 -4.1805586858763170E-02 a       990     0    40     1    15
 -2.6173771214239017E-01 a       991     0    40     1    16
  1.7517804153506650E-01 a       992     0    40     1    17
 -1.0962375405291665E-02 a       993     0    40     1    18
  1.4858312813769992E-01 a       994     0    40     1    19
 -1.0441090048670609E-01 a       995     0    40     1    20
 -6.9410878082711722E-02 a       996     0    40     1    21
  3.8367232995120855E-02 a       997     0    40     1    22
  8.1893942833949102E-02 a       998     0    40     1    23
 -1.2590969636437287E-02 a       999     0    40     1    24
 -1.4563240647130121E-01 a      1000     0    40     1    25
  1.9903891191248210E-01 a      1001     0    41     1     1
 -1.1934344767257762E-01 a      1002     0    41     1     2
  1.5818272038911771E-01 a      1003     0    41     1     3
  1.2778393853387970E-01 a      1004     0    41     1     4
 -7.2653656906745176E-02 a      1005     0    41     1     5
 -6.4214509280178300E-02 a      1006     0    41     1     6
  2.2618380667719454E-01 a      1007     0    41     1     7
 -9.8432189600503497E-02 a      1008     0    41     1     8
 -5.5267750323818879E-02 a      1009     0    41     1     9
  1.1179431520769814E-01 a      1010     0    41     1    10
  1.2464600417156618E-01 a      1011     0    41     1    11
  1.1329592883408868E-01 a      1012     0    41     1    12
  1.0597573951855241E-01 a      1013     0    41     1    13
 -1.9142897867936579E-01 a      1014     0    41     1    14
  5.6563117531671765E-02 a      1015     0    41     1    15
  1.9745752981112130E-01 a      1016     0    41     1    16
  2.1382966865961672E-01 a      1017     0    41     1    17
  3.3863122649052091E-01 a      1018     0    41     1    18
 -3.9311526358041353E-03 a      1019     0    41     1    19
 -2.0200572271394704E-01 a      1020     0    41     1    20
  5.5860293422867247E-02 a      1021     0    41     1    21
  4.8431113579330082E-02 a      1022     0    41     1    22
 -5.7916413795647367E-02 a      1023     0    41     1    23
  1.4184703604467241E-01 a      1024     0    41     1    24
  2.6854766399062380E-01 a      1025     0    41     1    25
  9.8116171292756515E-02 a      1026     0    42     1     1
 -2.6493754938470659E-01 a      1027     0    42     1     2
 -1.0238728070197589E-01 a      1028     0    42     1     3
  4.0913529501796518E-02 a      1029     0    42     1     4
  1.3314116160654987E-01 a      1030     0    42     1     5
  1.9364486021407432E-01 a      1031     0    42     1     6
  1.0107734024050723E-02 a      1032     0    42     1     7
  2.2753062565991265E-02 a      1033     0    42     1     8
  1.1769446018073695E-01 a      1034     0    42     1     9
 -9.3473326423079470E-02 a      1035     0    42     1    10
 -7.2802918810229725E-02 a      1036     0    42     1    11
 -1.3589899946271813E-01 a      1037     0    42     1    12
 -1.3214058656234642E-02 a      1038     0    42     1    13
  1.9225748275313329E-01 a      1039     0    42     1    14
 -6.9240862632334532E-02 a      1040     0    42     1    15
 -2.4412733084714422E-01 a      1041     0    42     1    16
  2.0069929709887019E-01 a      1042     0    42     1    17
  2.2246985464284379E-02 a      1043     0    42     1    18
 -5.8060654083063531E-02 a      1044     0    42     1    19
 -2.1053225483152255E-01 a      1045     0    42     1    20
 -1.4099483858037672E-02 a      1046     0    42     1    21
 -1.6904440359900358E-01 a      1047     0    42     1    22
  4.8227498483832509E-02 a      1048     0    42     1    23
 -9.8380926818680201E-02 a      1049     0    42     1    24
  1.0872373744828746E-01 a      1050     0    42     1    25
 -2.7294291308463045E-02 a      1051     0    43     1     1
  8.8965877664804585E-02 a      1052     0    43     1     2
  8.8157411630424010E-02 a      1053     0    43     1     3
 -1.5335731007197489E-02 a      1054     0    43     1     4
 -1.6064969745788849E-01 a      1055     0    43     1     5
  2.2413402347907704E-01 a      1056     0    43     1     6
 -6.5102378369071290E-02 a      1057     0    43     1     7
  8.4519343021723620E-02 a      1058     0    43     1     8
  8.3290026719581897E-02 a      1059     0    43     1     9
 -1.8139937987254059E-01 a      1060     0    43     1    10
 -1.6713568237867066E-01 a      1061     0    43     1    11
  1.3677137082065510E-01 a      1062     0    43     1    12
 -1.2739223269336253E-01 a      1063     0    43     1    13
 -7.6984287077351971E-02 a      1064     0    43     1    14
 -1.6745124023838820E-01 a      1065     0    43     1    15
 -2.4790364777836935E-01 a      1066     0    43     1    16
 -4.4450730807521113E-02 a      1067     0    43     1    17
 -4.1198187483124767E-02 a      1068     0    43     1    18
 -6.0272369673494135E-02 a      1069     0    43     1    19
 -1.4021249622193402E-01 a      1070     0    43     1    20
 -1.3801467428875397E-01 a      1071     0    43     1    21
 -1.4545970252726553E-01 a      1072     0    43     1    22
  2.9612972493695169E-02 a      1073     0    43     1    23
  1.8746483623157242E-01 a      1074     0    43     1    24
  2.1352390140727354E-01 a      1075     0    43     1    25
 -3.0409660816095516E-03 a      1076     0    44     1     1
  1.9862242590280843E-01 a      1077     0    44     1     2
 -1.6691907963721436E-01 a      1078     0    44     1     3
 -1.0643054311148007E-02 a      1079     0    44     1     4
 -6.7676106028761687E-02 a      1080     0    44     1     5
 -1.6956975668286505E-02 a      1081     0    44     1     6
  5.2670005619164573E-02 a      1082     0    44     1     7
  1.4684282096887241E-01 a      1083     0    44     1     8
 -1.3662532039398417E-01 a      1084     0    44     1     9
 -1.1219744276256273E-01 a      1085     0    44     1    10
 -7.5799835581490685E-02 a      1086     0    44     1    11
  1.9433889675629948E-01 a      1087     0    44     1    12
 -7.5967614593795002E-02 a      1088     0    44     1    13
 -1.7538112521240395E-01 a      1089     0    44     1    14
 -3.6873863385121719E-02 a      1090     0    44     1    15
 -1.7006087529917860E-01 a      1091     0    44     1    16
  2.1449736545813364E-01 a      1092     0    44     1    17
  2.6752628254726596E-01 a      1093     0    44     1    18
  2.5049002197766877E-02 a      1094     0    44     1    19
 -3.8881265669195073E-02 a      1095     0    44     1    20
 -8.6932677676645101E-02 a      1096     0    44     1    21
 -1.8353841706710597E-01 a      1097     0    44     1    22
 -1.9768952564506440E-01 a      1098     0    44     1    23
  3.9533418173267593E-01 a      1099     0    44     1    24
  3.0260585629597192E-01 a      1100     0    44     1    25
  5.6253101042809249E-02 a      1101     0    45     1     1
 -1.6053648481388358E-01 a      1102     0    45     1     2
  7.5568935232430176E-02 a      1103     0    45     1     3
  1.0084104501582349E-01 a      1104     0    45     1     4
 -5.0491848729591414E-02 a      1105     0    45     1     5
  5.4193543077767983E-02 a      1106     0    45     1     6
 -7.5770572430039918E-03 a      1107     0    45     1     7
 -5.1286882732232253E-02 a      1108     0    45     1     8
 -1.7678301753880049E-01 a      1109     0    45     1     9
 -1.7167535888921126E-01 a      1110     0    45     1    10
  8.1399061904994269E-02 a      1111     0    45     1    11
  3.8475640298497940E-02 a      1112     0    45     1    12
  1.5625169012639939E-01 a      1113     0    45     1    13
  5.3222575526057317E-02 a      1114     0    45     1    14
  1.0695883676184392E-01 a      1115     0    45     1    15
  9.7516059524582113E-03 a      1116     0    45     1    16
  1.6648755467028303E-01 a      1117     0    45     1    17
  1.7939980340176925E-01 a      1118     0    45     1    18
  7.6324570071765966E-03 a      1119     0    45     1    19
 -1.2255360461331284E-01 a      1120     0    45     1    20
  3.1219035494992834E-02 a      1121     0    45     1    21
  5.6020779829912402E-02 a      1122     0    45     1    22
  9.8674598155026716E-02 a      1123     0    45     1    23
  1.1115686293539787E-01 a      1124     0    45     1    24
 -3.9097800847645414E-02 a      1125     0    45     1    25
  4.7043575894423574E-02 a      1126     0    46     1     1
  1.0050434379860425E-01 a      1127     0    46     1     2
  6.3341602510033512E-02 a      1128     0    46     1     3
  4.5238686378359844E-02 a      1129     0    46     1     4
 -1.1971381812793880E-01 a      1130     0    46     1     5
 -8.9141729632522426E-02 a      1131     0    46     1     6
 -1.0258567262342153E-01 a      1132     0    46     1     7
  7.2631290970864210E-02 a      1133     0    46     1     8
  1.1746034844323261E-01 a      1134     0    46     1     9
 -3.2456971406702048E-02 a      1135     0    46     1    10
 -2.4550362848492369E-01 a      1136     0    46     1    11
  1.4682090986839702E-01 a      1137     0    46     1    12
 -1.3654928818005263E-02 a      1138     0    46     1    13
 -3.4096335771221932E-02 a      1139     0    46     1    14
 -1.2376658334896851E-01 a      1140     0    46     1    15
 -3.0789684227225722E-01 a      1141     0    46     1    16
 -1.7454336316271798E-02 a      1142     0    46     1    17
  2.0751493764804681E-02 a      1143     0    46     1    18
 -1.3710794310459648E-01 a      1144     0    46     1    19
 -2.9437820561294702E-02 a      1145     0    46     1    20
 -3.7267573412132347E-02 a      1146     0    46     1    21
  2.9744174545472094E-03 a      1147     0    46     1    22
 -4.3631150551974196E-02 a      1148     0    46     1    23
  1.6889755699376313E-01 a      1149     0    46     1    24
  1.2583195540492842E-01 a      1150     0    46     1    25
  9.8650606396470886E-02 a      1151     0    47     1     1
  1.0689285282994963E-01 a      1152     0    47     1     2
 -8.5916300119694824E-02 a      1153     0    47     1     3
  1.6226140910189410E-01 a      1154     0    47     1     4
 -3.6551853370793100E-02 a      1155     0    47     1     5
 -7.1617140725817485E-02 a      1156     0    47     1     6
  5.3970266294886625E-02 a      1157     0    47     1     7
  9.0361511041270839E-02 a      1158     0    47     1     8
  1.5211926525280122E-02 a      1159     0    47     1     9
 -1.2417909425287371E-01 a      1160     0    47     1    10
 -1.6619897909826720E-01 a      1161     0    47     1    11
 -7.5781832962689630E-02 a      1162     0    47     1    12
 -1.3972212705432041E-01 a      1163     0    47     1    13
 -5.9743123426114295E-03 a      1164     0    47     1    14
 -5.6970633121851508E-02 a      1165     0    47     1    15
 -2.3701212279132208E-01 a      1166     0    47     1    16
  1.0339135261622781E-01 a      1167     0    47     1    17
  2.9392567523042444E-03 a      1168     0    47     1    18
  1.4480368979125011E-01 a      1169     0    47     1    19
 -1.1799720434127961E-01 a      1170     0    47     1    20
 -3.2814131718859149E-02 a      1171     0    47     1    21
 -1.1206881795031116E-01 a      1172     0    47     1    22
  3.6824381296246995E-02 a      1173     0    47     1    23
  1.2467250162227539E-01 a      1174     0    47     1    24
 -1.1313337130308576E-01 a      1175     0    47     1    25
 -1.0788605507880472E-01 a      1176     0    48     1     1
 -8.2432524759409209E-02 a      1177     0    48     1     2
 -2.6079010066783828E-03 a      1178     0    48     1     3
 -7.8121201053003839E-02 a      1179     0    48     1     4
  3.1194528985459317E-02 a      1180     0    48     1     5
 -2.2477012958310449E-01 a      1181     0    48     1     6
 -1.3285678601880777E-01 a      1182     0    48     1     7
  7.0757783398659804E-02 a      1183     0    48     1     8
 -1.5501306309201260E-01 a      1184     0    48     1     9
  4.4976084563135128E-02 a      1185     0    48     1    10
 -8.3717036341904499E-02 a      1186     0    48     1    11
  2.1867225400167922E-01 a      1187     0    48     1    12
  5.0977442422700595E-02 a      1188     0    48     1    13
 -1.9923616574837871E-01 a      1189     0    48     1    14
  1.7994358766585591E-01 a      1190     0    48     1    15
  1.3082000345411394E-02 a      1191     0    48     1    16
  1.1893404414953371E-01 a      1192     0    48     1    17
  2.0210815070839869E-02 a      1193     0    48     1    18
  1.7340299553432556E-01 a      1194     0    48     1    19
 -1.9767563068766972E-01 a      1195     0    48     1    20
  1.4274632622744110E-01 a      1196     0    48     1    21
 -8.5141563242724760E-02 a      1197     0    48     1    22
 -3.9835214808598904E-04 a      1198     0    48     1    23
  1.3974590357182742E-01 a      1199     0    48     1    24
  1.8145665495834845E-01 a      1200     0    48     1    25
 -1.1436354378854593E-01 a      1201     0    49     1     1
  1.1089730198678881E-01 a      1202     0    49     1     2
  8.7215816603841059E-03 a      1203     0    49     1     3
  1.9838128061889021E-01 a      1204     0    49     1     4
 -1.9009638679792729E-01 a      1205     0    49     1     5
  1.2530408483657232E-01 a      1206     0    49     1     6
 -1.1863795377845099E-01 a      1207     0    49     1     7
 -7.2898322041062391E-02 a      1208     0    49     1     8
  2.1984384942743386E-02 a      1209     0    49     1     9
 -2.5017609152215048E-01 a      1210     0    49     1    10
  5.6010870785182607E-03 a      1211     0    49     1    11
  1.4618258642950660E-01 a      1212     0    49     1    12
  1.4858423026584633E-01 a      1213     0    49     1    13
  3.4091591685600997E-02 a      1214     0    49     1    14
 -1.4550667726854893E-01 a      1215     0    49     1    15
 -8.7074671365070938E-02 a      1216     0    49     1    16
 -3.5354266529660616E-02 a      1217     0    49     1    17
  9.4027863517084503E-02 a      1218     0    49     1    18
  4.4868962014064949E-02 a      1219     0    49     1    19
  2.2296037331653198E-01 a      1220     0    49     1    20
 -8.3865021599547306E-03 a      1221     0    49     1    21
 -8.7592747233208465E-02 a      1222     0    49     1    22
 -1.0735798472766316E-01 a      1223     0    49     1    23
  2.4895437727278474E-01 a      1224     0    49     1    24
  4.7462736375009168E-02 a      1225     0    49     1    25
 -1.1487642412380901E-01 a      1226     0    50     1     1
 -7.1199241046790512E-02 a      1227     0    50     1     2
  1.1885143165696085E-01 a      1228     0    50     1     3
  3.1041626957397822E-01 a      1229     0    50     1     4
  5.4986248904411256E-02 a      1230     0    50     1     5
  3.6785729306924447E-03 a      1231     0    50     1     6
 -2.1443077541752426E-01 a      1232     0    50     1     7
  6.5692517185359234E-02 a      1233     0    50     1     8
 -6.2846896477673775E-02 a      1234     0    50     1     9
 -1.1819852245394774E-01 a      1235     0    50     1    10
 -9.6702697035852381E-02 a      1236     0    50     1    11
 -1.0189838135371158E-02 a      1237     0    50     1    12
  1.6239341573758462E-01 a      1238     0    50     1    13
 -7.1691317495819945E-02 a      1239     0    50     1    14
  1.1931384579294578E-01 a      1240     0    50     1    15
 -1.4019431783051778E-01 a      1241     0    50     1    16
 -2.0905050440436823E-01 a      1242     0    50     1    17
 -1.2415732714191052E-02 a      1243     0    50     1    18
 -6.2134186375376245E-02 a      1244     0    50     1    19
 -9.6104115879432572E-02 a      1245     0    50     1    20
  3.2224661413221958E-02 a      1246     0    50     1    21
 -6.2958472958078882E-02 a      1247     0    50     1    22
 -5.4335195323350891E-02 a      1248     0    50     1    23
  4.3636258218867296E-01 a      1249     0    50     1    24
  3.5851965190529328E-01 a      1250     0    50     1    25
  4.7706848400240857E-02 a      1251     0    51     1     1
 -1.8278772763553712E-02 a      1252     0    51     1     2
 -7.7437832814017865E-02 a      1253     0    51     1     3
  1.7788936413445394E-02 a      1254     0    51     1     4
  6.9466471656593864E-02 a      1255     0    51     1     5
  5.9055268246863135E-04 a      1256     0    51     1     6
  1.2339483977194997E-01 a      1257     0    51     1     7
 -1.4884528710637949E-02 a      1258     0    51     1     8
  8.9778540321946588E-03 a      1259     0    51     1     9
  9.7317120088188901E-03 a      1260     0    51     1    10
  2.3835208112173975E-02 a      1261     0    51     1    11
  2.7822315101542483E-01 a      1262     0    51     1    12
 -1.0045224861597096E-01 a      1263     0    51     1    13
 -1.7429589898491533E-03 a      1264     0    51     1    14
  2.4482407332561427E-02 a      1265     0    51     1    15
 -6.1537002136666560E-02 a      1266     0    51     1    16
  2.7405629538052251E-01 a      1267     0    51     1    17
 -7.9284423034621118E-02 a      1268     0    51     1    18
 -7.4310507001080273E-02 a      1269     0    51     1    19
 -5.5534398719572532E-02 a      1270     0    51     1    20
 -1.2711584214013702E-01 a      1271     0    51     1    21
  8.2617485506487454E-02 a      1272     0    51     1    22
 -1.2993541839600500E-01 a      1273     0    51     1    23
  1.2893870266401999E-01 a      1274     0    51     1    24
 -1.4088285978108478E-01 a      1275     0    51     1    25
 -7.1455558682929285E-02 a      1276     0    52     1     1
 -1.6358649638739198E-01 a      1277     0    52     1     2
  5.8672878713465701E-02 a      1278     0    52     1     3
 -3.0562522742901829E-02 a      1279     0    52     1     4
  1.8601004188985809E-01 a      1280     0    52     1     5
  1.8505507286219669E-01 a      1281     0    52     1     6
 -8.2554540410938182E-02 a      1282     0    52     1     7
 -7.5883852017241710E-02 a      1283     0    52     1     8
 -1.4900338605473998E-01 a      1284     0    52     1     9
 -4.7848907451447445E-02 a      1285     0    52     1    10
 -1.4966011106469465E-01 a      1286     0    52     1    11
  7.8585320413924742E-02 a      1287     0    52     1    12
  2.0532729095151092E-01 a      1288     0    52     1    13
 -1.6451713445345129E-01 a      1289     0    52     1    14
 -1.6615096377083169E-01 a      1290     0    52     1    15
 -1.7864360782657621E-01 a      1291     0    52     1    16
  2.7315787220940621E-02 a      1292     0    52     1    17
 -1.0303690502741880E-01 a      1293     0    52     1    18
 -1.7267960263154081E-02 a      1294     0    52     1    19
 -8.4082437577666841E-02 a      1295     0    52     1    20
 -1.1050035850602150E-01 a      1296     0    52     1    21
 -3.2976627795788707E-02 a      1297     0    52     1    22
  1.3145583594776464E-01 a      1298     0    52     1    23
  5.3991183260030606E-02 a      1299     0    52     1    24
  1.2495857143392806E-01 a      1300     0    52     1    25
  2.2286947523355416E-02 a      1301     0    53     1     1
  2.4553289692455332E-01 a      1302     0    53     1     2
 -4.5406175944514120E-02 a      1303     0    53     1     3
 -4.9229419584103595E-02 a      1304     0    53     1     4
 -3.1192487590790217E-02 a      1305     0    53     1     5
  1.1643776027861232E-01 a      1306     0    53     1     6
  6.9078257385976241E-02 a      1307     0    53     1     7
  7.7115407153261400E-02 a      1308     0    53     1     8
  2.6110594123196905E-02 a      1309     0    53     1     9
 -1.0992501586461879E-01 a      1310     0    53     1    10
 -1.2483314231666857E-01 a      1311     0    53     1    11
  2.6339275970780873E-01 a      1312     0    53     1    12
 -1.4431598760057410E-01 a      1313     0    53     1    13
 -2.0534261114949429E-01 a      1314     0    53     1    14
 -1.3445551268924835E-01 a      1315     0    53     1    15
 -5.5638876170172977E-02 a      1316     0    53     1    16
  1.2962937437376199E-01 a      1317     0    53     1    17
  9.5812801879893675E-02 a      1318     0    53     1    18
 -7.6377576362498451E-02 a      1319     0    53     1    19
 -1.0917056691322452E-01 a      1320     0    53     1    20
 -5.7042794238605955E-02 a      1321     0    53     1    21
 -5.4416935328333249E-02 a      1322     0    53     1    22
  1.2614691719525359E-01 a      1323     0    53     1    23
  8.0100312603019960E-02 a      1324     0    53     1    24
  1.5186547892825006E-01 a      1325     0    53     1    25
  2.8467678326375014E-02 a      1326     0    54     1     1
  1.4853211795068039E-01 a      1327     0    54     1     2
 -3.3988317534707400E-02 a      1328     0    54     1     3
  1.9489341551611309E-02 a      1329     0    54     1     4
 -2.6800616653987239E-02 a      1330     0    54     1     5
  4.6352450052941897E-02 a      1331     0    54     1     6
  2.0599753949640820E-01 a      1332     0    54     1     7
  9.7802377221766004E-02 a      1333     0    54     1     8
 -1.2188570876159058E-01 a      1334     0    54     1     9
  1.4488846080321874E-01 a      1335     0    54     1    10
 -3.0968250937043768E-03 a      1336     0    54     1    11
  5.2789835073074894E-02 a      1337     0    54     1    12
 -7.2415478031885333E-02 a      1338     0    54     1    13
 -1.6598086661356201E-01 a      1339     0    54     1    14
 -1.6986520903920560E-01 a      1340     0    54     1    15
 -2.2336119778454885E-01 a      1341     0    54     1    16
  6.3126872214053137E-02 a      1342     0    54     1    17
  2.1637549048218494E-02 a      1343     0    54     1    18
 -4.1480920469713738E-02 a      1344     0    54     1    19
 -9.0907411527512860E-02 a      1345     0    54     1    20
 -9.4157180414537606E-03 a      1346     0    54     1    21
 -8.0713194757261020E-02 a      1347     0    54     1    22
 -3.4387321041773777E-02 a      1348     0    54     1    23
  8.0468467994832399E-02 a      1349     0    54     1    24
  1.0232205320734418E-01 a      1350     0    54     1    25
  1.4726572529936650E-02 a      1351     0    55     1     1
 -9.6226400870039933E-02 a      1352     0    55     1     2
 -7.0285747242677707E-02 a      1353     0    55     1     3
  1.5456327218947738E-01 a      1354     0    55     1     4
  1.7605453144403008E-01 a      1355     0    55     1     5
 -2.3693491859882891E-02 a      1356     0    55     1     6
 -2.6178212987615973E-01 a      1357     0    55     1     7
  8.1528068919081806E-02 a      1358     0    55     1     8
 -1.4403766960458675E-01 a      1359     0    55     1     9
 -1.0766148442157845E-01 a      1360     0    55     1    10
 -1.3331899889828333E-01 a      1361     0    55     1    11
 -2.2657172382085557E-02 a      1362     0    55     1    12
  9.5523030493370673E-02 a      1363     0    55     1    13
  9.4529950174364982E-02 a      1364     0    55     1    14
  8.1270898645206285E-02 a      1365     0    55     1    15
 -7.7077448834307033E-02 a      1366     0    55     1    16
  4.4439952076798968E-03 a      1367     0    55     1    17
  1.0608139887524863E-01 a      1368     0    55     1    18
 -1.7183224457926341E-01 a      1369     0    55     1    19
  1.5370112074620479E-01 a      1370     0    55     1    20
  2.0414902656612249E-02 a      1371     0    55     1    21
 -1.5160036896423024E-01 a      1372     0    55     1    22
  1.2122888597757467E-01 a      1373     0    55     1    23
  1.3846708518607023E-01 a      1374     0    55     1    24
 -1.2222278993116231E-02 a      1375     0    55     1    25
  3.5576997842713141E-02 a      1376     0    56     1     1
 -2.0911427332380172E-01 a      1377     0    56     1     2
 -4.8715654668598979E-02 a      1378     0    56     1     3
  2.7823880133012968E-01 a      1379     0    56     1     4
 -4.1077593346159000E-02 a      1380     0    56     1     5
  8.6570727564990790E-02 a      1381     0    56     1     6
 -1.1984270443967211E-01 a      1382     0    56     1     7
  8.7979740176138965E-02 a      1383     0    56     1     8
 -1.9357954102740274E-01 a      1384     0    56     1     9
 -4.1331246639756630E-01 a      1385     0    56     1    10
 -4.4317075419475892E-03 a      1386     0    56     1    11
 -7.2812525914266769E-03 a      1387     0    56     1    12
  1.6199978131160830E-01 a      1388     0    56     1    13
  7.6370230383044219E-02 a      1389     0    56     1    14
 -8.0786162462906486E-02 a      1390     0    56     1    15
 -9.6464788611260455E-02 a      1391     0    56     1    16
 -1.7218210283875823E-01 a      1392     0    56     1    17
 -1.1965568484918139E-01 a      1393     0    56     1    18
 -2.5241438163118313E-01 a      1394     0    56     1    19
  2.6731941904106701E-02 a      1395     0    56     1    20
 -2.2418042112036599E-01 a      1396     0    56     1    21
  1.0469162544448347E-01 a      1397     0    56     1    22
  5.0183896610651785E-02 a      1398     0    56     1    23
  4.2814692097936285E-01 a      1399     0    56     1    24
  2.3161497732094730E-01 a      1400     0    56     1    25
 -1.8153776517510442E-01 a      1401     0    57     1     1
  1.5437215806078333E-01 a      1402     0    57     1     2
 -1.9979914921750241E-01 a      1403     0    57     1     3
  1.1765548873929395E-01 a      1404     0    57     1     4
  1.4918027419403629E-02 a      1405     0    57     1     5
 -7.4003778690678271E-02 a      1406     0    57     1     6
  6.7548242484485599E-02 a      1407     0    57     1     7
  9.8751766598244081E-03 a      1408     0    57     1     8
 -3.0326142226523717E-02 a      1409     0    57     1     9
  1.4389873035442957E-01 a      1410     0    57     1    10
 -1.1246031026425993E-01 a      1411     0    57     1    11
  2.2287947096394647E-01 a      1412     0    57     1    12
  1.4273955086836539E-02 a      1413     0    57     1    13
 -2.2506187024551388E-01 a      1414     0    57     1    14
 -2.0249113436437161E-01 a      1415     0    57     1    15
 -1.5325074397805480E-01 a      1416     0    57     1    16
  7.3099758463773479E-02 a      1417     0    57     1    17
  5.8819216040226496E-02 a      1418     0    57     1    18
  1.1280881774421865E-01 a      1419     0    57     1    19
 -4.6775823457537911E-02 a      1420     0    57     1    20
 -6.7309563034374437E-02 a      1421     0    57     1    21
 -1.6479829170946589E-01 a      1422     0    57     1    22
 -1.5775886576302425E-01 a      1423     0    57     1    23
  7.0043090627775889E-02 a      1424     0    57     1    24
  1.1019781173433302E-01 a      1425     0    57     1    25
 -2.1279772586795165E-01 a      1426     0    58     1     1
 -9.9687628922477456E-02 a      1427     0    58     1     2
  1.8693027241335552E-01 a      1428     0    58     1     3
  1.3005565846041778E-01 a      1429     0    58     1     4
  2.6175139013596327E-01 a      1430     0    58     1     5
  3.4363028481445651E-02 a      1431     0    58     1     6
 -1.5540891572258730E-01 a      1432     0    58     1     7
  8.6476649026107244E-02 a      1433     0    58     1     8
 -1.8588352273662656E-01 a      1434     0    58     1     9
 -1.6029182209259411E-02 a      1435     0    58     1    10
  7.6508784134456274E-03 a      1436     0    58     1    11
  1.7005728731536282E-01 a      1437     0    58     1    12
 -1.0068300257735893E-01 a      1438     0    58     1    13
  2.5485416101673247E-01 a      1439     0    58     1    14
 -1.0267566407793037E-01 a      1440     0    58     1    15
 -2.3477593395724650E-01 a      1441     0    58     1    16
  2.8938414418578733E-02 a      1442     0    58     1    17
 -1.5583623565331930E-01 a      1443     0    58     1    18
 -4.2117340611029321E-02 a      1444     0    58     1    19
 -3.6482405534873441E-01 a      1445     0    58     1    20
 -1.2429149843253984E-02 a      1446     0    58     1    21
 -5.6381726025333520E-02 a      1447     0    58     1    22
  1.8287939130128983E-01 a      1448     0    58     1    23
  8.2695002606331752E-02 a      1449     0    58     1    24
  1.4509437689180554E-01 a      1450     0    58     1    25
  9.9661389807699077E-02 a      1451     0    59     1     1
  2.2792435332543107E-01 a      1452     0    59     1     2
  1.2012010078231582E-01 a      1453     0    59     1     3
 -9.5636299603807373E-02 a      1454     0    59     1     4
 -6.1591757475280721E-02 a      1455     0    59     1     5
  8.9741906287521864E-02 a      1456     0    59     1     6
 -1.7224455026807714E-01 a      1457     0    59     1     7
 -1.8162747570801716E-01 a      1458     0    59     1     8
  1.4707492215921206E-01 a      1459     0    59     1     9
 -9.0714040844415714E-02 a      1460     0    59     1    10
 -2.0449865556918267E-01 a      1461     0    59     1    11
  3.1187801239970342E-01 a      1462     0    59     1    12
 -5.6940544760721024E-03 a      1463     0    59     1    13
  3.9320193326538994E-02 a      1464     0    59     1    14
  1.5686609231864497E-02 a      1465     0    59     1    15
  1.1113605394177188E-01 a      1466     0    59     1    16
  2.2624788319663097E-01 a      1467     0    59     1    17
 -1.4704231885603300E-01 a      1468     0    59     1    18
 -1.8775456494165055E-01 a      1469     0    59     1    19
  1.5433179239100087E-01 a      1470     0    59     1    20
 -3.9382227674728931E-02 a      1471     0    59     1    21
  1.3393377948580248E-01 a      1472     0    59     1    22
 -1.8045647629822509E-01 a      1473     0    59     1    23
 -6.6672240091585872E-02 a      1474     0    59     1    24
  4.2687381917069639E-02 a      1475     0    59     1    25
  1.6230370963188712E-01 a      1476     0    60     1     1
  1.0082332149294117E-01 a      1477     0    60     1     2
 -1.6289202972572431E-01 a      1478     0    60     1     3
  1.0543316206860774E-01 a      1479     0    60     1     4
  9.2199812021448113E-02 a      1480     0    60     1     5
  1.2222246354038084E-01 a      1481     0    60     1     6
  1.6342296522232122E-01 a      1482     0    60     1     7
 -2.3968431141769851E-02 a      1483     0    60     1     8
  1.9658393814204139E-01 a      1484     0    60     1     9
  1.0684634310815554E-01 a      1485     0    60     1    10
  8.5720644497322709E-02 a      1486     0    60     1    11
  2.1688948113174986E-01 a      1487     0    60     1    12
  1.4695668441146906E-01 a      1488     0    60     1    13
  1.2114866006473826E-01 a      1489     0    60     1    14
  6.3849028441084907E-02 a      1490     0    60     1    15
 -1.1645061681119644E-01 a      1491     0    60     1    16
 -1.1949932882939305E-02 a      1492     0    60     1    17
 -4.5920278781005588E-02 a      1493     0    60     1    18
 -3.7317575503304279E-02 a      1494     0    60     1    19
 -1.1976673359555788E-01 a      1495     0    60     1    20
  4.5031603803324272E-02 a      1496     0    60     1    21
  1.4576470229454250E-01 a      1497     0    60     1    22
  1.1508715275607355E-01 a      1498     0    60     1    23
 -3.1926955665467924E-02 a      1499     0    60     1    24
 -9.7289559403730588E-02 a      1500     0    60     1    25
 -2.2552530505106844E-01 a      1501     0    61     1     1
  8.1665250247605625E-02 a      1502     0    61     1     2
 -1.0629197572252475E-01 a      1503     0    61     1     3
  9.0909185013609090E-02 a      1504     0    61     1     4
  1.9009533528187603E-01 a      1505     0    61     1     5
 -5.6583275678810552E-02 a      1506     0    61     1     6
 -1.4895097893516757E-01 a      1507     0    61     1     7
 -1.7910861743711148E-01 a      1508     0    61     1     8
 -8.1035308112164819E-02 a      1509     0    61     1     9
 -9.1155771941463112E-02 a      1510     0    61     1    10
 -1.8774414536451048E-01 a      1511     0    61     1    11
  1.1726725079545433E-01 a      1512     0    61     1    12
 -1.6032064496904749E-01 a      1513     0    61     1    13
  9.3902050832009615E-02 a      1514     0    61     1    14
 -6.9840644318712911E-02 a      1515     0    61     1    15
 -3.6224433989629845E-01 a      1516     0    61     1    16
  1.4996734777890205E-01 a      1517     0    61     1    17
 -1.5717297391028274E-02 a      1518     0    61     1    18
  1.0564224345865461E-01 a      1519     0    61     1    19
 -1.5001715311692787E-01 a      1520     0    61     1    20
  7.9288557316297803E-02 a      1521     0    61     1    21
  1.2863537257923127E-01 a      1522     0    61     1    22
  4.2943909251732346E-02 a      1523     0    61     1    23
  1.3878546835777852E-01 a      1524     0    61     1    24
 -2.5991322317821364E-02 a      1525     0    61     1    25
  1.0326564993545914E-01 a      1526     0    62     1     1
 -1.2713040099264267E-02 a      1527     0    62     1     2
 -4.7958161147583112E-02 a      1528     0    62     1     3
 -2.6757267674625350E-02 a      1529     0    62     1     4
  1.4927028747835960E-01 a      1530     0    62     1     5
  6.9633532938927767E-03 a      1531     0    62     1     6
 -1.4199937763347154E-01 a      1532     0    62     1     7
 -1.4956754086775481E-01 a      1533     0    62     1     8
  1.8135596945860652E-01 a      1534     0    62     1     9
 -1.8754772627723251E-01 a      1535     0    62     1    10
 -7.1917696069201995E-02 a      1536     0    62     1    11
  1.7753268612718090E-01 a      1537     0    62     1    12
  1.7339732536002203E-01 a      1538     0    62     1    13
  1.0505428674941972E-01 a      1539     0    62     1    14
  4.2396574744785816E-02 a      1540     0    62     1    15
 -9.8995983377227523E-02 a      1541     0    62     1    16
 -4.8035315506747049E-02 a      1542     0    62     1    17
 -1.0532131517480066E-01 a      1543     0    62     1    18
 -1.7939955931728940E-01 a      1544     0    62     1    19
  1.0913368936252677E-02 a      1545     0    62     1    20
 -2.8592804855187448E-01 a      1546     0    62     1    21
 -8.2118250427469786E-02 a      1547     0    62     1    22
 -1.0347561841727031E-01 a      1548     0    62     1    23
 -1.2031814176620449E-01 a      1549     0    62     1    24
  1.0194844483171536E-02 a      1550     0    62     1    25
  5.2917491090497051E-02 a      1551     0    63     1     1
  3.4305579155394222E-01 a      1552     0    63     1     2
 -2.2926272370770653E-01 a      1553     0    63     1     3
 -2.0452215413633174E-01 a      1554     0    63     1     4
  1.3705442202316206E-01 a      1555     0    63     1     5
 -3.3488348207489603E-03 a      1556     0    63     1     6
  1.0034329260200528E-01 a      1557     0    63     1     7
 -6.9597488775495764E-02 a      1558     0    63     1     8
 -2.5320042898011252E-01 a      1559     0    63     1     9
 -2.6678629712666505E-02 a      1560     0    63     1    10
 -6.2919469833942962E-02 a      1561     0    63     1    11
 -6.7638889154917212E-02 a      1562     0    63     1    12
  5.0733195629767275E-03 a      1563     0    63     1    13
 -5.2401435276132349E-02 a      1564     0    63     1    14
 -3.1137767890406561E-03 a      1565     0    63     1    15
 -3.8510167794102718E-01 a      1566     0    63     1    16
  2.4101664363175995E-02 a      1567     0    63     1    17
  8.2544255682106327E-02 a      1568     0    63     1    18
 -6.8208603480542390E-02 a      1569     0    63     1    19
  1.6004757965442384E-01 a      1570     0    63     1    20
  1.4372090852616393E-01 a      1571     0    63     1    21
  1.2358494566341134E-01 a      1572     0    63     1    22
  1.2407229509735035E-01 a      1573     0    63     1    23
  1.6051155695725405E-01 a      1574     0    63     1    24
 -1.2702374505471820E-01 a      1575     0    63     1    25
  4.8272865651995941E-02 a      1576     0    64     1     1
  1.7272258847864583E-03 a      1577     0    64     1     2
  6.2630995101132417E-02 a      1578     0    64     1     3
 -1.3167368506035326E-01 a      1579     0    64     1     4
 -3.8258659709752584E-02 a      1580     0    64     1     5
  1.5933880043523541E-01 a      1581     0    64     1     6
 -5.8072950725177571E-03 a      1582     0    64     1     7
  1.1178042711285369E-01 a      1583     0    64     1     8
 -9.4175281759479521E-03 a      1584     0    64     1     9
 -9.1404341693573938E-03 a      1585     0    64     1    10
  6.5831482924395820E-02 a      1586     0    64     1    11
 -1.3709826836114594E-01 a      1587     0    64     1    12
  1.5141021421449977E-01 a      1588     0    64     1    13
  2.9331292854618891E-02 a      1589     0    64     1    14
  2.1773636758646431E-01 a      1590     0    64     1    15
 -1.6053233242368589E-01 a      1591     0    64     1    16
 -4.4387867145197206E-02 a      1592     0    64     1    17
  1.4588981017325561E-01 a      1593     0    64     1    18
 -1.5822149799749444E-02 a      1594     0    64     1    19
  1.7990187406999053E-01 a      1595     0    64     1    20
 -1.2414098970963035E-01 a      1596     0    64     1    21
  9.0710200404010552E-02 a      1597     0    64     1    22
  1.0706611475747398E-01 a      1598     0    64     1    23
 -9.2809500282111310E-02 a      1599     0    64     1    24
  3.7586732612047702E-02 a      1600     0    64     1    25
 -2.0805307788310159E-01 b      1601     1     1
  3.9521846583267468E-02 b      1602     1     2
 -2.0690796188033350E-01 b      1603     1     3
  3.7147369619206183E-01 b      1604     1     4
  4.2889882438137167E-01 b      1605     1     5
 -1.4700159095689211E-01 b      1606     1     6
 -6.2612108828828705E-01 b      1607     1     7
 -3.2495390757765380E-01 b      1608     1     8
 -3.1679544396591541E-01 b      1609     1     9
 -6.6136521221463807E-01 b      1610     1    10
 -1.3030175401614921E-01 b      1611     1    11
  2.0269849775308565E-01 b      1612     1    12
 -1.2015025931271951E-01 b      1613     1    13
  5.8115530373543745E-01 b      1614     1    14
 -7.2859378617447246E-01 b      1615     1    15
 -9.8317839338418200E-02 b      1616     1    16
  2.9970680087562374E-01 b      1617     1    17
 -1.5989332591720176E-01 b      1618     1    18
 -7.2894514175907676E-01 b      1619     1    19
 -5.1781029026958880E-01 b      1620     1    20
 -6.3370474945762989E-01 b      1621     1    21
 -9.7302213351852213E-02 b      1622     1    22
 -6.1804807467167544E-01 b      1623     1    23
 -3.1791480163792851E-01 b      1624     1    24
 -4.1557964509391260E-01 b      1625     1    25
  1.6778003455218707E-01 a      1626     1     1     2     1
 -5.3821364241290873E-02 a      1627     1     1     2     2
  5.0371326078408919E-02 a      1628     1     1     2     3
