################################################################################
# Neural network connection values (weights and biases).
################################################################################
# Col  Name       Description
################################################################################
# 1    connection Neural network connection value.
# 2    t          Connection type (a = weight, b = bias).
# 3    index      Index enumerating weights.
# 4    l_s        Starting point layer (end point layer for biases).
# 5    n_s        Starting point neuron in starting layer (end point neuron for biases).
# 6    l_e        End point layer.
# 7    n_e        End point neuron in end layer.
################################################################################
#                      1 2         3     4     5     6     7
#             connection t     index   l_s   n_s   l_e   n_e
############################################################
  7.5710738742910122E-01 a         1     0     1     1     1
  2.2454146463284146E+00 a         2     0     1     1     2
  1.7530088928750878E-01 a         3     0     1     1     3
  1.2996921170201281E+00 a         4     0     1     1     4
 -4.1225927327391165E-01 a         5     0     1     1     5
  4.2464909412350854E-01 a         6     0     1     1     6
 -2.0289380299418500E+00 a         7     0     1     1     7
  1.0999089137895461E+00 a         8     0     1     1     8
  5.5348337759081670E-02 a         9     0     1     1     9
 -7.6329524968333451E-02 a        10     0     1     1    10
 -2.1280954654521080E+00 a        11     0     1     1    11
 -2.2896184695065300E+00 a        12     0     1     1    12
  1.5071537745591177E+00 a        13     0     1     1    13
  3.0646422466233045E+00 a        14     0     1     1    14
  4.2472009561842668E-02 a        15     0     1     1    15
 -4.2409699758032655E+00 a        16     0     1     1    16
 -1.6696552356049543E+00 a        17     0     1     1    17
 -6.7048316723974177E-01 a        18     0     1     1    18
  3.3289956430099621E+00 a        19     0     1     1    19
  7.2832203878000445E-01 a        20     0     1     1    20
 -1.3448478114631954E+00 a        21     0     1     1    21
  2.0102226702435728E+00 a        22     0     1     1    22
 -2.3817921025625153E+00 a        23     0     1     1    23
  1.2993272603252308E+00 a        24     0     1     1    24
 -2.7307819274433411E+00 a        25     0     1     1    25
  1.5513044065030330E+00 a        26     0     2     1     1
  1.3152298169892267E+00 a        27     0     2     1     2
  7.1796673036760672E-01 a        28     0     2     1     3
 -2.5368201853127208E+00 a        29     0     2     1     4
 -2.6577637807310670E+00 a        30     0     2     1     5
 -5.1525864718430459E+00 a        31     0     2     1     6
  2.6881434385683627E+00 a        32     0     2     1     7
 -1.5661048176032479E+00 a        33     0     2     1     8
 -7.7850588411288202E-01 a        34     0     2     1     9
  5.0356894287775704E+00 a        35     0     2     1    10
 -1.3856968805239789E-01 a        36     0     2     1    11
  2.1444788841175040E+00 a        37     0     2     1    12
 -2.9992463026644067E+00 a        38     0     2     1    13
  1.3259995156915947E+00 a        39     0     2     1    14
  3.2432484705223992E+00 a        40     0     2     1    15
  4.4414061161598042E+00 a        41     0     2     1    16
  9.1667143949964947E-01 a        42     0     2     1    17
 -1.4298463494281684E+00 a        43     0     2     1    18
  3.4889413642675797E+00 a        44     0     2     1    19
  3.6952251931668059E+00 a        45     0     2     1    20
  8.7087718331875308E-01 a        46     0     2     1    21
  2.4531470005816245E+00 a        47     0     2     1    22
  6.2775714664292313E+00 a        48     0     2     1    23
  2.2137072726306450E-01 a        49     0     2     1    24
 -1.7728736551056135E-01 a        50     0     2     1    25
 -3.5324314557329952E+00 a        51     0     3     1     1
  7.1106661001833711E+00 a        52     0     3     1     2
 -1.8166566701607312E+00 a        53     0     3     1     3
  9.1254727115757273E-01 a        54     0     3     1     4
  4.0787503707702513E+00 a        55     0     3     1     5
  2.7984559398419745E-01 a        56     0     3     1     6
 -6.6940486280556746E+00 a        57     0     3     1     7
  1.0305155455060804E+01 a        58     0     3     1     8
  6.3396347577555980E+00 a        59     0     3     1     9
 -8.6260953047767739E+00 a        60     0     3     1    10
  2.0527885624645617E+00 a        61     0     3     1    11
 -8.5610408813167265E+00 a        62     0     3     1    12
  5.9300871914872957E+00 a        63     0     3     1    13
  5.0949114381075571E+00 a        64     0     3     1    14
 -6.3952027871702777E+00 a        65     0     3     1    15
 -7.6072906328310796E-01 a        66     0     3     1    16
  2.0316228651026935E+00 a        67     0     3     1    17
  1.2202767024726873E+00 a        68     0     3     1    18
 -3.5617970186610561E+00 a        69     0     3     1    19
 -1.7345941029711056E+00 a        70     0     3     1    20
  2.5168243671109205E+00 a        71     0     3     1    21
 -6.2615927508811007E+00 a        72     0     3     1    22
 -5.2610484189489863E+00 a        73     0     3     1    23
  3.9919579436331958E+00 a        74     0     3     1    24
  8.9280051079258502E+00 a        75     0     3     1    25
 -1.4490777521323712E+00 a        76     0     4     1     1
  3.7633360009305353E-02 a        77     0     4     1     2
  1.6217045996696300E+00 a        78     0     4     1     3
  6.8596124644214163E-02 a        79     0     4     1     4
  1.0208905573498450E+00 a        80     0     4     1     5
 -2.9533728861449191E+00 a        81     0     4     1     6
 -2.8920036301590715E+00 a        82     0     4     1     7
  3.4307756726988807E+00 a        83     0     4     1     8
  5.0680469509670525E+00 a        84     0     4     1     9
 -1.4221041253236393E+00 a        85     0     4     1    10
  2.4141097030897183E+00 a        86     0     4     1    11
 -1.5502614109651227E+00 a        87     0     4     1    12
  2.4750550983996842E+00 a        88     0     4     1    13
  1.1841169300984342E+00 a        89     0     4     1    14
 -2.9648875898221281E+00 a        90     0     4     1    15
  1.9166294436230944E+00 a        91     0     4     1    16
 -2.1627735756684601E+00 a        92     0     4     1    17
 -2.6193903826510168E-01 a        93     0     4     1    18
 -1.7273872803802703E+00 a        94     0     4     1    19
  1.7341985747205926E+00 a        95     0     4     1    20
  1.9662021699207872E+00 a        96     0     4     1    21
 -2.3145000556786517E+00 a        97     0     4     1    22
 -1.9382028421129560E+00 a        98     0     4     1    23
 -4.3363202678274815E-01 a        99     0     4     1    24
  7.3099491783501467E+00 a       100     0     4     1    25
 -2.8074553694435472E-01 a       101     0     5     1     1
  2.2266303902830331E-01 a       102     0     5     1     2
  8.9052882590862040E-02 a       103     0     5     1     3
  3.0813862371100148E-01 a       104     0     5     1     4
  1.1095072926627996E+00 a       105     0     5     1     5
  9.6247330174524759E-01 a       106     0     5     1     6
 -1.9259230382811458E-02 a       107     0     5     1     7
  4.4119577025602763E-01 a       108     0     5     1     8
 -2.0214422309880495E-01 a       109     0     5     1     9
  7.9595141650081180E-01 a       110     0     5     1    10
 -2.3053007403714923E-01 a       111     0     5     1    11
 -5.1007327461035934E-01 a       112     0     5     1    12
  2.1329395362034764E-01 a       113     0     5     1    13
 -2.7750508615188929E-01 a       114     0     5     1    14
  4.9893364002015600E-01 a       115     0     5     1    15
 -1.0919127472846930E+00 a       116     0     5     1    16
 -2.8902233878707639E-01 a       117     0     5     1    17
  5.3611607505260883E-01 a       118     0     5     1    18
  5.0884346953996407E-01 a       119     0     5     1    19
  2.8581116634728354E-01 a       120     0     5     1    20
 -3.2541416863459927E-01 a       121     0     5     1    21
  8.7532230986725731E-02 a       122     0     5     1    22
 -2.5101871296120432E-01 a       123     0     5     1    23
  1.0827340539754302E+00 a       124     0     5     1    24
 -1.5220713745355781E+00 a       125     0     5     1    25
 -1.8265380071818702E+00 a       126     0     6     1     1
  6.5845712245129784E+00 a       127     0     6     1     2
 -5.5667084318998086E+00 a       128     0     6     1     3
  7.9855820298378086E+00 a       129     0     6     1     4
 -4.2927501961798669E+00 a       130     0     6     1     5
 -2.2186836351557071E+00 a       131     0     6     1     6
 -4.1691425489092921E+00 a       132     0     6     1     7
  4.6186753753586256E+00 a       133     0     6     1     8
  4.9653406599310976E+00 a       134     0     6     1     9
  3.2158670262357409E+00 a       135     0     6     1    10
  7.3551531071312737E-01 a       136     0     6     1    11
 -1.4773003784694183E+00 a       137     0     6     1    12
  7.9546808815333703E-01 a       138     0     6     1    13
  6.0618364622133329E+00 a       139     0     6     1    14
 -2.0522505780527998E+00 a       140     0     6     1    15
 -1.6115576747902067E+00 a       141     0     6     1    16
 -2.5544017981474737E-01 a       142     0     6     1    17
 -4.1493851113900035E+00 a       143     0     6     1    18
  3.1186170759833570E-01 a       144     0     6     1    19
 -1.8094815733968350E+00 a       145     0     6     1    20
  6.2126430007113864E-01 a       146     0     6     1    21
  3.0580631795689257E+00 a       147     0     6     1    22
 -8.1202098984547022E-01 a       148     0     6     1    23
 -4.8470310759022430E+00 a       149     0     6     1    24
  2.8758315061834581E+00 a       150     0     6     1    25
  1.6021296355025927E+00 a       151     0     7     1     1
 -2.2051244137323012E-02 a       152     0     7     1     2
  4.4258542929603806E+00 a       153     0     7     1     3
 -6.1319162748773799E+00 a       154     0     7     1     4
  4.9811551102930540E+00 a       155     0     7     1     5
  2.4393769631909401E+00 a       156     0     7     1     6
  1.5707304841871752E+00 a       157     0     7     1     7
 -2.4638303166249398E+00 a       158     0     7     1     8
 -3.2119062392730400E+00 a       159     0     7     1     9
 -2.2290786708719406E+00 a       160     0     7     1    10
 -1.3834340359168074E+00 a       161     0     7     1    11
 -1.6867383923600983E+00 a       162     0     7     1    12
 -1.7394825420909166E+00 a       163     0     7     1    13
 -2.1349763323700452E+00 a       164     0     7     1    14
  1.6653850260146901E+00 a       165     0     7     1    15
 -5.8439845175364724E-01 a       166     0     7     1    16
 -7.9528110050873779E-01 a       167     0     7     1    17
  4.9878625071724514E+00 a       168     0     7     1    18
  2.0635926537408582E+00 a       169     0     7     1    19
  2.2749246585435507E+00 a       170     0     7     1    20
 -3.9080531799616609E+00 a       171     0     7     1    21
 -2.5779953140350620E+00 a       172     0     7     1    22
  2.1367723029358499E+00 a       173     0     7     1    23
  4.4115698093793876E+00 a       174     0     7     1    24
 -5.2175553584489229E+00 a       175     0     7     1    25
 -2.6030626013428981E-01 a       176     0     8     1     1
 -1.3030939499305834E+00 a       177     0     8     1     2
 -5.9818508016470939E-01 a       178     0     8     1     3
  1.2806186793306777E+00 a       179     0     8     1     4
 -1.5641662581936477E+00 a       180     0     8     1     5
 -3.7469595175505033E-01 a       181     0     8     1     6
  2.0281558182802178E-01 a       182     0     8     1     7
  8.2596238172426270E-02 a       183     0     8     1     8
  5.2292450522413858E-01 a       184     0     8     1     9
  2.9720762443541437E-01 a       185     0     8     1    10
  3.2848387858996703E-01 a       186     0     8     1    11
  1.0905710902355306E+00 a       187     0     8     1    12
  8.5060540898969994E-01 a       188     0     8     1    13
 -3.2523122504739732E-01 a       189     0     8     1    14
 -3.8030939693570742E-01 a       190     0     8     1    15
  5.1521183087167036E-02 a       191     0     8     1    16
  4.1630063163710351E-01 a       192     0     8     1    17
 -1.8221637929542067E+00 a       193     0     8     1    18
 -6.2073285950817514E-01 a       194     0     8     1    19
 -6.9451663525525842E-01 a       195     0     8     1    20
  1.6992779498216528E+00 a       196     0     8     1    21
  8.2185392256036660E-01 a       197     0     8     1    22
 -1.1481038658074967E+00 a       198     0     8     1    23
 -7.1191558350479878E-01 a       199     0     8     1    24
  1.3667080531855818E+00 a       200     0     8     1    25
 -1.2599472209802500E+00 a       201     0     9     1     1
  5.5906544945150560E-01 a       202     0     9     1     2
  3.6953675818990659E+00 a       203     0     9     1     3
 -5.2145519390421153E+00 a       204     0     9     1     4
  1.2354946928813704E+00 a       205     0     9     1     5
 -5.6774431941799399E+00 a       206     0     9     1     6
 -2.0064239044078391E-01 a       207     0     9     1     7
 -5.0267667635955471E+00 a       208     0     9     1     8
  2.7218377645061467E+00 a       209     0     9     1     9
 -8.4022301563828949E-01 a       210     0     9     1    10
 -7.2817610267567119E+00 a       211     0     9     1    11
 -1.0915932134865796E+00 a       212     0     9     1    12
 -1.4557877501343046E+00 a       213     0     9     1    13
 -4.5794454141898289E+00 a       214     0     9     1    14
 -3.5552195327280889E+00 a       215     0     9     1    15
  4.6781460142776110E+00 a       216     0     9     1    16
  2.5719296941458478E+00 a       217     0     9     1    17
  1.9108711244435133E+00 a       218     0     9     1    18
 -2.2852439662054107E+00 a       219     0     9     1    19
 -3.9711394746831847E+00 a       220     0     9     1    20
 -7.4834484793570091E-03 a       221     0     9     1    21
 -3.1331891266732415E+00 a       222     0     9     1    22
 -7.3953419252932546E+00 a       223     0     9     1    23
  6.5193167844046940E-01 a       224     0     9     1    24
  7.3180704531761931E+00 a       225     0     9     1    25
  9.9020869105890519E+00 a       226     0    10     1     1
 -4.2329525496843337E+00 a       227     0    10     1     2
  3.5306214028251435E+00 a       228     0    10     1     3
  2.8942762030645242E-01 a       229     0    10     1     4
  7.2380270770521342E+00 a       230     0    10     1     5
 -1.4433306766156070E-01 a       231     0    10     1     6
  1.8099483799264948E+00 a       232     0    10     1     7
 -1.1500173222195835E+00 a       233     0    10     1     8
  6.8027623772781975E+00 a       234     0    10     1     9
  2.4248995630501122E+00 a       235     0    10     1    10
 -1.7079248218927731E-01 a       236     0    10     1    11
  2.5150378455429707E+00 a       237     0    10     1    12
 -2.1562195485244500E+00 a       238     0    10     1    13
  3.3297557038239967E-01 a       239     0    10     1    14
 -8.9609870552569291E+00 a       240     0    10     1    15
  6.7157397583064138E-01 a       241     0    10     1    16
  1.0893379533823053E+00 a       242     0    10     1    17
 -1.1328245526114840E-02 a       243     0    10     1    18
 -3.3618007247880368E+00 a       244     0    10     1    19
  5.1450826050351939E+00 a       245     0    10     1    20
 -3.7955650193793873E+00 a       246     0    10     1    21
 -1.6252884546762896E+00 a       247     0    10     1    22
 -4.1783274656367988E+00 a       248     0    10     1    23
 -2.6080658312306131E+00 a       249     0    10     1    24
 -2.5024512833318338E+00 a       250     0    10     1    25
  2.2177997822129980E-01 a       251     0    11     1     1
 -1.8984619077182139E+00 a       252     0    11     1     2
 -5.7980212952952492E-01 a       253     0    11     1     3
 -1.4032701905591880E+00 a       254     0    11     1     4
 -3.0624543473605024E+00 a       255     0    11     1     5
 -3.1633912222234906E+00 a       256     0    11     1     6
  6.3786642511177216E-01 a       257     0    11     1     7
 -1.5717076690271861E+00 a       258     0    11     1     8
  7.0009838688709192E-01 a       259     0    11     1     9
 -2.2589729526392888E+00 a       260     0    11     1    10
  1.2464149836850149E+00 a       261     0    11     1    11
  2.4215147994711010E+00 a       262     0    11     1    12
 -9.0696348528032988E-01 a       263     0    11     1    13
 -2.8806977314862325E-01 a       264     0    11     1    14
 -1.3802377960701973E+00 a       265     0    11     1    15
  4.7169365070793052E+00 a       266     0    11     1    16
  1.2511924504185896E+00 a       267     0    11     1    17
 -1.0888962878119561E+00 a       268     0    11     1    18
 -2.7588702159485035E+00 a       269     0    11     1    19
 -1.0549090625179947E+00 a       270     0    11     1    20
  1.5683116390416754E+00 a       271     0    11     1    21
 -9.1030649288118293E-01 a       272     0    11     1    22
  1.1205430677819532E+00 a       273     0    11     1    23
 -3.5329421995980987E+00 a       274     0    11     1    24
  5.4525121078920264E+00 a       275     0    11     1    25
 -5.7896439425502679E+00 a       276     0    12     1     1
 -9.6292923175700444E+00 a       277     0    12     1     2
 -1.8137287821224608E+00 a       278     0    12     1     3
  4.0259780359014319E-01 a       279     0    12     1     4
  4.3420127059329761E-01 a       280     0    12     1     5
 -7.3015560148119683E+00 a       281     0    12     1     6
 -3.0823592132571815E+00 a       282     0    12     1     7
  1.7151763424770892E+00 a       283     0    12     1     8
  3.6027985272148082E+00 a       284     0    12     1     9
 -1.2197956871825291E+00 a       285     0    12     1    10
  2.5772055312242474E+00 a       286     0    12     1    11
  2.2038140922104472E+00 a       287     0    12     1    12
  4.6880298818225077E+00 a       288     0    12     1    13
 -4.5247165342943396E-01 a       289     0    12     1    14
  3.7816750244905933E-01 a       290     0    12     1    15
  5.3029477048708591E+00 a       291     0    12     1    16
 -5.4138188512182666E+00 a       292     0    12     1    17
  1.8384652022708334E+00 a       293     0    12     1    18
 -2.9081357628078193E+00 a       294     0    12     1    19
  1.3757193066406330E+00 a       295     0    12     1    20
  4.7172198236092413E+00 a       296     0    12     1    21
 -1.4439914118955641E+00 a       297     0    12     1    22
 -4.5019643559464031E+00 a       298     0    12     1    23
  1.4582696264479245E-01 a       299     0    12     1    24
  8.8808826116663777E+00 a       300     0    12     1    25
  2.5972620316552580E-01 a       301     0    13     1     1
  7.1845084995244102E-01 a       302     0    13     1     2
  6.3679835711916528E+00 a       303     0    13     1     3
  6.4514893142094847E+00 a       304     0    13     1     4
  1.1650440320561850E+00 a       305     0    13     1     5
  1.0425223256146495E+01 a       306     0    13     1     6
  3.7160873177168252E-01 a       307     0    13     1     7
 -2.4414722427850708E+00 a       308     0    13     1     8
 -7.6478301707816083E+00 a       309     0    13     1     9
 -6.6875744282922449E+00 a       310     0    13     1    10
 -4.2206043350425668E+00 a       311     0    13     1    11
  6.8243037998043543E-01 a       312     0    13     1    12
  6.4331632388234583E-01 a       313     0    13     1    13
 -2.4547841799233581E+00 a       314     0    13     1    14
 -1.0678468545183817E+01 a       315     0    13     1    15
 -6.9064452495023323E+00 a       316     0    13     1    16
 -1.5205711351874480E+00 a       317     0    13     1    17
 -5.4506068690434772E-01 a       318     0    13     1    18
 -5.0570752388938036E+00 a       319     0    13     1    19
 -8.4265796622884626E-01 a       320     0    13     1    20
 -1.7667027517073235E+00 a       321     0    13     1    21
 -2.8998979246327292E+00 a       322     0    13     1    22
 -8.6613418809177425E+00 a       323     0    13     1    23
 -5.8542521803233187E+00 a       324     0    13     1    24
 -4.6637237992466689E+00 a       325     0    13     1    25
 -1.2981200111483528E+00 a       326     0    14     1     1
 -4.9084676120919879E-01 a       327     0    14     1     2
  2.8595902713863347E-01 a       328     0    14     1     3
  4.6797274672712080E-01 a       329     0    14     1     4
 -1.9112230720285561E+00 a       330     0    14     1     5
  1.9256077138545580E+00 a       331     0    14     1     6
 -5.8001309588528269E-02 a       332     0    14     1     7
  1.3809002468837275E+00 a       333     0    14     1     8
 -1.9959194946458259E+00 a       334     0    14     1     9
 -2.4838120707373215E-01 a       335     0    14     1    10
  4.0966345955213895E-02 a       336     0    14     1    11
 -1.4999664034476709E-01 a       337     0    14     1    12
  1.4829164176924306E-01 a       338     0    14     1    13
  1.1581507675945013E+00 a       339     0    14     1    14
  3.4726488161186830E-01 a       340     0    14     1    15
 -8.8601534623468448E-01 a       341     0    14     1    16
  7.3132565139283245E-01 a       342     0    14     1    17
  1.2743344795463001E+00 a       343     0    14     1    18
  2.5839389770960347E-01 a       344     0    14     1    19
  1.3460262434206820E+00 a       345     0    14     1    20
 -1.1376699756007871E+00 a       346     0    14     1    21
 -9.4427113467931501E-01 a       347     0    14     1    22
  2.4631476850323430E+00 a       348     0    14     1    23
  2.6597967632713709E-01 a       349     0    14     1    24
  4.1870570570676324E-01 a       350     0    14     1    25
  1.4759651193073475E+00 a       351     0    15     1     1
  6.4018077779540938E-01 a       352     0    15     1     2
  9.4274785278553430E-01 a       353     0    15     1     3
 -1.7617118275903378E+00 a       354     0    15     1     4
  2.8352223006222248E+00 a       355     0    15     1     5
 -2.0001032119637099E+00 a       356     0    15     1     6
  2.7660461793925528E-01 a       357     0    15     1     7
 -1.9081074495351291E+00 a       358     0    15     1     8
  2.4302945213008265E+00 a       359     0    15     1     9
  4.4731996876812685E-01 a       360     0    15     1    10
 -2.0579702467408398E+00 a       361     0    15     1    11
  1.0190678967957874E+00 a       362     0    15     1    12
 -3.9393886571450831E-01 a       363     0    15     1    13
 -2.1171235056238262E+00 a       364     0    15     1    14
 -1.6417368800656247E+00 a       365     0    15     1    15
  3.7007176233399943E+00 a       366     0    15     1    16
  5.9218715792088605E-01 a       367     0    15     1    17
 -1.3714883869150418E+00 a       368     0    15     1    18
 -3.4422727933633918E-01 a       369     0    15     1    19
 -7.6067351111635206E-01 a       370     0    15     1    20
  4.0447839421279724E-01 a       371     0    15     1    21
 -2.2028749167323985E-01 a       372     0    15     1    22
 -2.9099738617018827E+00 a       373     0    15     1    23
 -5.6388758084099000E-01 a       374     0    15     1    24
  4.4322968447271438E-01 a       375     0    15     1    25
 -2.1241019117059508E+00 a       376     0    16     1     1
  1.1230360030534225E+00 a       377     0    16     1     2
 -5.4161758448235542E+00 a       378     0    16     1     3
  7.4468647475386689E+00 a       379     0    16     1     4
 -5.2211814219051895E+00 a       380     0    16     1     5
  6.3785213843803978E+00 a       381     0    16     1     6
 -1.3368904093273304E+00 a       382     0    16     1     7
  4.5466079506562416E+00 a       383     0    16     1     8
 -7.0911310261439455E+00 a       384     0    16     1     9
  9.4311484826587533E-01 a       385     0    16     1    10
  1.0767399031124963E+01 a       386     0    16     1    11
 -5.1149756309667317E-02 a       387     0    16     1    12
  2.7860141036682946E-02 a       388     0    16     1    13
  3.7041107611229371E+00 a       389     0    16     1    14
  5.9676857360060334E+00 a       390     0    16     1    15
 -6.3622439856661028E+00 a       391     0    16     1    16
 -4.0248475286846421E+00 a       392     0    16     1    17
 -2.0675245305724310E+00 a       393     0    16     1    18
  3.6234944531788607E+00 a       394     0    16     1    19
  3.2321165283741724E+00 a       395     0    16     1    20
  1.1752066773302188E+00 a       396     0    16     1    21
  5.3993867876257449E+00 a       397     0    16     1    22
  1.1112460954116711E+01 a       398     0    16     1    23
  6.8331075459880908E-01 a       399     0    16     1    24
 -7.7252292950106742E+00 a       400     0    16     1    25
 -5.8626518429336816E+00 a       401     0    17     1     1
  6.6215435950664929E+00 a       402     0    17     1     2
 -2.6683893419564284E+00 a       403     0    17     1     3
 -4.0846412070592777E+00 a       404     0    17     1     4
 -4.0969601107482223E+00 a       405     0    17     1     5
 -6.2317710927628633E+00 a       406     0    17     1     6
 -1.9404737352449311E+00 a       407     0    17     1     7
  5.6384719192500987E-01 a       408     0    17     1     8
 -4.1256686408300558E+00 a       409     0    17     1     9
  2.0014293764961981E+00 a       410     0    17     1    10
 -1.1163383029464837E+00 a       411     0    17     1    11
  1.4698166834604229E+00 a       412     0    17     1    12
 -1.9542787613460916E-01 a       413     0    17     1    13
 -1.7730567422929231E+00 a       414     0    17     1    14
  1.2487212587648814E+01 a       415     0    17     1    15
  4.5060849147848279E+00 a       416     0    17     1    16
  6.3699992014240614E-01 a       417     0    17     1    17
 -2.0740386648864728E+00 a       418     0    17     1    18
  5.0765742121487447E+00 a       419     0    17     1    19
 -4.1932535133338469E+00 a       420     0    17     1    20
  7.2180893276200520E+00 a       421     0    17     1    21
  4.3346162016185996E+00 a       422     0    17     1    22
  8.5595802107196128E+00 a       423     0    17     1    23
  4.9105817062049173E+00 a       424     0    17     1    24
  3.8683232741474605E+00 a       425     0    17     1    25
  3.9526725068295321E-01 a       426     0    18     1     1
 -7.6026049023438498E+00 a       427     0    18     1     2
 -1.1243425458281819E+00 a       428     0    18     1     3
 -2.6635875708706447E+00 a       429     0    18     1     4
 -5.7416934268617554E+00 a       430     0    18     1     5
 -1.6892694880993220E+00 a       431     0    18     1     6
  8.5298564023515340E+00 a       432     0    18     1     7
 -1.1491330328976391E+01 a       433     0    18     1     8
 -1.1122410156247337E+01 a       434     0    18     1     9
  9.7808063824146991E+00 a       435     0    18     1    10
 -5.7902516356561220E+00 a       436     0    18     1    11
  1.1785316495949653E+01 a       437     0    18     1    12
 -6.3385742416290665E+00 a       438     0    18     1    13
 -5.2269229111251319E+00 a       439     0    18     1    14
  1.0861388030050135E+01 a       440     0    18     1    15
 -5.9049463561630933E-01 a       441     0    18     1    16
  8.8581938470968291E-01 a       442     0    18     1    17
  5.5943290641593890E-01 a       443     0    18     1    18
  5.0250545769866495E+00 a       444     0    18     1    19
  5.4007378029033903E-01 a       445     0    18     1    20
 -2.1270610861860488E+00 a       446     0    18     1    21
  8.2370341880343325E+00 a       447     0    18     1    22
  6.3100685295646191E+00 a       448     0    18     1    23
 -2.8325254830414379E+00 a       449     0    18     1    24
 -1.0057167001886992E+01 a       450     0    18     1    25
  1.4918247520980130E+00 a       451     0    19     1     1
  1.9042463444329147E+00 a       452     0    19     1     2
 -1.4972614501449655E+00 a       453     0    19     1     3
 -9.6028776287497875E-01 a       454     0    19     1     4
 -6.9086270076960976E-01 a       455     0    19     1     5
  3.0073355381667373E+00 a       456     0    19     1     6
  3.7361115199231980E+00 a       457     0    19     1     7
 -2.5892133298671753E+00 a       458     0    19     1     8
 -4.8847851488918357E+00 a       459     0    19     1     9
  2.4773918990241439E-01 a       460     0    19     1    10
 -3.4288369725851848E+00 a       461     0    19     1    11
  5.7482806997556002E-01 a       462     0    19     1    12
 -1.6387639673828343E+00 a       463     0    19     1    13
 -4.9106071560633080E-01 a       464     0    19     1    14
  2.3239949252049796E+00 a       465     0    19     1    15
 -2.2079812030306152E+00 a       466     0    19     1    16
  4.1854702499614582E+00 a       467     0    19     1    17
  9.3843529385137270E-01 a       468     0    19     1    18
  4.4509253554448447E-01 a       469     0    19     1    19
 -1.0838977097505140E+00 a       470     0    19     1    20
 -8.7102453855136797E-01 a       471     0    19     1    21
  2.0698642018758875E+00 a       472     0    19     1    22
  1.1680396956410088E+00 a       473     0    19     1    23
  1.6989387531581585E-01 a       474     0    19     1    24
 -5.2593899628894576E+00 a       475     0    19     1    25
 -3.1298954782113579E+00 a       476     0    20     1     1
 -3.8553353265099077E+00 a       477     0    20     1     2
  3.2346245315308375E-01 a       478     0    20     1     3
 -3.4184535799157585E+00 a       479     0    20     1     4
 -9.5146239689445089E+00 a       480     0    20     1     5
  1.5330770475326057E+00 a       481     0    20     1     6
  8.8095855139356039E-01 a       482     0    20     1     7
 -2.3505257149726204E+00 a       483     0    20     1     8
  1.2059324924165781E+01 a       484     0    20     1     9
  1.7928967011230408E+00 a       485     0    20     1    10
  3.7862081716150620E+00 a       486     0    20     1    11
  3.5647355936087539E+00 a       487     0    20     1    12
 -3.0412293825868297E-01 a       488     0    20     1    13
 -7.6783881774479452E+00 a       489     0    20     1    14
 -3.7691198857142081E+00 a       490     0    20     1    15
 -7.0386796558390596E-01 a       491     0    20     1    16
  7.2608982342173300E+00 a       492     0    20     1    17
 -3.1936617591417353E+00 a       493     0    20     1    18
 -8.3292888097443534E+00 a       494     0    20     1    19
 -2.5443443096946354E+00 a       495     0    20     1    20
 -1.9246550019443052E+00 a       496     0    20     1    21
  5.9097557019840541E-01 a       497     0    20     1    22
  1.9493103454241285E+00 a       498     0    20     1    23
 -4.9679109408300954E+00 a       499     0    20     1    24
  8.9089146036594098E+00 a       500     0    20     1    25
 -1.1047097688537402E+00 a       501     0    21     1     1
  2.4197722259639494E+00 a       502     0    21     1     2
  3.3888730106257423E+00 a       503     0    21     1     3
  3.7759907535344617E+00 a       504     0    21     1     4
  4.2750500815425667E+00 a       505     0    21     1     5
 -3.4260534387000803E+00 a       506     0    21     1     6
 -2.5358350266327627E+00 a       507     0    21     1     7
 -5.7652179123177538E-01 a       508     0    21     1     8
 -2.8549720220469625E+00 a       509     0    21     1     9
  3.9018984185531540E+00 a       510     0    21     1    10
  4.0126172701728142E-02 a       511     0    21     1    11
 -3.5996855933354834E+00 a       512     0    21     1    12
  6.5442599436293065E+00 a       513     0    21     1    13
 -9.2143814375964506E-01 a       514     0    21     1    14
  3.8859795687227283E+00 a       515     0    21     1    15
 -1.3550826906829085E+00 a       516     0    21     1    16
 -3.1015238157607365E+00 a       517     0    21     1    17
  2.3984278716601350E+00 a       518     0    21     1    18
  3.4960522729797141E+00 a       519     0    21     1    19
 -4.6228938367685929E-01 a       520     0    21     1    20
  1.2454044541861822E+00 a       521     0    21     1    21
 -4.3708082085092820E-01 a       522     0    21     1    22
 -4.0885417428408575E+00 a       523     0    21     1    23
  1.1385414960392379E+00 a       524     0    21     1    24
 -2.4357725316050445E+00 a       525     0    21     1    25
 -4.7669323782712265E+00 a       526     0    22     1     1
 -5.8566119139293402E+00 a       527     0    22     1     2
 -2.0898917143551201E+00 a       528     0    22     1     3
  4.2927542300271151E+00 a       529     0    22     1     4
 -1.2028479343329375E+00 a       530     0    22     1     5
  2.7479145424648883E+00 a       531     0    22     1     6
 -9.4286018595873120E+00 a       532     0    22     1     7
 -1.1798514537446307E+00 a       533     0    22     1     8
  2.6594785073408840E+00 a       534     0    22     1     9
  1.2447607776787449E-01 a       535     0    22     1    10
 -1.9671375545706655E+00 a       536     0    22     1    11
 -3.0966792921915243E+00 a       537     0    22     1    12
 -3.0098875839645473E-01 a       538     0    22     1    13
 -1.0204044104690649E+01 a       539     0    22     1    14
 -3.6158005336661261E+00 a       540     0    22     1    15
  4.7422938177372140E+00 a       541     0    22     1    16
 -5.3733043965654650E+00 a       542     0    22     1    17
 -4.0519390850578656E+00 a       543     0    22     1    18
  2.8540733768851019E+00 a       544     0    22     1    19
 -2.1345437532064476E-01 a       545     0    22     1    20
 -2.3196711876475540E+00 a       546     0    22     1    21
  1.1550584919610734E+00 a       547     0    22     1    22
  4.4074553926833051E+00 a       548     0    22     1    23
  3.4245851221864259E+00 a       549     0    22     1    24
 -3.9710466881627804E+00 a       550     0    22     1    25
 -4.7068334309794819E+00 a       551     0    23     1     1
 -6.6033306455347924E+00 a       552     0    23     1     2
 -6.3409514672957776E+00 a       553     0    23     1     3
 -5.3935783449576808E+00 a       554     0    23     1     4
 -4.3053559191513919E+00 a       555     0    23     1     5
  8.2015147513818345E+00 a       556     0    23     1     6
 -6.2655311252554746E-02 a       557     0    23     1     7
  1.6281458535519602E+00 a       558     0    23     1     8
 -2.1740557396496523E+00 a       559     0    23     1     9
 -4.0270057392357952E+00 a       560     0    23     1    10
 -5.3876969022674377E+00 a       561     0    23     1    11
  3.4404415841179570E-01 a       562     0    23     1    12
 -1.7133027071137732E+01 a       563     0    23     1    13
 -1.3999648420925466E+00 a       564     0    23     1    14
 -4.6581477902676083E-01 a       565     0    23     1    15
 -5.5927622683499694E+00 a       566     0    23     1    16
  4.0387819000779963E+00 a       567     0    23     1    17
 -5.1295931929259568E+00 a       568     0    23     1    18
 -2.5889189403581296E+00 a       569     0    23     1    19
  7.6151089068724369E+00 a       570     0    23     1    20
 -1.8562720994482700E+00 a       571     0    23     1    21
 -3.2252473207974228E+00 a       572     0    23     1    22
  2.1433276728807340E+00 a       573     0    23     1    23
  1.3631963744803126E+00 a       574     0    23     1    24
 -1.5831203531833939E+00 a       575     0    23     1    25
 -4.6553344970818804E+00 a       576     0    24     1     1
  2.0041062280078212E+00 a       577     0    24     1     2
  9.9232962010011627E-01 a       578     0    24     1     3
  9.0636203800407100E-01 a       579     0    24     1     4
  2.8728475751299785E+00 a       580     0    24     1     5
 -3.9102428819272368E+00 a       581     0    24     1     6
  5.7567164170937524E-01 a       582     0    24     1     7
 -5.3323415419678621E-01 a       583     0    24     1     8
  3.8230243004324049E+00 a       584     0    24     1     9
  9.9332734492467267E-02 a       585     0    24     1    10
  1.2677240811452239E+00 a       586     0    24     1    11
 -3.5952497651860509E+00 a       587     0    24     1    12
  7.9787038509616686E+00 a       588     0    24     1    13
  3.1803658479637849E-02 a       589     0    24     1    14
  9.6835693154516822E-01 a       590     0    24     1    15
  8.2968737161213042E+00 a       591     0    24     1    16
 -3.7495001759488136E+00 a       592     0    24     1    17
  2.6494697797246873E+00 a       593     0    24     1    18
  2.3624095721826660E-01 a       594     0    24     1    19
 -2.5583930842070277E+00 a       595     0    24     1    20
  7.3108939788569383E-01 a       596     0    24     1    21
 -7.8374857418968469E-01 a       597     0    24     1    22
 -2.6311195734083270E+00 a       598     0    24     1    23
 -1.1140818359800944E+00 a       599     0    24     1    24
  3.1061986552380660E+00 a       600     0    24     1    25
  4.8399257892957444E+00 a       601     0    25     1     1
 -6.1559086888552672E+00 a       602     0    25     1     2
  5.9387545016441134E-01 a       603     0    25     1     3
  5.8559218765192704E-03 a       604     0    25     1     4
  5.0753445942800512E+00 a       605     0    25     1     5
 -7.7126394471470245E+00 a       606     0    25     1     6
  4.0849531060013247E+00 a       607     0    25     1     7
  2.8205185168187108E-01 a       608     0    25     1     8
  1.7524640466675518E+00 a       609     0    25     1     9
  9.6924001182103545E+00 a       610     0    25     1    10
  3.8093166016963051E+00 a       611     0    25     1    11
 -8.2772642827808234E+00 a       612     0    25     1    12
  2.9579496849348250E+00 a       613     0    25     1    13
  4.1811527172742204E+00 a       614     0    25     1    14
  5.3623828104591524E+00 a       615     0    25     1    15
 -7.0136085255667098E+00 a       616     0    25     1    16
 -5.0002295069269431E-01 a       617     0    25     1    17
 -2.1052223717946434E+00 a       618     0    25     1    18
  7.5192923941695833E-01 a       619     0    25     1    19
  1.7611146194384064E-01 a       620     0    25     1    20
 -5.7675268153608161E-01 a       621     0    25     1    21
  4.8725205626927903E-01 a       622     0    25     1    22
  1.9474398517631366E+00 a       623     0    25     1    23
  6.6585553638783745E-01 a       624     0    25     1    24
 -5.6887370473001730E-01 a       625     0    25     1    25
 -3.7266504872742265E+00 a       626     0    26     1     1
 -7.3232719069077588E+00 a       627     0    26     1     2
 -5.9820232785582279E+00 a       628     0    26     1     3
  5.7895858470261807E-01 a       629     0    26     1     4
 -8.6142376390633615E+00 a       630     0    26     1     5
 -4.8178262757371500E-03 a       631     0    26     1     6
  1.1672977002412286E+00 a       632     0    26     1     7
  7.6056382248148383E-02 a       633     0    26     1     8
 -5.6403251281952764E+00 a       634     0    26     1     9
 -4.5651543520843711E+00 a       635     0    26     1    10
 -4.9158599895686734E+00 a       636     0    26     1    11
  7.4298082637054774E+00 a       637     0    26     1    12
 -2.3197788089626159E+00 a       638     0    26     1    13
  7.5108220468202500E+00 a       639     0    26     1    14
 -5.8540804995115110E+00 a       640     0    26     1    15
 -3.2842574561054447E+00 a       641     0    26     1    16
  5.9744791271209774E-01 a       642     0    26     1    17
 -1.1947703760068809E-01 a       643     0    26     1    18
 -1.8868810455285659E-01 a       644     0    26     1    19
 -1.7638251365727655E+00 a       645     0    26     1    20
 -6.1917000514274418E+00 a       646     0    26     1    21
  2.7581528825012080E+00 a       647     0    26     1    22
  4.9949422532680110E+00 a       648     0    26     1    23
 -6.2024694135236862E+00 a       649     0    26     1    24
  4.0238558421646431E+00 a       650     0    26     1    25
  5.8457414245797423E+00 a       651     0    27     1     1
  1.0583811144065571E+01 a       652     0    27     1     2
 -2.3781011733537669E+00 a       653     0    27     1     3
 -8.1823329583800923E+00 a       654     0    27     1     4
  2.8188704913126226E+00 a       655     0    27     1     5
  2.7910056770930844E+00 a       656     0    27     1     6
  2.0426070428657145E+01 a       657     0    27     1     7
 -2.4643226106291967E+00 a       658     0    27     1     8
 -1.0398204457889538E+01 a       659     0    27     1     9
 -3.9367173947381513E+00 a       660     0    27     1    10
 -2.2956039585990666E+00 a       661     0    27     1    11
  5.0322727101937916E+00 a       662     0    27     1    12
 -1.8926695405337020E+00 a       663     0    27     1    13
  8.7436368471941286E+00 a       664     0    27     1    14
  1.6992021215308908E+00 a       665     0    27     1    15
  1.2007652603945440E+00 a       666     0    27     1    16
  7.3597105945023422E+00 a       667     0    27     1    17
  1.0583282142018168E+01 a       668     0    27     1    18
 -3.0015823566782149E+00 a       669     0    27     1    19
 -6.9028689652714381E-01 a       670     0    27     1    20
  7.9915825287885445E-01 a       671     0    27     1    21
 -1.9164854435457042E+00 a       672     0    27     1    22
 -9.6217288567978194E+00 a       673     0    27     1    23
 -3.8676250349840786E+00 a       674     0    27     1    24
  6.0909074331076676E+00 a       675     0    27     1    25
  1.1917493225968464E+01 a       676     0    28     1     1
  3.0948142915797505E+00 a       677     0    28     1     2
  1.7275353077704001E+00 a       678     0    28     1     3
  8.0017926639296655E-01 a       679     0    28     1     4
  1.1281913155888814E+00 a       680     0    28     1     5
  9.0352866477560856E-01 a       681     0    28     1     6
  5.9730358191327104E-01 a       682     0    28     1     7
  3.0142392226606418E-03 a       683     0    28     1     8
  2.1230317183299241E+00 a       684     0    28     1     9
  1.0175773600564413E+00 a       685     0    28     1    10
  4.5667867611527146E+00 a       686     0    28     1    11
 -3.1113600788184048E-01 a       687     0    28     1    12
  8.4294219537671555E+00 a       688     0    28     1    13
 -9.6622338005948294E-01 a       689     0    28     1    14
  4.7286859504905784E-03 a       690     0    28     1    15
  3.9661121753234601E+00 a       691     0    28     1    16
  3.3643580713326271E+00 a       692     0    28     1    17
  1.8032811529909809E+00 a       693     0    28     1    18
  2.2980778043847088E+00 a       694     0    28     1    19
 -4.7810457509398994E+00 a       695     0    28     1    20
  9.9768296541741341E-01 a       696     0    28     1    21
  1.2306181290205807E+00 a       697     0    28     1    22
 -1.8870673289213886E+00 a       698     0    28     1    23
 -1.2469854661563489E+00 a       699     0    28     1    24
 -4.7684395897327098E-01 a       700     0    28     1    25
 -5.6692417682862395E-01 a       701     0    29     1     1
 -3.6231035268605312E+00 a       702     0    29     1     2
  1.2896958252870672E+00 a       703     0    29     1     3
 -2.9208452382739050E+00 a       704     0    29     1     4
 -8.9771878320366927E-01 a       705     0    29     1     5
 -3.3487835565675739E+00 a       706     0    29     1     6
 -2.2824172551477138E+00 a       707     0    29     1     7
  5.4213931212362863E-02 a       708     0    29     1     8
  1.0549958734982130E+00 a       709     0    29     1     9
  5.4607598803178394E+00 a       710     0    29     1    10
  2.5193926417896356E-01 a       711     0    29     1    11
 -3.4854916975827197E+00 a       712     0    29     1    12
 -8.3023496734317330E+00 a       713     0    29     1    13
 -2.2701199949873905E+00 a       714     0    29     1    14
 -1.0263225095360665E-01 a       715     0    29     1    15
  2.4361606669942154E-01 a       716     0    29     1    16
 -8.0604337990609609E-01 a       717     0    29     1    17
 -3.3394986608559623E+00 a       718     0    29     1    18
 -2.6386999327643337E+00 a       719     0    29     1    19
  2.5681849187309078E+00 a       720     0    29     1    20
  2.8614112205714366E+00 a       721     0    29     1    21
  2.7418055802076163E-01 a       722     0    29     1    22
 -1.8688390385071005E+00 a       723     0    29     1    23
  1.7463026570378064E+00 a       724     0    29     1    24
 -2.9678036026864341E+00 a       725     0    29     1    25
 -4.3157484294359332E+00 a       726     0    30     1     1
 -2.7041957595235400E-01 a       727     0    30     1     2
  2.7301194879540613E-01 a       728     0    30     1     3
  8.1774966461094811E-01 a       729     0    30     1     4
  1.0857557244338214E+00 a       730     0    30     1     5
  1.9000167757600003E-01 a       731     0    30     1     6
 -8.7385896084305681E-01 a       732     0    30     1     7
  6.7173701088516269E-01 a       733     0    30     1     8
  1.0455148654198756E+00 a       734     0    30     1     9
  1.6240072262215146E+00 a       735     0    30     1    10
 -1.0890374420023676E+00 a       736     0    30     1    11
  2.7910241634172228E-01 a       737     0    30     1    12
 -5.0011877698843277E-01 a       738     0    30     1    13
 -6.6840413798841702E-01 a       739     0    30     1    14
  4.4469939137490411E-01 a       740     0    30     1    15
 -1.1320256738955430E+00 a       741     0    30     1    16
 -1.4403346988624313E+00 a       742     0    30     1    17
  5.5251065150560341E-01 a       743     0    30     1    18
 -8.0598869654537297E-01 a       744     0    30     1    19
  1.1678215574644670E+00 a       745     0    30     1    20
  1.7604295883855267E-01 a       746     0    30     1    21
 -4.0384028358277346E-01 a       747     0    30     1    22
  7.6016457842017637E-01 a       748     0    30     1    23
  3.4854910679234957E-01 a       749     0    30     1    24
  4.1761117502155487E-01 a       750     0    30     1    25
  4.2206408915697446E+00 a       751     0    31     1     1
  8.6438714799579994E+00 a       752     0    31     1     2
  5.8446309341650329E+00 a       753     0    31     1     3
  4.4510195726601554E+00 a       754     0    31     1     4
 -1.0695482267203396E+00 a       755     0    31     1     5
 -1.1615829904639108E+00 a       756     0    31     1     6
 -1.5133348346579860E+00 a       757     0    31     1     7
 -7.0509073063527139E-01 a       758     0    31     1     8
  1.2522495656727448E+00 a       759     0    31     1     9
  7.3841421617215008E+00 a       760     0    31     1    10
  5.8106106116953269E+00 a       761     0    31     1    11
  6.2492568846945060E+00 a       762     0    31     1    12
 -1.0025459432838120E+00 a       763     0    31     1    13
  1.8238757087154533E+00 a       764     0    31     1    14
 -3.4447776158861081E+00 a       765     0    31     1    15
  5.0689187010804728E+00 a       766     0    31     1    16
  5.7850979906894873E+00 a       767     0    31     1    17
  2.8269133481728983E+00 a       768     0    31     1    18
 -5.5188982469879058E+00 a       769     0    31     1    19
 -1.2161091383074916E+00 a       770     0    31     1    20
  4.9705871614428085E+00 a       771     0    31     1    21
 -1.6160758381923233E+00 a       772     0    31     1    22
 -2.1181951885206995E+00 a       773     0    31     1    23
 -5.1344949371391868E+00 a       774     0    31     1    24
  2.4741974945742204E+00 a       775     0    31     1    25
 -1.6208664712610630E+00 a       776     0    32     1     1
 -1.5226499161515875E+01 a       777     0    32     1     2
 -7.0096526647983151E+00 a       778     0    32     1     3
 -2.7339647406571634E+00 a       779     0    32     1     4
  8.3709310496893998E+00 a       780     0    32     1     5
 -4.6527937399541788E+00 a       781     0    32     1     6
  3.3416076003148749E+00 a       782     0    32     1     7
  6.5302611435306686E+00 a       783     0    32     1     8
  3.3790984202982077E+00 a       784     0    32     1     9
 -2.6114910314721853E+00 a       785     0    32     1    10
 -5.2161011503592603E+00 a       786     0    32     1    11
 -1.3677356993151067E+01 a       787     0    32     1    12
  5.1080390707680445E+00 a       788     0    32     1    13
  1.9985162862124231E+00 a       789     0    32     1    14
  7.8798608722319123E+00 a       790     0    32     1    15
 -8.4409160049934293E+00 a       791     0    32     1    16
 -3.4602374632761896E+00 a       792     0    32     1    17
 -3.1617706138237329E+00 a       793     0    32     1    18
  9.8042736373362551E+00 a       794     0    32     1    19
 -5.6566005945361347E-02 a       795     0    32     1    20
 -5.3246042164380007E+00 a       796     0    32     1    21
 -3.1452471444386365E+00 a       797     0    32     1    22
  8.0400443919912910E+00 a       798     0    32     1    23
  7.3677111012052556E+00 a       799     0    32     1    24
 -8.0751262974082287E+00 a       800     0    32     1    25
  5.9313057616809033E+00 a       801     0    33     1     1
  7.6173662023278812E+00 a       802     0    33     1     2
  7.3264959267499874E-01 a       803     0    33     1     3
 -1.5923879087698929E+00 a       804     0    33     1     4
 -1.0112606343735481E+01 a       805     0    33     1     5
 -5.5380980922762131E+00 a       806     0    33     1     6
 -1.0084794662607063E+01 a       807     0    33     1     7
 -8.5105397396661413E+00 a       808     0    33     1     8
 -2.5363149113791550E-01 a       809     0    33     1     9
 -9.7238762796263600E+00 a       810     0    33     1    10
 -8.5373278369758072E+00 a       811     0    33     1    11
  6.7656891967487311E+00 a       812     0    33     1    12
  7.1107217014653967E+00 a       813     0    33     1    13
  3.5413982285160865E+00 a       814     0    33     1    14
 -8.6283850978338901E+00 a       815     0    33     1    15
 -7.4155028645575549E-03 a       816     0    33     1    16
 -1.1547964441249483E+00 a       817     0    33     1    17
 -5.1323058826206083E+00 a       818     0    33     1    18
  7.1949242228778498E+00 a       819     0    33     1    19
 -4.3397708678591634E-01 a       820     0    33     1    20
 -4.6954340884401455E+00 a       821     0    33     1    21
  2.9910893699291599E+00 a       822     0    33     1    22
 -7.4121527976678037E+00 a       823     0    33     1    23
 -5.0286024520575419E+00 a       824     0    33     1    24
  4.0208760265653858E+00 a       825     0    33     1    25
 -2.5087240947627913E+00 a       826     0    34     1     1
  2.3497881978822694E+00 a       827     0    34     1     2
  4.5674203282469170E+00 a       828     0    34     1     3
  5.1572205837184804E+00 a       829     0    34     1     4
  2.4619155879305228E+00 a       830     0    34     1     5
  4.1885506238506265E+00 a       831     0    34     1     6
 -4.2850545952975443E+00 a       832     0    34     1     7
  4.8325278958204210E-01 a       833     0    34     1     8
 -5.1211072493555845E+00 a       834     0    34     1     9
  1.0076568897453644E+01 a       835     0    34     1    10
  3.5365526052366341E+00 a       836     0    34     1    11
  5.4093459472064405E+00 a       837     0    34     1    12
 -1.6143569465943908E+00 a       838     0    34     1    13
 -5.6411583400188894E+00 a       839     0    34     1    14
 -7.6405197667193958E-01 a       840     0    34     1    15
  1.3836064498906980E-01 a       841     0    34     1    16
 -2.4518687830298536E+00 a       842     0    34     1    17
  6.4993304262895517E+00 a       843     0    34     1    18
 -7.2139690184667655E+00 a       844     0    34     1    19
  2.6315987098710392E+00 a       845     0    34     1    20
  5.5201575570809931E+00 a       846     0    34     1    21
  2.7854366791504601E+00 a       847     0    34     1    22
 -4.9034833962772462E+00 a       848     0    34     1    23
  7.7702402098431445E-01 a       849     0    34     1    24
 -1.7895639576609847E+00 a       850     0    34     1    25
  2.4888527210916660E+00 a       851     0    35     1     1
 -2.1111936289809519E+00 a       852     0    35     1     2
  6.5253921782820490E-01 a       853     0    35     1     3
  6.1390811138070067E-01 a       854     0    35     1     4
 -1.5868550769927159E-02 a       855     0    35     1     5
 -7.2127006476717481E-01 a       856     0    35     1     6
  1.4861273941620892E+00 a       857     0    35     1     7
  8.6328014033994949E-01 a       858     0    35     1     8
 -2.4302675363240516E+00 a       859     0    35     1     9
  2.9776835754374540E+00 a       860     0    35     1    10
  1.7345445127159114E+00 a       861     0    35     1    11
 -9.4587340083483928E-01 a       862     0    35     1    12
 -1.7930620411873324E+00 a       863     0    35     1    13
  4.7396022123992360E-01 a       864     0    35     1    14
  1.3618752366388201E-01 a       865     0    35     1    15
 -2.2635661354452323E+00 a       866     0    35     1    16
 -8.0497474904276534E-01 a       867     0    35     1    17
 -1.5384905873990962E-01 a       868     0    35     1    18
 -1.7057623441216176E+00 a       869     0    35     1    19
  1.7537794117423522E+00 a       870     0    35     1    20
  2.3519731551999596E+00 a       871     0    35     1    21
  9.0464275141076833E-01 a       872     0    35     1    22
  1.4043383373039362E+00 a       873     0    35     1    23
 -1.7005475948453181E+00 a       874     0    35     1    24
 -7.9188159311582174E-01 a       875     0    35     1    25
 -1.9957112710368579E+00 a       876     0    36     1     1
  1.6431614713442675E+00 a       877     0    36     1     2
 -9.0661939204228256E-02 a       878     0    36     1     3
 -2.3727440823186852E-01 a       879     0    36     1     4
  1.3285619476518920E-01 a       880     0    36     1     5
  1.1084363252415232E+00 a       881     0    36     1     6
 -9.0290474430575984E-01 a       882     0    36     1     7
 -2.5701384526009530E-01 a       883     0    36     1     8
  3.1927690280805177E+00 a       884     0    36     1     9
 -7.6559707089823792E-01 a       885     0    36     1    10
 -3.3604435253534015E-01 a       886     0    36     1    11
  1.2120057338670243E+00 a       887     0    36     1    12
  1.8380784158750640E-01 a       888     0    36     1    13
 -1.3768062118758784E+00 a       889     0    36     1    14
 -9.0081581387525395E-02 a       890     0    36     1    15
  4.7408563027969214E-01 a       891     0    36     1    16
  1.4076736081940405E-01 a       892     0    36     1    17
  4.0862402310514891E-02 a       893     0    36     1    18
  6.3175009181166164E-01 a       894     0    36     1    19
 -2.2023011929882036E-01 a       895     0    36     1    20
 -1.5158616491741541E+00 a       896     0    36     1    21
 -7.6060734123450391E-01 a       897     0    36     1    22
  3.1727755238892408E-01 a       898     0    36     1    23
  1.4143932060004576E+00 a       899     0    36     1    24
 -5.9869754662436270E-01 a       900     0    36     1    25
 -2.0548897290652852E+00 a       901     0    37     1     1
 -2.5353892996964875E+00 a       902     0    37     1     2
 -9.2243757416556083E-01 a       903     0    37     1     3
  1.4095481336280025E-01 a       904     0    37     1     4
  4.3866646625171866E+00 a       905     0    37     1     5
  2.4484915038190835E+00 a       906     0    37     1     6
  1.7689136057472339E+00 a       907     0    37     1     7
  1.9420382457590670E+00 a       908     0    37     1     8
 -6.0429726614312496E-01 a       909     0    37     1     9
  2.0927380715461972E+00 a       910     0    37     1    10
 -5.2492069259403890E-02 a       911     0    37     1    11
 -1.4667649230871334E+00 a       912     0    37     1    12
  6.1277710121352558E-01 a       913     0    37     1    13
 -1.7857055905167321E+00 a       914     0    37     1    14
  2.6704540178072786E+00 a       915     0    37     1    15
 -5.3643648459249393E-01 a       916     0    37     1    16
  3.2622071801005438E-02 a       917     0    37     1    17
  2.5157501139134335E+00 a       918     0    37     1    18
 -2.0852350589637228E-01 a       919     0    37     1    19
  3.1103879587213351E-01 a       920     0    37     1    20
  1.4767266965326839E-01 a       921     0    37     1    21
 -1.1769669440012083E+00 a       922     0    37     1    22
  5.3538088473126255E-01 a       923     0    37     1    23
  2.7821598820449696E+00 a       924     0    37     1    24
 -2.1018284219811245E+00 a       925     0    37     1    25
 -6.5235710113178671E+00 a       926     0    38     1     1
 -8.3687003002612137E+00 a       927     0    38     1     2
 -2.4596213551702334E-01 a       928     0    38     1     3
 -1.2410740041719263E+01 a       929     0    38     1     4
 -1.0304744352693823E-02 a       930     0    38     1     5
 -4.5586427854594289E+00 a       931     0    38     1     6
  1.0386717784112841E+01 a       932     0    38     1     7
  2.0441902555972202E+00 a       933     0    38     1     8
 -1.2432986809173820E+00 a       934     0    38     1     9
 -6.5639947448399560E+00 a       935     0    38     1    10
 -4.0908533956637294E+00 a       936     0    38     1    11
  3.6714080023067516E-02 a       937     0    38     1    12
 -6.2640634036092457E+00 a       938     0    38     1    13
  7.2788944067692329E-01 a       939     0    38     1    14
  5.7180175479559550E+00 a       940     0    38     1    15
 -2.6719435377771985E+00 a       941     0    38     1    16
 -3.0034635644003158E+00 a       942     0    38     1    17
  6.4941523817554687E+00 a       943     0    38     1    18
  3.6695991590193175E+00 a       944     0    38     1    19
 -4.8030609559922217E+00 a       945     0    38     1    20
  1.7141907038161659E+00 a       946     0    38     1    21
  1.3587370333004296E+00 a       947     0    38     1    22
 -4.2530259341267804E+00 a       948     0    38     1    23
  2.9628224847116056E+00 a       949     0    38     1    24
 -4.6043092439919464E-01 a       950     0    38     1    25
 -2.3011378862723881E+00 a       951     0    39     1     1
  6.2036958796532735E+00 a       952     0    39     1     2
  7.7082926714466360E-01 a       953     0    39     1     3
  8.9886143508541816E-01 a       954     0    39     1     4
 -8.1628667556125354E+00 a       955     0    39     1     5
 -9.6930691578092565E-01 a       956     0    39     1     6
 -5.5424673294672937E+00 a       957     0    39     1     7
 -3.3062044866407598E+00 a       958     0    39     1     8
  2.0079877384531435E+00 a       959     0    39     1     9
  4.8024994874039031E+00 a       960     0    39     1    10
  1.6295745964189003E+00 a       961     0    39     1    11
 -7.6289970421572517E-01 a       962     0    39     1    12
  7.9792918590625508E+00 a       963     0    39     1    13
 -4.1343386978679488E+00 a       964     0    39     1    14
 -4.2043935586584809E+00 a       965     0    39     1    15
  1.5277293135530254E+00 a       966     0    39     1    16
  6.6661506474865515E+00 a       967     0    39     1    17
 -2.2636130473773379E+00 a       968     0    39     1    18
 -5.1044148523457764E+00 a       969     0    39     1    19
  1.8797102383321501E-01 a       970     0    39     1    20
 -2.0115145213716419E+00 a       971     0    39     1    21
  7.6580260247389209E-01 a       972     0    39     1    22
  4.8871661728797982E+00 a       973     0    39     1    23
 -5.3590091501517909E+00 a       974     0    39     1    24
  5.1859697260228665E-01 a       975     0    39     1    25
  1.9505354799239607E+00 a       976     0    40     1     1
 -8.8500588132818354E+00 a       977     0    40     1     2
 -2.0033474791648045E+00 a       978     0    40     1     3
  2.3646534366583234E+00 a       979     0    40     1     4
 -5.3371257432343961E+00 a       980     0    40     1     5
 -9.2164323032730486E+00 a       981     0    40     1     6
 -3.3279850890573033E+00 a       982     0    40     1     7
 -3.9202071287220508E-01 a       983     0    40     1     8
  1.1298229190880905E+01 a       984     0    40     1     9
 -6.2759002242436548E+00 a       985     0    40     1    10
 -1.9153434779447980E+00 a       986     0    40     1    11
 -1.5922187884367875E+00 a       987     0    40     1    12
 -1.1560640936012323E+00 a       988     0    40     1    13
 -4.4551367911340929E+00 a       989     0    40     1    14
 -2.2186855557975633E+00 a       990     0    40     1    15
  2.0551271121753230E+00 a       991     0    40     1    16
  5.6527220980393480E+00 a       992     0    40     1    17
  7.9776818143617445E-01 a       993     0    40     1    18
  4.6235529502480794E+00 a       994     0    40     1    19
  2.0148365803471480E+00 a       995     0    40     1    20
  9.9147860495042917E+00 a       996     0    40     1    21
 -4.6056252115216340E-01 a       997     0    40     1    22
  3.9377868195491899E+00 a       998     0    40     1    23
  4.7041066487989394E+00 a       999     0    40     1    24
 -4.6554057997819207E+00 a      1000     0    40     1    25
  1.4371785907453201E+00 a      1001     0    41     1     1
 -2.6968478978386541E+00 a      1002     0    41     1     2
 -1.6742941503256532E+00 a      1003     0    41     1     3
 -6.5473306440487677E-01 a      1004     0    41     1     4
  6.8348956377982155E+00 a      1005     0    41     1     5
  1.6827507231653696E-01 a      1006     0    41     1     6
  2.5048682818770192E+00 a      1007     0    41     1     7
 -1.6844044249872083E+00 a      1008     0    41     1     8
 -5.6967282203665173E+00 a      1009     0    41     1     9
 -1.3677613762492496E-01 a      1010     0    41     1    10
  9.5867357498557826E-01 a      1011     0    41     1    11
 -1.9198410719930019E+00 a      1012     0    41     1    12
 -4.5304009103174572E+00 a      1013     0    41     1    13
 -4.0481327435197001E-03 a      1014     0    41     1    14
  4.1831409632768096E-01 a      1015     0    41     1    15
  8.2625710074626479E-01 a      1016     0    41     1    16
 -6.5259692972107581E+00 a      1017     0    41     1    17
 -1.7488406554331204E+00 a      1018     0    41     1    18
  9.9880961146300351E-01 a      1019     0    41     1    19
  1.6147004682434620E+00 a      1020     0    41     1    20
  1.9738515731533963E+00 a      1021     0    41     1    21
 -1.7319191008215775E+00 a      1022     0    41     1    22
 -6.7504108722649270E-01 a      1023     0    41     1    23
  2.0262350030967125E+00 a      1024     0    41     1    24
 -3.1536269118747327E+00 a      1025     0    41     1    25
  1.1308908841618568E+00 a      1026     0    42     1     1
  2.2673412334316012E+00 a      1027     0    42     1     2
  1.4659464605239745E+00 a      1028     0    42     1     3
  5.3161257740610490E-01 a      1029     0    42     1     4
  3.1952910101587371E+00 a      1030     0    42     1     5
  1.6972305760769091E+00 a      1031     0    42     1     6
  2.7028290294445694E+00 a      1032     0    42     1     7
  6.1885822448046246E-01 a      1033     0    42     1     8
  1.0074678653023732E+00 a      1034     0    42     1     9
  2.9789157835049038E+00 a      1035     0    42     1    10
  6.8119470223072405E+00 a      1036     0    42     1    11
 -4.9366497129111924E+00 a      1037     0    42     1    12
  4.3263916402219325E+00 a      1038     0    42     1    13
  2.4912697266490151E+00 a      1039     0    42     1    14
  4.6121590513709991E+00 a      1040     0    42     1    15
 -3.1223450455908459E+00 a      1041     0    42     1    16
 -3.0319122729944259E+00 a      1042     0    42     1    17
  5.4107679849324501E+00 a      1043     0    42     1    18
 -5.2871411469263592E+00 a      1044     0    42     1    19
 -5.8902149114304203E+00 a      1045     0    42     1    20
 -2.9422426536950734E+00 a      1046     0    42     1    21
  5.4826584635967512E-01 a      1047     0    42     1    22
 -8.4978522246565884E+00 a      1048     0    42     1    23
 -5.3926768588351335E+00 a      1049     0    42     1    24
  4.1656793454826753E+00 a      1050     0    42     1    25
 -6.0906983245343618E+00 a      1051     0    43     1     1
  7.9132628254200421E-01 a      1052     0    43     1     2
 -1.3583034479620926E-01 a      1053     0    43     1     3
  2.8477562328943713E+00 a      1054     0    43     1     4
 -2.8317975448707231E+00 a      1055     0    43     1     5
  9.4896994507125267E+00 a      1056     0    43     1     6
  3.4308792768336529E+00 a      1057     0    43     1     7
  1.1160330838308392E+01 a      1058     0    43     1     8
  2.2044340347183868E+00 a      1059     0    43     1     9
 -8.3948698621275764E+00 a      1060     0    43     1    10
 -2.0616385231302461E+00 a      1061     0    43     1    11
 -5.8342167978734798E+00 a      1062     0    43     1    12
 -3.2453833480697247E-01 a      1063     0    43     1    13
  5.9762868520090855E+00 a      1064     0    43     1    14
  6.9851074768586652E-01 a      1065     0    43     1    15
 -3.9233453010086037E+00 a      1066     0    43     1    16
  1.8067652892604857E+00 a      1067     0    43     1    17
 -2.0904347433158863E+00 a      1068     0    43     1    18
  3.7070195780030333E+00 a      1069     0    43     1    19
  1.7338726074425155E+00 a      1070     0    43     1    20
 -9.4555400769782716E-01 a      1071     0    43     1    21
 -9.0845490666651028E+00 a      1072     0    43     1    22
  7.1582604946433452E+00 a      1073     0    43     1    23
 -1.6906883797072279E+00 a      1074     0    43     1    24
  6.1190897696417759E+00 a      1075     0    43     1    25
  9.0051752681495270E+00 a      1076     0    44     1     1
  3.4334857919115840E+00 a      1077     0    44     1     2
 -2.5836852253175762E+00 a      1078     0    44     1     3
  1.7110580643805562E+01 a      1079     0    44     1     4
  7.3302899160486588E+00 a      1080     0    44     1     5
  5.2245104545024965E+00 a      1081     0    44     1     6
 -1.1216977986972328E+01 a      1082     0    44     1     7
 -8.5440103582937599E-01 a      1083     0    44     1     8
  1.0093571869462994E+00 a      1084     0    44     1     9
 -4.4474992779464517E-01 a      1085     0    44     1    10
  4.5016878083837701E+00 a      1086     0    44     1    11
  8.0227334078096268E-01 a      1087     0    44     1    12
 -1.5861759772955903E+00 a      1088     0    44     1    13
  6.7507167523499589E+00 a      1089     0    44     1    14
  1.1520529729888347E+00 a      1090     0    44     1    15
  2.6428485509303973E-01 a      1091     0    44     1    16
 -1.5603627188288989E+00 a      1092     0    44     1    17
 -2.0259380846774511E-01 a      1093     0    44     1    18
  2.8054246847275479E+00 a      1094     0    44     1    19
  6.6478071096027431E+00 a      1095     0    44     1    20
 -4.5068159364192191E+00 a      1096     0    44     1    21
 -2.8368699528157264E+00 a      1097     0    44     1    22
 -5.8863637679905496E+00 a      1098     0    44     1    23
  3.3903643604980691E+00 a      1099     0    44     1    24
  1.8197810053207999E+00 a      1100     0    44     1    25
  3.2016054471994724E+00 a      1101     0    45     1     1
  7.0932398452493963E+00 a      1102     0    45     1     2
  7.6136147842343345E+00 a      1103     0    45     1     3
 -2.2788662285967889E+00 a      1104     0    45     1     4
  7.3385466389191789E+00 a      1105     0    45     1     5
  4.4967936583886337E+00 a      1106     0    45     1     6
  1.2681741663746621E-01 a      1107     0    45     1     7
 -4.4643319081119435E+00 a      1108     0    45     1     8
 -1.1051619085910279E+01 a      1109     0    45     1     9
 -1.9123106113473891E+00 a      1110     0    45     1    10
  1.0777458436387897E+00 a      1111     0    45     1    11
  5.3320551137817578E+00 a      1112     0    45     1    12
  1.9644036909702014E+00 a      1113     0    45     1    13
  7.2042572073736455E+00 a      1114     0    45     1    14
 -2.2153138453791201E+00 a      1115     0    45     1    15
  5.3468045974852192E+00 a      1116     0    45     1    16
 -8.4467992575614625E-01 a      1117     0    45     1    17
 -4.6023948136661446E+00 a      1118     0    45     1    18
 -9.8329946311392369E-01 a      1119     0    45     1    19
 -9.9218821881388530E-01 a      1120     0    45     1    20
 -6.2326292916351322E+00 a      1121     0    45     1    21
  1.2099374547732122E+01 a      1122     0    45     1    22
 -1.9951530814722447E+00 a      1123     0    45     1    23
 -1.6530605032759416E+00 a      1124     0    45     1    24
  9.4369027505447747E+00 a      1125     0    45     1    25
  1.5013848916545602E+00 a      1126     0    46     1     1
 -7.3477032861004075E+00 a      1127     0    46     1     2
 -4.3483614878608572E+00 a      1128     0    46     1     3
 -5.1986467880082712E+00 a      1129     0    46     1     4
 -6.0029235110592039E+00 a      1130     0    46     1     5
 -8.8164977905039734E+00 a      1131     0    46     1     6
 -3.5474594289589767E+00 a      1132     0    46     1     7
 -8.9736084505937228E+00 a      1133     0    46     1     8
  4.3478762822189054E+00 a      1134     0    46     1     9
  7.8552632466158601E+00 a      1135     0    46     1    10
 -1.3813216450392901E-01 a      1136     0    46     1    11
 -4.4203884309395463E+00 a      1137     0    46     1    12
  2.9761717896458681E+00 a      1138     0    46     1    13
 -5.0856351243341598E+00 a      1139     0    46     1    14
  1.7130685071539780E+00 a      1140     0    46     1    15
 -9.2531003035129777E-01 a      1141     0    46     1    16
  3.1440295016707209E-01 a      1142     0    46     1    17
  5.7759302764778591E+00 a      1143     0    46     1    18
 -3.3714305023128612E+00 a      1144     0    46     1    19
  3.4823900054972830E-02 a      1145     0    46     1    20
 -3.2595824701779299E+00 a      1146     0    46     1    21
  3.8299403713035612E-01 a      1147     0    46     1    22
 -6.1849814400042300E+00 a      1148     0    46     1    23
  3.5176194531463172E+00 a      1149     0    46     1    24
 -8.1555357302966023E+00 a      1150     0    46     1    25
 -1.1063451105011293E+00 a      1151     0    47     1     1
  3.4768607284521029E+00 a      1152     0    47     1     2
 -6.1142722174277067E+00 a      1153     0    47     1     3
 -3.1658151849803189E+00 a      1154     0    47     1     4
  1.0826268608383356E+00 a      1155     0    47     1     5
  5.3304373529991773E+00 a      1156     0    47     1     6
  2.2055848379973173E+00 a      1157     0    47     1     7
  9.1615393406294992E+00 a      1158     0    47     1     8
 -3.7550750888216506E+00 a      1159     0    47     1     9
  1.4836552314515716E+01 a      1160     0    47     1    10
 -1.0488733095869719E+01 a      1161     0    47     1    11
  9.2907224131831434E+00 a      1162     0    47     1    12
 -9.1550125540453209E+00 a      1163     0    47     1    13
 -2.9873366977345683E+00 a      1164     0    47     1    14
 -3.5605224106642388E+00 a      1165     0    47     1    15
 -3.1869997154193821E+00 a      1166     0    47     1    16
 -2.8530341681696187E+00 a      1167     0    47     1    17
 -1.5067934347257432E+00 a      1168     0    47     1    18
 -1.6446090229355090E+00 a      1169     0    47     1    19
 -7.6813724932361049E-01 a      1170     0    47     1    20
 -3.3086897438241851E+00 a      1171     0    47     1    21
 -1.3491146701381822E+01 a      1172     0    47     1    22
  1.0331773664741979E+01 a      1173     0    47     1    23
  9.3707352657117038E-01 a      1174     0    47     1    24
 -1.3961932461815410E+01 a      1175     0    47     1    25
 -2.1777957318628598E+00 a      1176     0    48     1     1
  2.3821989620374628E+00 a      1177     0    48     1     2
  1.4922310392674807E+00 a      1178     0    48     1     3
  1.6031120810934836E+00 a      1179     0    48     1     4
 -6.8694654337932635E+00 a      1180     0    48     1     5
  1.2386149307769272E-01 a      1181     0    48     1     6
 -3.1905910830632158E+00 a      1182     0    48     1     7
  4.7047539655114949E+00 a      1183     0    48     1     8
  6.7627225859061451E+00 a      1184     0    48     1     9
 -1.7047707249720276E+00 a      1185     0    48     1    10
 -2.3349873570885413E+00 a      1186     0    48     1    11
  3.2742179904884927E+00 a      1187     0    48     1    12
  3.9988965142723916E+00 a      1188     0    48     1    13
  2.6321860851884624E+00 a      1189     0    48     1    14
  2.6225447356601922E-01 a      1190     0    48     1    15
  1.6893731689692595E+00 a      1191     0    48     1    16
  6.7471373246683095E+00 a      1192     0    48     1    17
  3.5178145035699568E+00 a      1193     0    48     1    18
 -3.3623307108116557E-01 a      1194     0    48     1    19
 -3.4011855034546601E+00 a      1195     0    48     1    20
 -5.2579701467013085E-01 a      1196     0    48     1    21
  4.3533676417077913E+00 a      1197     0    48     1    22
 -2.0559103623911374E+00 a      1198     0    48     1    23
 -1.7680508507617483E+00 a      1199     0    48     1    24
  4.6544635260854665E+00 a      1200     0    48     1    25
 -2.8590901187813151E+00 a      1201     0    49     1     1
  2.1622310800488314E+00 a      1202     0    49     1     2
 -2.2172742242160637E+00 a      1203     0    49     1     3
 -4.9981706159458970E+00 a      1204     0    49     1     4
 -4.4614287477462655E+00 a      1205     0    49     1     5
 -2.0014066074290295E+00 a      1206     0    49     1     6
 -3.6494798631111509E+00 a      1207     0    49     1     7
 -1.5822614141590566E-01 a      1208     0    49     1     8
  3.3696299990153284E+00 a      1209     0    49     1     9
  4.6491977062713268E+00 a      1210     0    49     1    10
 -1.0013181300271385E+00 a      1211     0    49     1    11
  3.7475454497140857E+00 a      1212     0    49     1    12
  8.3680891490955300E+00 a      1213     0    49     1    13
 -6.4937318707610991E+00 a      1214     0    49     1    14
 -1.1571506688649535E+01 a      1215     0    49     1    15
  6.6958036415284665E+00 a      1216     0    49     1    16
  2.5548853026036245E+00 a      1217     0    49     1    17
 -3.8127670878142097E+00 a      1218     0    49     1    18
 -1.0460710163670063E+01 a      1219     0    49     1    19
 -5.3981161702577660E+00 a      1220     0    49     1    20
  1.9206115832179012E+00 a      1221     0    49     1    21
  3.5924110277602246E+00 a      1222     0    49     1    22
  4.5266983813943460E+00 a      1223     0    49     1    23
 -3.3923379065511186E+00 a      1224     0    49     1    24
  9.1296056798847114E-01 a      1225     0    49     1    25
  1.9611267341796343E+00 a      1226     0    50     1     1
 -8.8868771981872960E+00 a      1227     0    50     1     2
  3.6465190156078867E-02 a      1228     0    50     1     3
 -2.6105846392070466E+00 a      1229     0    50     1     4
  7.7366809936517082E+00 a      1230     0    50     1     5
  2.7019806468673400E+00 a      1231     0    50     1     6
  1.0383641915930900E+01 a      1232     0    50     1     7
  2.8985478000207543E+00 a      1233     0    50     1     8
 -2.5934369052838195E+00 a      1234     0    50     1     9
 -5.1583051239697557E+00 a      1235     0    50     1    10
 -9.0391805422076776E-01 a      1236     0    50     1    11
  1.3779588383212166E-01 a      1237     0    50     1    12
 -6.3980613638319364E+00 a      1238     0    50     1    13
  2.0942033895128165E+00 a      1239     0    50     1    14
  5.6445575153586525E+00 a      1240     0    50     1    15
 -7.0579036677878335E+00 a      1241     0    50     1    16
 -5.4489395521078903E+00 a      1242     0    50     1    17
 -5.2021911031470713E-01 a      1243     0    50     1    18
  8.2521430035461716E+00 a      1244     0    50     1    19
  3.0271336854787481E+00 a      1245     0    50     1    20
  3.6938440114157083E+00 a      1246     0    50     1    21
 -3.0713763348867049E+00 a      1247     0    50     1    22
  4.1937894458220648E-01 a      1248     0    50     1    23
  3.7088293630671170E+00 a      1249     0    50     1    24
 -2.4709536300357353E+00 a      1250     0    50     1    25
 -7.7333599691840604E-01 a      1251     0    51     1     1
 -2.9252311535121271E+00 a      1252     0    51     1     2
 -2.0855867480425156E+00 a      1253     0    51     1     3
 -1.0710171540200621E+00 a      1254     0    51     1     4
 -1.4905359625103172E+00 a      1255     0    51     1     5
 -3.7459894184016038E+00 a      1256     0    51     1     6
 -3.2215461748168570E+00 a      1257     0    51     1     7
 -6.6560449946980400E+00 a      1258     0    51     1     8
  1.8059791540657797E+00 a      1259     0    51     1     9
 -6.4457946165117157E+00 a      1260     0    51     1    10
  2.5198070106804105E+00 a      1261     0    51     1    11
 -1.7551880725425597E+00 a      1262     0    51     1    12
  6.7084734778902995E+00 a      1263     0    51     1    13
  5.7802796685524731E+00 a      1264     0    51     1    14
 -2.0378888118273299E+00 a      1265     0    51     1    15
  1.5460976614947450E+00 a      1266     0    51     1    16
 -7.4413629955332483E-01 a      1267     0    51     1    17
 -8.0934628009568721E-01 a      1268     0    51     1    18
  5.5732057837068072E-01 a      1269     0    51     1    19
  7.3093749378211195E+00 a      1270     0    51     1    20
 -1.4878368681402803E+00 a      1271     0    51     1    21
  4.1595606657664916E+00 a      1272     0    51     1    22
 -1.5751573948753350E+00 a      1273     0    51     1    23
  2.4024174682842916E+00 a      1274     0    51     1    24
  6.3962984128857467E+00 a      1275     0    51     1    25
  1.1613780657158923E+00 a      1276     0    52     1     1
 -1.0373448096892535E+00 a      1277     0    52     1     2
  1.1519960466867876E+00 a      1278     0    52     1     3
  4.4653995377839273E+00 a      1279     0    52     1     4
  8.7556891885643111E+00 a      1280     0    52     1     5
 -1.9001178877689329E+00 a      1281     0    52     1     6
  4.4323060196708477E+00 a      1282     0    52     1     7
  4.5340485057186477E+00 a      1283     0    52     1     8
  2.7636105072099335E+00 a      1284     0    52     1     9
 -7.4666318481192728E-01 a      1285     0    52     1    10
  4.3927336067685907E+00 a      1286     0    52     1    11
  6.5370740157530083E+00 a      1287     0    52     1    12
 -5.0186361189868078E+00 a      1288     0    52     1    13
 -2.0791729659246672E+00 a      1289     0    52     1    14
  1.2675571683444042E-01 a      1290     0    52     1    15
  8.9845639279756939E-01 a      1291     0    52     1    16
 -4.9261237269572078E+00 a      1292     0    52     1    17
 -1.8523326968250384E+00 a      1293     0    52     1    18
  5.9019564388759473E+00 a      1294     0    52     1    19
 -2.7302839386861693E+00 a      1295     0    52     1    20
  4.1949623104886991E+00 a      1296     0    52     1    21
  4.7577174546157917E+00 a      1297     0    52     1    22
 -1.8872443223719975E+00 a      1298     0    52     1    23
  5.5642127929436369E-01 a      1299     0    52     1    24
  5.6291983596987185E+00 a      1300     0    52     1    25
 -1.0077894105805019E+01 a      1301     0    53     1     1
 -1.9159218064098713E-01 a      1302     0    53     1     2
  4.0000804543856621E+00 a      1303     0    53     1     3
  4.5420122555204534E+00 a      1304     0    53     1     4
 -3.1976128325434590E+00 a      1305     0    53     1     5
  5.9374685422472773E+00 a      1306     0    53     1     6
  2.7750823930543951E+00 a      1307     0    53     1     7
 -1.9694628407691133E+00 a      1308     0    53     1     8
 -1.5936221624982509E+00 a      1309     0    53     1     9
 -9.8323303867544301E+00 a      1310     0    53     1    10
  8.4813615972372869E+00 a      1311     0    53     1    11
 -1.8592920414134113E+01 a      1312     0    53     1    12
  1.9188807674236508E+00 a      1313     0    53     1    13
 -7.5728982954950066E+00 a      1314     0    53     1    14
  1.5523990827567793E+01 a      1315     0    53     1    15
 -6.3063885289349608E+00 a      1316     0    53     1    16
  3.2557623088196976E+00 a      1317     0    53     1    17
 -2.4867563142296136E+00 a      1318     0    53     1    18
  4.0229551541019454E-01 a      1319     0    53     1    19
 -4.3022682231628302E+00 a      1320     0    53     1    20
  6.0180120396171652E+00 a      1321     0    53     1    21
 -4.7882918691839551E+00 a      1322     0    53     1    22
 -9.8391432627643223E+00 a      1323     0    53     1    23
 -3.9319347365328312E+00 a      1324     0    53     1    24
 -4.9193970294105265E+00 a      1325     0    53     1    25
  9.3496654180783401E-02 a      1326     0    54     1     1
 -3.6882138303477490E+00 a      1327     0    54     1     2
 -9.7857644007990938E+00 a      1328     0    54     1     3
 -2.7767242995764683E+00 a      1329     0    54     1     4
 -6.1468897824292545E+00 a      1330     0    54     1     5
  2.6913968909312338E+00 a      1331     0    54     1     6
 -9.0168835976622681E+00 a      1332     0    54     1     7
  3.6331333267666013E+00 a      1333     0    54     1     8
 -2.2115892980770804E+00 a      1334     0    54     1     9
  2.5526728515782287E+00 a      1335     0    54     1    10
 -1.1172210553803929E+01 a      1336     0    54     1    11
  8.1351564017480609E+00 a      1337     0    54     1    12
  3.2301550245230750E+00 a      1338     0    54     1    13
  8.8158238589196447E+00 a      1339     0    54     1    14
 -1.4058138191734058E+01 a      1340     0    54     1    15
 -1.5598938918516549E+00 a      1341     0    54     1    16
  6.7486884048162210E-01 a      1342     0    54     1    17
  4.1403771262053777E+00 a      1343     0    54     1    18
 -4.1537131745316360E+00 a      1344     0    54     1    19
  5.3264718998122991E+00 a      1345     0    54     1    20
 -8.0412191849330998E+00 a      1346     0    54     1    21
  3.3381526013578910E-05 a      1347     0    54     1    22
  1.0519315988809032E+01 a      1348     0    54     1    23
 -1.5531616923986991E+00 a      1349     0    54     1    24
  4.6360143854898022E+00 a      1350     0    54     1    25
  1.7931916324266026E+00 a      1351     0    55     1     1
  1.9112387449082673E+00 a      1352     0    55     1     2
  9.3419331158828420E+00 a      1353     0    55     1     3
  5.7755299730238463E-01 a      1354     0    55     1     4
  5.4483931228427851E+00 a      1355     0    55     1     5
  4.6823662999866507E+00 a      1356     0    55     1     6
  1.2417356388169554E+00 a      1357     0    55     1     7
 -6.1993903419600827E-01 a      1358     0    55     1     8
  4.0429078740737507E+00 a      1359     0    55     1     9
 -2.8168229197189718E+00 a      1360     0    55     1    10
  5.2639427122464202E+00 a      1361     0    55     1    11
 -8.6292007622629257E+00 a      1362     0    55     1    12
 -6.1991044484987770E+00 a      1363     0    55     1    13
  4.8710968684461351E+00 a      1364     0    55     1    14
  1.0188696505429281E+01 a      1365     0    55     1    15
  6.4933762765415892E-01 a      1366     0    55     1    16
  1.0414384313923386E+00 a      1367     0    55     1    17
 -5.7244912051156804E+00 a      1368     0    55     1    18
  3.4891899773934862E+00 a      1369     0    55     1    19
  4.6365183217966006E+00 a      1370     0    55     1    20
  1.8286783719739732E+00 a      1371     0    55     1    21
 -7.1674585597977725E+00 a      1372     0    55     1    22
  1.2792933406363350E+01 a      1373     0    55     1    23
 -2.7325738555983559E-01 a      1374     0    55     1    24
 -1.3274958346447165E+00 a      1375     0    55     1    25
 -1.9744406160735202E+00 a      1376     0    56     1     1
  1.9403872212751447E+00 a      1377     0    56     1     2
 -1.4459118876398724E-01 a      1378     0    56     1     3
  2.3680504314313500E-01 a      1379     0    56     1     4
 -5.9759244655531925E+00 a      1380     0    56     1     5
 -2.5691761684415870E+00 a      1381     0    56     1     6
 -4.2074310327353901E+00 a      1382     0    56     1     7
  2.6496376143624384E-01 a      1383     0    56     1     8
  1.3593638234711167E+00 a      1384     0    56     1     9
  2.0031794042310072E+00 a      1385     0    56     1    10
  9.8320691315058628E-01 a      1386     0    56     1    11
  3.6298877296518781E+00 a      1387     0    56     1    12
  2.2679226586110439E+00 a      1388     0    56     1    13
 -1.0601124996426761E+00 a      1389     0    56     1    14
 -2.7443820573828321E+00 a      1390     0    56     1    15
  1.5488352918372383E-01 a      1391     0    56     1    16
  1.8721136192774313E+00 a      1392     0    56     1    17
  3.6166206035763317E+00 a      1393     0    56     1    18
 -4.3392938761691839E+00 a      1394     0    56     1    19
 -3.9273608558153468E+00 a      1395     0    56     1    20
 -2.5159359530351786E+00 a      1396     0    56     1    21
  3.5562934547790608E+00 a      1397     0    56     1    22
 -4.2645258794393834E+00 a      1398     0    56     1    23
 -2.0091523111820728E+00 a      1399     0    56     1    24
  1.6547710339404831E+00 a      1400     0    56     1    25
 -1.6850965864636671E+00 a      1401     0    57     1     1
 -2.3323580123868166E+00 a      1402     0    57     1     2
  3.2110692743765710E+00 a      1403     0    57     1     3
  6.4338649484871802E+00 a      1404     0    57     1     4
 -6.3040475390448258E-01 a      1405     0    57     1     5
 -1.9377154825414504E+01 a      1406     0    57     1     6
  3.7126931583493556E+00 a      1407     0    57     1     7
 -6.5803484972313306E+00 a      1408     0    57     1     8
  5.7605280312859906E+00 a      1409     0    57     1     9
  7.4650724988711463E+00 a      1410     0    57     1    10
 -1.6903424065221717E+00 a      1411     0    57     1    11
  1.5077290967742204E+01 a      1412     0    57     1    12
  1.6243219541904185E+01 a      1413     0    57     1    13
  5.9555267122721700E+00 a      1414     0    57     1    14
 -7.5707281421311077E+00 a      1415     0    57     1    15
 -1.6611119681066642E+00 a      1416     0    57     1    16
 -1.1457568089414767E+01 a      1417     0    57     1    17
  4.9408972334782586E+00 a      1418     0    57     1    18
  8.3436068095304572E-01 a      1419     0    57     1    19
 -2.5355100452842048E+00 a      1420     0    57     1    20
 -2.3041830314497105E+00 a      1421     0    57     1    21
  1.1573705579120684E+01 a      1422     0    57     1    22
 -1.6545472152021030E+00 a      1423     0    57     1    23
 -1.6673758584953802E+00 a      1424     0    57     1    24
  1.4356517492694424E+01 a      1425     0    57     1    25
  5.7881498160652853E+00 a      1426     0    58     1     1
 -3.0713156021057677E+00 a      1427     0    58     1     2
 -1.0968744681544160E+00 a      1428     0    58     1     3
 -3.0297027154134866E+00 a      1429     0    58     1     4
  3.2442089105531546E+00 a      1430     0    58     1     5
 -2.1852694934602939E+00 a      1431     0    58     1     6
 -1.0896406689422893E+00 a      1432     0    58     1     7
 -1.1858476303207844E+01 a      1433     0    58     1     8
 -4.8693917853024127E+00 a      1434     0    58     1     9
  8.8368997287835569E+00 a      1435     0    58     1    10
  4.1392151090155567E+00 a      1436     0    58     1    11
 -5.4211850114682596E+00 a      1437     0    58     1    12
 -1.6393456101063295E+00 a      1438     0    58     1    13
 -4.5170789492711716E+00 a      1439     0    58     1    14
 -4.9385162596053372E-01 a      1440     0    58     1    15
 -2.1925196028407896E+00 a      1441     0    58     1    16
 -5.9236624483721227E+00 a      1442     0    58     1    17
 -7.1180845286270582E+00 a      1443     0    58     1    18
 -3.7468565654257633E+00 a      1444     0    58     1    19
  4.1482880738405852E+00 a      1445     0    58     1    20
 -4.6074155129784833E+00 a      1446     0    58     1    21
 -2.6094971130118672E+00 a      1447     0    58     1    22
  4.3850532656893257E+00 a      1448     0    58     1    23
  2.6159747589467059E+00 a      1449     0    58     1    24
 -2.2958811061944209E+00 a      1450     0    58     1    25
  8.2062313248519168E+00 a      1451     0    59     1     1
 -5.6883386902997757E-01 a      1452     0    59     1     2
  1.2691761749454695E+00 a      1453     0    59     1     3
 -6.4195309639564035E+00 a      1454     0    59     1     4
  4.3841960250983050E+00 a      1455     0    59     1     5
  1.0971170061275927E+01 a      1456     0    59     1     6
 -5.9592064715938253E-01 a      1457     0    59     1     7
  6.4770204300260117E+00 a      1458     0    59     1     8
  1.3954500541566170E+00 a      1459     0    59     1     9
  1.7145435484511891E+00 a      1460     0    59     1    10
  5.0623128003993134E+00 a      1461     0    59     1    11
 -1.1604284766948682E+01 a      1462     0    59     1    12
 -1.5669401147784487E+01 a      1463     0    59     1    13
 -7.4356383176213878E+00 a      1464     0    59     1    14
  7.8299125008677564E+00 a      1465     0    59     1    15
  6.8474670637132231E+00 a      1466     0    59     1    16
  8.0904659500605884E+00 a      1467     0    59     1    17
 -1.6189136035308054E+00 a      1468     0    59     1    18
  6.7149346304434177E-01 a      1469     0    59     1    19
 -6.1931747615021004E+00 a      1470     0    59     1    20
  3.1930945715708172E+00 a      1471     0    59     1    21
 -4.9934072053721952E+00 a      1472     0    59     1    22
 -4.2632451101494526E+00 a      1473     0    59     1    23
  9.2176850807664590E-01 a      1474     0    59     1    24
 -1.0634235443265005E+01 a      1475     0    59     1    25
  7.7292945352005429E+00 a      1476     0    60     1     1
  8.5891142051823941E+00 a      1477     0    60     1     2
  6.7334903003590831E+00 a      1478     0    60     1     3
 -4.8290018625114524E+00 a      1479     0    60     1     4
  8.1115510192887346E+00 a      1480     0    60     1     5
  1.1023054842592621E+00 a      1481     0    60     1     6
  5.3044573692556813E+00 a      1482     0    60     1     7
 -4.1850288699053101E-01 a      1483     0    60     1     8
  7.0760746544338149E+00 a      1484     0    60     1     9
 -6.8492989754326672E-01 a      1485     0    60     1    10
  1.1760115397095417E+01 a      1486     0    60     1    11
 -9.2417078079464812E+00 a      1487     0    60     1    12
 -8.1965002631045945E+00 a      1488     0    60     1    13
 -8.4404949255540753E+00 a      1489     0    60     1    14
  7.0629465494398405E+00 a      1490     0    60     1    15
  8.7215602083818791E+00 a      1491     0    60     1    16
  1.6827771258480630E+00 a      1492     0    60     1    17
 -4.2043774682716553E+00 a      1493     0    60     1    18
 -1.9429337804535671E+00 a      1494     0    60     1    19
 -6.1117057263936805E-02 a      1495     0    60     1    20
  8.1846801068253701E+00 a      1496     0    60     1    21
 -4.0892253829133125E+00 a      1497     0    60     1    22
 -1.1168756264263058E+00 a      1498     0    60     1    23
  7.9605077161034750E+00 a      1499     0    60     1    24
 -8.1786315581795641E+00 a      1500     0    60     1    25
 -5.3515051486868428E+00 a      1501     0    61     1     1
  8.3370002908748031E+00 a      1502     0    61     1     2
 -1.7598840466774315E-01 a      1503     0    61     1     3
  6.1187864599632702E+00 a      1504     0    61     1     4
 -6.8629972885534152E-01 a      1505     0    61     1     5
  2.6519056755150028E+00 a      1506     0    61     1     6
  3.3663507057550115E+00 a      1507     0    61     1     7
  1.2934472557192729E+01 a      1508     0    61     1     8
  4.4029195669145391E+00 a      1509     0    61     1     9
 -1.0045915933775728E+01 a      1510     0    61     1    10
 -4.0155507910898596E+00 a      1511     0    61     1    11
  2.4135720427144989E+00 a      1512     0    61     1    12
  1.9196531594768009E+00 a      1513     0    61     1    13
  4.6084568694519978E+00 a      1514     0    61     1    14
 -8.4905824087734694E-01 a      1515     0    61     1    15
  6.2269540088382680E+00 a      1516     0    61     1    16
  1.0187944592154702E+01 a      1517     0    61     1    17
  9.5543579997456103E+00 a      1518     0    61     1    18
  4.8127778146304303E+00 a      1519     0    61     1    19
 -4.7288594054222282E+00 a      1520     0    61     1    20
  7.0405331524615677E+00 a      1521     0    61     1    21
 -1.7932140653325541E+00 a      1522     0    61     1    22
 -3.2984823069703051E+00 a      1523     0    61     1    23
 -3.2588844701849102E+00 a      1524     0    61     1    24
 -9.0306042550652277E-01 a      1525     0    61     1    25
 -3.9153064243018054E+00 a      1526     0    62     1     1
  2.6842079287194669E+00 a      1527     0    62     1     2
 -1.4894493394891215E+00 a      1528     0    62     1     3
  5.4062205801226044E+00 a      1529     0    62     1     4
 -3.8499498532028058E+00 a      1530     0    62     1     5
  9.6329657398622270E-01 a      1531     0    62     1     6
  7.3485985780690388E-01 a      1532     0    62     1     7
 -1.8091779326509565E+00 a      1533     0    62     1     8
 -6.6367460276573818E+00 a      1534     0    62     1     9
 -6.3428530827518079E+00 a      1535     0    62     1    10
 -4.7958885577029591E+00 a      1536     0    62     1    11
  1.0192956914421314E+01 a      1537     0    62     1    12
  4.9224263140214983E+00 a      1538     0    62     1    13
  5.6665675878122812E+00 a      1539     0    62     1    14
 -3.7620032031971564E+00 a      1540     0    62     1    15
 -1.1706720511755586E+01 a      1541     0    62     1    16
 -1.5739588145493340E+00 a      1542     0    62     1    17
  1.0192685152897798E+00 a      1543     0    62     1    18
  1.1417735582460609E+00 a      1544     0    62     1    19
  3.3812932713671802E+00 a      1545     0    62     1    20
 -4.0451165280639731E+00 a      1546     0    62     1    21
  1.7767083750571451E+00 a      1547     0    62     1    22
  6.9570717551572097E+00 a      1548     0    62     1    23
 -1.6130609729740586E+00 a      1549     0    62     1    24
  2.8245614526293297E+00 a      1550     0    62     1    25
 -6.7851576056555229E+00 a      1551     0    63     1     1
 -2.5864643827555587E+00 a      1552     0    63     1     2
 -2.7982957620406315E+00 a      1553     0    63     1     3
 -6.9882680261705676E+00 a      1554     0    63     1     4
 -5.9964188493207917E+00 a      1555     0    63     1     5
  9.1306028995980917E+00 a      1556     0    63     1     6
 -5.4435759247351196E+00 a      1557     0    63     1     7
 -6.2682719346531446E+00 a      1558     0    63     1     8
 -4.1426023450517011E+00 a      1559     0    63     1     9
 -1.2020435563860286E+01 a      1560     0    63     1    10
 -5.3207593586909301E+00 a      1561     0    63     1    11
  8.1436372134689741E+00 a      1562     0    63     1    12
 -3.3192977934885737E+00 a      1563     0    63     1    13
 -7.1084203816799771E+00 a      1564     0    63     1    14
 -2.7617140745759414E+00 a      1565     0    63     1    15
 -6.9409443894684764E-01 a      1566     0    63     1    16
 -7.4042500692689961E+00 a      1567     0    63     1    17
 -5.4946656124190891E+00 a      1568     0    63     1    18
 -1.5350941362793455E-01 a      1569     0    63     1    19
  4.4134220083660169E+00 a      1570     0    63     1    20
 -4.8956247510281017E+00 a      1571     0    63     1    21
  3.9638069543523144E+00 a      1572     0    63     1    22
 -1.5166033376346464E+00 a      1573     0    63     1    23
  3.1482904312028310E+00 a      1574     0    63     1    24
  2.6719629894150279E+00 a      1575     0    63     1    25
  1.9502203224793455E+00 a      1576     0    64     1     1
 -6.1592002380300093E-01 a      1577     0    64     1     2
 -1.2482056596716611E+00 a      1578     0    64     1     3
 -7.1991273146481227E-01 a      1579     0    64     1     4
  4.7802045125743081E-01 a      1580     0    64     1     5
 -1.3692479554617415E-01 a      1581     0    64     1     6
  1.6495069954508463E+00 a      1582     0    64     1     7
 -2.1190780516464686E-01 a      1583     0    64     1     8
 -3.1444091055451926E+00 a      1584     0    64     1     9
 -2.6019936454372390E+00 a      1585     0    64     1    10
  1.7976394017056269E-01 a      1586     0    64     1    11
 -1.9242300559532430E+00 a      1587     0    64     1    12
  1.6935201086406009E+00 a      1588     0    64     1    13
  1.6163781983645773E+00 a      1589     0    64     1    14
  1.0543101248249038E+00 a      1590     0    64     1    15
  2.8726710534254947E+00 a      1591     0    64     1    16
  1.9468198671676051E+00 a      1592     0    64     1    17
  6.8958179026561706E-01 a      1593     0    64     1    18
  1.0662688816234926E+00 a      1594     0    64     1    19
 -2.6717104910970613E+00 a      1595     0    64     1    20
 -6.4603242320481657E-01 a      1596     0    64     1    21
 -3.4388031996985263E-01 a      1597     0    64     1    22
 -2.0233223298968745E+00 a      1598     0    64     1    23
  2.7956651002773619E-01 a      1599     0    64     1    24
  1.5842544960387679E+00 a      1600     0    64     1    25
 -2.4490460941904341E-01 b      1601     1     1
  6.7517944727667878E-01 b      1602     1     2
 -5.2742436443380436E-01 b      1603     1     3
  4.5824842617098804E-01 b      1604     1     4
  9.6684543059950157E-01 b      1605     1     5
  8.3123740268015844E-01 b      1606     1     6
 -5.9728413305794770E-01 b      1607     1     7
  8.4742568096264781E-01 b      1608     1     8
 -3.1564677957684328E-01 b      1609     1     9
 -7.9460438322405513E-01 b      1610     1    10
 -2.0634021036984493E-01 b      1611     1    11
  1.3255767104432901E+00 b      1612     1    12
 -6.3322983564060020E-01 b      1613     1    13
 -5.8082848579195039E-02 b      1614     1    14
 -4.8092965516753988E-01 b      1615     1    15
 -1.9767660476729046E-01 b      1616     1    16
  1.2020110938994670E+00 b      1617     1    17
 -1.5473967968852817E-01 b      1618     1    18
  1.2846084799866289E-01 b      1619     1    19
  4.1287933462148096E-02 b      1620     1    20
  1.4393474707377746E-01 b      1621     1    21
 -9.0564178666379946E-02 b      1622     1    22
  1.2582034298547100E+00 b      1623     1    23
 -5.7131404553096976E-01 b      1624     1    24
  5.4038170356560156E-01 b      1625     1    25
 -1.5754277771350667E-01 a      1626     1     1     2     1
 -7.8740379110171357E-02 a      1627     1     1     2     2
  9.4481848110107014E-02 a      1628     1     1     2     3
