################################################################################
# Neural network connection values (weights and biases).
################################################################################
# Col  Name       Description
################################################################################
# 1    connection Neural network connection value.
# 2    t          Connection type (a = weight, b = bias).
# 3    index      Index enumerating weights.
# 4    l_s        Starting point layer (end point layer for biases).
# 5    n_s        Starting point neuron in starting layer (end point neuron for biases).
# 6    l_e        End point layer.
# 7    n_e        End point neuron in end layer.
################################################################################
#                      1 2         3     4     5     6     7
#             connection t     index   l_s   n_s   l_e   n_e
############################################################
 -1.4099580154454843E-02 a         1     0     1     1     1
 -8.6232316637441672E-02 a         2     0     1     1     2
 -1.0045643855179613E-01 a         3     0     1     1     3
 -1.5122536178399018E-01 a         4     0     1     1     4
  1.3366793496167356E-01 a         5     0     1     1     5
  1.7507566432323197E-02 a         6     0     1     1     6
 -1.3194446448746866E-01 a         7     0     1     1     7
 -2.5422338403688037E-02 a         8     0     1     1     8
 -2.1713552030234548E-02 a         9     0     1     1     9
 -5.4149984954323153E-02 a        10     0     1     1    10
 -4.3948884306920677E-02 a        11     0     1     1    11
  1.2329129104354186E-01 a        12     0     1     1    12
 -1.7386326310904695E-02 a        13     0     1     1    13
  2.2556819667086279E-03 a        14     0     1     1    14
 -6.0952594574073794E-02 a        15     0     1     1    15
 -8.9071311175225598E-02 a        16     0     1     1    16
 -2.0549432898487301E-02 a        17     0     1     1    17
 -1.0821175797385696E-01 a        18     0     1     1    18
 -7.6807677582054382E-02 a        19     0     1     1    19
 -2.6154447744263839E-03 a        20     0     1     1    20
  5.0301265056415502E-02 a        21     0     1     1    21
 -8.2179582519386882E-02 a        22     0     1     1    22
  6.6051833062462026E-02 a        23     0     1     1    23
 -1.3185360880106367E-01 a        24     0     1     1    24
 -1.7150449798319314E-01 a        25     0     1     1    25
  7.6954600616319146E-02 a        26     0     2     1     1
 -4.0449909968095173E-02 a        27     0     2     1     2
  8.0374509146697692E-02 a        28     0     2     1     3
 -2.8728312207239382E-01 a        29     0     2     1     4
  3.7313205134649363E-02 a        30     0     2     1     5
  5.6924652641525561E-02 a        31     0     2     1     6
 -2.2974159815717662E-01 a        32     0     2     1     7
  2.6694634430249820E-01 a        33     0     2     1     8
 -5.7862179454908425E-03 a        34     0     2     1     9
 -2.9604953341228160E-02 a        35     0     2     1    10
 -2.0105959438977355E-01 a        36     0     2     1    11
  2.4025125350518739E-01 a        37     0     2     1    12
 -1.3379857241454270E-02 a        38     0     2     1    13
  1.0840755974843349E-02 a        39     0     2     1    14
  6.8050717455278811E-02 a        40     0     2     1    15
 -5.0975177633855784E-02 a        41     0     2     1    16
  8.8762781017847937E-03 a        42     0     2     1    17
  1.5891055730301124E-01 a        43     0     2     1    18
 -1.3905775251531249E-01 a        44     0     2     1    19
  5.4111551915695798E-02 a        45     0     2     1    20
  9.2816361683872431E-02 a        46     0     2     1    21
 -2.0601425048684750E-02 a        47     0     2     1    22
 -1.8501364127985923E-02 a        48     0     2     1    23
 -4.2905106758392583E-02 a        49     0     2     1    24
 -2.9549168392260039E-01 a        50     0     2     1    25
  8.0972563425830299E-02 a        51     0     3     1     1
 -5.2928309702937305E-02 a        52     0     3     1     2
  5.9478784825689780E-03 a        53     0     3     1     3
 -6.5929641558264654E-02 a        54     0     3     1     4
 -2.2053382574080947E-03 a        55     0     3     1     5
  8.2628713804042742E-02 a        56     0     3     1     6
 -4.6510419110150400E-02 a        57     0     3     1     7
  7.6230764974029849E-02 a        58     0     3     1     8
 -1.3707591223612677E-02 a        59     0     3     1     9
 -1.7477355209353801E-01 a        60     0     3     1    10
 -4.6005561817611590E-02 a        61     0     3     1    11
 -2.1464534288513613E-02 a        62     0     3     1    12
  1.4930105031311114E-02 a        63     0     3     1    13
  6.9473145548542017E-02 a        64     0     3     1    14
 -6.5730543325570212E-02 a        65     0     3     1    15
 -5.0026524336721966E-02 a        66     0     3     1    16
  1.0352948896148284E-01 a        67     0     3     1    17
 -9.5303613811887192E-02 a        68     0     3     1    18
  3.1894671589539798E-02 a        69     0     3     1    19
 -1.0883601252627662E-02 a        70     0     3     1    20
  1.0491522004594367E-01 a        71     0     3     1    21
 -8.8417011121996056E-02 a        72     0     3     1    22
 -1.3755999012170328E-01 a        73     0     3     1    23
 -8.5135163711097164E-03 a        74     0     3     1    24
 -3.1741536942929770E-02 a        75     0     3     1    25
 -7.1418994947982914E-02 a        76     0     4     1     1
  9.4451365743298307E-02 a        77     0     4     1     2
 -4.2603492248729724E-02 a        78     0     4     1     3
 -1.4303684362812683E-01 a        79     0     4     1     4
 -2.3386228365487243E-02 a        80     0     4     1     5
 -6.0940927066732334E-02 a        81     0     4     1     6
 -1.1006169734353208E-02 a        82     0     4     1     7
  1.0470261883732737E-01 a        83     0     4     1     8
 -4.3950617118685247E-03 a        84     0     4     1     9
 -5.8600815260105202E-02 a        85     0     4     1    10
 -1.0158529121437604E-01 a        86     0     4     1    11
 -7.5490280019590031E-02 a        87     0     4     1    12
  8.8812535481912730E-02 a        88     0     4     1    13
 -2.2545635186539483E-02 a        89     0     4     1    14
 -4.8163747936543488E-02 a        90     0     4     1    15
  1.6728473021411946E-02 a        91     0     4     1    16
  4.0254431781808458E-02 a        92     0     4     1    17
  2.9809664445830979E-02 a        93     0     4     1    18
 -8.3505534824575373E-02 a        94     0     4     1    19
 -4.3601609715274471E-02 a        95     0     4     1    20
  3.7751678175193405E-02 a        96     0     4     1    21
  9.8480367841405014E-02 a        97     0     4     1    22
  5.9234799408609588E-02 a        98     0     4     1    23
 -1.2565862692746496E-01 a        99     0     4     1    24
 -1.4142041979513353E-02 a       100     0     4     1    25
 -1.1332387310522590E-01 a       101     0     5     1     1
 -1.1897861754248928E-01 a       102     0     5     1     2
  4.5148909954283105E-02 a       103     0     5     1     3
  9.0427368800044733E-02 a       104     0     5     1     4
 -9.8933714736259254E-02 a       105     0     5     1     5
 -6.9031698206383996E-02 a       106     0     5     1     6
 -4.3607208450269948E-03 a       107     0     5     1     7
  5.2127924515715782E-02 a       108     0     5     1     8
  2.4078950799711334E-02 a       109     0     5     1     9
  1.2921882763439713E-01 a       110     0     5     1    10
  9.8756635048412866E-02 a       111     0     5     1    11
  1.7214170858973359E-02 a       112     0     5     1    12
 -2.5094923038561038E-02 a       113     0     5     1    13
 -9.4987995056139890E-02 a       114     0     5     1    14
  5.2454154705228850E-02 a       115     0     5     1    15
  4.4055603781218720E-02 a       116     0     5     1    16
  6.7148847032056563E-02 a       117     0     5     1    17
  1.2304040307249461E-01 a       118     0     5     1    18
  7.2275237850941365E-02 a       119     0     5     1    19
  5.4877907494042692E-02 a       120     0     5     1    20
 -1.0004569624908127E-01 a       121     0     5     1    21
  8.4389199112877762E-04 a       122     0     5     1    22
 -1.0088119248416619E-01 a       123     0     5     1    23
 -3.4695604271073377E-02 a       124     0     5     1    24
  8.2217741747930673E-02 a       125     0     5     1    25
  1.1624277702225450E-01 a       126     0     6     1     1
 -1.2030849667203081E-01 a       127     0     6     1     2
 -3.6434381974017521E-02 a       128     0     6     1     3
  1.9756437269307738E-02 a       129     0     6     1     4
 -9.4264784740220264E-02 a       130     0     6     1     5
  3.6638197991777803E-02 a       131     0     6     1     6
  2.5498160639801360E-02 a       132     0     6     1     7
  6.7632908131784436E-02 a       133     0     6     1     8
 -4.6959038623363356E-02 a       134     0     6     1     9
  6.6999852178581246E-02 a       135     0     6     1    10
 -5.8302915176087315E-02 a       136     0     6     1    11
 -5.6178776527629426E-02 a       137     0     6     1    12
 -3.5045237907752901E-02 a       138     0     6     1    13
 -1.7271566737180732E-02 a       139     0     6     1    14
 -2.6099793063319332E-02 a       140     0     6     1    15
  1.1839330676321747E-01 a       141     0     6     1    16
  2.6051237657313316E-03 a       142     0     6     1    17
 -2.8921261848271443E-02 a       143     0     6     1    18
 -1.0983368906007394E-02 a       144     0     6     1    19
 -5.0483582607323990E-04 a       145     0     6     1    20
  1.9204044994241654E-02 a       146     0     6     1    21
  1.0613015475000835E-01 a       147     0     6     1    22
  8.8985847895596243E-02 a       148     0     6     1    23
 -1.0897227073225176E-01 a       149     0     6     1    24
 -7.1850279791576144E-03 a       150     0     6     1    25
 -3.3636394115482131E-02 a       151     0     7     1     1
 -4.6758273532567375E-02 a       152     0     7     1     2
 -2.3364240000345930E-02 a       153     0     7     1     3
 -1.1870233877782517E-01 a       154     0     7     1     4
  1.0713366735208145E-01 a       155     0     7     1     5
  4.6636925903870585E-02 a       156     0     7     1     6
 -1.0931083569308830E-01 a       157     0     7     1     7
  3.5938830750529165E-02 a       158     0     7     1     8
  9.9989266667068213E-02 a       159     0     7     1     9
  1.8252316227763565E-01 a       160     0     7     1    10
 -6.1144034170392179E-02 a       161     0     7     1    11
  1.9025313757862820E-02 a       162     0     7     1    12
  1.6599153010193428E-02 a       163     0     7     1    13
  9.1974236912080495E-02 a       164     0     7     1    14
 -1.0923120172521318E-02 a       165     0     7     1    15
  1.7189042080189530E-02 a       166     0     7     1    16
 -7.4207380321846761E-02 a       167     0     7     1    17
  1.3280855962791796E-01 a       168     0     7     1    18
  6.1190350491466129E-02 a       169     0     7     1    19
  6.3615328842069926E-02 a       170     0     7     1    20
 -8.7762919967153685E-02 a       171     0     7     1    21
  4.1174874141168757E-03 a       172     0     7     1    22
 -9.6183559143579511E-02 a       173     0     7     1    23
  1.0908018106749683E-01 a       174     0     7     1    24
 -5.5459479218956638E-03 a       175     0     7     1    25
 -4.6454188524314058E-02 a       176     0     8     1     1
 -5.8607205046880523E-02 a       177     0     8     1     2
 -1.0238383536804188E-01 a       178     0     8     1     3
 -1.2931922590955398E-02 a       179     0     8     1     4
  6.4255281785410054E-02 a       180     0     8     1     5
 -1.7116146498169268E-02 a       181     0     8     1     6
  3.6788341159967541E-02 a       182     0     8     1     7
 -8.5644780002849002E-02 a       183     0     8     1     8
  1.6168597275803295E-01 a       184     0     8     1     9
  5.1258492424374972E-03 a       185     0     8     1    10
  2.5552019719203199E-02 a       186     0     8     1    11
  4.1159927506965149E-02 a       187     0     8     1    12
 -1.0026858844166887E-01 a       188     0     8     1    13
  1.1428231024141669E-01 a       189     0     8     1    14
  2.4917667700585767E-02 a       190     0     8     1    15
 -1.5543851290138145E-02 a       191     0     8     1    16
  4.0207422338249012E-02 a       192     0     8     1    17
  2.3609051432321348E-02 a       193     0     8     1    18
 -7.9089590947497464E-03 a       194     0     8     1    19
 -9.9310006938481590E-02 a       195     0     8     1    20
 -5.0742251937839496E-02 a       196     0     8     1    21
  6.7239294930390520E-02 a       197     0     8     1    22
  9.7778939869476847E-02 a       198     0     8     1    23
 -4.9833801709525283E-02 a       199     0     8     1    24
 -1.5055568804570893E-01 a       200     0     8     1    25
 -4.6726268042499734E-02 a       201     0     9     1     1
  7.1286092290385988E-02 a       202     0     9     1     2
 -8.7893061527357250E-02 a       203     0     9     1     3
 -5.7316522808233891E-02 a       204     0     9     1     4
  1.1003333503807335E-01 a       205     0     9     1     5
  2.9113316537591031E-02 a       206     0     9     1     6
 -4.8377989678259598E-02 a       207     0     9     1     7
 -2.9011079558894249E-02 a       208     0     9     1     8
  1.3271150448034574E-01 a       209     0     9     1     9
  1.1419978047717251E-01 a       210     0     9     1    10
 -3.6216711445160338E-02 a       211     0     9     1    11
 -5.8867224588163930E-02 a       212     0     9     1    12
  8.3541411363379392E-02 a       213     0     9     1    13
  6.6863502800669702E-02 a       214     0     9     1    14
  5.7961786787634785E-02 a       215     0     9     1    15
  9.4416219288610589E-02 a       216     0     9     1    16
 -2.5033652330563913E-02 a       217     0     9     1    17
  1.4639443795648885E-01 a       218     0     9     1    18
 -9.7219503871199806E-02 a       219     0     9     1    19
 -5.6793226912883882E-02 a       220     0     9     1    20
 -4.6873789196047295E-02 a       221     0     9     1    21
 -1.0048593218400484E-01 a       222     0     9     1    22
 -9.0068137968353171E-03 a       223     0     9     1    23
  4.2867853662885813E-02 a       224     0     9     1    24
  4.9750148211999891E-02 a       225     0     9     1    25
 -4.1295963062413517E-02 a       226     0    10     1     1
 -1.4648025041020266E-02 a       227     0    10     1     2
  4.2822885084815479E-02 a       228     0    10     1     3
  1.4083741902131050E-01 a       229     0    10     1     4
  2.3501039481174660E-01 a       230     0    10     1     5
 -7.0827890840295477E-02 a       231     0    10     1     6
  8.1330926457963873E-02 a       232     0    10     1     7
  3.1495479355084510E-02 a       233     0    10     1     8
 -9.4329603467098344E-02 a       234     0    10     1     9
 -1.7013234500749122E-01 a       235     0    10     1    10
  3.9064675697980951E-02 a       236     0    10     1    11
 -1.2894027228267491E-01 a       237     0    10     1    12
 -3.6480979578076352E-03 a       238     0    10     1    13
  1.2783877788274214E-01 a       239     0    10     1    14
  6.7007947123614756E-02 a       240     0    10     1    15
 -7.7241589647355793E-02 a       241     0    10     1    16
  8.0108830326174593E-02 a       242     0    10     1    17
 -7.8806024543243369E-02 a       243     0    10     1    18
  1.2814645370198322E-01 a       244     0    10     1    19
  3.4755639977908960E-02 a       245     0    10     1    20
  3.3195340231751698E-02 a       246     0    10     1    21
 -7.0202335607213770E-02 a       247     0    10     1    22
 -1.0828518885251193E-01 a       248     0    10     1    23
  3.4140919710392396E-02 a       249     0    10     1    24
  3.3327684568314558E-02 a       250     0    10     1    25
  5.0351389840359112E-02 a       251     0    11     1     1
 -1.4701347882507307E-01 a       252     0    11     1     2
  4.2814586291463848E-02 a       253     0    11     1     3
  6.6436870076223675E-02 a       254     0    11     1     4
  3.4999148316663925E-01 a       255     0    11     1     5
  8.1585673990433524E-02 a       256     0    11     1     6
 -1.1227150305302352E-01 a       257     0    11     1     7
  1.0697888310970899E-01 a       258     0    11     1     8
  6.4560425729349821E-02 a       259     0    11     1     9
 -2.7847787546786007E-01 a       260     0    11     1    10
  2.6214994532236146E-02 a       261     0    11     1    11
  1.3974916268647750E-01 a       262     0    11     1    12
  6.9363284020375157E-02 a       263     0    11     1    13
 -1.6028041321981723E-01 a       264     0    11     1    14
 -8.8749391570437486E-02 a       265     0    11     1    15
  1.1169020540934252E-01 a       266     0    11     1    16
  2.0411996065556118E-01 a       267     0    11     1    17
  1.1959197832366940E-01 a       268     0    11     1    18
  2.2860452281423315E-02 a       269     0    11     1    19
  2.2537014913750920E-02 a       270     0    11     1    20
  5.2366434098836200E-02 a       271     0    11     1    21
 -7.9716421577033278E-02 a       272     0    11     1    22
  2.3330488830861990E-01 a       273     0    11     1    23
  1.1734330581984517E-01 a       274     0    11     1    24
  8.7798771228093972E-02 a       275     0    11     1    25
  1.4710123208812159E-01 a       276     0    12     1     1
 -1.1797258410891240E-01 a       277     0    12     1     2
 -9.5032090319497733E-02 a       278     0    12     1     3
  3.1561417148940379E-01 a       279     0    12     1     4
  7.9390396324309540E-02 a       280     0    12     1     5
  7.7050497931300685E-02 a       281     0    12     1     6
  2.0127991547810278E-01 a       282     0    12     1     7
 -2.4897748255038282E-01 a       283     0    12     1     8
 -2.1551337443028468E-01 a       284     0    12     1     9
 -2.8440630670935668E-01 a       285     0    12     1    10
  2.4331604082520861E-01 a       286     0    12     1    11
 -2.2114715825244596E-01 a       287     0    12     1    12
  5.5260544120776724E-02 a       288     0    12     1    13
 -1.1254866556478794E-01 a       289     0    12     1    14
 -5.7573469940453405E-02 a       290     0    12     1    15
 -3.8529611623847458E-02 a       291     0    12     1    16
 -2.4882468979833269E-01 a       292     0    12     1    17
 -9.9517031783797741E-02 a       293     0    12     1    18
  1.1522380351511531E-01 a       294     0    12     1    19
 -2.5986383595316048E-01 a       295     0    12     1    20
 -8.1579745590402181E-02 a       296     0    12     1    21
 -5.0221500093995966E-02 a       297     0    12     1    22
 -2.0699414358654017E-01 a       298     0    12     1    23
  1.4995655773036448E-01 a       299     0    12     1    24
  1.4748707728553864E-01 a       300     0    12     1    25
 -1.0454523283538651E-01 a       301     0    13     1     1
 -5.9964246280103640E-02 a       302     0    13     1     2
 -5.5795019866769137E-02 a       303     0    13     1     3
  2.0672651899042616E-01 a       304     0    13     1     4
  7.7221208112569814E-02 a       305     0    13     1     5
 -8.1323311798640122E-02 a       306     0    13     1     6
 -2.0059100890435846E-01 a       307     0    13     1     7
  2.4336912039172258E-02 a       308     0    13     1     8
  7.5577185526643151E-03 a       309     0    13     1     9
  9.8996940997271007E-02 a       310     0    13     1    10
  1.5534492856485529E-01 a       311     0    13     1    11
  8.3177055964359273E-02 a       312     0    13     1    12
 -2.3668957365522528E-01 a       313     0    13     1    13
 -1.2290689190033838E-02 a       314     0    13     1    14
 -9.3880970525472826E-02 a       315     0    13     1    15
 -1.4163265112518744E-01 a       316     0    13     1    16
  3.0218103412316755E-03 a       317     0    13     1    17
  7.2234845846324697E-02 a       318     0    13     1    18
  2.9250474981741652E-02 a       319     0    13     1    19
 -1.2692709603839819E-01 a       320     0    13     1    20
 -7.5529476917051461E-02 a       321     0    13     1    21
 -2.0875420620567975E-01 a       322     0    13     1    22
 -1.3829147738982969E-01 a       323     0    13     1    23
 -9.1933116976949419E-02 a       324     0    13     1    24
 -1.1789474515023620E-02 a       325     0    13     1    25
 -5.0932490119958408E-02 a       326     0    14     1     1
  1.2438713391341559E-01 a       327     0    14     1     2
  1.1111842798780312E-01 a       328     0    14     1     3
 -2.5099290875621849E-01 a       329     0    14     1     4
 -6.1240392835024332E-02 a       330     0    14     1     5
  1.0072219248055649E-01 a       331     0    14     1     6
 -5.5563244802850131E-02 a       332     0    14     1     7
  1.9506759754666625E-01 a       333     0    14     1     8
 -4.4534435232092995E-02 a       334     0    14     1     9
 -3.9000747170840164E-02 a       335     0    14     1    10
 -1.5678736007814953E-01 a       336     0    14     1    11
  1.3317772409969297E-01 a       337     0    14     1    12
 -1.1564097599424160E-01 a       338     0    14     1    13
  4.3345716434307928E-03 a       339     0    14     1    14
  3.4833482406989726E-02 a       340     0    14     1    15
  6.5785785093607468E-02 a       341     0    14     1    16
  1.6388652336196718E-01 a       342     0    14     1    17
  5.8712576207065312E-02 a       343     0    14     1    18
  7.6515998003737332E-02 a       344     0    14     1    19
  1.9248322536182038E-02 a       345     0    14     1    20
  1.4815508122898016E-01 a       346     0    14     1    21
  5.4379909454083088E-02 a       347     0    14     1    22
 -3.2913038305802146E-02 a       348     0    14     1    23
  3.6863644733824900E-03 a       349     0    14     1    24
 -1.3156698505921671E-01 a       350     0    14     1    25
  2.5108243182792964E-02 a       351     0    15     1     1
  8.1296380144187386E-02 a       352     0    15     1     2
  6.5980036511397036E-03 a       353     0    15     1     3
 -1.2917750944856826E-01 a       354     0    15     1     4
 -6.2420605277849255E-02 a       355     0    15     1     5
  6.7833979062128262E-03 a       356     0    15     1     6
 -5.7389838270039718E-02 a       357     0    15     1     7
  1.5344222888968705E-02 a       358     0    15     1     8
 -9.3403179998178987E-02 a       359     0    15     1     9
 -1.3114662610582362E-01 a       360     0    15     1    10
  2.1485842355391353E-02 a       361     0    15     1    11
 -1.1796032105058150E-03 a       362     0    15     1    12
  6.0081778932468147E-02 a       363     0    15     1    13
  1.1206509919567577E-01 a       364     0    15     1    14
  9.3377113671293518E-02 a       365     0    15     1    15
  1.1586357821755854E-01 a       366     0    15     1    16
  1.1163497355596926E-01 a       367     0    15     1    17
 -1.2507413986016491E-01 a       368     0    15     1    18
  7.7545276246155120E-02 a       369     0    15     1    19
  7.8476448083264108E-02 a       370     0    15     1    20
  7.5861896982817714E-02 a       371     0    15     1    21
 -4.0734496387072570E-02 a       372     0    15     1    22
 -9.1657051597499081E-02 a       373     0    15     1    23
 -9.0622005251252372E-02 a       374     0    15     1    24
 -1.0359732660002238E-01 a       375     0    15     1    25
  6.4542462410811421E-02 a       376     0    16     1     1
  6.9658263195684883E-02 a       377     0    16     1     2
 -1.5635037660573226E-02 a       378     0    16     1     3
  1.6927321893597712E-02 a       379     0    16     1     4
 -5.1574265844136095E-02 a       380     0    16     1     5
 -4.2798198567771898E-03 a       381     0    16     1     6
 -1.2629683373054337E-01 a       382     0    16     1     7
 -8.5871413281178893E-02 a       383     0    16     1     8
 -5.0998547194012138E-02 a       384     0    16     1     9
  8.2126474100267480E-02 a       385     0    16     1    10
  4.8125645500457337E-02 a       386     0    16     1    11
  1.5268799327703697E-01 a       387     0    16     1    12
  3.6588161924332507E-02 a       388     0    16     1    13
  4.3383274813154342E-02 a       389     0    16     1    14
 -9.9829770083462402E-02 a       390     0    16     1    15
  6.7439075776662416E-02 a       391     0    16     1    16
 -3.6663826873336580E-02 a       392     0    16     1    17
 -9.3837280356432795E-02 a       393     0    16     1    18
  5.2859991506928813E-03 a       394     0    16     1    19
  1.1233881429884601E-01 a       395     0    16     1    20
  9.1379774210978218E-02 a       396     0    16     1    21
 -1.9132797165864458E-02 a       397     0    16     1    22
  5.0632812995979022E-05 a       398     0    16     1    23
  9.1389654696166653E-02 a       399     0    16     1    24
 -1.1183030487797330E-01 a       400     0    16     1    25
 -8.1693665793001261E-02 a       401     0    17     1     1
 -4.2835207159363113E-02 a       402     0    17     1     2
 -1.0811883459096756E-01 a       403     0    17     1     3
  2.8840094962551081E-02 a       404     0    17     1     4
 -3.6691254372475918E-02 a       405     0    17     1     5
 -5.7194341473575404E-02 a       406     0    17     1     6
 -1.3139664193206940E-01 a       407     0    17     1     7
 -8.0035973638075235E-03 a       408     0    17     1     8
  3.6107622848391592E-02 a       409     0    17     1     9
  1.0477135636214900E-01 a       410     0    17     1    10
 -3.9607067756379538E-02 a       411     0    17     1    11
 -1.4620909916593133E-01 a       412     0    17     1    12
 -5.3540290575231422E-02 a       413     0    17     1    13
  6.6692890534001376E-02 a       414     0    17     1    14
 -4.2716983919286577E-02 a       415     0    17     1    15
 -4.0365459010596920E-03 a       416     0    17     1    16
 -5.7907091376346302E-02 a       417     0    17     1    17
  1.0437150726308606E-01 a       418     0    17     1    18
 -5.3258568086684256E-02 a       419     0    17     1    19
  5.4872778321885373E-03 a       420     0    17     1    20
 -2.2185289730744743E-02 a       421     0    17     1    21
 -5.0076752852081366E-02 a       422     0    17     1    22
 -8.4045525734565724E-02 a       423     0    17     1    23
 -1.7304178821229092E-02 a       424     0    17     1    24
  3.0598752949264073E-02 a       425     0    17     1    25
  1.4871146132732277E-01 a       426     0    18     1     1
 -2.3610135286770733E-02 a       427     0    18     1     2
 -5.7556130423679311E-02 a       428     0    18     1     3
 -2.7424327229716217E-02 a       429     0    18     1     4
  3.2895979074142274E-02 a       430     0    18     1     5
 -2.1161017580214263E-02 a       431     0    18     1     6
 -6.7150337900441157E-02 a       432     0    18     1     7
  1.0742236652460035E-01 a       433     0    18     1     8
 -1.5525028069093336E-01 a       434     0    18     1     9
  2.5552121438686591E-02 a       435     0    18     1    10
  1.8611521834704544E-02 a       436     0    18     1    11
 -6.8040625930172918E-02 a       437     0    18     1    12
 -7.3007625445914021E-02 a       438     0    18     1    13
 -7.0278426524239435E-02 a       439     0    18     1    14
 -7.0443710802944454E-02 a       440     0    18     1    15
  9.0472217411904227E-02 a       441     0    18     1    16
 -1.2247821107682688E-02 a       442     0    18     1    17
  7.3138015346009347E-02 a       443     0    18     1    18
 -5.5657757149814004E-02 a       444     0    18     1    19
  1.1494381031923937E-02 a       445     0    18     1    20
  1.0626280149892299E-01 a       446     0    18     1    21
 -6.2830268676012380E-02 a       447     0    18     1    22
 -1.5530499803184708E-01 a       448     0    18     1    23
  7.6056090786021352E-02 a       449     0    18     1    24
 -2.8452625018828958E-02 a       450     0    18     1    25
  3.6669977030639345E-02 a       451     0    19     1     1
 -5.1795472361466130E-02 a       452     0    19     1     2
  5.2812080700511660E-02 a       453     0    19     1     3
  2.6530933982247241E-02 a       454     0    19     1     4
  6.2656155323312160E-02 a       455     0    19     1     5
 -1.0083149019876543E-01 a       456     0    19     1     6
  7.5806947205349834E-02 a       457     0    19     1     7
  7.5053594026353088E-02 a       458     0    19     1     8
  2.1887868751919266E-03 a       459     0    19     1     9
 -9.8504208006907984E-02 a       460     0    19     1    10
 -1.7589778379105847E-01 a       461     0    19     1    11
 -1.5025647593955141E-01 a       462     0    19     1    12
  1.7652959052178781E-02 a       463     0    19     1    13
  7.2572865171654399E-02 a       464     0    19     1    14
  8.4892381806178474E-02 a       465     0    19     1    15
  3.4245578043427510E-02 a       466     0    19     1    16
  4.2797500583208969E-02 a       467     0    19     1    17
  5.8602439357928110E-02 a       468     0    19     1    18
 -8.1755803906816360E-02 a       469     0    19     1    19
  6.8134544412592923E-02 a       470     0    19     1    20
  7.5816621104025858E-02 a       471     0    19     1    21
 -3.5624917678811534E-02 a       472     0    19     1    22
 -1.5213095485513733E-01 a       473     0    19     1    23
  2.1575966225147743E-02 a       474     0    19     1    24
 -1.4002889854488454E-01 a       475     0    19     1    25
  1.4375111620003519E-01 a       476     0    20     1     1
  6.9065511735550283E-02 a       477     0    20     1     2
  2.6503626297034687E-02 a       478     0    20     1     3
 -1.3564360111699935E-02 a       479     0    20     1     4
 -2.7829477682935178E-01 a       480     0    20     1     5
  3.0108632106914938E-02 a       481     0    20     1     6
  7.5186897173592183E-03 a       482     0    20     1     7
  1.8491239437262760E-01 a       483     0    20     1     8
 -1.8060260798092423E-01 a       484     0    20     1     9
  1.5558150608165106E-01 a       485     0    20     1    10
 -3.7300404064071341E-01 a       486     0    20     1    11
  9.2617215291613431E-02 a       487     0    20     1    12
  2.6941572203267861E-01 a       488     0    20     1    13
 -4.6545618267053071E-02 a       489     0    20     1    14
  1.0326331856155530E-01 a       490     0    20     1    15
 -1.3475111763707836E-02 a       491     0    20     1    16
 -2.0187720975270808E-02 a       492     0    20     1    17
 -1.6447314414516248E-01 a       493     0    20     1    18
 -8.3499674545223737E-02 a       494     0    20     1    19
 -3.3481998942406457E-02 a       495     0    20     1    20
  7.9073886088000866E-02 a       496     0    20     1    21
  1.5844062083313068E-01 a       497     0    20     1    22
 -1.0885800336894538E-01 a       498     0    20     1    23
 -2.9065628487735341E-02 a       499     0    20     1    24
 -1.4342546097652606E-01 a       500     0    20     1    25
 -4.0544102416044538E-02 a       501     0    21     1     1
 -5.4101288110514976E-02 a       502     0    21     1     2
  6.7618835369690614E-02 a       503     0    21     1     3
 -8.1841892237629332E-02 a       504     0    21     1     4
  5.9254110636088195E-02 a       505     0    21     1     5
 -1.0764443715292037E-01 a       506     0    21     1     6
 -2.1773118421001070E-01 a       507     0    21     1     7
  1.7355599437065597E-01 a       508     0    21     1     8
 -2.5259681405125453E-02 a       509     0    21     1     9
  2.1854843135396884E-01 a       510     0    21     1    10
 -3.4202972103356200E-01 a       511     0    21     1    11
 -9.8515213028119650E-02 a       512     0    21     1    12
  1.6169534176919687E-02 a       513     0    21     1    13
  1.6403243505882997E-01 a       514     0    21     1    14
  1.0790412705346593E-02 a       515     0    21     1    15
  5.8989047372021181E-02 a       516     0    21     1    16
 -1.0589522888755981E-01 a       517     0    21     1    17
  1.2550781361016491E-01 a       518     0    21     1    18
 -1.4350768887735632E-01 a       519     0    21     1    19
  1.2870706927008155E-01 a       520     0    21     1    20
 -1.7629092742971173E-02 a       521     0    21     1    21
 -5.7584967659598120E-02 a       522     0    21     1    22
  1.1205612046272359E-01 a       523     0    21     1    23
  3.8027193578317825E-02 a       524     0    21     1    24
 -7.9698474181888079E-02 a       525     0    21     1    25
  1.7388556451846290E-01 a       526     0    22     1     1
 -1.7384140244877791E-01 a       527     0    22     1     2
  1.4883186647569588E-01 a       528     0    22     1     3
 -2.7342571851751117E-02 a       529     0    22     1     4
  2.1417549523485169E-01 a       530     0    22     1     5
 -5.1119500031692492E-03 a       531     0    22     1     6
 -2.2663082384684244E-02 a       532     0    22     1     7
  1.5955855524958190E-01 a       533     0    22     1     8
  4.4414670049614932E-03 a       534     0    22     1     9
 -1.9994288134455773E-01 a       535     0    22     1    10
 -1.3780316828583378E-01 a       536     0    22     1    11
  2.4105432414048712E-02 a       537     0    22     1    12
  7.7050649630363552E-02 a       538     0    22     1    13
 -6.4601918824686577E-02 a       539     0    22     1    14
  3.7484875814546945E-02 a       540     0    22     1    15
  7.0327731487003553E-02 a       541     0    22     1    16
  3.5948620616169574E-02 a       542     0    22     1    17
 -7.1104274362319864E-02 a       543     0    22     1    18
  6.9254061311178200E-02 a       544     0    22     1    19
  1.2621491765230197E-01 a       545     0    22     1    20
 -6.3113203702117177E-03 a       546     0    22     1    21
  9.6945983179519066E-03 a       547     0    22     1    22
  1.8383920432308104E-01 a       548     0    22     1    23
  5.1961647233809777E-02 a       549     0    22     1    24
  3.2800661426322000E-02 a       550     0    22     1    25
 -8.3080027805134696E-02 a       551     0    23     1     1
  3.9576351909519893E-02 a       552     0    23     1     2
 -1.6814378348922651E-01 a       553     0    23     1     3
  3.9401563464215222E-01 a       554     0    23     1     4
 -2.5718646289886907E-02 a       555     0    23     1     5
  1.7531789643233285E-02 a       556     0    23     1     6
  1.5628897650534831E-01 a       557     0    23     1     7
 -3.0447415653434168E-01 a       558     0    23     1     8
 -1.7539837358244037E-01 a       559     0    23     1     9
 -7.0260366226180565E-02 a       560     0    23     1    10
  4.0993335596500635E-01 a       561     0    23     1    11
 -2.9697245167349329E-01 a       562     0    23     1    12
 -1.1043808881353936E-01 a       563     0    23     1    13
  7.3943931018179879E-02 a       564     0    23     1    14
  1.3370689647863878E-03 a       565     0    23     1    15
 -1.2278812424539778E-01 a       566     0    23     1    16
 -2.1774144908861484E-01 a       567     0    23     1    17
 -9.0334711655378847E-02 a       568     0    23     1    18
  1.5305224229584477E-01 a       569     0    23     1    19
 -1.7133381562585634E-01 a       570     0    23     1    20
 -1.4437113191443635E-01 a       571     0    23     1    21
 -1.0798660030775087E-01 a       572     0    23     1    22
 -1.1257868324884930E-01 a       573     0    23     1    23
  3.0919725138516166E-02 a       574     0    23     1    24
  1.4807108671735528E-01 a       575     0    23     1    25
 -6.7876410433201584E-02 a       576     0    24     1     1
  8.9413772330513633E-02 a       577     0    24     1     2
 -1.4073258216368426E-03 a       578     0    24     1     3
 -7.1528339762961787E-02 a       579     0    24     1     4
  1.2221041289281433E-01 a       580     0    24     1     5
  5.2799873672194207E-02 a       581     0    24     1     6
 -2.4897870369489178E-01 a       582     0    24     1     7
  2.0236193779130274E-01 a       583     0    24     1     8
  6.9098967212464529E-02 a       584     0    24     1     9
  2.1142995550150437E-01 a       585     0    24     1    10
 -1.7566677692973817E-02 a       586     0    24     1    11
  2.1550011414099504E-01 a       587     0    24     1    12
 -7.9605893076557743E-02 a       588     0    24     1    13
 -6.2793501933390533E-02 a       589     0    24     1    14
 -3.0385863325595751E-02 a       590     0    24     1    15
 -1.1258894281950824E-01 a       591     0    24     1    16
  1.6810418607539432E-01 a       592     0    24     1    17
  8.8482455990530284E-02 a       593     0    24     1    18
 -1.4914083888554425E-01 a       594     0    24     1    19
  4.0616861600754624E-02 a       595     0    24     1    20
  1.6870537376440192E-01 a       596     0    24     1    21
  4.7981382480578989E-02 a       597     0    24     1    22
 -1.6756916577920866E-01 a       598     0    24     1    23
 -1.6085608860751718E-01 a       599     0    24     1    24
 -1.5679951111377002E-01 a       600     0    24     1    25
  1.7468259028297357E-02 a       601     0    25     1     1
  6.2135859033347493E-02 a       602     0    25     1     2
 -4.5324994954245711E-02 a       603     0    25     1     3
 -9.1237687945402476E-02 a       604     0    25     1     4
  4.9573838035783281E-02 a       605     0    25     1     5
  1.0227578853063103E-01 a       606     0    25     1     6
 -3.4374424965768334E-02 a       607     0    25     1     7
 -1.3227247649255605E-02 a       608     0    25     1     8
  8.1705077065756720E-02 a       609     0    25     1     9
 -5.8757128676314524E-02 a       610     0    25     1    10
 -1.0229621126699519E-01 a       611     0    25     1    11
 -7.5160021232970877E-03 a       612     0    25     1    12
  1.3492201433429107E-01 a       613     0    25     1    13
 -8.1893304074843423E-02 a       614     0    25     1    14
  1.1791105035805420E-01 a       615     0    25     1    15
 -1.2586853635047587E-01 a       616     0    25     1    16
  7.2011728165285324E-02 a       617     0    25     1    17
 -6.5545394597442208E-03 a       618     0    25     1    18
 -1.0184369384947038E-02 a       619     0    25     1    19
  2.4204593605160578E-05 a       620     0    25     1    20
 -7.1070503620038776E-03 a       621     0    25     1    21
  1.1809012430926116E-01 a       622     0    25     1    22
 -6.7487810057915126E-02 a       623     0    25     1    23
 -7.6035583526517542E-02 a       624     0    25     1    24
 -3.7867802429939292E-02 a       625     0    25     1    25
 -2.3112229066802412E-02 a       626     0    26     1     1
  3.1296884050746272E-02 a       627     0    26     1     2
  2.2333364886083333E-03 a       628     0    26     1     3
 -8.7284131768347983E-02 a       629     0    26     1     4
  6.8724564664764801E-02 a       630     0    26     1     5
 -1.8059757354907103E-02 a       631     0    26     1     6
  4.8129942404790016E-02 a       632     0    26     1     7
 -2.2029307308890040E-02 a       633     0    26     1     8
 -1.3886828083306092E-02 a       634     0    26     1     9
 -1.3720456847360329E-01 a       635     0    26     1    10
 -1.1530965188893871E-01 a       636     0    26     1    11
 -2.2627678217442913E-02 a       637     0    26     1    12
 -4.6014832054061913E-02 a       638     0    26     1    13
  7.8385795492789359E-02 a       639     0    26     1    14
  6.6121533831400403E-02 a       640     0    26     1    15
 -4.5543121603488307E-02 a       641     0    26     1    16
  6.3793114906602666E-02 a       642     0    26     1    17
  4.2989357080960605E-02 a       643     0    26     1    18
  5.5893157297073504E-02 a       644     0    26     1    19
  7.8180874896871727E-02 a       645     0    26     1    20
  1.3675910102512401E-01 a       646     0    26     1    21
  5.2857113914621619E-02 a       647     0    26     1    22
  1.1138962208443608E-01 a       648     0    26     1    23
 -1.2941542853862434E-01 a       649     0    26     1    24
 -1.1004636575794960E-01 a       650     0    26     1    25
  1.2113799341242593E-01 a       651     0    27     1     1
 -1.0001830830762766E-02 a       652     0    27     1     2
 -8.7107001563577327E-02 a       653     0    27     1     3
  4.8885140206938682E-02 a       654     0    27     1     4
 -2.8051672167618252E-02 a       655     0    27     1     5
  2.6238614456713667E-02 a       656     0    27     1     6
 -7.6591775623615438E-02 a       657     0    27     1     7
 -2.3130330787098155E-02 a       658     0    27     1     8
  2.4956327528152911E-02 a       659     0    27     1     9
 -8.6089531366923419E-02 a       660     0    27     1    10
 -7.7880428711579366E-02 a       661     0    27     1    11
  5.8863802621000230E-02 a       662     0    27     1    12
 -2.8538624987082251E-02 a       663     0    27     1    13
  8.3081930742552920E-02 a       664     0    27     1    14
  3.0194928505069017E-02 a       665     0    27     1    15
 -9.0868288528697369E-02 a       666     0    27     1    16
  6.0582939227132489E-02 a       667     0    27     1    17
 -1.1892341826137273E-01 a       668     0    27     1    18
  1.0405993974291647E-01 a       669     0    27     1    19
  1.1510324197325160E-01 a       670     0    27     1    20
  8.5668933732870545E-02 a       671     0    27     1    21
 -7.1190256928063498E-03 a       672     0    27     1    22
  4.0602510856428149E-03 a       673     0    27     1    23
 -1.1659466644768415E-01 a       674     0    27     1    24
 -1.5743178937638755E-01 a       675     0    27     1    25
  6.0876725127542795E-02 a       676     0    28     1     1
 -9.4863214124470879E-02 a       677     0    28     1     2
 -2.8720416412166827E-02 a       678     0    28     1     3
  5.8083447299317338E-02 a       679     0    28     1     4
  8.5616982126126867E-02 a       680     0    28     1     5
  7.3975500358443136E-02 a       681     0    28     1     6
 -7.8090528203736756E-02 a       682     0    28     1     7
  7.0011699619448545E-02 a       683     0    28     1     8
  9.3735916189119431E-02 a       684     0    28     1     9
 -2.9045778261084065E-02 a       685     0    28     1    10
 -2.0670667516978197E-02 a       686     0    28     1    11
 -8.0536507886221440E-03 a       687     0    28     1    12
 -2.1283971404973082E-02 a       688     0    28     1    13
  7.3527367109976677E-02 a       689     0    28     1    14
  5.5907680839674810E-02 a       690     0    28     1    15
 -4.1204019680918857E-02 a       691     0    28     1    16
  3.4470235677918980E-02 a       692     0    28     1    17
 -1.3517553351004796E-02 a       693     0    28     1    18
  7.2837990813081122E-02 a       694     0    28     1    19
  9.8431352739497921E-02 a       695     0    28     1    20
  1.1062984293077115E-01 a       696     0    28     1    21
 -9.4408696801115462E-03 a       697     0    28     1    22
 -2.8007625600764269E-02 a       698     0    28     1    23
  9.1659632402627533E-02 a       699     0    28     1    24
 -1.3318715909747012E-02 a       700     0    28     1    25
 -1.4451804364821518E-03 a       701     0    29     1     1
  7.1914834768453006E-02 a       702     0    29     1     2
 -8.7205502843418548E-02 a       703     0    29     1     3
 -3.3553886615757395E-02 a       704     0    29     1     4
  8.3867220285593954E-03 a       705     0    29     1     5
 -2.0712584691343502E-03 a       706     0    29     1     6
  1.0509902969599152E-01 a       707     0    29     1     7
  5.5656330050396940E-02 a       708     0    29     1     8
  1.5102023073235021E-02 a       709     0    29     1     9
  1.3195483778308340E-01 a       710     0    29     1    10
  7.6057285395624841E-02 a       711     0    29     1    11
  5.2593720811957845E-02 a       712     0    29     1    12
 -1.3053657028092630E-01 a       713     0    29     1    13
 -4.4398348267314119E-02 a       714     0    29     1    14
 -4.7658975420095069E-02 a       715     0    29     1    15
  6.8701031290038628E-02 a       716     0    29     1    16
  1.1659977772546364E-01 a       717     0    29     1    17
 -1.0683534684000007E-01 a       718     0    29     1    18
  8.2831081528172965E-02 a       719     0    29     1    19
  7.2633220603259246E-02 a       720     0    29     1    20
  1.0949299555077832E-01 a       721     0    29     1    21
 -7.7344291725361183E-02 a       722     0    29     1    22
  8.4935561822320309E-03 a       723     0    29     1    23
 -5.1328398138182900E-02 a       724     0    29     1    24
 -8.1746626187149674E-02 a       725     0    29     1    25
 -3.2070715054560314E-02 a       726     0    30     1     1
  4.9148784083674515E-04 a       727     0    30     1     2
 -5.2224042451183651E-02 a       728     0    30     1     3
  8.0036255821634664E-02 a       729     0    30     1     4
 -9.1996025297688466E-02 a       730     0    30     1     5
 -3.6883704990903404E-02 a       731     0    30     1     6
 -8.8442698067320552E-02 a       732     0    30     1     7
  5.4156394971615271E-02 a       733     0    30     1     8
  5.0244953208128960E-02 a       734     0    30     1     9
  1.0888962579694775E-01 a       735     0    30     1    10
  6.0465855280524942E-02 a       736     0    30     1    11
 -8.0289897909825991E-02 a       737     0    30     1    12
 -1.1243828283755117E-01 a       738     0    30     1    13
  4.8587751886418624E-02 a       739     0    30     1    14
  5.0666543442888963E-02 a       740     0    30     1    15
  7.6000079653505928E-02 a       741     0    30     1    16
 -4.5194811521127240E-03 a       742     0    30     1    17
  1.2657599356092072E-01 a       743     0    30     1    18
  5.8137771679586933E-02 a       744     0    30     1    19
 -2.4100534006351405E-02 a       745     0    30     1    20
  3.9629006435255659E-02 a       746     0    30     1    21
  3.8013606035004630E-02 a       747     0    30     1    22
  5.1240015295383884E-02 a       748     0    30     1    23
  4.4234443714797483E-02 a       749     0    30     1    24
 -9.6250306361292448E-02 a       750     0    30     1    25
  2.2372507478688158E-02 a       751     0    31     1     1
 -2.9880087739182458E-02 a       752     0    31     1     2
  6.2201213185359872E-02 a       753     0    31     1     3
  6.1039421156823606E-02 a       754     0    31     1     4
 -8.0176360693466855E-02 a       755     0    31     1     5
 -9.9959311761513417E-02 a       756     0    31     1     6
  5.2022083757315589E-02 a       757     0    31     1     7
 -6.8611703818849901E-02 a       758     0    31     1     8
  3.7620399373213355E-02 a       759     0    31     1     9
 -5.3422633260813951E-02 a       760     0    31     1    10
 -7.0446234407899794E-02 a       761     0    31     1    11
 -6.5345957229113696E-02 a       762     0    31     1    12
 -4.3460787675840030E-02 a       763     0    31     1    13
 -2.9741282943148996E-03 a       764     0    31     1    14
 -7.3292046654066384E-02 a       765     0    31     1    15
 -6.5107273049756609E-02 a       766     0    31     1    16
  3.5421230965275823E-02 a       767     0    31     1    17
 -8.1588585836208080E-02 a       768     0    31     1    18
 -6.5780792582755543E-02 a       769     0    31     1    19
  5.3038362622912338E-02 a       770     0    31     1    20
  6.2423660496861336E-02 a       771     0    31     1    21
 -4.0896731566945191E-02 a       772     0    31     1    22
  7.4430834478481867E-02 a       773     0    31     1    23
 -3.7788267399824826E-02 a       774     0    31     1    24
  1.9771639977874910E-02 a       775     0    31     1    25
 -4.7732361379654781E-02 a       776     0    32     1     1
 -9.0337650420418622E-02 a       777     0    32     1     2
 -1.0710968675750240E-01 a       778     0    32     1     3
  3.3529459051401825E-02 a       779     0    32     1     4
 -2.9580663253322499E-03 a       780     0    32     1     5
  4.5134749130614521E-02 a       781     0    32     1     6
  5.0178012561569981E-03 a       782     0    32     1     7
 -1.2525468040010751E-01 a       783     0    32     1     8
 -3.4933276050259032E-02 a       784     0    32     1     9
 -1.2149747903960761E-01 a       785     0    32     1    10
 -4.4312223749143807E-02 a       786     0    32     1    11
 -1.2647950450844692E-01 a       787     0    32     1    12
  1.3242233770701900E-01 a       788     0    32     1    13
  1.1335020187341112E-01 a       789     0    32     1    14
  1.2876308859587213E-01 a       790     0    32     1    15
 -6.4541975126137987E-03 a       791     0    32     1    16
 -7.7009474145662199E-02 a       792     0    32     1    17
 -1.2086120696581110E-01 a       793     0    32     1    18
 -3.3982860586613879E-02 a       794     0    32     1    19
 -2.7474262580942519E-02 a       795     0    32     1    20
 -5.0454613456604493E-02 a       796     0    32     1    21
  1.0824343466977500E-01 a       797     0    32     1    22
  4.6389744125927890E-02 a       798     0    32     1    23
  1.4678046701003764E-02 a       799     0    32     1    24
  4.9360405187553790E-03 a       800     0    32     1    25
 -6.4566705759030757E-02 a       801     0    33     1     1
  6.8566615532382443E-03 a       802     0    33     1     2
  4.4028598528794594E-02 a       803     0    33     1     3
  8.3734491650746257E-02 a       804     0    33     1     4
 -1.4975088958307532E-02 a       805     0    33     1     5
 -3.9498145740162541E-02 a       806     0    33     1     6
  6.0328584993516003E-02 a       807     0    33     1     7
 -3.9648115825890118E-02 a       808     0    33     1     8
 -8.5459880966532550E-02 a       809     0    33     1     9
  1.4878368320717017E-01 a       810     0    33     1    10
 -6.3849713119617235E-02 a       811     0    33     1    11
  1.5841138610234104E-01 a       812     0    33     1    12
 -7.6144275728982483E-02 a       813     0    33     1    13
 -7.6985130681760980E-02 a       814     0    33     1    14
  8.7082191142630813E-03 a       815     0    33     1    15
  4.6885425447317941E-02 a       816     0    33     1    16
  1.2944542672596393E-01 a       817     0    33     1    17
 -5.3550014073478328E-02 a       818     0    33     1    18
  3.3947041866308605E-02 a       819     0    33     1    19
  8.8328061592628598E-02 a       820     0    33     1    20
  7.0190314380631016E-02 a       821     0    33     1    21
  1.8409434153686916E-02 a       822     0    33     1    22
 -5.8863288172161930E-02 a       823     0    33     1    23
 -8.4391964434172864E-02 a       824     0    33     1    24
 -2.4584754285243288E-03 a       825     0    33     1    25
  1.0497280033344571E-01 a       826     0    34     1     1
 -2.7182658980695180E-02 a       827     0    34     1     2
 -8.9573938332696362E-02 a       828     0    34     1     3
  7.2620078944453118E-02 a       829     0    34     1     4
 -7.5730839894001270E-02 a       830     0    34     1     5
 -4.9438013299815668E-02 a       831     0    34     1     6
  2.3940727725520947E-02 a       832     0    34     1     7
 -1.7085851191395475E-02 a       833     0    34     1     8
  5.9533553760167376E-02 a       834     0    34     1     9
  1.3170218601875006E-01 a       835     0    34     1    10
 -1.3859142353764675E-01 a       836     0    34     1    11
  4.8139241963923107E-02 a       837     0    34     1    12
  2.9144358144997932E-02 a       838     0    34     1    13
 -7.0606387006180049E-02 a       839     0    34     1    14
  7.8030820586512506E-02 a       840     0    34     1    15
 -8.7249205360696247E-02 a       841     0    34     1    16
 -6.9052469611005141E-02 a       842     0    34     1    17
 -1.0132499285565158E-01 a       843     0    34     1    18
  4.4879968009797273E-02 a       844     0    34     1    19
  1.3975871325707455E-02 a       845     0    34     1    20
  1.8412285030096710E-02 a       846     0    34     1    21
  5.2532023096094546E-03 a       847     0    34     1    22
  6.8897463736753262E-02 a       848     0    34     1    23
  1.6179499788473089E-02 a       849     0    34     1    24
  4.2438534429493349E-04 a       850     0    34     1    25
  1.0186213337951217E-01 a       851     0    35     1     1
  1.9104986064476345E-02 a       852     0    35     1     2
 -7.3720732482203807E-03 a       853     0    35     1     3
  7.8887741113057908E-02 a       854     0    35     1     4
  1.0325049921198609E-01 a       855     0    35     1     5
  9.8504935992868678E-02 a       856     0    35     1     6
 -3.3381547604744780E-02 a       857     0    35     1     7
  4.3720541876910414E-02 a       858     0    35     1     8
 -2.1562639757842471E-02 a       859     0    35     1     9
  1.0724495054737870E-04 a       860     0    35     1    10
 -5.0289195061845107E-02 a       861     0    35     1    11
 -6.2191211775403189E-02 a       862     0    35     1    12
 -6.9908372749768804E-03 a       863     0    35     1    13
  3.2782525771331658E-02 a       864     0    35     1    14
  1.0694080304156504E-01 a       865     0    35     1    15
 -5.8041983836246376E-02 a       866     0    35     1    16
 -2.9776564511864802E-02 a       867     0    35     1    17
 -8.9185734420638291E-02 a       868     0    35     1    18
 -3.3878422349131875E-02 a       869     0    35     1    19
  2.7799361074317470E-02 a       870     0    35     1    20
  4.5198433420083894E-02 a       871     0    35     1    21
 -1.8834562953414638E-02 a       872     0    35     1    22
 -6.7933013799622355E-02 a       873     0    35     1    23
  3.3672944786104199E-02 a       874     0    35     1    24
 -1.0744774684669985E-01 a       875     0    35     1    25
  4.0440438104281551E-02 a       876     0    36     1     1
 -2.4087569375545671E-02 a       877     0    36     1     2
 -6.7714882601198054E-02 a       878     0    36     1     3
  1.0142590739534378E-01 a       879     0    36     1     4
  2.0585280300951265E-02 a       880     0    36     1     5
  9.5648642633335001E-03 a       881     0    36     1     6
 -3.5721560062656948E-02 a       882     0    36     1     7
  2.7687311354389555E-02 a       883     0    36     1     8
  3.7122323992650891E-02 a       884     0    36     1     9
  1.3745908805149967E-01 a       885     0    36     1    10
 -7.1910060736685585E-02 a       886     0    36     1    11
  5.0380327950953714E-02 a       887     0    36     1    12
 -7.5948818010347335E-02 a       888     0    36     1    13
  1.6708383568556237E-02 a       889     0    36     1    14
 -7.6368802206208605E-02 a       890     0    36     1    15
 -4.3396453787970315E-02 a       891     0    36     1    16
  8.1097525774504312E-02 a       892     0    36     1    17
 -1.1628724192517477E-01 a       893     0    36     1    18
 -5.1740383147416739E-02 a       894     0    36     1    19
 -2.4623783187556703E-02 a       895     0    36     1    20
  1.0294791099059881E-01 a       896     0    36     1    21
 -5.6717022569853941E-02 a       897     0    36     1    22
  1.2128935491531088E-01 a       898     0    36     1    23
  5.1376219363154507E-03 a       899     0    36     1    24
 -1.9434353342282783E-02 a       900     0    36     1    25
 -7.6836148149021594E-02 a       901     0    37     1     1
 -9.3637379720739378E-02 a       902     0    37     1     2
  1.1710546434093463E-01 a       903     0    37     1     3
 -7.4639837774227377E-02 a       904     0    37     1     4
 -9.7477627584121290E-02 a       905     0    37     1     5
  8.7434936890214573E-02 a       906     0    37     1     6
  4.1439590830487122E-02 a       907     0    37     1     7
  6.3635516416434931E-02 a       908     0    37     1     8
  1.0615478131499208E-01 a       909     0    37     1     9
  5.2335346521007096E-02 a       910     0    37     1    10
 -7.9322378687145395E-02 a       911     0    37     1    11
 -9.3858451870662038E-02 a       912     0    37     1    12
  3.9430012564081733E-02 a       913     0    37     1    13
  5.9944414578508069E-02 a       914     0    37     1    14
  3.6161572822477782E-03 a       915     0    37     1    15
  6.8377811614573056E-02 a       916     0    37     1    16
 -4.1746536025679314E-02 a       917     0    37     1    17
 -1.4193471265153516E-03 a       918     0    37     1    18
  6.1870890255205702E-02 a       919     0    37     1    19
 -1.4581354288852119E-01 a       920     0    37     1    20
 -9.1729310073068962E-02 a       921     0    37     1    21
  1.6998860660197838E-02 a       922     0    37     1    22
  3.2347420794632625E-02 a       923     0    37     1    23
 -1.1152585540519067E-01 a       924     0    37     1    24
  3.2229661987137823E-02 a       925     0    37     1    25
  8.3086524172302695E-02 a       926     0    38     1     1
 -5.6781541746475220E-02 a       927     0    38     1     2
  8.7200684918466304E-02 a       928     0    38     1     3
  6.3593612649415626E-02 a       929     0    38     1     4
  3.5450744696727057E-02 a       930     0    38     1     5
  3.1284976644487539E-03 a       931     0    38     1     6
  1.0156129313565378E-01 a       932     0    38     1     7
  3.7121862863236293E-02 a       933     0    38     1     8
 -7.2046162444601644E-03 a       934     0    38     1     9
 -7.8156944408557014E-02 a       935     0    38     1    10
 -8.5911133744628568E-02 a       936     0    38     1    11
  3.0138243329220014E-02 a       937     0    38     1    12
 -4.7504266813756003E-02 a       938     0    38     1    13
  5.6150757736139714E-02 a       939     0    38     1    14
 -6.7632914499094754E-02 a       940     0    38     1    15
 -4.4232684768364498E-02 a       941     0    38     1    16
 -4.3065017155096801E-03 a       942     0    38     1    17
  5.0923146540516814E-02 a       943     0    38     1    18
 -5.6699573772735018E-02 a       944     0    38     1    19
 -1.7700469142813900E-02 a       945     0    38     1    20
 -9.6267302543472030E-02 a       946     0    38     1    21
  9.2490449131283195E-02 a       947     0    38     1    22
  2.4599008124850601E-02 a       948     0    38     1    23
 -1.6961755365128825E-02 a       949     0    38     1    24
  1.1083433220466059E-03 a       950     0    38     1    25
  3.7383723511453269E-02 a       951     0    39     1     1
 -8.0326490011565915E-03 a       952     0    39     1     2
  8.8820301814382302E-02 a       953     0    39     1     3
 -9.7704916275810544E-02 a       954     0    39     1     4
 -3.8888704616789831E-02 a       955     0    39     1     5
  6.4695456178650940E-02 a       956     0    39     1     6
  5.9682749170358401E-02 a       957     0    39     1     7
  1.5565797779046694E-02 a       958     0    39     1     8
 -1.4750716501987371E-01 a       959     0    39     1     9
  1.2134615966624329E-01 a       960     0    39     1    10
 -8.7830099611544254E-02 a       961     0    39     1    11
  7.9843873951534541E-02 a       962     0    39     1    12
  4.8443143759844723E-02 a       963     0    39     1    13
 -4.0154450682410185E-02 a       964     0    39     1    14
  1.8893525590377012E-02 a       965     0    39     1    15
 -6.1555766419449598E-02 a       966     0    39     1    16
  9.8716780254880551E-02 a       967     0    39     1    17
  4.1526541908820408E-02 a       968     0    39     1    18
 -8.9213706330212958E-02 a       969     0    39     1    19
 -1.2750326936112628E-02 a       970     0    39     1    20
  8.6261916665157853E-02 a       971     0    39     1    21
  6.8662283270530200E-02 a       972     0    39     1    22
 -6.6545018678708198E-02 a       973     0    39     1    23
 -1.8565725857615904E-02 a       974     0    39     1    24
 -5.1748257267084583E-02 a       975     0    39     1    25
 -6.3392295282259578E-02 a       976     0    40     1     1
 -2.5040405218312188E-03 a       977     0    40     1     2
  1.0519205841562113E-01 a       978     0    40     1     3
 -1.8474696060646785E-03 a       979     0    40     1     4
  5.5488743722898297E-02 a       980     0    40     1     5
  1.3799375361659623E-02 a       981     0    40     1     6
  4.6567568410980252E-03 a       982     0    40     1     7
 -1.4079659180970830E-01 a       983     0    40     1     8
  1.5089952887689445E-01 a       984     0    40     1     9
 -9.9257662808417010E-02 a       985     0    40     1    10
 -5.4557111299382670E-02 a       986     0    40     1    11
 -1.5651073097996268E-01 a       987     0    40     1    12
  8.8036834778305057E-03 a       988     0    40     1    13
  1.3080352097896197E-01 a       989     0    40     1    14
 -9.6078969651764476E-02 a       990     0    40     1    15
 -2.5185813059349464E-02 a       991     0    40     1    16
 -3.5850359975689264E-02 a       992     0    40     1    17
 -1.6793246601399241E-02 a       993     0    40     1    18
 -8.0797782612445759E-02 a       994     0    40     1    19
 -1.2425480065470663E-01 a       995     0    40     1    20
  1.4457185347068052E-02 a       996     0    40     1    21
  2.0870092226268039E-02 a       997     0    40     1    22
  4.7774868340995418E-02 a       998     0    40     1    23
  9.0956228259530918E-03 a       999     0    40     1    24
 -2.7219610545436382E-02 a      1000     0    40     1    25
  3.3277471584182462E-02 a      1001     0    41     1     1
  7.7529935616382745E-02 a      1002     0    41     1     2
 -5.5488473860593399E-02 a      1003     0    41     1     3
 -8.5122941325693424E-02 a      1004     0    41     1     4
 -1.4191689471775987E-02 a      1005     0    41     1     5
 -1.1707485092804777E-01 a      1006     0    41     1     6
 -6.5355501805690566E-02 a      1007     0    41     1     7
  1.1370397613994457E-02 a      1008     0    41     1     8
  5.3544211158722425E-02 a      1009     0    41     1     9
 -1.5873833774136957E-03 a      1010     0    41     1    10
 -8.4083092713813836E-03 a      1011     0    41     1    11
 -1.4713296428506470E-01 a      1012     0    41     1    12
  3.4481344901982264E-02 a      1013     0    41     1    13
  2.1833816858208031E-02 a      1014     0    41     1    14
 -4.8876456209321899E-02 a      1015     0    41     1    15
  1.4747917539730332E-01 a      1016     0    41     1    16
  1.9989363447565155E-02 a      1017     0    41     1    17
  1.1587584896915119E-01 a      1018     0    41     1    18
 -9.2800679198800209E-02 a      1019     0    41     1    19
 -1.1070216620902271E-02 a      1020     0    41     1    20
 -8.2014852598675914E-02 a      1021     0    41     1    21
 -4.4450998037874070E-02 a      1022     0    41     1    22
 -4.3735712866163373E-02 a      1023     0    41     1    23
 -8.8475039698537622E-02 a      1024     0    41     1    24
  4.9068648342798768E-02 a      1025     0    41     1    25
 -8.5439283488197432E-02 a      1026     0    42     1     1
 -4.1190017823948256E-04 a      1027     0    42     1     2
  2.8938170923990002E-02 a      1028     0    42     1     3
 -9.8292637897834434E-02 a      1029     0    42     1     4
  1.1283173871272106E-01 a      1030     0    42     1     5
  5.0470953571625815E-02 a      1031     0    42     1     6
  1.1519236442815511E-01 a      1032     0    42     1     7
  2.1525324630297547E-03 a      1033     0    42     1     8
 -9.2654941471535506E-03 a      1034     0    42     1     9
  2.0265205746774401E-02 a      1035     0    42     1    10
 -1.3623986893483581E-01 a      1036     0    42     1    11
  1.1318917401227660E-01 a      1037     0    42     1    12
  1.5824706397581597E-02 a      1038     0    42     1    13
  8.3910220703616062E-02 a      1039     0    42     1    14
  9.4378180148115470E-02 a      1040     0    42     1    15
 -4.8402360646480048E-02 a      1041     0    42     1    16
  9.4269186173106534E-02 a      1042     0    42     1    17
  4.5764392208727696E-02 a      1043     0    42     1    18
 -9.6406752513269023E-02 a      1044     0    42     1    19
 -2.0481048277302097E-03 a      1045     0    42     1    20
 -4.1207856843606103E-02 a      1046     0    42     1    21
 -3.4691615791745213E-02 a      1047     0    42     1    22
 -6.9205203645258499E-03 a      1048     0    42     1    23
 -1.1398406004966723E-01 a      1049     0    42     1    24
 -5.2841218768613085E-03 a      1050     0    42     1    25
  5.0302335748319878E-03 a      1051     0    43     1     1
  9.0189703048626751E-02 a      1052     0    43     1     2
  2.9940103086648077E-02 a      1053     0    43     1     3
 -6.1509597580697947E-02 a      1054     0    43     1     4
  1.1430577897015982E-01 a      1055     0    43     1     5
 -1.1338028058648335E-01 a      1056     0    43     1     6
 -6.7852949553367625E-02 a      1057     0    43     1     7
 -1.5401889764710047E-01 a      1058     0    43     1     8
  1.1399621512500431E-01 a      1059     0    43     1     9
 -1.1853551616248061E-01 a      1060     0    43     1    10
  8.2167336838355157E-02 a      1061     0    43     1    11
 -3.7398639512681332E-02 a      1062     0    43     1    12
  1.2714117111596923E-01 a      1063     0    43     1    13
  1.4806550023295356E-01 a      1064     0    43     1    14
  2.9270650460613314E-02 a      1065     0    43     1    15
  1.0872012411747640E-01 a      1066     0    43     1    16
 -1.0618903095748629E-01 a      1067     0    43     1    17
  8.6390233218133675E-02 a      1068     0    43     1    18
  8.6643545969380911E-02 a      1069     0    43     1    19
  2.5131797819585355E-02 a      1070     0    43     1    20
  5.5551770682627191E-02 a      1071     0    43     1    21
 -7.9476160027307105E-02 a      1072     0    43     1    22
  7.8858685338347251E-02 a      1073     0    43     1    23
  2.7991323886465507E-02 a      1074     0    43     1    24
  3.2382851290381577E-02 a      1075     0    43     1    25
 -6.9592831848845932E-02 a      1076     0    44     1     1
 -6.0997078428962043E-02 a      1077     0    44     1     2
  9.5481959501377486E-02 a      1078     0    44     1     3
  4.7858644430669443E-02 a      1079     0    44     1     4
  2.8297698944815767E-02 a      1080     0    44     1     5
 -9.4809110916423842E-02 a      1081     0    44     1     6
 -1.0824622169827981E-02 a      1082     0    44     1     7
 -8.0645784814225130E-02 a      1083     0    44     1     8
  1.3374084476515582E-03 a      1084     0    44     1     9
 -1.2354788841777821E-03 a      1085     0    44     1    10
  5.6986365625486285E-02 a      1086     0    44     1    11
  7.4215846814536482E-02 a      1087     0    44     1    12
  7.2971433130387189E-02 a      1088     0    44     1    13
  3.5077977991382889E-02 a      1089     0    44     1    14
  1.0794952081854955E-01 a      1090     0    44     1    15
  7.6040074541528779E-02 a      1091     0    44     1    16
 -8.0392949059087032E-02 a      1092     0    44     1    17
 -1.0707246358168632E-01 a      1093     0    44     1    18
  7.1669576555701400E-02 a      1094     0    44     1    19
  3.3121418641819195E-02 a      1095     0    44     1    20
 -7.9560791910697091E-04 a      1096     0    44     1    21
  1.0389667574938220E-01 a      1097     0    44     1    22
  1.4328793477317073E-01 a      1098     0    44     1    23
 -6.7044645290954288E-02 a      1099     0    44     1    24
 -3.5591159945787425E-02 a      1100     0    44     1    25
 -1.0447459053008949E-02 a      1101     0    45     1     1
 -9.6678002793314427E-02 a      1102     0    45     1     2
 -2.1894307674212150E-02 a      1103     0    45     1     3
 -6.9187803183106550E-02 a      1104     0    45     1     4
 -4.5138759757667180E-03 a      1105     0    45     1     5
  7.4896107018966110E-02 a      1106     0    45     1     6
  2.4335175678374839E-02 a      1107     0    45     1     7
 -1.4191383656385481E-01 a      1108     0    45     1     8
  4.4445855481969450E-02 a      1109     0    45     1     9
 -8.0508950889166084E-02 a      1110     0    45     1    10
  1.1937918820851272E-01 a      1111     0    45     1    11
 -1.7017714464831846E-01 a      1112     0    45     1    12
  7.2673707513563585E-02 a      1113     0    45     1    13
  5.8150834976669175E-02 a      1114     0    45     1    14
 -5.1442714356203324E-02 a      1115     0    45     1    15
  1.3931654656913262E-02 a      1116     0    45     1    16
 -1.7531075164531701E-01 a      1117     0    45     1    17
 -5.7866514455440318E-02 a      1118     0    45     1    18
 -8.4456266334550792E-02 a      1119     0    45     1    19
 -4.4373094065851090E-02 a      1120     0    45     1    20
 -6.3074477101209656E-02 a      1121     0    45     1    21
  4.0894942184058009E-02 a      1122     0    45     1    22
  3.1179696008280654E-02 a      1123     0    45     1    23
 -1.8237091491252168E-02 a      1124     0    45     1    24
 -9.4136349887211562E-02 a      1125     0    45     1    25
 -4.4921249229779955E-02 a      1126     0    46     1     1
 -4.7256128690934797E-02 a      1127     0    46     1     2
  9.8032891654319124E-02 a      1128     0    46     1     3
 -5.1528767294346335E-02 a      1129     0    46     1     4
  4.8038157780477708E-02 a      1130     0    46     1     5
  1.6145059087364983E-02 a      1131     0    46     1     6
  5.7578362366607981E-02 a      1132     0    46     1     7
 -1.3786845555382593E-01 a      1133     0    46     1     8
  5.4257642862174944E-02 a      1134     0    46     1     9
 -7.0037438906265070E-02 a      1135     0    46     1    10
  3.3110064689198200E-02 a      1136     0    46     1    11
 -1.0671692425141931E-01 a      1137     0    46     1    12
  7.9078913082093402E-02 a      1138     0    46     1    13
 -3.6643183474334901E-02 a      1139     0    46     1    14
 -1.2451395916964378E-02 a      1140     0    46     1    15
 -1.8664959822577928E-02 a      1141     0    46     1    16
 -1.2733907176924664E-01 a      1142     0    46     1    17
  8.7794613091623286E-02 a      1143     0    46     1    18
 -9.3592494435043069E-02 a      1144     0    46     1    19
 -1.0212991263917467E-01 a      1145     0    46     1    20
 -6.7404581643820197E-02 a      1146     0    46     1    21
  7.1222427308908556E-02 a      1147     0    46     1    22
  1.2193056841724138E-01 a      1148     0    46     1    23
 -1.0454923529203015E-01 a      1149     0    46     1    24
  5.9483212509822324E-02 a      1150     0    46     1    25
  7.2658809695088686E-02 a      1151     0    47     1     1
 -4.6462891903808465E-02 a      1152     0    47     1     2
 -4.0609168867926322E-02 a      1153     0    47     1     3
  1.6708540529995989E-02 a      1154     0    47     1     4
 -4.2148346674019625E-04 a      1155     0    47     1     5
  7.1092111850896686E-02 a      1156     0    47     1     6
  6.9843837334986975E-02 a      1157     0    47     1     7
 -9.3185856457065744E-02 a      1158     0    47     1     8
 -5.6832333780808278E-02 a      1159     0    47     1     9
 -8.3037021311864315E-02 a      1160     0    47     1    10
 -4.0438911508563727E-02 a      1161     0    47     1    11
 -4.7399602616505401E-02 a      1162     0    47     1    12
  1.0923396749913589E-01 a      1163     0    47     1    13
  5.0970989478529988E-02 a      1164     0    47     1    14
 -9.4799621427317876E-02 a      1165     0    47     1    15
  1.4693695393613856E-01 a      1166     0    47     1    16
 -3.3347105202546246E-02 a      1167     0    47     1    17
  6.2154040478205962E-02 a      1168     0    47     1    18
 -3.5958860681693128E-02 a      1169     0    47     1    19
  3.8001326859164783E-02 a      1170     0    47     1    20
 -1.2377110504289568E-01 a      1171     0    47     1    21
 -9.1727097970384752E-02 a      1172     0    47     1    22
  3.8024971243193824E-02 a      1173     0    47     1    23
  9.5213859374584479E-03 a      1174     0    47     1    24
  5.7827554002623086E-02 a      1175     0    47     1    25
  8.9500102849290608E-02 a      1176     0    48     1     1
  4.3559663844208563E-02 a      1177     0    48     1     2
  2.4726571318361000E-02 a      1178     0    48     1     3
  3.2791726992771775E-02 a      1179     0    48     1     4
  1.3942635464417688E-01 a      1180     0    48     1     5
 -4.7069874357430992E-02 a      1181     0    48     1     6
  9.2261512718751465E-02 a      1182     0    48     1     7
  5.3840697978573486E-02 a      1183     0    48     1     8
  9.2646367526949519E-02 a      1184     0    48     1     9
  1.1251163624026013E-01 a      1185     0    48     1    10
  6.6119365743219111E-02 a      1186     0    48     1    11
 -2.0134442096712027E-01 a      1187     0    48     1    12
 -9.7620853835634347E-02 a      1188     0    48     1    13
 -3.4490839288803643E-02 a      1189     0    48     1    14
 -2.9727427381391516E-02 a      1190     0    48     1    15
  9.6672994939213469E-02 a      1191     0    48     1    16
 -3.8033802121807264E-02 a      1192     0    48     1    17
 -1.9208696648102173E-02 a      1193     0    48     1    18
 -1.1630513923066306E-02 a      1194     0    48     1    19
 -6.4448033435778623E-02 a      1195     0    48     1    20
 -1.3040853487816831E-01 a      1196     0    48     1    21
 -6.1046295936311133E-02 a      1197     0    48     1    22
  1.0979382473913013E-01 a      1198     0    48     1    23
 -6.8415942326207915E-02 a      1199     0    48     1    24
  2.4610294256845196E-02 a      1200     0    48     1    25
 -7.8541749743680403E-02 a      1201     0    49     1     1
  1.9198977750160020E-02 a      1202     0    49     1     2
 -5.1532548377907016E-02 a      1203     0    49     1     3
  7.0790285593891250E-02 a      1204     0    49     1     4
  7.9014059636524941E-02 a      1205     0    49     1     5
 -1.1771400041172585E-01 a      1206     0    49     1     6
 -6.4561344424315478E-02 a      1207     0    49     1     7
  6.6737263805745448E-02 a      1208     0    49     1     8
 -7.8328442652853738E-03 a      1209     0    49     1     9
  1.4692429199669516E-01 a      1210     0    49     1    10
  3.0101504307807021E-02 a      1211     0    49     1    11
 -3.0112026145419340E-03 a      1212     0    49     1    12
  5.6935840887797256E-03 a      1213     0    49     1    13
  3.8760650916666028E-02 a      1214     0    49     1    14
  8.5452814786235370E-02 a      1215     0    49     1    15
  1.0978498012350067E-02 a      1216     0    49     1    16
 -6.2929093082182905E-02 a      1217     0    49     1    17
 -6.7734006672345373E-02 a      1218     0    49     1    18
 -7.2138112432637444E-02 a      1219     0    49     1    19
  1.8237792587711205E-02 a      1220     0    49     1    20
  6.8973607696320979E-02 a      1221     0    49     1    21
 -4.0352457137161082E-02 a      1222     0    49     1    22
  4.4157780986120582E-02 a      1223     0    49     1    23
 -1.0237325227103483E-01 a      1224     0    49     1    24
 -1.3681970107504970E-01 a      1225     0    49     1    25
  4.4896692132721766E-02 a      1226     0    50     1     1
 -1.2621587356426958E-01 a      1227     0    50     1     2
 -3.0363384141155879E-02 a      1228     0    50     1     3
  1.1313276013069827E-01 a      1229     0    50     1     4
  7.0723836349818964E-02 a      1230     0    50     1     5
 -4.2949933568558953E-02 a      1231     0    50     1     6
 -6.4427195314224917E-02 a      1232     0    50     1     7
 -4.0252714109154939E-03 a      1233     0    50     1     8
  1.6682468055105090E-02 a      1234     0    50     1     9
 -8.3693147592281789E-02 a      1235     0    50     1    10
 -1.9789080161518716E-02 a      1236     0    50     1    11
  4.5055761359624448E-02 a      1237     0    50     1    12
 -9.3526640137352277E-02 a      1238     0    50     1    13
  8.0648185324158364E-02 a      1239     0    50     1    14
  6.6287793938732256E-02 a      1240     0    50     1    15
  1.6023735796136390E-01 a      1241     0    50     1    16
 -9.2206125555115717E-02 a      1242     0    50     1    17
  1.0973624458239692E-02 a      1243     0    50     1    18
 -6.9476804237064149E-02 a      1244     0    50     1    19
 -4.1265977349254142E-02 a      1245     0    50     1    20
  9.9464800023670724E-02 a      1246     0    50     1    21
  5.9986788220521524E-02 a      1247     0    50     1    22
  8.7408016602249242E-02 a      1248     0    50     1    23
 -1.0720853144678605E-01 a      1249     0    50     1    24
 -1.2559630815318087E-01 a      1250     0    50     1    25
 -6.3433150177222397E-02 a      1251     0    51     1     1
 -1.6946239960808556E-02 a      1252     0    51     1     2
 -1.1759565059803537E-01 a      1253     0    51     1     3
 -3.8893694340991443E-02 a      1254     0    51     1     4
 -3.7083164931396358E-02 a      1255     0    51     1     5
  7.5751723866874801E-02 a      1256     0    51     1     6
  1.8923003338653585E-02 a      1257     0    51     1     7
  3.8955565647393588E-02 a      1258     0    51     1     8
 -7.1731966732278815E-02 a      1259     0    51     1     9
  2.1821681316809036E-02 a      1260     0    51     1    10
 -8.9874474116582434E-02 a      1261     0    51     1    11
  1.1623561747624618E-01 a      1262     0    51     1    12
  2.2946835657051114E-02 a      1263     0    51     1    13
  4.3852239623231336E-02 a      1264     0    51     1    14
  2.0500248582620915E-02 a      1265     0    51     1    15
 -7.1777253353660739E-02 a      1266     0    51     1    16
  1.2883183644620610E-01 a      1267     0    51     1    17
 -1.1303608856960430E-01 a      1268     0    51     1    18
  4.2876242965262573E-02 a      1269     0    51     1    19
  2.6209623723220717E-02 a      1270     0    51     1    20
  2.2733349823145049E-02 a      1271     0    51     1    21
  1.8660450915475621E-02 a      1272     0    51     1    22
 -5.0659463252444172E-02 a      1273     0    51     1    23
  2.7681522532658678E-02 a      1274     0    51     1    24
  1.4133364082423252E-03 a      1275     0    51     1    25
 -6.3424314339253093E-02 a      1276     0    52     1     1
  5.5678262840104194E-02 a      1277     0    52     1     2
  4.9314254161164320E-02 a      1278     0    52     1     3
  1.8989191039385150E-02 a      1279     0    52     1     4
  3.4265715904596143E-02 a      1280     0    52     1     5
 -1.1345554986180151E-01 a      1281     0    52     1     6
 -7.6334720748005930E-02 a      1282     0    52     1     7
 -5.6006069242149882E-02 a      1283     0    52     1     8
  1.2074103062357325E-01 a      1284     0    52     1     9
  1.4381488625727351E-01 a      1285     0    52     1    10
  2.1159242429336991E-02 a      1286     0    52     1    11
  2.2262489262994942E-02 a      1287     0    52     1    12
  7.9329983990477582E-02 a      1288     0    52     1    13
  1.0634446168748718E-01 a      1289     0    52     1    14
 -7.0295463547247514E-02 a      1290     0    52     1    15
  3.6693702854690237E-02 a      1291     0    52     1    16
  2.7351810892856657E-02 a      1292     0    52     1    17
 -1.8679577687567239E-02 a      1293     0    52     1    18
  5.1817759951779665E-03 a      1294     0    52     1    19
 -3.6395552203932327E-02 a      1295     0    52     1    20
 -4.3791240577345590E-02 a      1296     0    52     1    21
 -2.8383077942530057E-02 a      1297     0    52     1    22
 -6.4588385102765725E-02 a      1298     0    52     1    23
 -2.4658695201989690E-02 a      1299     0    52     1    24
 -1.2772074332749619E-01 a      1300     0    52     1    25
 -3.3141304505078177E-02 a      1301     0    53     1     1
  2.3616939251086207E-02 a      1302     0    53     1     2
 -8.7492643866591391E-02 a      1303     0    53     1     3
  2.5497451150161724E-02 a      1304     0    53     1     4
  7.3064404270245284E-02 a      1305     0    53     1     5
 -6.9806002324051042E-02 a      1306     0    53     1     6
 -3.5714064147942308E-02 a      1307     0    53     1     7
 -4.9303553736005763E-02 a      1308     0    53     1     8
  6.6577558794587516E-02 a      1309     0    53     1     9
  7.2446098343782891E-02 a      1310     0    53     1    10
  5.1892552610061239E-02 a      1311     0    53     1    11
  1.2451041119345151E-01 a      1312     0    53     1    12
  4.0774693804378828E-02 a      1313     0    53     1    13
  3.1884849906908846E-02 a      1314     0    53     1    14
  4.5746853112845147E-02 a      1315     0    53     1    15
 -3.3601004231706951E-03 a      1316     0    53     1    16
  1.3401634404020912E-01 a      1317     0    53     1    17
 -8.1820985218008013E-02 a      1318     0    53     1    18
  8.0186577877977408E-02 a      1319     0    53     1    19
  1.1262765237948559E-01 a      1320     0    53     1    20
 -7.0740269538599271E-02 a      1321     0    53     1    21
  1.0994177563242387E-01 a      1322     0    53     1    22
  5.6969357259228713E-02 a      1323     0    53     1    23
 -9.9138693492252683E-02 a      1324     0    53     1    24
  4.2748838227106283E-02 a      1325     0    53     1    25
  4.5990104841188671E-02 a      1326     0    54     1     1
 -4.4749105082141805E-02 a      1327     0    54     1     2
 -9.1415941673731141E-02 a      1328     0    54     1     3
 -4.5865104569194959E-02 a      1329     0    54     1     4
  4.5443347733600051E-02 a      1330     0    54     1     5
 -4.8176923356260809E-02 a      1331     0    54     1     6
  1.0540879126498676E-01 a      1332     0    54     1     7
 -1.5305364396285195E-01 a      1333     0    54     1     8
  3.0767989089138083E-03 a      1334     0    54     1     9
  9.7508679806983370E-02 a      1335     0    54     1    10
 -6.6321421809780373E-02 a      1336     0    54     1    11
  5.1495064273813377E-03 a      1337     0    54     1    12
 -5.6717566003230122E-02 a      1338     0    54     1    13
 -3.6713009993880816E-02 a      1339     0    54     1    14
  6.2463970713666064E-02 a      1340     0    54     1    15
  9.9590153182648397E-02 a      1341     0    54     1    16
 -1.3834126853455581E-01 a      1342     0    54     1    17
  8.0066185591261552E-02 a      1343     0    54     1    18
  3.7276442984546633E-03 a      1344     0    54     1    19
 -6.1458731426315325E-04 a      1345     0    54     1    20
  5.5444362431907930E-02 a      1346     0    54     1    21
  1.8817038971156750E-02 a      1347     0    54     1    22
  1.3365396970927385E-01 a      1348     0    54     1    23
 -7.0464472080515136E-02 a      1349     0    54     1    24
 -5.6922543987782959E-02 a      1350     0    54     1    25
  4.8447930225307079E-02 a      1351     0    55     1     1
  2.7287181720142457E-02 a      1352     0    55     1     2
  6.5420585899593264E-02 a      1353     0    55     1     3
  9.3963524755346847E-02 a      1354     0    55     1     4
 -1.2469254252487124E-02 a      1355     0    55     1     5
 -1.1506592752711886E-01 a      1356     0    55     1     6
  9.6811157356338426E-02 a      1357     0    55     1     7
 -1.2172875832124994E-01 a      1358     0    55     1     8
 -5.0820181683776874E-02 a      1359     0    55     1     9
  6.3870203155840077E-02 a      1360     0    55     1    10
  1.1662034038389356E-01 a      1361     0    55     1    11
  3.3716938684396507E-02 a      1362     0    55     1    12
 -1.0597585096043166E-01 a      1363     0    55     1    13
  3.5828074112726439E-03 a      1364     0    55     1    14
  9.6172708796013889E-02 a      1365     0    55     1    15
 -3.3270380075773855E-02 a      1366     0    55     1    16
 -1.6637957545889249E-02 a      1367     0    55     1    17
 -9.3164835422447204E-02 a      1368     0    55     1    18
 -5.0222284580677602E-02 a      1369     0    55     1    19
 -2.4956730334338803E-02 a      1370     0    55     1    20
  1.0656807421580052E-01 a      1371     0    55     1    21
  1.0141462675890493E-01 a      1372     0    55     1    22
 -4.6587806828254398E-02 a      1373     0    55     1    23
  1.2289872409791505E-01 a      1374     0    55     1    24
 -2.3308633069301057E-02 a      1375     0    55     1    25
 -2.4316181797485247E-02 a      1376     0    56     1     1
 -9.5382526060872760E-02 a      1377     0    56     1     2
  5.0144992384841526E-02 a      1378     0    56     1     3
  4.0609692235124950E-02 a      1379     0    56     1     4
  8.3745325948910376E-02 a      1380     0    56     1     5
  1.9210102834046301E-02 a      1381     0    56     1     6
  8.1795817940159804E-02 a      1382     0    56     1     7
  2.5668059095224349E-02 a      1383     0    56     1     8
  1.1889112565302637E-01 a      1384     0    56     1     9
  8.0798224432275842E-02 a      1385     0    56     1    10
 -1.3897827342612645E-01 a      1386     0    56     1    11
 -2.5824997646990956E-02 a      1387     0    56     1    12
 -3.6827656964145757E-02 a      1388     0    56     1    13
 -4.8007420304080922E-02 a      1389     0    56     1    14
  4.3044311282880422E-02 a      1390     0    56     1    15
  4.1736921602659287E-02 a      1391     0    56     1    16
  1.5832927451250093E-02 a      1392     0    56     1    17
 -6.6335006447421083E-03 a      1393     0    56     1    18
  1.7846380222246310E-02 a      1394     0    56     1    19
 -1.2684921744970719E-02 a      1395     0    56     1    20
  7.1730576825783741E-03 a      1396     0    56     1    21
 -6.5588803733066511E-02 a      1397     0    56     1    22
  1.2857254363895185E-01 a      1398     0    56     1    23
 -2.0894260367949287E-02 a      1399     0    56     1    24
 -2.9453353481670882E-02 a      1400     0    56     1    25
 -1.1661600648221382E-02 a      1401     0    57     1     1
 -9.4173202524086272E-02 a      1402     0    57     1     2
 -6.8549156751531296E-02 a      1403     0    57     1     3
  4.8426459868987005E-02 a      1404     0    57     1     4
 -2.7815240650109459E-03 a      1405     0    57     1     5
 -2.1978564318230663E-02 a      1406     0    57     1     6
  2.7533976630855239E-03 a      1407     0    57     1     7
  2.6780803004774784E-02 a      1408     0    57     1     8
  3.1861639828712367E-02 a      1409     0    57     1     9
  3.8248487500170542E-02 a      1410     0    57     1    10
 -6.8319639673861510E-02 a      1411     0    57     1    11
  9.7516164777663741E-02 a      1412     0    57     1    12
 -8.3384951556676502E-03 a      1413     0    57     1    13
 -6.7565493426206893E-03 a      1414     0    57     1    14
 -3.2714121332290812E-02 a      1415     0    57     1    15
 -6.9903280656668232E-02 a      1416     0    57     1    16
 -9.4630166802886828E-02 a      1417     0    57     1    17
  1.0445091132945002E-02 a      1418     0    57     1    18
  2.9284141039725632E-02 a      1419     0    57     1    19
  1.1395309217057999E-01 a      1420     0    57     1    20
  9.0342023466567264E-02 a      1421     0    57     1    21
 -6.4620783819275981E-02 a      1422     0    57     1    22
 -9.1636893660839037E-03 a      1423     0    57     1    23
  1.1472035309351439E-02 a      1424     0    57     1    24
 -5.0846011917206085E-02 a      1425     0    57     1    25
 -2.4695855017059158E-03 a      1426     0    58     1     1
 -7.1965498317691917E-03 a      1427     0    58     1     2
  1.1860686597503379E-02 a      1428     0    58     1     3
 -5.8196152418433220E-02 a      1429     0    58     1     4
  1.1199092437604541E-01 a      1430     0    58     1     5
  7.8257512697540207E-02 a      1431     0    58     1     6
 -5.8089283831252690E-02 a      1432     0    58     1     7
 -8.2541195383397672E-02 a      1433     0    58     1     8
  4.8146121144838225E-02 a      1434     0    58     1     9
  1.9190977270912162E-02 a      1435     0    58     1    10
 -3.8766413220432921E-02 a      1436     0    58     1    11
 -2.5091100713504833E-02 a      1437     0    58     1    12
  7.8428889758101625E-02 a      1438     0    58     1    13
 -5.0778599437897656E-02 a      1439     0    58     1    14
 -6.1934761614732851E-03 a      1440     0    58     1    15
  4.1502264823437204E-02 a      1441     0    58     1    16
 -5.1444592752368989E-05 a      1442     0    58     1    17
 -3.6318247147292287E-02 a      1443     0    58     1    18
 -9.1215304890665372E-02 a      1444     0    58     1    19
 -7.5056518345245141E-02 a      1445     0    58     1    20
  7.5127856680635027E-02 a      1446     0    58     1    21
  1.8892319420141045E-02 a      1447     0    58     1    22
 -3.8479910114868426E-03 a      1448     0    58     1    23
 -5.9500977247226403E-02 a      1449     0    58     1    24
 -4.0008840690890550E-02 a      1450     0    58     1    25
  6.0762691976654362E-02 a      1451     0    59     1     1
  8.5293113132380270E-03 a      1452     0    59     1     2
  6.5958538612908221E-02 a      1453     0    59     1     3
  1.1959087534067603E-01 a      1454     0    59     1     4
 -2.4695932747523185E-03 a      1455     0    59     1     5
  2.3145257571479051E-03 a      1456     0    59     1     6
 -1.3151412120439826E-01 a      1457     0    59     1     7
  2.9902196615816643E-02 a      1458     0    59     1     8
 -6.0457054347968549E-03 a      1459     0    59     1     9
  5.2515338567229009E-02 a      1460     0    59     1    10
  7.4027135198263996E-02 a      1461     0    59     1    11
  2.9076027597945562E-02 a      1462     0    59     1    12
 -1.7270006279724685E-02 a      1463     0    59     1    13
 -8.7926414246153103E-03 a      1464     0    59     1    14
  5.8857034227212904E-02 a      1465     0    59     1    15
 -7.4445307412985606E-02 a      1466     0    59     1    16
 -4.5400289441457159E-02 a      1467     0    59     1    17
 -2.3660518213184274E-02 a      1468     0    59     1    18
 -6.9143348665821350E-02 a      1469     0    59     1    19
  1.6403308695589610E-03 a      1470     0    59     1    20
 -3.2457661336909874E-02 a      1471     0    59     1    21
 -9.0204533611618926E-02 a      1472     0    59     1    22
 -4.5220966099661079E-02 a      1473     0    59     1    23
  6.2566210374671777E-02 a      1474     0    59     1    24
 -2.0142672348732342E-02 a      1475     0    59     1    25
 -1.3220721200964597E-02 a      1476     0    60     1     1
  4.2688888340446721E-02 a      1477     0    60     1     2
 -7.8234368357010503E-02 a      1478     0    60     1     3
  4.2169570074025019E-02 a      1479     0    60     1     4
  5.8651884292003187E-02 a      1480     0    60     1     5
 -6.1396467366207512E-02 a      1481     0    60     1     6
 -9.3757883054206390E-02 a      1482     0    60     1     7
  8.1883170778930675E-02 a      1483     0    60     1     8
  9.9820016224697342E-02 a      1484     0    60     1     9
  1.4715847204555274E-01 a      1485     0    60     1    10
  3.8121677475806102E-02 a      1486     0    60     1    11
  4.4334633563340123E-02 a      1487     0    60     1    12
 -1.1372386563053430E-01 a      1488     0    60     1    13
  7.9203962782216891E-02 a      1489     0    60     1    14
  1.0119348886391436E-02 a      1490     0    60     1    15
  1.2701316359844550E-01 a      1491     0    60     1    16
  3.2369187452730291E-02 a      1492     0    60     1    17
 -1.8248694769882653E-02 a      1493     0    60     1    18
 -3.3422372371046054E-02 a      1494     0    60     1    19
  2.7092447022522725E-02 a      1495     0    60     1    20
 -3.3259820992544297E-03 a      1496     0    60     1    21
  4.2646154314006533E-03 a      1497     0    60     1    22
  1.8828868925772121E-02 a      1498     0    60     1    23
  5.4422330505894123E-02 a      1499     0    60     1    24
 -1.4169649364237841E-01 a      1500     0    60     1    25
 -3.6205056949861411E-02 a      1501     0    61     1     1
 -2.2166274226496401E-02 a      1502     0    61     1     2
  3.2787931936947082E-02 a      1503     0    61     1     3
  1.0238946388822289E-02 a      1504     0    61     1     4
  3.4669046710486200E-02 a      1505     0    61     1     5
  4.9768906307253967E-02 a      1506     0    61     1     6
  3.4127590672575303E-03 a      1507     0    61     1     7
  1.0464404357310750E-01 a      1508     0    61     1     8
  7.9829814689105369E-02 a      1509     0    61     1     9
 -5.2462139380312862E-02 a      1510     0    61     1    10
  1.1556539473073463E-01 a      1511     0    61     1    11
 -6.0638700117214929E-02 a      1512     0    61     1    12
 -4.9748681540916648E-02 a      1513     0    61     1    13
 -1.3959696282802955E-02 a      1514     0    61     1    14
  1.1310231484329065E-01 a      1515     0    61     1    15
 -3.6541192460804582E-02 a      1516     0    61     1    16
 -8.1238023599168860E-02 a      1517     0    61     1    17
  1.5311165676566810E-01 a      1518     0    61     1    18
  6.9987771117589442E-02 a      1519     0    61     1    19
 -2.3142097736246470E-02 a      1520     0    61     1    20
  4.7344763745224790E-02 a      1521     0    61     1    21
  1.6171300314641264E-02 a      1522     0    61     1    22
  6.7333383633561755E-02 a      1523     0    61     1    23
 -1.8309727585243962E-02 a      1524     0    61     1    24
  2.3419053747862066E-02 a      1525     0    61     1    25
  1.1968296949144645E-02 a      1526     0    62     1     1
  2.9348602624293743E-02 a      1527     0    62     1     2
 -8.5877954522213477E-03 a      1528     0    62     1     3
  6.1748995797801784E-02 a      1529     0    62     1     4
  2.0138464978793763E-02 a      1530     0    62     1     5
 -1.1484269065797302E-01 a      1531     0    62     1     6
 -1.3277587103671082E-01 a      1532     0    62     1     7
  6.1599767159312778E-02 a      1533     0    62     1     8
  6.6535052681220661E-02 a      1534     0    62     1     9
 -4.1365219033922644E-03 a      1535     0    62     1    10
  4.3471057989289737E-03 a      1536     0    62     1    11
  2.7283989061167989E-02 a      1537     0    62     1    12
  7.6346695221266594E-02 a      1538     0    62     1    13
  4.8233099464041383E-02 a      1539     0    62     1    14
  2.0125157146028142E-02 a      1540     0    62     1    15
  4.2048891208507126E-02 a      1541     0    62     1    16
  2.5414143057769057E-02 a      1542     0    62     1    17
  2.1067245446899828E-02 a      1543     0    62     1    18
 -1.9701460804898405E-02 a      1544     0    62     1    19
  3.3605943985485810E-02 a      1545     0    62     1    20
 -9.0906608227456970E-02 a      1546     0    62     1    21
 -1.7442923251346772E-02 a      1547     0    62     1    22
  1.2208044908498158E-01 a      1548     0    62     1    23
  1.0241365353011019E-02 a      1549     0    62     1    24
  3.7024454136156182E-02 a      1550     0    62     1    25
 -1.3260495402939942E-01 a      1551     0    63     1     1
 -1.5077647012742062E-02 a      1552     0    63     1     2
  4.6325363035980359E-02 a      1553     0    63     1     3
 -4.5632330573546889E-02 a      1554     0    63     1     4
  5.2934208511410438E-02 a      1555     0    63     1     5
  3.0104324590113120E-02 a      1556     0    63     1     6
  5.6240013663805613E-02 a      1557     0    63     1     7
 -9.2173424885982153E-02 a      1558     0    63     1     8
  2.3107093869506094E-02 a      1559     0    63     1     9
  2.9216244600997674E-02 a      1560     0    63     1    10
 -4.8391175607467224E-02 a      1561     0    63     1    11
  8.0546112027379324E-02 a      1562     0    63     1    12
  3.6124871320990820E-02 a      1563     0    63     1    13
  3.1439838470708054E-02 a      1564     0    63     1    14
  9.7049093935156899E-02 a      1565     0    63     1    15
  6.6128333810545989E-02 a      1566     0    63     1    16
  7.3106238599085827E-02 a      1567     0    63     1    17
  1.6224126405482497E-01 a      1568     0    63     1    18
  7.1864491888669682E-02 a      1569     0    63     1    19
 -3.0222518679332993E-02 a      1570     0    63     1    20
 -8.9558461846742848E-02 a      1571     0    63     1    21
 -1.2382664560645577E-01 a      1572     0    63     1    22
  5.2546123837733362E-02 a      1573     0    63     1    23
  1.5009621836878476E-01 a      1574     0    63     1    24
 -9.8734420876576440E-02 a      1575     0    63     1    25
 -3.9472151700022398E-02 a      1576     0    64     1     1
 -7.7990499001306807E-02 a      1577     0    64     1     2
  4.3458994808681990E-02 a      1578     0    64     1     3
 -1.8872357778327971E-02 a      1579     0    64     1     4
  7.0197386245650986E-03 a      1580     0    64     1     5
 -9.3203929467525221E-03 a      1581     0    64     1     6
 -3.6432135953540633E-02 a      1582     0    64     1     7
  1.6792923070694576E-02 a      1583     0    64     1     8
  7.5769653818829427E-02 a      1584     0    64     1     9
  2.8246391209974329E-02 a      1585     0    64     1    10
 -3.2566712854854719E-02 a      1586     0    64     1    11
  1.0918847660675769E-01 a      1587     0    64     1    12
 -6.7405633931814299E-02 a      1588     0    64     1    13
 -3.0103163103996630E-02 a      1589     0    64     1    14
  1.2591095949998445E-02 a      1590     0    64     1    15
  2.3228981546840045E-02 a      1591     0    64     1    16
  9.1812722195130057E-03 a      1592     0    64     1    17
  1.1371685337606685E-02 a      1593     0    64     1    18
 -3.9420672166782401E-03 a      1594     0    64     1    19
 -6.9205352885939181E-02 a      1595     0    64     1    20
  5.8476361619203970E-02 a      1596     0    64     1    21
  2.9117309353201186E-03 a      1597     0    64     1    22
 -1.3120650379249815E-02 a      1598     0    64     1    23
 -5.2036855022634151E-02 a      1599     0    64     1    24
  3.3796282680229453E-02 a      1600     0    64     1    25
 -8.4773622117784247E-02 a      1601     0    65     1     1
  2.7753342675394789E-02 a      1602     0    65     1     2
  6.6760893073831316E-03 a      1603     0    65     1     3
  4.3822588777710824E-03 a      1604     0    65     1     4
  9.2502895844069497E-02 a      1605     0    65     1     5
  9.9964116894645710E-02 a      1606     0    65     1     6
 -1.1035183307773375E-02 a      1607     0    65     1     7
 -1.1367553642556680E-01 a      1608     0    65     1     8
  5.2507135404586007E-02 a      1609     0    65     1     9
  4.7274371857688957E-02 a      1610     0    65     1    10
 -8.0077693108304669E-03 a      1611     0    65     1    11
 -7.5525455313106088E-02 a      1612     0    65     1    12
  2.2919373920048489E-02 a      1613     0    65     1    13
  1.3872645017655047E-01 a      1614     0    65     1    14
  4.0109868979442555E-02 a      1615     0    65     1    15
 -3.1061801433837480E-02 a      1616     0    65     1    16
 -7.8320497647772186E-02 a      1617     0    65     1    17
 -1.0991678423386801E-01 a      1618     0    65     1    18
 -8.4420781281137697E-02 a      1619     0    65     1    19
 -4.7616711694789760E-02 a      1620     0    65     1    20
 -7.1057459848038504E-02 a      1621     0    65     1    21
  1.0977931356556286E-01 a      1622     0    65     1    22
  7.1478950370088501E-02 a      1623     0    65     1    23
