################################################################################
# Neural network connection values (weights and biases).
################################################################################
# Col  Name       Description
################################################################################
# 1    connection Neural network connection value.
# 2    t          Connection type (a = weight, b = bias).
# 3    index      Index enumerating weights.
# 4    l_s        Starting point layer (end point layer for biases).
# 5    n_s        Starting point neuron in starting layer (end point neuron for biases).
# 6    l_e        End point layer.
# 7    n_e        End point neuron in end layer.
################################################################################
#                      1 2         3     4     5     6     7
#             connection t     index   l_s   n_s   l_e   n_e
############################################################
  5.6330644342321726E-02 a         1     0     1     1     1
  4.5735485247778755E-02 a         2     0     1     1     2
 -2.6145842675958158E-03 a         3     0     1     1     3
 -7.0841866336736656E-02 a         4     0     1     1     4
 -8.7195801037217593E-02 a         5     0     1     1     5
  8.7672485413801945E-02 a         6     0     1     1     6
  7.3030190139983825E-02 a         7     0     1     1     7
  1.6447150161929347E-01 a         8     0     1     1     8
  7.1763203808886677E-02 a         9     0     1     1     9
  2.2873686303035285E-02 a        10     0     1     1    10
 -3.7605121375733140E-03 a        11     0     1     1    11
  3.0291501044884202E-02 a        12     0     1     1    12
  1.6224436159702387E-03 a        13     0     1     1    13
  1.6767722429831055E-02 a        14     0     1     1    14
 -4.7130871634963559E-02 a        15     0     1     1    15
 -7.8842599579232855E-02 a        16     0     1     1    16
 -7.6363325017804295E-02 a        17     0     1     1    17
  6.4988754024306039E-02 a        18     0     1     1    18
  1.4933502068720478E-03 a        19     0     1     1    19
 -1.4365035293502176E-01 a        20     0     1     1    20
 -1.1415040316056164E-01 a        21     0     1     1    21
 -1.0903897486613498E-01 a        22     0     1     1    22
 -1.0964425427304901E-02 a        23     0     1     1    23
  8.4392669545791041E-02 a        24     0     1     1    24
 -5.0896596947583056E-02 a        25     0     1     1    25
 -1.7710447760425319E-01 a        26     0     2     1     1
  4.0574589582907737E-02 a        27     0     2     1     2
 -4.9562835472099784E-03 a        28     0     2     1     3
 -1.2057861691727081E-01 a        29     0     2     1     4
  6.1020411324004993E-02 a        30     0     2     1     5
  1.0540876137602344E-01 a        31     0     2     1     6
  2.7496633582518453E-02 a        32     0     2     1     7
  2.2010999865995962E-01 a        33     0     2     1     8
 -9.2428428112630009E-02 a        34     0     2     1     9
  2.4035999301965549E-02 a        35     0     2     1    10
 -3.6821222759397934E-02 a        36     0     2     1    11
  4.5661173432315925E-02 a        37     0     2     1    12
 -6.8021183267244198E-02 a        38     0     2     1    13
  8.4857068101942511E-03 a        39     0     2     1    14
  1.2514727171320465E-02 a        40     0     2     1    15
 -1.0644388909590499E-01 a        41     0     2     1    16
  9.5724746940421365E-02 a        42     0     2     1    17
  3.9215353610067716E-03 a        43     0     2     1    18
  5.4456695913031880E-03 a        44     0     2     1    19
  1.4274029411340115E-02 a        45     0     2     1    20
 -1.0856873557844905E-01 a        46     0     2     1    21
 -5.2274377787367016E-02 a        47     0     2     1    22
  4.9953574883109371E-02 a        48     0     2     1    23
  8.7053566891000883E-02 a        49     0     2     1    24
  8.3863184708794822E-02 a        50     0     2     1    25
  1.5532062762326593E-01 a        51     0     3     1     1
  4.0270454751650765E-03 a        52     0     3     1     2
  1.5597251581331750E-01 a        53     0     3     1     3
 -1.3723009235089628E-01 a        54     0     3     1     4
  4.6070742864722139E-02 a        55     0     3     1     5
 -8.1624932101904690E-02 a        56     0     3     1     6
 -5.8854704304643887E-02 a        57     0     3     1     7
  5.1469731851421417E-02 a        58     0     3     1     8
  1.0936061781760445E-01 a        59     0     3     1     9
  1.1610677517352394E-01 a        60     0     3     1    10
  5.8969595865352213E-02 a        61     0     3     1    11
 -3.4136273634738382E-02 a        62     0     3     1    12
 -1.6115366342671130E-02 a        63     0     3     1    13
 -9.6331864537761949E-02 a        64     0     3     1    14
  5.6560527928510036E-03 a        65     0     3     1    15
 -2.5326255216228274E-02 a        66     0     3     1    16
 -6.0820938895609876E-02 a        67     0     3     1    17
  4.1504725419679409E-02 a        68     0     3     1    18
 -3.2030505180404661E-01 a        69     0     3     1    19
 -1.3607571708272882E-02 a        70     0     3     1    20
  2.3146231872735609E-02 a        71     0     3     1    21
 -1.9205285630209193E-01 a        72     0     3     1    22
 -9.8623093916932358E-02 a        73     0     3     1    23
 -1.5029933962765957E-01 a        74     0     3     1    24
 -4.7488072903694403E-02 a        75     0     3     1    25
  7.8599122009008773E-02 a        76     0     4     1     1
 -9.3214478940496753E-02 a        77     0     4     1     2
 -3.7504623124008679E-02 a        78     0     4     1     3
  5.8041257164305769E-02 a        79     0     4     1     4
 -4.2950889377292058E-03 a        80     0     4     1     5
 -6.9820677487719460E-02 a        81     0     4     1     6
  1.2864275455010857E-01 a        82     0     4     1     7
  6.5504828504884358E-02 a        83     0     4     1     8
  2.0461201357867654E-02 a        84     0     4     1     9
  2.2201603338837039E-02 a        85     0     4     1    10
 -3.8170573887783693E-02 a        86     0     4     1    11
  1.1097202556501341E-01 a        87     0     4     1    12
  3.1174639395426501E-02 a        88     0     4     1    13
 -5.5809754484229278E-02 a        89     0     4     1    14
 -5.3740618946006409E-02 a        90     0     4     1    15
 -6.6198907692459980E-02 a        91     0     4     1    16
 -7.2160996790266177E-02 a        92     0     4     1    17
  3.4289209298760483E-02 a        93     0     4     1    18
 -1.3726060991130035E-01 a        94     0     4     1    19
 -1.3030772652360884E-01 a        95     0     4     1    20
 -3.7258471631810008E-02 a        96     0     4     1    21
  6.3799811553773372E-02 a        97     0     4     1    22
 -1.5711692454272327E-01 a        98     0     4     1    23
 -1.9534495547113957E-02 a        99     0     4     1    24
 -2.5894608434789364E-02 a       100     0     4     1    25
  1.4470863512985760E-01 a       101     0     5     1     1
  4.3886375908009499E-02 a       102     0     5     1     2
 -1.4455651362370184E-01 a       103     0     5     1     3
 -1.0506809796497400E-01 a       104     0     5     1     4
  8.1953207092564512E-05 a       105     0     5     1     5
 -1.0095427051051915E-01 a       106     0     5     1     6
 -4.4325661336553135E-02 a       107     0     5     1     7
 -1.6924388525440201E-01 a       108     0     5     1     8
  1.3884790179091860E-01 a       109     0     5     1     9
 -1.8591023074381253E-02 a       110     0     5     1    10
 -3.9184688478821381E-02 a       111     0     5     1    11
 -1.0113695428924004E-01 a       112     0     5     1    12
  4.7779188935166701E-02 a       113     0     5     1    13
 -1.1611724996214823E-02 a       114     0     5     1    14
  4.7890258524180336E-02 a       115     0     5     1    15
  1.8193874328200127E-01 a       116     0     5     1    16
  1.2152983491169284E-01 a       117     0     5     1    17
  2.7548145238344642E-02 a       118     0     5     1    18
 -1.4041992897759906E-01 a       119     0     5     1    19
 -5.9520994222564960E-02 a       120     0     5     1    20
 -8.4500910979130983E-02 a       121     0     5     1    21
 -7.9201471447562927E-02 a       122     0     5     1    22
  7.1017560818494585E-02 a       123     0     5     1    23
 -1.0726895581376433E-01 a       124     0     5     1    24
 -7.9005042618147725E-02 a       125     0     5     1    25
 -1.0877906603760462E-01 a       126     0     6     1     1
  2.7233233587247288E-02 a       127     0     6     1     2
  2.9279978406877551E-02 a       128     0     6     1     3
  1.2473749969189291E-01 a       129     0     6     1     4
  1.4641968264079538E-01 a       130     0     6     1     5
 -7.9317895709571113E-03 a       131     0     6     1     6
 -6.0679894190678900E-03 a       132     0     6     1     7
  2.5707992553247350E-01 a       133     0     6     1     8
 -6.9791265778181514E-03 a       134     0     6     1     9
 -8.5884179586718217E-03 a       135     0     6     1    10
  1.4315826139315721E-01 a       136     0     6     1    11
 -8.3024015860579642E-02 a       137     0     6     1    12
  1.4460819299966529E-01 a       138     0     6     1    13
 -4.3166605050896915E-02 a       139     0     6     1    14
  1.2405357536170158E-01 a       140     0     6     1    15
 -1.1497452075237941E-01 a       141     0     6     1    16
 -3.9940873716171769E-02 a       142     0     6     1    17
 -3.2424545304689224E-02 a       143     0     6     1    18
  1.0902621834203355E-01 a       144     0     6     1    19
  1.0239534794235760E-02 a       145     0     6     1    20
 -4.9922746464112197E-02 a       146     0     6     1    21
  5.2527330382891813E-02 a       147     0     6     1    22
 -3.6775171976928776E-02 a       148     0     6     1    23
  2.3493207489828714E-02 a       149     0     6     1    24
 -4.9109220881588193E-02 a       150     0     6     1    25
 -6.7082701472368958E-02 a       151     0     7     1     1
 -5.1093647929379517E-02 a       152     0     7     1     2
 -3.8207294609849091E-02 a       153     0     7     1     3
 -7.1744267819191729E-02 a       154     0     7     1     4
  9.9220130040127100E-02 a       155     0     7     1     5
  8.8085235229980519E-02 a       156     0     7     1     6
 -8.9995813349136117E-02 a       157     0     7     1     7
  1.3001557603687099E-02 a       158     0     7     1     8
  3.7147100279409255E-02 a       159     0     7     1     9
  2.0807100954414025E-02 a       160     0     7     1    10
  1.6486365774909688E-02 a       161     0     7     1    11
  5.6206177835283838E-02 a       162     0     7     1    12
  1.6657378436199102E-02 a       163     0     7     1    13
 -1.5110165241218977E-02 a       164     0     7     1    14
 -7.8303571397781921E-02 a       165     0     7     1    15
  4.8194332348805290E-02 a       166     0     7     1    16
  2.8425469455231282E-02 a       167     0     7     1    17
 -5.6192794626050889E-02 a       168     0     7     1    18
 -5.1712778370535589E-02 a       169     0     7     1    19
 -2.3959489896685143E-02 a       170     0     7     1    20
 -8.4258409402613810E-02 a       171     0     7     1    21
  6.7471505622182543E-02 a       172     0     7     1    22
 -4.9385868500272941E-02 a       173     0     7     1    23
  8.9522393122167976E-02 a       174     0     7     1    24
  3.0662433204151261E-02 a       175     0     7     1    25
 -3.4659392587214885E-02 a       176     0     8     1     1
  5.3405148353936858E-02 a       177     0     8     1     2
  1.6435565788063419E-01 a       178     0     8     1     3
  4.0459056543604252E-02 a       179     0     8     1     4
  1.7343052985456942E-01 a       180     0     8     1     5
  9.5522578999722732E-02 a       181     0     8     1     6
 -4.9715858539565311E-02 a       182     0     8     1     7
 -7.9321756190401049E-02 a       183     0     8     1     8
  1.9747237484397637E-01 a       184     0     8     1     9
  4.4381996002638729E-02 a       185     0     8     1    10
  1.3142582845540612E-01 a       186     0     8     1    11
 -1.2234826178715195E-01 a       187     0     8     1    12
  1.9528535079163654E-02 a       188     0     8     1    13
 -8.4977381761311199E-02 a       189     0     8     1    14
  9.2150384064931770E-02 a       190     0     8     1    15
  8.7896688837906370E-02 a       191     0     8     1    16
 -5.6737707261558634E-02 a       192     0     8     1    17
 -2.1588627738584202E-03 a       193     0     8     1    18
 -3.7934052658046884E-02 a       194     0     8     1    19
  9.5340364706452588E-02 a       195     0     8     1    20
 -1.3819785312193489E-01 a       196     0     8     1    21
 -4.9594083111441825E-02 a       197     0     8     1    22
 -9.9635500515806025E-02 a       198     0     8     1    23
  1.7120836510041610E-02 a       199     0     8     1    24
 -2.1360250426128078E-02 a       200     0     8     1    25
 -8.1252203394269390E-02 a       201     0     9     1     1
 -5.7505619140188813E-02 a       202     0     9     1     2
  1.2873710327139376E-01 a       203     0     9     1     3
 -1.0408533840948694E-02 a       204     0     9     1     4
 -2.9035920709229859E-02 a       205     0     9     1     5
 -9.4807830185829306E-02 a       206     0     9     1     6
  1.5318131873177640E-02 a       207     0     9     1     7
 -2.0144574272880550E-02 a       208     0     9     1     8
  1.2468714884173858E-01 a       209     0     9     1     9
 -4.6804159131457745E-02 a       210     0     9     1    10
 -9.0400274892994417E-02 a       211     0     9     1    11
  5.8668218220122720E-02 a       212     0     9     1    12
 -8.8437638699294246E-02 a       213     0     9     1    13
  2.7317747506331976E-02 a       214     0     9     1    14
  2.1764067701821412E-02 a       215     0     9     1    15
  2.4558167714053480E-03 a       216     0     9     1    16
  2.4363538879786643E-02 a       217     0     9     1    17
  2.0810788105324638E-02 a       218     0     9     1    18
  1.1393093510819532E-01 a       219     0     9     1    19
  1.1063161972853985E-01 a       220     0     9     1    20
 -2.4862630205237466E-02 a       221     0     9     1    21
  1.6200619971105254E-01 a       222     0     9     1    22
  2.3402155001893338E-01 a       223     0     9     1    23
 -1.9016883471450333E-01 a       224     0     9     1    24
  1.0744505263979218E-02 a       225     0     9     1    25
 -1.4742285115535994E-01 a       226     0    10     1     1
  5.6259078514274356E-02 a       227     0    10     1     2
  1.6104338595732942E-01 a       228     0    10     1     3
 -1.0312755682620778E-01 a       229     0    10     1     4
  6.8543738413674046E-02 a       230     0    10     1     5
  8.5426969540812039E-02 a       231     0    10     1     6
 -3.6660844426986221E-03 a       232     0    10     1     7
 -5.1521395420860046E-02 a       233     0    10     1     8
  2.8758054343022349E-01 a       234     0    10     1     9
 -3.8305265158917967E-02 a       235     0    10     1    10
  1.1726348826507144E-01 a       236     0    10     1    11
  9.3395872282337769E-02 a       237     0    10     1    12
 -4.1958465839955633E-02 a       238     0    10     1    13
 -1.8786489566916455E-02 a       239     0    10     1    14
 -1.0754809779241649E-01 a       240     0    10     1    15
  6.4438892147681254E-02 a       241     0    10     1    16
 -6.3858616738387164E-02 a       242     0    10     1    17
 -8.8340942345517218E-02 a       243     0    10     1    18
 -3.9927559287127865E-02 a       244     0    10     1    19
  2.0043461529065550E-02 a       245     0    10     1    20
 -5.1128095695304937E-02 a       246     0    10     1    21
 -1.2502079328827537E-02 a       247     0    10     1    22
 -9.4922056826035453E-02 a       248     0    10     1    23
 -3.6486425373894557E-02 a       249     0    10     1    24
  5.8642136542299945E-02 a       250     0    10     1    25
 -2.0462684686016777E-01 a       251     0    11     1     1
  8.1793506219894591E-02 a       252     0    11     1     2
  1.6492948728606360E-01 a       253     0    11     1     3
 -5.2788083923257907E-02 a       254     0    11     1     4
  1.0863826969147990E-01 a       255     0    11     1     5
  9.3566824955732000E-02 a       256     0    11     1     6
  4.6325010811301970E-02 a       257     0    11     1     7
  1.6265518791728573E-01 a       258     0    11     1     8
  1.1262375846329171E-01 a       259     0    11     1     9
  1.1763643540472674E-02 a       260     0    11     1    10
 -3.7708576427121353E-02 a       261     0    11     1    11
  5.2317349372582395E-02 a       262     0    11     1    12
 -2.0100997621206550E-02 a       263     0    11     1    13
 -1.3353609649579801E-01 a       264     0    11     1    14
 -2.2272415126142066E-02 a       265     0    11     1    15
 -3.4963893533382695E-02 a       266     0    11     1    16
  8.8895446837037442E-02 a       267     0    11     1    17
  3.7139835467221084E-02 a       268     0    11     1    18
  1.6677694498558304E-01 a       269     0    11     1    19
 -8.3953393903297160E-02 a       270     0    11     1    20
 -1.2532686079422500E-01 a       271     0    11     1    21
 -8.9282347611088775E-02 a       272     0    11     1    22
 -8.7366260054289671E-02 a       273     0    11     1    23
  5.1418185465402722E-02 a       274     0    11     1    24
 -2.7984264841580411E-02 a       275     0    11     1    25
  8.0612593522810000E-02 a       276     0    12     1     1
  9.9277503983215727E-03 a       277     0    12     1     2
  3.7302747278784992E-02 a       278     0    12     1     3
  1.7040101472594167E-02 a       279     0    12     1     4
  8.5541158301881193E-02 a       280     0    12     1     5
 -8.4834988043156312E-02 a       281     0    12     1     6
 -1.1533444938479441E-01 a       282     0    12     1     7
  6.3544470307903930E-02 a       283     0    12     1     8
  9.9286099580905132E-02 a       284     0    12     1     9
  9.6132483719312739E-02 a       285     0    12     1    10
  9.5546106321853994E-02 a       286     0    12     1    11
 -7.7718910073655313E-03 a       287     0    12     1    12
 -2.2784752587225451E-02 a       288     0    12     1    13
 -1.4344211968923973E-01 a       289     0    12     1    14
 -6.2053321953231898E-02 a       290     0    12     1    15
  8.6992102587258591E-02 a       291     0    12     1    16
 -9.0263595432861533E-03 a       292     0    12     1    17
  5.8464854227019476E-02 a       293     0    12     1    18
 -5.8114101254050842E-03 a       294     0    12     1    19
 -6.8913878066035272E-02 a       295     0    12     1    20
 -4.6309390452162542E-02 a       296     0    12     1    21
  6.8448638879975328E-03 a       297     0    12     1    22
 -8.2498532679024988E-02 a       298     0    12     1    23
 -5.2673522171300197E-02 a       299     0    12     1    24
  1.3753177527015276E-01 a       300     0    12     1    25
 -5.7767048413033630E-02 a       301     0    13     1     1
 -5.2962344823974036E-02 a       302     0    13     1     2
 -1.7300019235311248E-01 a       303     0    13     1     3
  1.4068605806132670E-01 a       304     0    13     1     4
  1.9884922651413422E-03 a       305     0    13     1     5
 -8.9968061531726200E-03 a       306     0    13     1     6
  1.0382500102189682E-01 a       307     0    13     1     7
  2.4275721508675974E-01 a       308     0    13     1     8
 -4.9547695626615977E-02 a       309     0    13     1     9
  1.3265636367084788E-01 a       310     0    13     1    10
  3.1041318286711059E-02 a       311     0    13     1    11
  9.7029167388235971E-02 a       312     0    13     1    12
  7.6666148994498917E-03 a       313     0    13     1    13
  1.2362807373122522E-01 a       314     0    13     1    14
  1.6918195191464921E-01 a       315     0    13     1    15
 -1.2623786810213944E-01 a       316     0    13     1    16
  1.2287220979279287E-01 a       317     0    13     1    17
  8.5010667087837152E-02 a       318     0    13     1    18
  2.0530894943143826E-01 a       319     0    13     1    19
 -2.1394282552012811E-01 a       320     0    13     1    20
  5.4302358141600565E-03 a       321     0    13     1    21
  1.1415408353797328E-01 a       322     0    13     1    22
 -5.3090244272277688E-02 a       323     0    13     1    23
 -2.5862030499780003E-02 a       324     0    13     1    24
  8.6497349642182964E-03 a       325     0    13     1    25
 -6.9260716533086186E-02 a       326     0    14     1     1
  3.2357297854627716E-02 a       327     0    14     1     2
  3.3879311607863144E-02 a       328     0    14     1     3
 -9.0045468674457591E-02 a       329     0    14     1     4
  3.9140255568536697E-03 a       330     0    14     1     5
  4.2398025299404590E-02 a       331     0    14     1     6
 -2.5664120767840085E-03 a       332     0    14     1     7
  3.8869957881920526E-02 a       333     0    14     1     8
  8.6860439507419243E-02 a       334     0    14     1     9
  1.1725788570370375E-01 a       335     0    14     1    10
 -2.7379105309178118E-02 a       336     0    14     1    11
 -3.9859683252139851E-02 a       337     0    14     1    12
 -4.1670247089466948E-02 a       338     0    14     1    13
 -2.9848084778711509E-02 a       339     0    14     1    14
  8.2951334393924978E-02 a       340     0    14     1    15
  5.1766196119388978E-02 a       341     0    14     1    16
  1.0478531911438030E-02 a       342     0    14     1    17
  3.4542573631696834E-02 a       343     0    14     1    18
  1.3305180525552485E-01 a       344     0    14     1    19
  6.3438510595228578E-02 a       345     0    14     1    20
 -1.1127177808280006E-01 a       346     0    14     1    21
  3.4042360828824614E-02 a       347     0    14     1    22
  1.2018243107827897E-01 a       348     0    14     1    23
 -5.5151187881332994E-03 a       349     0    14     1    24
  1.0418616570904838E-02 a       350     0    14     1    25
 -1.1018411262306711E-01 a       351     0    15     1     1
 -7.2430948420152491E-02 a       352     0    15     1     2
  5.1014338167144797E-02 a       353     0    15     1     3
 -1.0086021992060176E-01 a       354     0    15     1     4
  1.2743607501507956E-01 a       355     0    15     1     5
  1.7796402055239493E-02 a       356     0    15     1     6
  5.6021298243426734E-02 a       357     0    15     1     7
  1.5983486351222820E-01 a       358     0    15     1     8
  1.0539542239108811E-01 a       359     0    15     1     9
 -3.2643216631579500E-02 a       360     0    15     1    10
  1.4113502813696902E-01 a       361     0    15     1    11
  2.7018440895133670E-02 a       362     0    15     1    12
  1.4111568866874341E-01 a       363     0    15     1    13
  2.2979370203443171E-02 a       364     0    15     1    14
 -3.6232317094015434E-02 a       365     0    15     1    15
 -6.8630563446808512E-02 a       366     0    15     1    16
  5.7773761491268921E-02 a       367     0    15     1    17
  6.5525167675285739E-02 a       368     0    15     1    18
  1.7421165573173428E-01 a       369     0    15     1    19
  7.3713247616505634E-02 a       370     0    15     1    20
 -1.3626332231769372E-01 a       371     0    15     1    21
 -7.1388166985594512E-02 a       372     0    15     1    22
  9.5640372932286860E-02 a       373     0    15     1    23
  9.9231940652373590E-02 a       374     0    15     1    24
  5.5091124316988850E-02 a       375     0    15     1    25
  3.0220387205638277E-01 a       376     0    16     1     1
 -6.1000750694103344E-02 a       377     0    16     1     2
 -1.9503638289304539E-02 a       378     0    16     1     3
 -2.9934907211126736E-03 a       379     0    16     1     4
 -4.8822804766162561E-02 a       380     0    16     1     5
  2.3378155796761654E-02 a       381     0    16     1     6
  1.5002416153527317E-02 a       382     0    16     1     7
  2.5899632078141555E-01 a       383     0    16     1     8
 -3.5931863661315247E-02 a       384     0    16     1     9
 -1.0182572462739883E-01 a       385     0    16     1    10
 -1.1411578771753220E-01 a       386     0    16     1    11
 -2.1900525295907730E-01 a       387     0    16     1    12
 -7.4779866497036038E-02 a       388     0    16     1    13
 -1.4261358208097705E-01 a       389     0    16     1    14
 -1.6338942270265538E-01 a       390     0    16     1    15
  1.2103899428402029E-01 a       391     0    16     1    16
  2.3194801033100444E-02 a       392     0    16     1    17
  7.8327996868944524E-02 a       393     0    16     1    18
  2.1506538294753588E-01 a       394     0    16     1    19
 -1.1638221722118593E-02 a       395     0    16     1    20
 -1.1156357241214833E-01 a       396     0    16     1    21
 -1.1409432802053829E-01 a       397     0    16     1    22
 -1.7346656559364801E-01 a       398     0    16     1    23
 -3.8543943033473353E-02 a       399     0    16     1    24
  4.7469930076643220E-02 a       400     0    16     1    25
  1.2227656976989693E-01 a       401     0    17     1     1
 -4.0043026594807692E-02 a       402     0    17     1     2
 -1.6956047486668662E-03 a       403     0    17     1     3
  1.0655056512778258E-01 a       404     0    17     1     4
 -1.1818300475650242E-02 a       405     0    17     1     5
 -1.1298639914868673E-01 a       406     0    17     1     6
 -1.0293849144356099E-01 a       407     0    17     1     7
  3.3673284868775527E-01 a       408     0    17     1     8
  1.5799853813800717E-02 a       409     0    17     1     9
 -1.7917287201391175E-02 a       410     0    17     1    10
 -8.6003241429881139E-02 a       411     0    17     1    11
 -1.6210583422950323E-01 a       412     0    17     1    12
  1.9441198899928628E-02 a       413     0    17     1    13
 -1.4508694914166237E-01 a       414     0    17     1    14
  2.7247580150624451E-02 a       415     0    17     1    15
  2.6420164307368519E-02 a       416     0    17     1    16
  1.0196691306081027E-01 a       417     0    17     1    17
  1.8609097486282238E-02 a       418     0    17     1    18
  3.2723654042232725E-01 a       419     0    17     1    19
  2.5345375114235683E-03 a       420     0    17     1    20
 -6.6899059479055792E-02 a       421     0    17     1    21
  1.2305205692108302E-01 a       422     0    17     1    22
  1.5779148074069840E-01 a       423     0    17     1    23
 -1.4133016008803942E-02 a       424     0    17     1    24
  1.8612994115054939E-02 a       425     0    17     1    25
  3.7482000637128657E-02 a       426     0    18     1     1
  5.4528086815950616E-02 a       427     0    18     1     2
  1.5707398759183758E-01 a       428     0    18     1     3
 -8.8363013376428715E-03 a       429     0    18     1     4
  7.4751018978363476E-02 a       430     0    18     1     5
  5.3759816666986010E-02 a       431     0    18     1     6
  5.6806581512101662E-02 a       432     0    18     1     7
  8.7422405457753413E-02 a       433     0    18     1     8
  6.8656936185371956E-02 a       434     0    18     1     9
 -2.6131420339035795E-02 a       435     0    18     1    10
 -3.2986162683787706E-02 a       436     0    18     1    11
  1.4223240580256051E-02 a       437     0    18     1    12
 -8.7577625360043238E-02 a       438     0    18     1    13
  5.1089228772325593E-03 a       439     0    18     1    14
 -9.1164579352541991E-02 a       440     0    18     1    15
  2.2900461101504014E-02 a       441     0    18     1    16
 -3.5333115611922129E-02 a       442     0    18     1    17
 -5.6002399582451422E-02 a       443     0    18     1    18
  2.6096374132808109E-01 a       444     0    18     1    19
 -1.1050396880855287E-02 a       445     0    18     1    20
 -1.8458997015199343E-02 a       446     0    18     1    21
  2.4954991461211840E-01 a       447     0    18     1    22
  1.6152839742564615E-01 a       448     0    18     1    23
 -1.7702826459249799E-01 a       449     0    18     1    24
  9.0624368477943543E-02 a       450     0    18     1    25
 -2.0548832009437829E-01 a       451     0    19     1     1
  7.8185900159586375E-02 a       452     0    19     1     2
  5.6248399773528489E-02 a       453     0    19     1     3
 -1.2619466148616157E-01 a       454     0    19     1     4
  1.6194314015815475E-01 a       455     0    19     1     5
  7.0166488956054915E-02 a       456     0    19     1     6
 -3.0671791105395764E-03 a       457     0    19     1     7
  1.9721518177595848E-01 a       458     0    19     1     8
  2.9147314836104189E-03 a       459     0    19     1     9
  3.2978351606978871E-03 a       460     0    19     1    10
 -4.0984501794884422E-02 a       461     0    19     1    11
 -3.3086791892840188E-02 a       462     0    19     1    12
  1.4845592952115361E-01 a       463     0    19     1    13
 -2.8183499549433798E-02 a       464     0    19     1    14
  8.9787630247407990E-02 a       465     0    19     1    15
 -7.8266503970637280E-02 a       466     0    19     1    16
  8.5533793639439332E-02 a       467     0    19     1    17
  1.1007874587616165E-02 a       468     0    19     1    18
  8.6971781408493515E-02 a       469     0    19     1    19
 -3.8378623619367482E-02 a       470     0    19     1    20
 -1.0860948088511238E-01 a       471     0    19     1    21
 -9.0248696910768561E-02 a       472     0    19     1    22
 -8.0232724839656190E-03 a       473     0    19     1    23
  1.7062967082784072E-01 a       474     0    19     1    24
  1.1821563852226756E-01 a       475     0    19     1    25
  1.3812732898315166E-01 a       476     0    20     1     1
 -1.8978821018765090E-02 a       477     0    20     1     2
  3.1672906022127141E-02 a       478     0    20     1     3
 -1.6830095869386222E-01 a       479     0    20     1     4
  3.3726135164676804E-02 a       480     0    20     1     5
 -3.6083804643599296E-02 a       481     0    20     1     6
  1.6103840995089565E-03 a       482     0    20     1     7
 -1.3249493068437165E-01 a       483     0    20     1     8
 -3.4671866059537292E-03 a       484     0    20     1     9
 -3.8286501840003144E-03 a       485     0    20     1    10
  3.3213195752372630E-02 a       486     0    20     1    11
 -1.4569555587726938E-02 a       487     0    20     1    12
  1.3253374565494638E-01 a       488     0    20     1    13
 -1.0025619384454065E-01 a       489     0    20     1    14
 -8.2337520635622830E-02 a       490     0    20     1    15
  1.1536184203068182E-01 a       491     0    20     1    16
 -3.7267813691434983E-02 a       492     0    20     1    17
  2.6854146902062129E-02 a       493     0    20     1    18
 -3.2934111660900961E-01 a       494     0    20     1    19
 -9.2284886616258291E-02 a       495     0    20     1    20
 -5.6173664883881702E-02 a       496     0    20     1    21
 -1.0842456484137442E-01 a       497     0    20     1    22
  1.4853468404886454E-02 a       498     0    20     1    23
 -7.4859204648756849E-03 a       499     0    20     1    24
 -3.0121068021502481E-02 a       500     0    20     1    25
 -1.8287805398352711E-01 a       501     0    21     1     1
 -5.8457721114819533E-02 a       502     0    21     1     2
  6.3437300615360903E-02 a       503     0    21     1     3
  1.2244401495106737E-01 a       504     0    21     1     4
  3.1671284071827024E-02 a       505     0    21     1     5
 -8.6384067701392991E-03 a       506     0    21     1     6
  1.6816147214856386E-01 a       507     0    21     1     7
  3.8033814724018677E-01 a       508     0    21     1     8
  6.5824134328370185E-03 a       509     0    21     1     9
  1.6897857295731047E-01 a       510     0    21     1    10
 -7.9880151355705725E-02 a       511     0    21     1    11
  1.4122916163636456E-01 a       512     0    21     1    12
 -2.1313265852596491E-02 a       513     0    21     1    13
  5.3312565799216366E-02 a       514     0    21     1    14
  5.1548081434522559E-02 a       515     0    21     1    15
 -5.8500525275042417E-02 a       516     0    21     1    16
  1.0666224987988322E-02 a       517     0    21     1    17
  8.0638337877055460E-02 a       518     0    21     1    18
  3.3146014291038911E-01 a       519     0    21     1    19
 -6.8470328472841360E-02 a       520     0    21     1    20
 -7.9954817229988429E-02 a       521     0    21     1    21
 -1.2276988740280194E-02 a       522     0    21     1    22
 -2.1257865072663692E-02 a       523     0    21     1    23
  1.1792050342096157E-01 a       524     0    21     1    24
 -4.8778854792391593E-02 a       525     0    21     1    25
  4.6589422465069717E-02 a       526     0    22     1     1
 -1.0137307240812356E-01 a       527     0    22     1     2
 -1.4807263578136221E-01 a       528     0    22     1     3
 -1.7807183651003405E-01 a       529     0    22     1     4
  5.3553627052583909E-02 a       530     0    22     1     5
 -8.7947515450049876E-02 a       531     0    22     1     6
  8.0941184518802972E-02 a       532     0    22     1     7
 -5.1809523261727081E-02 a       533     0    22     1     8
  8.2107858015798632E-02 a       534     0    22     1     9
  1.0213778534782409E-02 a       535     0    22     1    10
 -1.8429349461627782E-02 a       536     0    22     1    11
  6.0041510906654376E-02 a       537     0    22     1    12
 -2.6400650710612265E-02 a       538     0    22     1    13
  1.5656336805751287E-03 a       539     0    22     1    14
  1.0476505513565978E-01 a       540     0    22     1    15
  1.1223853837979625E-01 a       541     0    22     1    16
  9.7375634795025048E-02 a       542     0    22     1    17
 -1.3056246164774932E-01 a       543     0    22     1    18
 -2.5496249731707808E-02 a       544     0    22     1    19
 -9.4071893667116491E-02 a       545     0    22     1    20
  6.3630923365014577E-03 a       546     0    22     1    21
 -4.4056801927410148E-02 a       547     0    22     1    22
 -9.2149238169439693E-02 a       548     0    22     1    23
 -1.5605687689447673E-03 a       549     0    22     1    24
  6.4524713898927902E-02 a       550     0    22     1    25
  6.9411208867228208E-02 a       551     0    23     1     1
 -3.4592610338361522E-02 a       552     0    23     1     2
 -2.8112635685389541E-02 a       553     0    23     1     3
 -9.6893391404181559E-02 a       554     0    23     1     4
 -5.0415341575649385E-02 a       555     0    23     1     5
  8.2385631910482968E-02 a       556     0    23     1     6
  7.1220545565882407E-02 a       557     0    23     1     7
 -1.7520768289364878E-02 a       558     0    23     1     8
 -4.9053666224768401E-02 a       559     0    23     1     9
  3.2246933743724181E-04 a       560     0    23     1    10
 -8.5824770342963874E-02 a       561     0    23     1    11
  7.1985438010245010E-03 a       562     0    23     1    12
 -5.1079843309762785E-02 a       563     0    23     1    13
  2.2196733453202951E-03 a       564     0    23     1    14
  7.3640457203913004E-02 a       565     0    23     1    15
 -1.9475452897273621E-02 a       566     0    23     1    16
  2.2511129071070574E-02 a       567     0    23     1    17
 -5.9174628292372996E-03 a       568     0    23     1    18
 -8.3393494557176720E-02 a       569     0    23     1    19
 -7.2796617288861734E-02 a       570     0    23     1    20
 -9.4202338411600570E-02 a       571     0    23     1    21
 -9.5313492933846361E-02 a       572     0    23     1    22
 -6.9595710079917189E-02 a       573     0    23     1    23
 -2.2119882255996953E-02 a       574     0    23     1    24
  1.7609539258942417E-02 a       575     0    23     1    25
 -6.0194639982001676E-02 a       576     0    24     1     1
 -3.0340387987340331E-02 a       577     0    24     1     2
  6.4516331330177215E-02 a       578     0    24     1     3
  1.2775052148688398E-01 a       579     0    24     1     4
  1.4016949017255611E-02 a       580     0    24     1     5
  3.5834168721109401E-02 a       581     0    24     1     6
  1.1206180561369478E-01 a       582     0    24     1     7
 -7.6606890570239547E-02 a       583     0    24     1     8
 -8.9663753116585504E-02 a       584     0    24     1     9
  3.6090955508412792E-02 a       585     0    24     1    10
 -3.2659431615335001E-02 a       586     0    24     1    11
  5.4768968729322381E-02 a       587     0    24     1    12
  4.4541044977945204E-03 a       588     0    24     1    13
  4.8790975720508924E-02 a       589     0    24     1    14
 -7.1105736645828760E-03 a       590     0    24     1    15
  2.1631001954682586E-03 a       591     0    24     1    16
 -6.2556553623829225E-02 a       592     0    24     1    17
  4.2846832411930630E-02 a       593     0    24     1    18
  4.7408859163552523E-02 a       594     0    24     1    19
  8.0062976027457919E-02 a       595     0    24     1    20
 -9.1472793798844612E-02 a       596     0    24     1    21
  8.2256480452005010E-02 a       597     0    24     1    22
 -1.7587029245920142E-02 a       598     0    24     1    23
 -1.4358725875313710E-02 a       599     0    24     1    24
  1.0884459052601030E-01 a       600     0    24     1    25
 -1.7671308746870337E-01 a       601     0    25     1     1
 -8.0749455606806464E-02 a       602     0    25     1     2
  1.4371584540816476E-01 a       603     0    25     1     3
  1.0475728704657994E-01 a       604     0    25     1     4
 -8.9719557344413697E-02 a       605     0    25     1     5
  1.0396205073190461E-01 a       606     0    25     1     6
  8.2250881278543964E-02 a       607     0    25     1     7
  3.8166967226618631E-01 a       608     0    25     1     8
  2.7718909157117801E-02 a       609     0    25     1     9
  9.0187945659630286E-02 a       610     0    25     1    10
 -5.4564861324674759E-02 a       611     0    25     1    11
  8.8921004746322354E-04 a       612     0    25     1    12
  2.6883823938173932E-02 a       613     0    25     1    13
 -4.7189475955351071E-02 a       614     0    25     1    14
  1.0510403990786686E-01 a       615     0    25     1    15
  2.2989043274086882E-02 a       616     0    25     1    16
 -1.2055613144351569E-02 a       617     0    25     1    17
  1.6099683687962657E-01 a       618     0    25     1    18
  1.6101788459986099E-01 a       619     0    25     1    19
 -1.9540233381075223E-01 a       620     0    25     1    20
 -4.0833621535857123E-02 a       621     0    25     1    21
 -7.3913101609868762E-02 a       622     0    25     1    22
 -1.5201124634539476E-01 a       623     0    25     1    23
  1.4428144417528512E-02 a       624     0    25     1    24
  2.0026250541199384E-01 a       625     0    25     1    25
 -4.8662241657888509E-02 a       626     0    26     1     1
  1.2550289048977126E-03 a       627     0    26     1     2
  1.4012011351748077E-01 a       628     0    26     1     3
  2.6648264845309782E-02 a       629     0    26     1     4
 -8.2348126700837979E-02 a       630     0    26     1     5
 -7.7598671400950746E-03 a       631     0    26     1     6
  9.4703159684009219E-03 a       632     0    26     1     7
  2.8046799832261360E-01 a       633     0    26     1     8
 -7.3316434806134978E-02 a       634     0    26     1     9
  1.7133716130384041E-02 a       635     0    26     1    10
  3.3553833591920060E-02 a       636     0    26     1    11
  5.0594372087502171E-02 a       637     0    26     1    12
  4.3175878512488719E-02 a       638     0    26     1    13
  1.3811916724953011E-02 a       639     0    26     1    14
  1.0535135103922962E-01 a       640     0    26     1    15
 -1.1458877646351921E-01 a       641     0    26     1    16
 -7.5306440450899140E-02 a       642     0    26     1    17
 -4.8241941529750684E-02 a       643     0    26     1    18
  1.4639829164680890E-01 a       644     0    26     1    19
  3.9567286823956285E-02 a       645     0    26     1    20
 -1.3817549107627541E-01 a       646     0    26     1    21
  6.6376095724881137E-02 a       647     0    26     1    22
 -1.1103538169300291E-01 a       648     0    26     1    23
 -1.1677814323273497E-01 a       649     0    26     1    24
  2.1969461046336503E-02 a       650     0    26     1    25
 -5.0433940698858516E-02 a       651     0    27     1     1
 -2.4496299345577711E-02 a       652     0    27     1     2
 -1.2736836596442244E-01 a       653     0    27     1     3
  1.2277420983206147E-01 a       654     0    27     1     4
 -1.4333517129733027E-02 a       655     0    27     1     5
  9.0761684721819183E-02 a       656     0    27     1     6
 -1.7118765102009957E-02 a       657     0    27     1     7
  1.7050565144671018E-01 a       658     0    27     1     8
 -1.5318282557861804E-01 a       659     0    27     1     9
 -1.9322398130690928E-02 a       660     0    27     1    10
 -1.2585295780554355E-03 a       661     0    27     1    11
 -3.2075541562283129E-02 a       662     0    27     1    12
 -5.7124868378809424E-02 a       663     0    27     1    13
 -8.8940366516531935E-02 a       664     0    27     1    14
  1.4904779375298806E-04 a       665     0    27     1    15
 -2.1288985769823313E-02 a       666     0    27     1    16
 -7.7272992794671952E-02 a       667     0    27     1    17
  4.1352800807437723E-02 a       668     0    27     1    18
  1.4289947265739975E-01 a       669     0    27     1    19
 -7.4161303694779360E-03 a       670     0    27     1    20
 -8.2076877137135587E-02 a       671     0    27     1    21
  9.3542507452542001E-02 a       672     0    27     1    22
  2.8283303958500223E-02 a       673     0    27     1    23
  1.5315131653331512E-01 a       674     0    27     1    24
 -3.3320474160637874E-02 a       675     0    27     1    25
  9.8197918611883983E-02 a       676     0    28     1     1
  7.5227415556703744E-02 a       677     0    28     1     2
 -4.9663264570752971E-02 a       678     0    28     1     3
 -1.0455126255971722E-01 a       679     0    28     1     4
  3.8610051029537525E-02 a       680     0    28     1     5
  9.5881306628373672E-02 a       681     0    28     1     6
 -8.5325232401531215E-03 a       682     0    28     1     7
  3.3879530851178258E-02 a       683     0    28     1     8
  6.3753833956819994E-02 a       684     0    28     1     9
  2.2132846043065556E-02 a       685     0    28     1    10
 -4.2117937411652928E-02 a       686     0    28     1    11
  9.3947530661140227E-02 a       687     0    28     1    12
  9.6028365134421714E-02 a       688     0    28     1    13
  3.0695810873778231E-02 a       689     0    28     1    14
 -1.5485927453282299E-02 a       690     0    28     1    15
  9.5049210704286277E-03 a       691     0    28     1    16
 -8.5387911507669695E-02 a       692     0    28     1    17
  3.6017741091536666E-02 a       693     0    28     1    18
  1.9755461780473765E-01 a       694     0    28     1    19
 -1.2647970801306252E-01 a       695     0    28     1    20
  9.4958472353758212E-03 a       696     0    28     1    21
 -1.0119741457992099E-01 a       697     0    28     1    22
  9.4114342764150191E-02 a       698     0    28     1    23
  8.6000363919862474E-02 a       699     0    28     1    24
  1.7877758482126568E-02 a       700     0    28     1    25
  9.8921147501495665E-02 a       701     0    29     1     1
 -3.6614735709439544E-02 a       702     0    29     1     2
  4.3276515406665472E-03 a       703     0    29     1     3
 -4.2250089922528704E-02 a       704     0    29     1     4
 -2.3837854868829556E-02 a       705     0    29     1     5
 -3.0746386995036040E-02 a       706     0    29     1     6
  5.6998536850036009E-02 a       707     0    29     1     7
  1.3453082860992049E-01 a       708     0    29     1     8
 -7.3754699695003255E-03 a       709     0    29     1     9
  4.5248102485002363E-02 a       710     0    29     1    10
  4.3433167398253349E-02 a       711     0    29     1    11
  2.1830819373463310E-02 a       712     0    29     1    12
  8.8322725530450119E-02 a       713     0    29     1    13
 -1.9678906709626809E-01 a       714     0    29     1    14
  4.6901412428300635E-02 a       715     0    29     1    15
 -9.4001751790151508E-02 a       716     0    29     1    16
 -2.2402495791584300E-02 a       717     0    29     1    17
 -6.2543559305446332E-03 a       718     0    29     1    18
  1.1895599263059088E-01 a       719     0    29     1    19
 -1.4548766414525791E-01 a       720     0    29     1    20
  4.1466271189907145E-02 a       721     0    29     1    21
  2.2591286083821632E-02 a       722     0    29     1    22
  1.8250884053885358E-01 a       723     0    29     1    23
 -7.3749202078432080E-02 a       724     0    29     1    24
 -4.1843235330828593E-02 a       725     0    29     1    25
  1.1913754444564401E-01 a       726     0    30     1     1
  7.2258476047404999E-02 a       727     0    30     1     2
 -2.1655842525204676E-02 a       728     0    30     1     3
 -1.1483277169772710E-01 a       729     0    30     1     4
 -2.4711255578511469E-02 a       730     0    30     1     5
 -1.7043866948674533E-02 a       731     0    30     1     6
 -9.1713136672500251E-02 a       732     0    30     1     7
  1.3137683102191239E-01 a       733     0    30     1     8
  2.3086143287242653E-02 a       734     0    30     1     9
  7.2263422114942785E-02 a       735     0    30     1    10
 -6.0115818730669943E-02 a       736     0    30     1    11
 -8.0099897236973167E-02 a       737     0    30     1    12
  3.2980712235922187E-02 a       738     0    30     1    13
 -3.9605963023101244E-02 a       739     0    30     1    14
  6.9483393037716612E-02 a       740     0    30     1    15
  8.3374918289940772E-02 a       741     0    30     1    16
  7.1321890612234318E-02 a       742     0    30     1    17
  2.9154701304491971E-02 a       743     0    30     1    18
  1.6387721559566443E-01 a       744     0    30     1    19
  6.2405008547047447E-02 a       745     0    30     1    20
  6.7394952661133725E-02 a       746     0    30     1    21
  1.1134418770134766E-01 a       747     0    30     1    22
  1.3458278931975365E-01 a       748     0    30     1    23
  8.7846920980168205E-03 a       749     0    30     1    24
 -6.5959263438731097E-02 a       750     0    30     1    25
 -6.2980346384890834E-02 a       751     0    31     1     1
  3.4473655597533764E-02 a       752     0    31     1     2
 -1.1730715085721555E-01 a       753     0    31     1     3
  4.1155586239863991E-02 a       754     0    31     1     4
  3.0524434764210982E-02 a       755     0    31     1     5
  1.1591259950700451E-01 a       756     0    31     1     6
 -8.2035087214555283E-02 a       757     0    31     1     7
  2.0018737704953785E-01 a       758     0    31     1     8
 -1.1880752307120561E-01 a       759     0    31     1     9
  3.1026028280639498E-02 a       760     0    31     1    10
  1.4664072304069045E-01 a       761     0    31     1    11
 -4.3362498491748287E-02 a       762     0    31     1    12
  1.7115074291465407E-01 a       763     0    31     1    13
 -1.9203665735693604E-01 a       764     0    31     1    14
  1.0756967053888664E-01 a       765     0    31     1    15
 -1.0194184452930954E-01 a       766     0    31     1    16
 -2.9093294189570275E-02 a       767     0    31     1    17
 -7.4436344913197915E-03 a       768     0    31     1    18
  1.5431423903089223E-01 a       769     0    31     1    19
 -1.3781196016204666E-01 a       770     0    31     1    20
  5.6634913867637339E-02 a       771     0    31     1    21
  4.6360591841722656E-02 a       772     0    31     1    22
 -1.1974983691685058E-02 a       773     0    31     1    23
  2.8244641161800262E-03 a       774     0    31     1    24
  5.4254888051322371E-02 a       775     0    31     1    25
 -1.0014900877018379E-01 a       776     0    32     1     1
  3.1473734033470660E-02 a       777     0    32     1     2
 -6.6400027335999062E-02 a       778     0    32     1     3
 -8.0543988542664424E-02 a       779     0    32     1     4
  5.1932650798835458E-03 a       780     0    32     1     5
  3.8792834156156822E-02 a       781     0    32     1     6
  7.8776179346872574E-02 a       782     0    32     1     7
  9.8909234088647199E-02 a       783     0    32     1     8
 -2.2432905125594520E-02 a       784     0    32     1     9
  1.9219378585137581E-01 a       785     0    32     1    10
 -4.5591649493253145E-02 a       786     0    32     1    11
  7.2556469167442794E-02 a       787     0    32     1    12
  7.4167329146134775E-02 a       788     0    32     1    13
 -2.2343543096929493E-02 a       789     0    32     1    14
 -2.0173323827818449E-02 a       790     0    32     1    15
  3.1052070647363705E-02 a       791     0    32     1    16
  3.2946766499523876E-02 a       792     0    32     1    17
 -8.8117423922055814E-03 a       793     0    32     1    18
  1.8182485999137690E-01 a       794     0    32     1    19
 -6.6154215153930912E-02 a       795     0    32     1    20
  2.6123667635494952E-02 a       796     0    32     1    21
  1.4875076302617873E-01 a       797     0    32     1    22
 -1.0965635126654884E-02 a       798     0    32     1    23
 -3.1331942330532901E-02 a       799     0    32     1    24
 -3.9699583695996750E-02 a       800     0    32     1    25
  6.6174616035542450E-02 a       801     0    33     1     1
  8.7194653627401961E-02 a       802     0    33     1     2
  4.8243538789954132E-02 a       803     0    33     1     3
 -1.0318082431156951E-01 a       804     0    33     1     4
 -5.0181178883686815E-03 a       805     0    33     1     5
  1.3512987999988779E-01 a       806     0    33     1     6
 -2.0989971263665232E-02 a       807     0    33     1     7
  1.6106761087369761E-01 a       808     0    33     1     8
 -9.8186594639298012E-03 a       809     0    33     1     9
 -5.0513243531222558E-02 a       810     0    33     1    10
  1.4633939325645542E-01 a       811     0    33     1    11
 -4.4567126582650052E-02 a       812     0    33     1    12
 -4.7860068831189005E-02 a       813     0    33     1    13
 -1.0193398717321012E-01 a       814     0    33     1    14
  8.9222005081532416E-03 a       815     0    33     1    15
 -3.9020652098377545E-02 a       816     0    33     1    16
  4.6356216877844192E-02 a       817     0    33     1    17
 -5.8288798727530865E-02 a       818     0    33     1    18
 -1.9239641180876371E-02 a       819     0    33     1    19
  1.9505536332743136E-02 a       820     0    33     1    20
  2.0821989926662773E-02 a       821     0    33     1    21
 -1.0498850650579107E-01 a       822     0    33     1    22
  1.6712033416824069E-02 a       823     0    33     1    23
 -2.1373725342114418E-03 a       824     0    33     1    24
 -5.3018805394332610E-02 a       825     0    33     1    25
 -2.5821779747000617E-02 a       826     0    34     1     1
 -6.9407343757884696E-02 a       827     0    34     1     2
 -1.4588412644146598E-01 a       828     0    34     1     3
 -3.1375936468029053E-02 a       829     0    34     1     4
  1.4629602908677625E-01 a       830     0    34     1     5
  4.7651526323391209E-02 a       831     0    34     1     6
  5.0462020073023452E-02 a       832     0    34     1     7
  2.3435880936976092E-01 a       833     0    34     1     8
 -4.1008064767303766E-02 a       834     0    34     1     9
  5.2721623413424346E-02 a       835     0    34     1    10
  5.9255872634373118E-02 a       836     0    34     1    11
  5.3423955313780788E-02 a       837     0    34     1    12
 -1.6766990512190397E-02 a       838     0    34     1    13
 -1.9994906563809955E-01 a       839     0    34     1    14
  1.5187111397303055E-01 a       840     0    34     1    15
  1.7575112201663703E-02 a       841     0    34     1    16
  6.4402195050722505E-02 a       842     0    34     1    17
  5.0595372860894626E-02 a       843     0    34     1    18
 -7.2379053484016451E-02 a       844     0    34     1    19
 -2.6617383742842921E-02 a       845     0    34     1    20
 -7.8496262518996218E-02 a       846     0    34     1    21
  1.9585988006820768E-03 a       847     0    34     1    22
  7.0957170156721622E-02 a       848     0    34     1    23
 -2.5670312687111334E-02 a       849     0    34     1    24
 -8.7450166448609937E-02 a       850     0    34     1    25
  6.1348737748519254E-02 a       851     0    35     1     1
  1.0402409648978159E-01 a       852     0    35     1     2
  5.0045113662898454E-02 a       853     0    35     1     3
 -4.9744447595438473E-02 a       854     0    35     1     4
 -2.5054693164184873E-02 a       855     0    35     1     5
  7.9681248816798320E-02 a       856     0    35     1     6
 -1.2761033067292646E-01 a       857     0    35     1     7
  7.8946224162189993E-02 a       858     0    35     1     8
 -1.1898987832109996E-01 a       859     0    35     1     9
  8.3123776920546844E-02 a       860     0    35     1    10
 -2.8380126507016643E-02 a       861     0    35     1    11
 -1.1511825560426761E-01 a       862     0    35     1    12
  5.3988940322200987E-02 a       863     0    35     1    13
  8.6761885743097678E-02 a       864     0    35     1    14
  4.4488288282990264E-02 a       865     0    35     1    15
 -5.5433629874625141E-02 a       866     0    35     1    16
 -7.1989287242999356E-02 a       867     0    35     1    17
  4.4121160826536110E-02 a       868     0    35     1    18
  1.8812305589810849E-01 a       869     0    35     1    19
 -8.2057876895933898E-02 a       870     0    35     1    20
 -5.3447902218940836E-02 a       871     0    35     1    21
  3.1455067768768719E-02 a       872     0    35     1    22
  8.3395558351601215E-02 a       873     0    35     1    23
  6.8373282029731725E-02 a       874     0    35     1    24
 -7.2563828251441850E-02 a       875     0    35     1    25
 -5.9758690586325124E-02 a       876     0    36     1     1
  1.0507205528487648E-01 a       877     0    36     1     2
  1.4749844219653654E-01 a       878     0    36     1     3
  8.8760603861698720E-02 a       879     0    36     1     4
  6.7438398587381751E-02 a       880     0    36     1     5
  1.1902564190703173E-01 a       881     0    36     1     6
  1.4195764032950245E-01 a       882     0    36     1     7
  2.8158043933051652E-01 a       883     0    36     1     8
  4.9547437006552935E-03 a       884     0    36     1     9
  3.6285739100472628E-02 a       885     0    36     1    10
 -6.1934755956578810E-02 a       886     0    36     1    11
  6.9016591029366003E-03 a       887     0    36     1    12
  2.5447137863447686E-02 a       888     0    36     1    13
  2.0207293921242538E-02 a       889     0    36     1    14
  6.7345173523202656E-02 a       890     0    36     1    15
  7.5249723831789128E-02 a       891     0    36     1    16
  7.5001894133314567E-02 a       892     0    36     1    17
 -5.9843368087213099E-02 a       893     0    36     1    18
  1.4761920993435237E-01 a       894     0    36     1    19
 -1.5506582869948568E-01 a       895     0    36     1    20
 -3.6807264369181046E-02 a       896     0    36     1    21
 -3.4813223807852116E-02 a       897     0    36     1    22
 -1.7267409704763134E-01 a       898     0    36     1    23
  4.2794021531375556E-02 a       899     0    36     1    24
  1.4757645588282481E-01 a       900     0    36     1    25
 -4.7394837921836748E-02 a       901     0    37     1     1
 -5.8097703873306199E-02 a       902     0    37     1     2
 -4.2181975076041191E-02 a       903     0    37     1     3
  2.0255447340459996E-02 a       904     0    37     1     4
  4.0760018220492328E-02 a       905     0    37     1     5
  3.7558298151505062E-02 a       906     0    37     1     6
  7.1647998734140086E-02 a       907     0    37     1     7
  1.2819962551626440E-01 a       908     0    37     1     8
 -6.3947626428069532E-02 a       909     0    37     1     9
  9.9744953192596991E-02 a       910     0    37     1    10
 -3.2289967113581307E-02 a       911     0    37     1    11
  2.1074733097446997E-02 a       912     0    37     1    12
  3.4833950626933827E-02 a       913     0    37     1    13
  3.4581860631530202E-02 a       914     0    37     1    14
  1.1951032192824691E-01 a       915     0    37     1    15
  1.5398047020455030E-03 a       916     0    37     1    16
 -4.5605922282651569E-02 a       917     0    37     1    17
 -4.5412261699239266E-02 a       918     0    37     1    18
 -1.8143479862269819E-02 a       919     0    37     1    19
 -4.2064948553865514E-02 a       920     0    37     1    20
 -3.6028879149285565E-03 a       921     0    37     1    21
 -7.9611840654830540E-02 a       922     0    37     1    22
 -1.9849170403776959E-02 a       923     0    37     1    23
  4.4346522523283714E-02 a       924     0    37     1    24
 -4.3069055458177526E-02 a       925     0    37     1    25
  6.2739329291063767E-02 a       926     0    38     1     1
 -8.7938013089018906E-03 a       927     0    38     1     2
 -7.4574703950913146E-03 a       928     0    38     1     3
  7.6407609969458792E-02 a       929     0    38     1     4
  1.2594234359520212E-01 a       930     0    38     1     5
  1.6522495401075102E-01 a       931     0    38     1     6
  6.4692134165804813E-02 a       932     0    38     1     7
  1.3696525195099427E-01 a       933     0    38     1     8
 -1.3579533478937239E-01 a       934     0    38     1     9
 -1.0037728362358003E-01 a       935     0    38     1    10
  1.4791187358599442E-01 a       936     0    38     1    11
  6.7999881039886884E-02 a       937     0    38     1    12
  5.3248071263146603E-02 a       938     0    38     1    13
 -1.0960131783020946E-01 a       939     0    38     1    14
  9.3274480290504502E-02 a       940     0    38     1    15
 -1.5002172408199954E-01 a       941     0    38     1    16
 -3.2532039397331361E-02 a       942     0    38     1    17
 -7.8359541835633637E-02 a       943     0    38     1    18
  7.5166692582964240E-02 a       944     0    38     1    19
  4.3970920273443403E-02 a       945     0    38     1    20
  9.4282849156501675E-02 a       946     0    38     1    21
  4.6642016360541029E-02 a       947     0    38     1    22
  4.4461691502441142E-02 a       948     0    38     1    23
 -2.4509063259723487E-02 a       949     0    38     1    24
 -1.0078599017299340E-01 a       950     0    38     1    25
 -3.3874698094632144E-02 a       951     0    39     1     1
 -8.3784650565946625E-02 a       952     0    39     1     2
 -6.4918647120156478E-02 a       953     0    39     1     3
 -6.6155101718783443E-02 a       954     0    39     1     4
 -3.9160421454473821E-02 a       955     0    39     1     5
 -1.0095172180161846E-01 a       956     0    39     1     6
 -1.1311356612196305E-01 a       957     0    39     1     7
  7.7352564295106035E-02 a       958     0    39     1     8
  4.2762959741637047E-02 a       959     0    39     1     9
 -3.7705801567892945E-02 a       960     0    39     1    10
 -2.9680917068683185E-02 a       961     0    39     1    11
 -5.4900630743097686E-02 a       962     0    39     1    12
  1.5900931974172739E-02 a       963     0    39     1    13
 -4.9432336241715322E-02 a       964     0    39     1    14
  1.3826750617869007E-01 a       965     0    39     1    15
  7.3698713759129883E-02 a       966     0    39     1    16
 -7.6043649986063375E-02 a       967     0    39     1    17
  1.0555269346870795E-01 a       968     0    39     1    18
 -2.1316244055519469E-02 a       969     0    39     1    19
  4.7230619354028669E-02 a       970     0    39     1    20
  6.9580736388393807E-02 a       971     0    39     1    21
 -9.7820449534615026E-03 a       972     0    39     1    22
  6.3055012605445424E-03 a       973     0    39     1    23
 -1.7275172916068841E-02 a       974     0    39     1    24
 -2.7752778248593291E-02 a       975     0    39     1    25
 -3.2954447446956678E-02 a       976     0    40     1     1
  4.8120854516551882E-02 a       977     0    40     1     2
  1.3778644733570250E-01 a       978     0    40     1     3
 -3.2512957306287844E-02 a       979     0    40     1     4
 -1.2095104338236605E-01 a       980     0    40     1     5
  6.7867193704185813E-03 a       981     0    40     1     6
 -6.0244538026696909E-02 a       982     0    40     1     7
  1.6379582401334833E-01 a       983     0    40     1     8
 -1.1171703878861869E-02 a       984     0    40     1     9
 -5.2402043826443936E-02 a       985     0    40     1    10
 -1.1206083201473273E-01 a       986     0    40     1    11
  1.3061214761855761E-01 a       987     0    40     1    12
  5.6147258009978183E-02 a       988     0    40     1    13
  7.6945023067462356E-02 a       989     0    40     1    14
  2.4945226644132002E-02 a       990     0    40     1    15
  1.2808162636406456E-01 a       991     0    40     1    16
  3.6351782059085768E-03 a       992     0    40     1    17
  6.4077244022341329E-02 a       993     0    40     1    18
  2.9921823686375498E-02 a       994     0    40     1    19
 -1.8634509301498814E-01 a       995     0    40     1    20
  7.3136564644009422E-03 a       996     0    40     1    21
 -3.1886954187687326E-02 a       997     0    40     1    22
 -1.1542527434453131E-01 a       998     0    40     1    23
  6.5168692331494374E-02 a       999     0    40     1    24
 -2.1477624005847989E-02 a      1000     0    40     1    25
  7.3864146536762307E-02 a      1001     0    41     1     1
 -8.9702369390068551E-02 a      1002     0    41     1     2
  4.1562487069193702E-02 a      1003     0    41     1     3
  2.1884173267874361E-02 a      1004     0    41     1     4
 -7.3241654234986906E-03 a      1005     0    41     1     5
  9.2240097983674316E-02 a      1006     0    41     1     6
 -5.8041345912370139E-02 a      1007     0    41     1     7
 -2.5336163776204325E-02 a      1008     0    41     1     8
  1.5731067843622513E-02 a      1009     0    41     1     9
 -8.9865009251991271E-02 a      1010     0    41     1    10
 -2.6632165630157819E-03 a      1011     0    41     1    11
 -3.5807923025192458E-02 a      1012     0    41     1    12
 -7.8165825530516885E-03 a      1013     0    41     1    13
 -2.2172666139903690E-02 a      1014     0    41     1    14
 -4.0301985795351408E-02 a      1015     0    41     1    15
 -8.6592509017526034E-02 a      1016     0    41     1    16
 -1.6484527626336343E-02 a      1017     0    41     1    17
 -8.4339657743382590E-02 a      1018     0    41     1    18
 -9.7350115556156608E-02 a      1019     0    41     1    19
 -2.1396607682916534E-02 a      1020     0    41     1    20
  9.2602966834830103E-02 a      1021     0    41     1    21
  1.1013211746249001E-01 a      1022     0    41     1    22
  7.6041519326131443E-02 a      1023     0    41     1    23
 -1.1791493313344142E-01 a      1024     0    41     1    24
  6.3051186558036126E-02 a      1025     0    41     1    25
  5.9301200951119903E-02 a      1026     0    42     1     1
  7.5194791867584529E-02 a      1027     0    42     1     2
  2.4745960780645747E-02 a      1028     0    42     1     3
  4.8586993936652702E-02 a      1029     0    42     1     4
  5.4712230053011110E-02 a      1030     0    42     1     5
 -4.3778131089913942E-02 a      1031     0    42     1     6
 -1.0751352325016103E-02 a      1032     0    42     1     7
  4.4620244781720844E-02 a      1033     0    42     1     8
 -7.1328118571887353E-02 a      1034     0    42     1     9
  2.5394019069544832E-02 a      1035     0    42     1    10
 -1.0605032427864118E-01 a      1036     0    42     1    11
  9.2951874422428984E-02 a      1037     0    42     1    12
 -1.1219515104100497E-01 a      1038     0    42     1    13
  1.5816700540654057E-03 a      1039     0    42     1    14
  6.0221917233546009E-02 a      1040     0    42     1    15
 -3.0969214497154642E-02 a      1041     0    42     1    16
 -7.7306539158440823E-02 a      1042     0    42     1    17
  1.1144363765850954E-01 a      1043     0    42     1    18
  7.4634430738204832E-02 a      1044     0    42     1    19
 -1.4003752313574283E-01 a      1045     0    42     1    20
  4.3444928776285752E-02 a      1046     0    42     1    21
  6.7576316305860945E-02 a      1047     0    42     1    22
 -1.8204665538962772E-02 a      1048     0    42     1    23
  8.9639177492811278E-02 a      1049     0    42     1    24
  3.8259741086895629E-02 a      1050     0    42     1    25
  9.7551771025576314E-02 a      1051     0    43     1     1
  9.9518986312353216E-02 a      1052     0    43     1     2
 -4.9059138842928021E-02 a      1053     0    43     1     3
 -3.8140232611186049E-02 a      1054     0    43     1     4
  1.4560454732462293E-02 a      1055     0    43     1     5
 -1.0419673299036362E-01 a      1056     0    43     1     6
  8.3969232713337214E-02 a      1057     0    43     1     7
  6.5154169038662640E-02 a      1058     0    43     1     8
  4.0151932626463938E-02 a      1059     0    43     1     9
  9.6658773912563709E-02 a      1060     0    43     1    10
  8.1874641663383430E-02 a      1061     0    43     1    11
  8.8513830593742182E-02 a      1062     0    43     1    12
  1.0080439453938470E-01 a      1063     0    43     1    13
 -6.6672307050294796E-02 a      1064     0    43     1    14
 -7.9328883581049735E-03 a      1065     0    43     1    15
 -8.2372187015944995E-02 a      1066     0    43     1    16
 -7.1970803296962094E-02 a      1067     0    43     1    17
 -3.9546516842254360E-02 a      1068     0    43     1    18
 -1.1631080702679043E-01 a      1069     0    43     1    19
 -7.0320849555073769E-02 a      1070     0    43     1    20
  4.2779376011750449E-02 a      1071     0    43     1    21
  2.1893744715651257E-02 a      1072     0    43     1    22
  4.5085905344702311E-02 a      1073     0    43     1    23
  7.0983281110627891E-02 a      1074     0    43     1    24
  7.9015189221796914E-02 a      1075     0    43     1    25
  7.4492839972596800E-02 a      1076     0    44     1     1
 -3.3588847002716082E-02 a      1077     0    44     1     2
 -1.1626727557124060E-01 a      1078     0    44     1     3
  1.9992056486682133E-02 a      1079     0    44     1     4
 -6.3119018841718735E-02 a      1080     0    44     1     5
 -8.0481804071443744E-02 a      1081     0    44     1     6
  9.7643956205811459E-03 a      1082     0    44     1     7
 -2.8386954356652259E-02 a      1083     0    44     1     8
 -7.0294038743119708E-02 a      1084     0    44     1     9
 -4.5188580952235061E-02 a      1085     0    44     1    10
 -8.4520476821081672E-02 a      1086     0    44     1    11
  1.8017072622884857E-02 a      1087     0    44     1    12
  1.0285120634667348E-02 a      1088     0    44     1    13
  8.6902527431560156E-02 a      1089     0    44     1    14
  4.7061815800946150E-02 a      1090     0    44     1    15
 -2.4581972530903773E-02 a      1091     0    44     1    16
 -4.0775972995397959E-02 a      1092     0    44     1    17
  1.3844990605345431E-03 a      1093     0    44     1    18
 -2.6028518098321400E-02 a      1094     0    44     1    19
 -1.3817576366856241E-01 a      1095     0    44     1    20
 -1.1746601660422726E-01 a      1096     0    44     1    21
  2.7270669447767303E-02 a      1097     0    44     1    22
 -9.5343767900588877E-02 a      1098     0    44     1    23
  1.0202998913510831E-02 a      1099     0    44     1    24
  1.0217952492567724E-01 a      1100     0    44     1    25
  5.2974784840134709E-02 a      1101     0    45     1     1
 -1.2603951369645259E-02 a      1102     0    45     1     2
  1.2804472397036626E-01 a      1103     0    45     1     3
 -3.0033466197040306E-02 a      1104     0    45     1     4
  3.5504957298510366E-02 a      1105     0    45     1     5
  3.7996660367472422E-02 a      1106     0    45     1     6
  4.6577177811198599E-02 a      1107     0    45     1     7
  5.9973898802400942E-02 a      1108     0    45     1     8
  6.4553681206045493E-03 a      1109     0    45     1     9
  9.7332037106753217E-03 a      1110     0    45     1    10
 -6.8273697926529306E-02 a      1111     0    45     1    11
  9.8930679073746003E-02 a      1112     0    45     1    12
  9.8760193193793144E-02 a      1113     0    45     1    13
 -1.0223636011071735E-01 a      1114     0    45     1    14
  4.5366084711686717E-02 a      1115     0    45     1    15
 -9.5053452431694292E-03 a      1116     0    45     1    16
  1.7635493147351484E-02 a      1117     0    45     1    17
 -7.3472299207898065E-02 a      1118     0    45     1    18
 -2.9176104573568101E-02 a      1119     0    45     1    19
  5.0976646612091857E-02 a      1120     0    45     1    20
 -7.2779655504835228E-02 a      1121     0    45     1    21
 -2.7006368045430978E-02 a      1122     0    45     1    22
  3.9797837064381295E-02 a      1123     0    45     1    23
 -4.8630749310093369E-02 a      1124     0    45     1    24
  8.8454430549015681E-02 a      1125     0    45     1    25
  2.5152037989143290E-02 a      1126     0    46     1     1
 -5.9733661464486103E-02 a      1127     0    46     1     2
 -8.3886420370904116E-02 a      1128     0    46     1     3
  5.3959309013977483E-02 a      1129     0    46     1     4
 -6.6702860326060043E-02 a      1130     0    46     1     5
 -6.4688246723482293E-02 a      1131     0    46     1     6
 -5.9457534333242384E-02 a      1132     0    46     1     7
  1.1353447309663720E-01 a      1133     0    46     1     8
  9.8486960036751864E-02 a      1134     0    46     1     9
 -1.4023128075215779E-02 a      1135     0    46     1    10
  1.1266811651819404E-01 a      1136     0    46     1    11
 -4.1688036014933871E-02 a      1137     0    46     1    12
  5.0324660601485174E-02 a      1138     0    46     1    13
 -7.6985206692287270E-02 a      1139     0    46     1    14
 -4.6494673693452102E-02 a      1140     0    46     1    15
  7.1845962927178542E-02 a      1141     0    46     1    16
  1.3702773359817469E-01 a      1142     0    46     1    17
 -3.3743954122845726E-02 a      1143     0    46     1    18
 -8.8460815811521001E-02 a      1144     0    46     1    19
 -1.3809621496040364E-02 a      1145     0    46     1    20
  6.5507955435683912E-02 a      1146     0    46     1    21
  1.4347371550505933E-01 a      1147     0    46     1    22
 -4.1012220129426423E-02 a      1148     0    46     1    23
  3.4995441297504558E-02 a      1149     0    46     1    24
 -4.9154185863127260E-02 a      1150     0    46     1    25
  4.5613130850457873E-02 a      1151     0    47     1     1
  3.9340159436197064E-02 a      1152     0    47     1     2
 -1.9685515639859250E-02 a      1153     0    47     1     3
  8.3915795394225515E-02 a      1154     0    47     1     4
  1.2040017096049184E-01 a      1155     0    47     1     5
  8.8533859485993446E-02 a      1156     0    47     1     6
 -5.7916851597243045E-02 a      1157     0    47     1     7
  1.7166962876569222E-01 a      1158     0    47     1     8
 -1.2087681833642952E-01 a      1159     0    47     1     9
 -9.5859154812443059E-02 a      1160     0    47     1    10
  1.2228641667799353E-01 a      1161     0    47     1    11
  2.9671362404026250E-02 a      1162     0    47     1    12
  5.7847713562973288E-02 a      1163     0    47     1    13
 -2.1205842699603641E-01 a      1164     0    47     1    14
  2.0090994368275741E-02 a      1165     0    47     1    15
 -1.8289574243832685E-01 a      1166     0    47     1    16
 -2.9714941825723954E-03 a      1167     0    47     1    17
 -4.1400077993789808E-02 a      1168     0    47     1    18
  1.4744505480958192E-01 a      1169     0    47     1    19
  3.8321992854534123E-02 a      1170     0    47     1    20
 -3.1919052311619046E-02 a      1171     0    47     1    21
 -7.4167881482127496E-02 a      1172     0    47     1    22
  7.2219055086390746E-02 a      1173     0    47     1    23
 -3.7720473082512522E-02 a      1174     0    47     1    24
 -1.4704698413984316E-01 a      1175     0    47     1    25
  1.5136911264984146E-01 a      1176     0    48     1     1
  9.0115549964058281E-02 a      1177     0    48     1     2
 -1.6130917380480082E-03 a      1178     0    48     1     3
 -3.0432526457790640E-02 a      1179     0    48     1     4
  9.5909241541941498E-02 a      1180     0    48     1     5
  4.1025194085414454E-02 a      1181     0    48     1     6
 -3.4010386114229746E-03 a      1182     0    48     1     7
 -1.3432441764946301E-01 a      1183     0    48     1     8
  9.0426052763715167E-02 a      1184     0    48     1     9
  1.0925211796856319E-02 a      1185     0    48     1    10
 -5.2240831257850687E-02 a      1186     0    48     1    11
  4.0360842678453794E-02 a      1187     0    48     1    12
 -1.7683823035168785E-03 a      1188     0    48     1    13
  2.3034254377364394E-02 a      1189     0    48     1    14
 -8.0917850836825303E-03 a      1190     0    48     1    15
  4.5891632059279298E-02 a      1191     0    48     1    16
 -7.4423833662606381E-02 a      1192     0    48     1    17
 -1.2049451331034196E-01 a      1193     0    48     1    18
 -8.1841213133603458E-02 a      1194     0    48     1    19
  1.0974103037930064E-01 a      1195     0    48     1    20
  4.0855967896014922E-02 a      1196     0    48     1    21
  7.8027038349206518E-02 a      1197     0    48     1    22
 -7.9379603263231152E-02 a      1198     0    48     1    23
 -1.2112249531497100E-01 a      1199     0    48     1    24
  4.7440817042709256E-02 a      1200     0    48     1    25
  2.1211746616492784E-02 a      1201     0    49     1     1
  2.4827438382194169E-02 a      1202     0    49     1     2
  8.5041442687051161E-02 a      1203     0    49     1     3
  3.2842675299839745E-02 a      1204     0    49     1     4
  4.9650569578989244E-02 a      1205     0    49     1     5
  1.2284960232149545E-02 a      1206     0    49     1     6
 -4.3272492742628114E-02 a      1207     0    49     1     7
 -7.5451809579855464E-02 a      1208     0    49     1     8
  6.2885218653349090E-02 a      1209     0    49     1     9
  2.2726282398748236E-02 a      1210     0    49     1    10
  4.4592422776375332E-02 a      1211     0    49     1    11
  9.4592466148092150E-02 a      1212     0    49     1    12
 -9.5787342728015798E-02 a      1213     0    49     1    13
  1.8228801948915945E-02 a      1214     0    49     1    14
 -3.8402290581575876E-02 a      1215     0    49     1    15
  9.5176614193021633E-02 a      1216     0    49     1    16
 -9.2886445747110413E-02 a      1217     0    49     1    17
 -9.1867667203038669E-02 a      1218     0    49     1    18
  6.8702657390332600E-02 a      1219     0    49     1    19
 -5.8290543537657747E-03 a      1220     0    49     1    20
 -1.1246304147233466E-01 a      1221     0    49     1    21
  2.9978259065917386E-02 a      1222     0    49     1    22
 -2.0011660661059014E-02 a      1223     0    49     1    23
 -3.2741707900123602E-02 a      1224     0    49     1    24
  8.3924959195434065E-02 a      1225     0    49     1    25
  1.8326247077136470E-01 a      1226     0    50     1     1
  5.3960270972590423E-02 a      1227     0    50     1     2
 -8.4817019723343101E-02 a      1228     0    50     1     3
 -1.5560865179233077E-01 a      1229     0    50     1     4
 -4.1105217125452349E-02 a      1230     0    50     1     5
 -1.3941581644304193E-01 a      1231     0    50     1     6
  5.2108373979212252E-02 a      1232     0    50     1     7
  5.9687990181594090E-02 a      1233     0    50     1     8
  1.0616680907397454E-01 a      1234     0    50     1     9
 -1.9538158101548270E-02 a      1235     0    50     1    10
 -1.4994908914663957E-02 a      1236     0    50     1    11
 -5.3673959940224857E-02 a      1237     0    50     1    12
 -8.8472274588705518E-02 a      1238     0    50     1    13
 -8.1188984596203672E-03 a      1239     0    50     1    14
 -1.3345671389804173E-02 a      1240     0    50     1    15
  7.8241111324715798E-02 a      1241     0    50     1    16
 -6.6058166677929367E-02 a      1242     0    50     1    17
  1.2650020517618156E-02 a      1243     0    50     1    18
 -2.9007795511567930E-02 a      1244     0    50     1    19
  2.3594913838905000E-02 a      1245     0    50     1    20
 -1.2267540529841138E-01 a      1246     0    50     1    21
  7.4313619546894638E-03 a      1247     0    50     1    22
  5.6640776743818115E-02 a      1248     0    50     1    23
 -7.3988284114122199E-02 a      1249     0    50     1    24
  6.9574445785721806E-02 a      1250     0    50     1    25
 -4.4777774057719807E-02 a      1251     0    51     1     1
  3.4655494950153673E-02 a      1252     0    51     1     2
  8.1607100483870001E-02 a      1253     0    51     1     3
  8.7064826108785909E-02 a      1254     0    51     1     4
 -2.0940562959321550E-03 a      1255     0    51     1     5
 -5.6960253637838312E-02 a      1256     0    51     1     6
 -9.6430528355323522E-02 a      1257     0    51     1     7
 -1.2716224825581462E-03 a      1258     0    51     1     8
  1.0221158934133828E-01 a      1259     0    51     1     9
  4.7240243667973240E-02 a      1260     0    51     1    10
  4.8006031470147334E-03 a      1261     0    51     1    11
  8.9830480489655834E-02 a      1262     0    51     1    12
 -6.3519990690900863E-02 a      1263     0    51     1    13
  2.4774580669551363E-02 a      1264     0    51     1    14
 -4.3642682047582398E-02 a      1265     0    51     1    15
 -3.6735201104313449E-02 a      1266     0    51     1    16
 -9.9746053490601713E-02 a      1267     0    51     1    17
  5.3903108878219794E-02 a      1268     0    51     1    18
 -4.5472850806185003E-02 a      1269     0    51     1    19
 -1.7800995071312636E-02 a      1270     0    51     1    20
  5.0426234510607841E-02 a      1271     0    51     1    21
  1.9424374167064891E-02 a      1272     0    51     1    22
  7.1354409468837671E-02 a      1273     0    51     1    23
 -6.5660983968892181E-02 a      1274     0    51     1    24
  5.8817971172255845E-02 a      1275     0    51     1    25
 -3.6995665399651052E-02 a      1276     0    52     1     1
 -4.1378317847731660E-02 a      1277     0    52     1     2
 -6.8653206559200972E-02 a      1278     0    52     1     3
 -2.9217708119526915E-03 a      1279     0    52     1     4
  5.5753941318647748E-02 a      1280     0    52     1     5
  2.8102107222323428E-02 a      1281     0    52     1     6
 -6.5041483909423423E-03 a      1282     0    52     1     7
 -2.1457809598734367E-03 a      1283     0    52     1     8
  7.6164883664602653E-02 a      1284     0    52     1     9
 -1.0469811442899057E-01 a      1285     0    52     1    10
  1.2495789559839600E-02 a      1286     0    52     1    11
  5.0003945360033428E-02 a      1287     0    52     1    12
 -6.4241352573009267E-02 a      1288     0    52     1    13
 -6.3902725452832404E-02 a      1289     0    52     1    14
  7.7961083572890708E-02 a      1290     0    52     1    15
 -1.8396217807505225E-02 a      1291     0    52     1    16
 -2.0313518597474308E-04 a      1292     0    52     1    17
 -3.0999663311110686E-02 a      1293     0    52     1    18
  1.8731572934904964E-02 a      1294     0    52     1    19
 -6.3649459001861489E-02 a      1295     0    52     1    20
 -3.2339416691496967E-02 a      1296     0    52     1    21
  9.6407754099332735E-02 a      1297     0    52     1    22
  5.9150137387524074E-02 a      1298     0    52     1    23
 -1.2925012116814169E-02 a      1299     0    52     1    24
  1.7334087184537814E-02 a      1300     0    52     1    25
  6.3215724091095687E-02 a      1301     0    53     1     1
  1.8866916233025360E-02 a      1302     0    53     1     2
 -5.4486139579249367E-02 a      1303     0    53     1     3
 -3.6709747030434177E-02 a      1304     0    53     1     4
 -5.6391763109481949E-02 a      1305     0    53     1     5
  2.5685600212826124E-02 a      1306     0    53     1     6
 -4.3437570030452677E-02 a      1307     0    53     1     7
 -1.0572670537044584E-01 a      1308     0    53     1     8
  4.8807088406029722E-02 a      1309     0    53     1     9
  1.0940035356772697E-01 a      1310     0    53     1    10
  3.9767381001980212E-02 a      1311     0    53     1    11
 -1.1320433367036924E-01 a      1312     0    53     1    12
 -1.2418674136200421E-01 a      1313     0    53     1    13
 -7.6194745869265793E-02 a      1314     0    53     1    14
 -3.1330748394211932E-02 a      1315     0    53     1    15
  1.0772983715429107E-01 a      1316     0    53     1    16
 -7.6195291176041083E-02 a      1317     0    53     1    17
  7.7340653223351666E-02 a      1318     0    53     1    18
 -7.3895774562446059E-02 a      1319     0    53     1    19
 -3.0988184696664527E-02 a      1320     0    53     1    20
  2.6837836375676752E-03 a      1321     0    53     1    21
  1.2876285860411469E-03 a      1322     0    53     1    22
  1.3563256648447793E-02 a      1323     0    53     1    23
 -4.8500473399507894E-02 a      1324     0    53     1    24
 -7.4198546623925846E-02 a      1325     0    53     1    25
  7.1552799023002850E-02 a      1326     0    54     1     1
 -6.2798057486160463E-02 a      1327     0    54     1     2
 -1.5207332778382789E-02 a      1328     0    54     1     3
 -5.8251838746606027E-02 a      1329     0    54     1     4
 -1.2270288235970653E-01 a      1330     0    54     1     5
 -1.2519295557418628E-01 a      1331     0    54     1     6
 -2.6071449268102488E-02 a      1332     0    54     1     7
  3.8488428168775894E-02 a      1333     0    54     1     8
  7.6170307100007953E-02 a      1334     0    54     1     9
 -1.4922140700641615E-02 a      1335     0    54     1    10
 -2.8011050493757000E-02 a      1336     0    54     1    11
  5.1339255805830635E-03 a      1337     0    54     1    12
 -1.1540851629502219E-01 a      1338     0    54     1    13
  1.8377705183411898E-02 a      1339     0    54     1    14
 -1.1815494841709440E-01 a      1340     0    54     1    15
  1.9307777897484800E-02 a      1341     0    54     1    16
 -9.3368500790079079E-02 a      1342     0    54     1    17
  2.1840484329115992E-02 a      1343     0    54     1    18
 -1.7271957827786219E-01 a      1344     0    54     1    19
 -5.7056728709869366E-02 a      1345     0    54     1    20
 -8.5785235961049852E-02 a      1346     0    54     1    21
 -8.4417783446194706E-03 a      1347     0    54     1    22
 -8.9414619651217012E-02 a      1348     0    54     1    23
 -3.3407610947230951E-02 a      1349     0    54     1    24
  6.5652431379212339E-02 a      1350     0    54     1    25
  1.4949878581791001E-02 a      1351     0    55     1     1
 -7.0345178797629901E-02 a      1352     0    55     1     2
 -5.2906598142561254E-02 a      1353     0    55     1     3
 -1.3249007664417025E-02 a      1354     0    55     1     4
 -4.3047809644989332E-02 a      1355     0    55     1     5
 -4.8586967159354899E-02 a      1356     0    55     1     6
  6.9123679424216130E-03 a      1357     0    55     1     7
  4.0876210472502041E-02 a      1358     0    55     1     8
  1.2007048724123602E-01 a      1359     0    55     1     9
 -3.1314135685006940E-02 a      1360     0    55     1    10
  1.0073050482450502E-01 a      1361     0    55     1    11
  1.0726413032329427E-01 a      1362     0    55     1    12
 -1.4529209118701017E-01 a      1363     0    55     1    13
 -7.0061254558298661E-02 a      1364     0    55     1    14
  7.4744260103486254E-02 a      1365     0    55     1    15
  1.9454792215986244E-01 a      1366     0    55     1    16
  1.2195912925594136E-01 a      1367     0    55     1    17
 -7.6588794757494680E-02 a      1368     0    55     1    18
 -1.4231150852242616E-01 a      1369     0    55     1    19
  1.4347206229794138E-02 a      1370     0    55     1    20
 -3.1975360555390295E-03 a      1371     0    55     1    21
 -2.7030062763363092E-02 a      1372     0    55     1    22
 -1.9308009747526937E-02 a      1373     0    55     1    23
 -6.2828997611779194E-02 a      1374     0    55     1    24
 -1.0165676320673439E-01 a      1375     0    55     1    25
  3.1778867480875439E-01 a      1376     0    56     1     1
 -1.3783955326959471E-01 a      1377     0    56     1     2
 -2.5915711259434166E-02 a      1378     0    56     1     3
 -1.6877918835650173E-02 a      1379     0    56     1     4
 -7.7187994356678127E-03 a      1380     0    56     1     5
 -4.1171894873337701E-02 a      1381     0    56     1     6
 -6.9581401245163821E-02 a      1382     0    56     1     7
 -8.1296137674295929E-02 a      1383     0    56     1     8
  1.7443697780090409E-01 a      1384     0    56     1     9
  7.4229420913476243E-02 a      1385     0    56     1    10
  4.6029934303280000E-02 a      1386     0    56     1    11
 -3.3974908546750324E-02 a      1387     0    56     1    12
 -2.2147696868290920E-02 a      1388     0    56     1    13
 -3.4569265617254243E-02 a      1389     0    56     1    14
  7.8515490272879906E-02 a      1390     0    56     1    15
  4.5385067050198145E-02 a      1391     0    56     1    16
  1.4691724463353584E-01 a      1392     0    56     1    17
 -1.1404168823632174E-01 a      1393     0    56     1    18
  8.7499918865344539E-03 a      1394     0    56     1    19
  8.0492204704243481E-02 a      1395     0    56     1    20
  8.4161289754701440E-02 a      1396     0    56     1    21
  9.5368140935208304E-02 a      1397     0    56     1    22
  6.3955156709604388E-02 a      1398     0    56     1    23
  4.7275046263764803E-02 a      1399     0    56     1    24
  5.0001602948615637E-02 a      1400     0    56     1    25
  3.7854799872147779E-02 a      1401     0    57     1     1
 -8.6042934697768594E-02 a      1402     0    57     1     2
  1.9027237451281879E-03 a      1403     0    57     1     3
  9.8333362775292713E-02 a      1404     0    57     1     4
  1.0637755606401650E-02 a      1405     0    57     1     5
 -2.1871411405378217E-02 a      1406     0    57     1     6
 -7.5487737250516704E-02 a      1407     0    57     1     7
  3.9079564406422657E-02 a      1408     0    57     1     8
 -8.0939545489510933E-02 a      1409     0    57     1     9
  5.1142319411515876E-02 a      1410     0    57     1    10
  8.6212296341784345E-02 a      1411     0    57     1    11
  8.6731355710247718E-02 a      1412     0    57     1    12
  8.2828935643604482E-02 a      1413     0    57     1    13
  2.0362225133224048E-02 a      1414     0    57     1    14
  9.2312400376199644E-02 a      1415     0    57     1    15
  1.0682129795961184E-01 a      1416     0    57     1    16
 -1.8381342855391808E-02 a      1417     0    57     1    17
  3.6521760267199131E-02 a      1418     0    57     1    18
 -8.6999206937621018E-02 a      1419     0    57     1    19
  7.0553016533437068E-02 a      1420     0    57     1    20
  4.7111993089301210E-02 a      1421     0    57     1    21
 -1.7589059725571569E-02 a      1422     0    57     1    22
 -1.3071156231723969E-03 a      1423     0    57     1    23
 -3.3917256857407346E-02 a      1424     0    57     1    24
 -6.4107437245627702E-02 a      1425     0    57     1    25
 -9.7038481574053731E-02 a      1426     0    58     1     1
 -2.9221701079776084E-02 a      1427     0    58     1     2
 -2.4907102585173053E-02 a      1428     0    58     1     3
  5.8679762249286255E-02 a      1429     0    58     1     4
 -8.7098411720579735E-02 a      1430     0    58     1     5
  6.9868725956638331E-02 a      1431     0    58     1     6
  1.1209030435344980E-01 a      1432     0    58     1     7
 -1.2480338916433366E-01 a      1433     0    58     1     8
 -2.6121092493646633E-02 a      1434     0    58     1     9
  3.5367653802574651E-02 a      1435     0    58     1    10
 -5.7955387280587113E-02 a      1436     0    58     1    11
 -1.0323561756634524E-01 a      1437     0    58     1    12
  6.7451021812602791E-02 a      1438     0    58     1    13
 -8.9980042331000931E-02 a      1439     0    58     1    14
  4.1127992770750840E-02 a      1440     0    58     1    15
  1.5313305059762423E-02 a      1441     0    58     1    16
  9.8363419677101965E-02 a      1442     0    58     1    17
  1.6954744869611505E-02 a      1443     0    58     1    18
 -3.1410065076089748E-03 a      1444     0    58     1    19
  4.6479216843457780E-02 a      1445     0    58     1    20
 -8.3040248848324824E-02 a      1446     0    58     1    21
  7.8769663120278707E-02 a      1447     0    58     1    22
  3.9435945799290988E-02 a      1448     0    58     1    23
  2.9930472366699119E-02 a      1449     0    58     1    24
 -3.4679512567063357E-02 a      1450     0    58     1    25
  1.3247832842922275E-01 a      1451     0    59     1     1
 -2.2667110790810525E-02 a      1452     0    59     1     2
 -8.3321511366228576E-02 a      1453     0    59     1     3
 -6.4844128988512703E-02 a      1454     0    59     1     4
  4.8901614601694912E-02 a      1455     0    59     1     5
  8.6366624219532933E-03 a      1456     0    59     1     6
  6.1630952341931396E-02 a      1457     0    59     1     7
 -4.7756780041856510E-02 a      1458     0    59     1     8
 -3.0891754392928891E-02 a      1459     0    59     1     9
 -1.0371939294282668E-02 a      1460     0    59     1    10
  6.7723179386025401E-02 a      1461     0    59     1    11
 -1.0640979058247169E-01 a      1462     0    59     1    12
  4.0511064930154120E-02 a      1463     0    59     1    13
  1.1776700263776710E-01 a      1464     0    59     1    14
  3.0125336378946248E-02 a      1465     0    59     1    15
  2.3983689205659225E-02 a      1466     0    59     1    16
 -1.3269718766690439E-01 a      1467     0    59     1    17
 -1.6001264117294098E-01 a      1468     0    59     1    18
 -6.9096387632163525E-02 a      1469     0    59     1    19
 -2.4909343669041902E-02 a      1470     0    59     1    20
 -4.0290152851239242E-02 a      1471     0    59     1    21
 -8.7857638691001244E-02 a      1472     0    59     1    22
 -1.3826665541397715E-01 a      1473     0    59     1    23
 -6.1161835603729973E-02 a      1474     0    59     1    24
 -9.0761594186699351E-02 a      1475     0    59     1    25
  1.1295899469176923E-02 a      1476     0    60     1     1
 -1.0052956886411556E-01 a      1477     0    60     1     2
  1.0939568727852036E-01 a      1478     0    60     1     3
 -5.3694999905225194E-02 a      1479     0    60     1     4
  6.8103573141502158E-02 a      1480     0    60     1     5
  1.2185016821752289E-03 a      1481     0    60     1     6
  3.9815187578959424E-02 a      1482     0    60     1     7
 -2.2894929926498785E-02 a      1483     0    60     1     8
  9.8666242792958811E-02 a      1484     0    60     1     9
  5.8042269559612752E-02 a      1485     0    60     1    10
 -6.6724162802010725E-02 a      1486     0    60     1    11
 -9.1486444095161115E-02 a      1487     0    60     1    12
 -4.0100435915493865E-02 a      1488     0    60     1    13
  1.1108576085451141E-02 a      1489     0    60     1    14
 -9.3338641502107952E-02 a      1490     0    60     1    15
  8.5975122111664512E-02 a      1491     0    60     1    16
  7.4478952498670190E-03 a      1492     0    60     1    17
 -4.5585517647293520E-03 a      1493     0    60     1    18
 -1.6691848605860085E-01 a      1494     0    60     1    19
 -4.5290690722350913E-03 a      1495     0    60     1    20
  5.3699929398117144E-02 a      1496     0    60     1    21
 -9.8142346002458112E-03 a      1497     0    60     1    22
 -6.3662962222311534E-02 a      1498     0    60     1    23
 -2.2489416679057281E-02 a      1499     0    60     1    24
  3.5322684612720798E-02 a      1500     0    60     1    25
 -4.6864717217828929E-02 a      1501     0    61     1     1
  9.4056847725486961E-02 a      1502     0    61     1     2
  7.6565721489741095E-03 a      1503     0    61     1     3
 -9.5050239868452041E-02 a      1504     0    61     1     4
  8.0591432102812138E-02 a      1505     0    61     1     5
  9.7382062592058449E-02 a      1506     0    61     1     6
  3.0392689084063763E-02 a      1507     0    61     1     7
 -3.0973506031621047E-02 a      1508     0    61     1     8
 -3.4348217632934629E-02 a      1509     0    61     1     9
  9.5675978370767079E-02 a      1510     0    61     1    10
  1.5084100799356733E-02 a      1511     0    61     1    11
  5.8916948633156448E-02 a      1512     0    61     1    12
  3.3652798309148198E-02 a      1513     0    61     1    13
 -7.9823354055966689E-02 a      1514     0    61     1    14
  2.1255485681540665E-02 a      1515     0    61     1    15
  7.4162080766863273E-02 a      1516     0    61     1    16
  1.0262018009032278E-02 a      1517     0    61     1    17
  1.0880639072423350E-01 a      1518     0    61     1    18
  5.3825612961427044E-02 a      1519     0    61     1    19
  8.7843532304982583E-02 a      1520     0    61     1    20
 -4.9365200098364342E-02 a      1521     0    61     1    21
 -6.7256854384843384E-02 a      1522     0    61     1    22
 -4.1636111403795827E-02 a      1523     0    61     1    23
  8.5357028947504812E-02 a      1524     0    61     1    24
 -1.2249861086204593E-02 a      1525     0    61     1    25
  4.8158591000659029E-02 a      1526     0    62     1     1
 -4.5466619622129903E-02 a      1527     0    62     1     2
  3.3319193644282256E-02 a      1528     0    62     1     3
  9.2619914762698749E-02 a      1529     0    62     1     4
  1.4025704074535922E-01 a      1530     0    62     1     5
 -4.9557700334135028E-02 a      1531     0    62     1     6
 -3.2017127992319656E-03 a      1532     0    62     1     7
 -3.4594360722424611E-02 a      1533     0    62     1     8
  1.5819888994248640E-01 a      1534     0    62     1     9
 -8.5518740375747887E-02 a      1535     0    62     1    10
  6.4985640859358512E-02 a      1536     0    62     1    11
  4.8764635594315167E-02 a      1537     0    62     1    12
 -3.8076167459976294E-02 a      1538     0    62     1    13
  5.3056006311426832E-02 a      1539     0    62     1    14
 -9.8482263510572932E-02 a      1540     0    62     1    15
  5.6387776645012794E-02 a      1541     0    62     1    16
 -9.4655191400544632E-03 a      1542     0    62     1    17
  5.8176006916078847E-02 a      1543     0    62     1    18
 -1.6700042384140992E-01 a      1544     0    62     1    19
  8.9544119051649246E-02 a      1545     0    62     1    20
  7.8494547087763739E-02 a      1546     0    62     1    21
  7.0725789923172286E-02 a      1547     0    62     1    22
 -8.1501544606831872E-02 a      1548     0    62     1    23
 -9.8802608309054407E-02 a      1549     0    62     1    24
 -1.1924588260733731E-02 a      1550     0    62     1    25
  2.7925099287358771E-02 a      1551     0    63     1     1
  8.1757737139216496E-02 a      1552     0    63     1     2
  8.2578020814214240E-02 a      1553     0    63     1     3
  8.3005407962252628E-02 a      1554     0    63     1     4
 -3.5319979595213366E-02 a      1555     0    63     1     5
  7.4219498100738496E-02 a      1556     0    63     1     6
  1.0750643009821674E-01 a      1557     0    63     1     7
 -8.1966298879739951E-03 a      1558     0    63     1     8
  7.7765349996833336E-02 a      1559     0    63     1     9
  7.6980055884462120E-02 a      1560     0    63     1    10
 -6.3699105665564901E-02 a      1561     0    63     1    11
 -2.3880611430661055E-02 a      1562     0    63     1    12
 -5.6106830399853667E-02 a      1563     0    63     1    13
  3.5046203261853280E-02 a      1564     0    63     1    14
 -8.6363476207842289E-04 a      1565     0    63     1    15
 -9.3966505031915018E-02 a      1566     0    63     1    16
 -6.6553978397540153E-02 a      1567     0    63     1    17
  5.0731774731211099E-02 a      1568     0    63     1    18
  7.0883234031678621E-02 a      1569     0    63     1    19
 -7.8404232883954525E-02 a      1570     0    63     1    20
 -1.1563032388533736E-02 a      1571     0    63     1    21
 -1.0512579409156200E-01 a      1572     0    63     1    22
  8.9478514901930761E-02 a      1573     0    63     1    23
 -9.2745381533061583E-02 a      1574     0    63     1    24
  3.8543896717507631E-02 a      1575     0    63     1    25
  1.9281423337400241E-01 a      1576     0    64     1     1
 -3.6126211394607546E-02 a      1577     0    64     1     2
  3.8785359082509692E-02 a      1578     0    64     1     3
 -4.4125126707289304E-02 a      1579     0    64     1     4
 -4.1518897311596657E-02 a      1580     0    64     1     5
 -6.5979834915978891E-02 a      1581     0    64     1     6
  1.1314832492998574E-01 a      1582     0    64     1     7
 -2.2102957253974743E-02 a      1583     0    64     1     8
  7.1251290143624413E-02 a      1584     0    64     1     9
 -9.2410203893726145E-02 a      1585     0    64     1    10
  7.0965248262346889E-02 a      1586     0    64     1    11
  6.5239212910872549E-02 a      1587     0    64     1    12
 -1.0611617892067332E-01 a      1588     0    64     1    13
 -4.4533407538436501E-02 a      1589     0    64     1    14
 -8.9315775076610933E-03 a      1590     0    64     1    15
  9.7272403249355183E-02 a      1591     0    64     1    16
 -8.9090090701138042E-04 a      1592     0    64     1    17
 -5.9469656161998986E-02 a      1593     0    64     1    18
  6.2125077174583709E-02 a      1594     0    64     1    19
  8.4339114096567691E-02 a      1595     0    64     1    20
  1.1942019637809839E-01 a      1596     0    64     1    21
 -7.9550184512235736E-02 a      1597     0    64     1    22
 -1.8192725335693945E-02 a      1598     0    64     1    23
 -9.9062956519687911E-02 a      1599     0    64     1    24
  1.0658298219322709E-02 a      1600     0    64     1    25
  1.1465584924136030E-01 a      1601     0    65     1     1
 -5.6964634123078367E-02 a      1602     0    65     1     2
  7.1960232877141928E-02 a      1603     0    65     1     3
 -5.1636224220422557E-02 a      1604     0    65     1     4
 -5.1111227674175481E-02 a      1605     0    65     1     5
  5.1355057504546775E-02 a      1606     0    65     1     6
  4.1046754847942978E-02 a      1607     0    65     1     7
  3.6201139163203389E-02 a      1608     0    65     1     8
  6.0104472535928453E-02 a      1609     0    65     1     9
 -1.1263780740376865E-01 a      1610     0    65     1    10
  1.9686570067832181E-02 a      1611     0    65     1    11
  6.3227890952962957E-03 a      1612     0    65     1    12
  1.5326391861383090E-02 a      1613     0    65     1    13
 -3.1809346837190354E-02 a      1614     0    65     1    14
 -2.1205427672873280E-02 a      1615     0    65     1    15
 -9.1054968979934880E-03 a      1616     0    65     1    16
 -3.1186226401643230E-02 a      1617     0    65     1    17
 -1.3248251348606377E-01 a      1618     0    65     1    18
 -1.2267095384421285E-02 a      1619     0    65     1    19
 -7.7307186226608787E-02 a      1620     0    65     1    20
 -4.4094806133339874E-02 a      1621     0    65     1    21
  8.3444917504031352E-02 a      1622     0    65     1    22
 -9.3360287884043658E-02 a      1623     0    65     1    23
