################################################################################
# Neural network connection values (weights and biases).
################################################################################
# Col  Name       Description
################################################################################
# 1    connection Neural network connection value.
# 2    t          Connection type (a = weight, b = bias).
# 3    index      Index enumerating weights.
# 4    l_s        Starting point layer (end point layer for biases).
# 5    n_s        Starting point neuron in starting layer (end point neuron for biases).
# 6    l_e        End point layer.
# 7    n_e        End point neuron in end layer.
################################################################################
#                      1 2         3     4     5     6     7
#             connection t     index   l_s   n_s   l_e   n_e
############################################################
 -4.5564408883578468E-02 a         1     0     1     1     1
 -4.8723807164514764E-02 a         2     0     1     1     2
 -1.9318273175516606E-01 a         3     0     1     1     3
 -9.9212449303525713E-02 a         4     0     1     1     4
 -7.0570372035269974E-02 a         5     0     1     1     5
 -1.2055930686223809E-01 a         6     0     1     1     6
 -3.8771075044032113E-02 a         7     0     1     1     7
 -1.1821402545792503E-02 a         8     0     1     1     8
  3.7291283293064768E-02 a         9     0     1     1     9
  1.5570892605050685E-01 a        10     0     1     1    10
  1.6254228419732071E-02 a        11     0     1     1    11
 -1.7349626254064854E-01 a        12     0     1     1    12
  5.8150954847435307E-02 a        13     0     1     1    13
  7.3747355872143164E-02 a        14     0     1     1    14
 -7.0466070547674425E-02 a        15     0     1     1    15
  6.3810579245919929E-02 a        16     0     1     1    16
 -7.7788606179170328E-02 a        17     0     1     1    17
  1.1615969293809973E-02 a        18     0     1     1    18
  1.9732409113019303E-01 a        19     0     1     1    19
  1.9780325767356194E-02 a        20     0     1     1    20
 -3.1253176179973793E-02 a        21     0     1     1    21
 -1.2422705864105202E-01 a        22     0     1     1    22
  2.8010351342794719E-02 a        23     0     1     1    23
  1.1605258188340399E-01 a        24     0     1     1    24
 -1.1239074734614206E-01 a        25     0     1     1    25
  9.8093266119444064E-02 a        26     0     2     1     1
 -2.4349277848020054E-01 a        27     0     2     1     2
  2.8573689100648524E-03 a        28     0     2     1     3
  2.7377178123000362E-02 a        29     0     2     1     4
 -1.0075114450731784E-01 a        30     0     2     1     5
 -1.1892543998111682E-01 a        31     0     2     1     6
 -3.0613107556274272E-01 a        32     0     2     1     7
 -1.3954531193400310E-01 a        33     0     2     1     8
  3.5378705911257985E-01 a        34     0     2     1     9
 -1.2756121519508504E-01 a        35     0     2     1    10
 -3.5137552388462653E-02 a        36     0     2     1    11
  1.2705947941729148E-01 a        37     0     2     1    12
  2.0382749749806098E-01 a        38     0     2     1    13
  1.0750593097377747E-01 a        39     0     2     1    14
  7.7001165123034870E-02 a        40     0     2     1    15
 -2.2468094182305762E-02 a        41     0     2     1    16
 -3.5511193794856344E-02 a        42     0     2     1    17
 -2.1915205525143261E-01 a        43     0     2     1    18
  1.9764488171455719E-01 a        44     0     2     1    19
 -3.1596503320935715E-01 a        45     0     2     1    20
  3.6480315994906913E-02 a        46     0     2     1    21
 -8.6349824717573284E-02 a        47     0     2     1    22
 -3.2116997399844216E-01 a        48     0     2     1    23
  9.5005720494639539E-02 a        49     0     2     1    24
 -3.0042140366239245E-01 a        50     0     2     1    25
 -1.3796405734354619E-01 a        51     0     3     1     1
  1.3504021564258789E-01 a        52     0     3     1     2
 -2.6094156901630139E-01 a        53     0     3     1     3
  3.3234314106603727E-02 a        54     0     3     1     4
 -2.3265458548287410E-01 a        55     0     3     1     5
  2.6011867924298426E-01 a        56     0     3     1     6
 -1.9368827863212040E-01 a        57     0     3     1     7
  1.3771372643417962E-01 a        58     0     3     1     8
 -1.1218283321494067E-02 a        59     0     3     1     9
  4.9445805795429298E-01 a        60     0     3     1    10
 -1.1108111869264033E-01 a        61     0     3     1    11
 -4.9798935311749409E-01 a        62     0     3     1    12
  1.5326117588816776E-01 a        63     0     3     1    13
 -1.8899024671816111E-01 a        64     0     3     1    14
 -1.5474731871874609E-01 a        65     0     3     1    15
 -1.8451525940940505E-01 a        66     0     3     1    16
 -2.6795644634144782E-02 a        67     0     3     1    17
 -3.2412354649356140E-01 a        68     0     3     1    18
  1.1888641141268722E-01 a        69     0     3     1    19
 -1.1577973711183916E-01 a        70     0     3     1    20
  1.8984821533264362E-01 a        71     0     3     1    21
  8.4764251424410464E-02 a        72     0     3     1    22
  3.9043808825707155E-01 a        73     0     3     1    23
  2.2982567460526060E-01 a        74     0     3     1    24
  3.6334548238702574E-01 a        75     0     3     1    25
  1.4108127469795012E-01 a        76     0     4     1     1
 -1.1806378158719744E-01 a        77     0     4     1     2
 -2.8051300336048030E-01 a        78     0     4     1     3
 -5.3340523753007317E-02 a        79     0     4     1     4
  7.7556012831475105E-02 a        80     0     4     1     5
  1.9536889508271882E-01 a        81     0     4     1     6
 -2.0257263258167521E-01 a        82     0     4     1     7
 -2.0328090588198518E-02 a        83     0     4     1     8
 -2.4499595220663295E-01 a        84     0     4     1     9
 -5.8215984200047102E-02 a        85     0     4     1    10
  6.1676581310574588E-02 a        86     0     4     1    11
  2.3399915642261462E-01 a        87     0     4     1    12
 -1.1750858161929008E-01 a        88     0     4     1    13
 -2.4301507686089047E-01 a        89     0     4     1    14
  2.7475121859072216E-01 a        90     0     4     1    15
  3.0148257256117883E-01 a        91     0     4     1    16
 -2.3716859141036600E-01 a        92     0     4     1    17
 -1.1570987386077738E-01 a        93     0     4     1    18
  2.4398881138456799E-01 a        94     0     4     1    19
 -1.0386219615672294E-01 a        95     0     4     1    20
 -1.0175051727125135E-02 a        96     0     4     1    21
  1.1049121456686055E-01 a        97     0     4     1    22
  4.6889262213727773E-02 a        98     0     4     1    23
  8.4249491215576400E-02 a        99     0     4     1    24
 -5.6669295063099194E-02 a       100     0     4     1    25
  3.5461977672207164E-02 a       101     0     5     1     1
 -2.3009733355351863E-01 a       102     0     5     1     2
 -1.0035035114809528E-01 a       103     0     5     1     3
  4.0223954426390190E-03 a       104     0     5     1     4
  7.7592046738355347E-02 a       105     0     5     1     5
  3.2296140940234713E-01 a       106     0     5     1     6
 -1.1344793558096265E-01 a       107     0     5     1     7
 -3.1300624932890084E-02 a       108     0     5     1     8
 -1.0620500720034480E-01 a       109     0     5     1     9
 -6.7239894186423965E-01 a       110     0     5     1    10
 -5.0197428369047982E-02 a       111     0     5     1    11
  1.0757235251355482E-01 a       112     0     5     1    12
 -4.0885880937415370E-01 a       113     0     5     1    13
 -6.1214280028745335E-02 a       114     0     5     1    14
  5.2784910762255992E-02 a       115     0     5     1    15
 -7.7979926443055861E-02 a       116     0     5     1    16
 -1.7600921130303845E-01 a       117     0     5     1    17
  1.0962790728630051E-01 a       118     0     5     1    18
  2.8582241080228055E-03 a       119     0     5     1    19
  7.0341376375904841E-03 a       120     0     5     1    20
  6.1296571815144391E-02 a       121     0     5     1    21
  1.6305871697535568E-01 a       122     0     5     1    22
  9.5585083642631928E-03 a       123     0     5     1    23
  3.1826478791432307E-02 a       124     0     5     1    24
 -2.5944036852325790E-02 a       125     0     5     1    25
 -1.2652699375940721E-01 a       126     0     6     1     1
  9.1360487138127458E-02 a       127     0     6     1     2
 -2.3227313937240063E-01 a       128     0     6     1     3
 -4.7246741214975317E-02 a       129     0     6     1     4
 -1.8129305358686940E-02 a       130     0     6     1     5
  6.7579219774265209E-01 a       131     0     6     1     6
 -2.5244362257257413E-01 a       132     0     6     1     7
 -8.8283454268208023E-02 a       133     0     6     1     8
 -1.0588595801962238E-01 a       134     0     6     1     9
 -5.0878348318093451E-02 a       135     0     6     1    10
  1.9251599299876819E-02 a       136     0     6     1    11
 -3.2530334241833228E-02 a       137     0     6     1    12
 -7.2330071166714682E-01 a       138     0     6     1    13
 -1.5453316083932012E-01 a       139     0     6     1    14
  1.6017328728637464E-02 a       140     0     6     1    15
 -2.2908403984860543E-01 a       141     0     6     1    16
 -1.6276172237579306E-01 a       142     0     6     1    17
 -7.7119303212756424E-02 a       143     0     6     1    18
  1.5406154428407784E-01 a       144     0     6     1    19
  3.1655701678338288E-01 a       145     0     6     1    20
  2.9449985463495570E-01 a       146     0     6     1    21
  4.7181333903103950E-01 a       147     0     6     1    22
 -8.8423003401364345E-02 a       148     0     6     1    23
  2.9607264110833753E-01 a       149     0     6     1    24
  1.5512334422971147E-01 a       150     0     6     1    25
 -1.4452471193654939E-01 a       151     0     7     1     1
  9.4104752478499833E-03 a       152     0     7     1     2
  2.2175102354146468E-02 a       153     0     7     1     3
 -8.6190746058455267E-02 a       154     0     7     1     4
  1.7001925236308074E-01 a       155     0     7     1     5
 -8.3248625753805955E-02 a       156     0     7     1     6
  1.3841950671327072E-02 a       157     0     7     1     7
 -3.5590353611763374E-02 a       158     0     7     1     8
  2.0131970969140092E-01 a       159     0     7     1     9
  1.1655948958825932E-01 a       160     0     7     1    10
  1.0063561934262187E-01 a       161     0     7     1    11
 -1.5694759567146643E-01 a       162     0     7     1    12
  1.1829793101020021E-01 a       163     0     7     1    13
  7.7963012553264779E-02 a       164     0     7     1    14
  6.0604564798342423E-04 a       165     0     7     1    15
  1.1407272775700934E-01 a       166     0     7     1    16
 -1.7147746389313770E-01 a       167     0     7     1    17
 -1.8856030101412469E-01 a       168     0     7     1    18
  2.4008213416834623E-01 a       169     0     7     1    19
 -1.3757197189374823E-01 a       170     0     7     1    20
 -5.0626239895579787E-02 a       171     0     7     1    21
 -1.5591368681698439E-02 a       172     0     7     1    22
  1.0550527705044378E-01 a       173     0     7     1    23
 -5.4298058137709167E-02 a       174     0     7     1    24
 -1.3932591124931853E-01 a       175     0     7     1    25
 -1.3257990956153465E-01 a       176     0     8     1     1
  2.0694526924564202E-01 a       177     0     8     1     2
 -5.2161059109605661E-02 a       178     0     8     1     3
 -9.9822252688464494E-03 a       179     0     8     1     4
  5.6266957583935677E-02 a       180     0     8     1     5
 -1.6393013459924727E-01 a       181     0     8     1     6
  6.6446497164453583E-02 a       182     0     8     1     7
  3.1118936112375067E-02 a       183     0     8     1     8
  1.2756385960018018E-01 a       184     0     8     1     9
  1.5108619061083253E-01 a       185     0     8     1    10
  1.5265908782000900E-01 a       186     0     8     1    11
 -6.2940340899523120E-02 a       187     0     8     1    12
  5.0241011484851730E-02 a       188     0     8     1    13
  2.3246031352057939E-01 a       189     0     8     1    14
 -1.3282901586010420E-01 a       190     0     8     1    15
  5.0967080718609843E-02 a       191     0     8     1    16
 -1.2930416329078223E-02 a       192     0     8     1    17
  9.4134934330040332E-02 a       193     0     8     1    18
  3.3809442388912335E-02 a       194     0     8     1    19
 -1.8020698831741186E-01 a       195     0     8     1    20
  3.0870849997756071E-02 a       196     0     8     1    21
 -3.1111886841132190E-02 a       197     0     8     1    22
 -2.8853698461207021E-02 a       198     0     8     1    23
 -1.4005004490854714E-01 a       199     0     8     1    24
  4.9027216720185104E-02 a       200     0     8     1    25
 -2.5486824458500740E-01 a       201     0     9     1     1
 -1.2813194519663992E-01 a       202     0     9     1     2
  2.1372656755600292E-01 a       203     0     9     1     3
  7.9171505160167938E-02 a       204     0     9     1     4
 -2.0090941545570115E-01 a       205     0     9     1     5
  4.3956054415928605E-02 a       206     0     9     1     6
  1.2525908713702594E-01 a       207     0     9     1     7
 -1.2942611789768915E-01 a       208     0     9     1     8
  3.0949393486062526E-01 a       209     0     9     1     9
 -1.5191777023359962E-01 a       210     0     9     1    10
 -1.6640032623670975E-03 a       211     0     9     1    11
  4.0131067095345568E-01 a       212     0     9     1    12
  3.4415208717594414E-01 a       213     0     9     1    13
 -1.7987207523507159E-02 a       214     0     9     1    14
 -1.0495405085744489E-02 a       215     0     9     1    15
  9.8040188782879539E-02 a       216     0     9     1    16
 -5.6960042362671680E-02 a       217     0     9     1    17
  3.3172293097776612E-02 a       218     0     9     1    18
  7.0364801482908759E-02 a       219     0     9     1    19
  9.8556926886692542E-02 a       220     0     9     1    20
  2.2971314328507864E-01 a       221     0     9     1    21
  1.3207327276606157E-01 a       222     0     9     1    22
  1.6302877576079738E-01 a       223     0     9     1    23
 -1.1168102221500549E-01 a       224     0     9     1    24
 -1.9721305204765824E-01 a       225     0     9     1    25
  2.6937325097641363E-01 a       226     0    10     1     1
 -2.6457633258407526E-03 a       227     0    10     1     2
  9.9752332726872533E-02 a       228     0    10     1     3
 -6.0900990964514401E-02 a       229     0    10     1     4
  8.6556928835540989E-02 a       230     0    10     1     5
 -3.3109551236983004E-01 a       231     0    10     1     6
 -2.7897104255636412E-01 a       232     0    10     1     7
  4.2948369066376911E-02 a       233     0    10     1     8
 -8.6009682213049540E-02 a       234     0    10     1     9
 -2.7265736139201763E-02 a       235     0    10     1    10
  5.3571010861201404E-02 a       236     0    10     1    11
 -4.8149185627415055E-02 a       237     0    10     1    12
  2.3797665538159936E-02 a       238     0    10     1    13
 -3.0254552229148973E-01 a       239     0    10     1    14
 -8.1178093237969200E-03 a       240     0    10     1    15
 -3.4945144323276611E-02 a       241     0    10     1    16
  3.3148857927346356E-02 a       242     0    10     1    17
  3.3487179315821947E-01 a       243     0    10     1    18
  9.5987277854096831E-02 a       244     0    10     1    19
  5.6937642641108663E-02 a       245     0    10     1    20
 -7.2836524552705589E-02 a       246     0    10     1    21
 -8.8271119790091626E-02 a       247     0    10     1    22
 -1.6861707828388559E-01 a       248     0    10     1    23
 -7.7615036822265560E-02 a       249     0    10     1    24
  1.3272713237016603E-01 a       250     0    10     1    25
 -4.0304782798917455E-01 a       251     0    11     1     1
 -2.0446233495186375E-01 a       252     0    11     1     2
  6.0761781221501235E-02 a       253     0    11     1     3
  2.1076303584769956E-01 a       254     0    11     1     4
  2.8041150771427420E-01 a       255     0    11     1     5
  6.4188116309375332E-01 a       256     0    11     1     6
  1.8931697399275048E-02 a       257     0    11     1     7
 -5.0293647489633268E-02 a       258     0    11     1     8
  9.4927870410958293E-02 a       259     0    11     1     9
  1.6652834622241308E-01 a       260     0    11     1    10
  1.8150013945767102E-01 a       261     0    11     1    11
  1.5918094194956020E-01 a       262     0    11     1    12
  3.0678721080894589E-01 a       263     0    11     1    13
  2.3815719113799139E-01 a       264     0    11     1    14
 -2.5625349438914490E-02 a       265     0    11     1    15
  1.6815134156013936E-01 a       266     0    11     1    16
 -2.6294148651500843E-02 a       267     0    11     1    17
 -1.1582670277154108E-01 a       268     0    11     1    18
  9.0141680363321264E-02 a       269     0    11     1    19
 -5.1670832880454223E-02 a       270     0    11     1    20
 -1.0029089720823216E-01 a       271     0    11     1    21
 -1.1358748045134257E-01 a       272     0    11     1    22
  2.5717565805281012E-01 a       273     0    11     1    23
 -1.0377661303709562E-01 a       274     0    11     1    24
  4.4802519745423153E-02 a       275     0    11     1    25
  2.5061142877960091E-01 a       276     0    12     1     1
  3.6368010649766414E-02 a       277     0    12     1     2
 -1.4204945244566897E-01 a       278     0    12     1     3
 -1.3536846867908253E-01 a       279     0    12     1     4
  1.0885235994835404E-01 a       280     0    12     1     5
 -4.5896646130744484E-01 a       281     0    12     1     6
 -3.5375189598848181E-02 a       282     0    12     1     7
 -2.2520011684062977E-01 a       283     0    12     1     8
  3.5692652818546999E-02 a       284     0    12     1     9
  2.8318517649957126E-01 a       285     0    12     1    10
 -2.1969258443360196E-01 a       286     0    12     1    11
 -1.1436488674116650E-01 a       287     0    12     1    12
  4.5621755612460069E-02 a       288     0    12     1    13
 -1.0649690095358116E-01 a       289     0    12     1    14
  4.5232346664416928E-01 a       290     0    12     1    15
 -4.6959882374957157E-02 a       291     0    12     1    16
 -1.8314671091078591E-01 a       292     0    12     1    17
 -7.9653014104044503E-02 a       293     0    12     1    18
  1.7630288818789147E-01 a       294     0    12     1    19
 -7.3866801425143319E-02 a       295     0    12     1    20
 -2.2130688006643676E-01 a       296     0    12     1    21
  4.2550115068098825E-02 a       297     0    12     1    22
  5.3447290595059649E-02 a       298     0    12     1    23
 -6.2192609743096136E-02 a       299     0    12     1    24
 -3.1692988820106383E-01 a       300     0    12     1    25
  1.3826578844341705E-02 a       301     0    13     1     1
 -8.2218518098070847E-02 a       302     0    13     1     2
  2.4819248104439584E-03 a       303     0    13     1     3
  7.6544027404927675E-02 a       304     0    13     1     4
  2.5396995950449766E-02 a       305     0    13     1     5
 -1.4249140241968361E-01 a       306     0    13     1     6
  2.2414126664616704E-01 a       307     0    13     1     7
 -1.9874934406759220E-01 a       308     0    13     1     8
  9.3115209532398296E-02 a       309     0    13     1     9
 -2.3214095753225632E-02 a       310     0    13     1    10
 -7.5619478434857612E-02 a       311     0    13     1    11
  3.0062501290854887E-02 a       312     0    13     1    12
 -1.3656451828537677E-01 a       313     0    13     1    13
  7.6161021979059079E-02 a       314     0    13     1    14
 -9.7330248962547897E-02 a       315     0    13     1    15
  8.7996337803977198E-02 a       316     0    13     1    16
  8.0820493001216871E-04 a       317     0    13     1    17
 -6.7884311062723954E-02 a       318     0    13     1    18
 -1.6513588407887964E-01 a       319     0    13     1    19
  9.9865279304985413E-02 a       320     0    13     1    20
  6.6680778158513865E-02 a       321     0    13     1    21
 -2.5924917309505369E-01 a       322     0    13     1    22
 -2.9668419056457583E-02 a       323     0    13     1    23
  1.5260815558703206E-01 a       324     0    13     1    24
 -1.9327543631280297E-01 a       325     0    13     1    25
  1.3791805147906711E-01 a       326     0    14     1     1
  2.0053723784093569E-01 a       327     0    14     1     2
  9.0411384105300002E-02 a       328     0    14     1     3
 -2.3749379592253803E-02 a       329     0    14     1     4
 -3.6078283000408731E-02 a       330     0    14     1     5
 -7.6396474004970197E-02 a       331     0    14     1     6
 -4.8990333049554718E-02 a       332     0    14     1     7
 -4.8720192190817802E-01 a       333     0    14     1     8
  2.7289993342595013E-03 a       334     0    14     1     9
  6.1277542876563185E-01 a       335     0    14     1    10
 -7.2931269359421166E-02 a       336     0    14     1    11
  8.6942137391709848E-02 a       337     0    14     1    12
  8.0865233589284408E-03 a       338     0    14     1    13
  1.7646135678016267E-01 a       339     0    14     1    14
  2.0262387232142187E-01 a       340     0    14     1    15
 -1.4001856894620610E-01 a       341     0    14     1    16
 -1.1181898268380350E-01 a       342     0    14     1    17
 -7.4971755274049909E-02 a       343     0    14     1    18
 -2.3093335321222275E-01 a       344     0    14     1    19
 -4.8433080699715976E-02 a       345     0    14     1    20
  1.4939995979300968E-01 a       346     0    14     1    21
  1.1274150256744192E-01 a       347     0    14     1    22
 -2.7423937565235162E-01 a       348     0    14     1    23
 -6.3566658110089547E-02 a       349     0    14     1    24
  8.0735571117375213E-02 a       350     0    14     1    25
  7.2759205365439866E-02 a       351     0    15     1     1
 -3.0595192187097098E-02 a       352     0    15     1     2
 -1.4277371609459283E-01 a       353     0    15     1     3
  2.7110033861218831E-02 a       354     0    15     1     4
  3.9148134420410825E-02 a       355     0    15     1     5
  1.5422794128282047E-01 a       356     0    15     1     6
 -1.9376573274183417E-02 a       357     0    15     1     7
  7.2122077186804828E-02 a       358     0    15     1     8
 -4.6334757254919083E-02 a       359     0    15     1     9
 -3.7853873078291611E-01 a       360     0    15     1    10
 -5.6716727130968737E-02 a       361     0    15     1    11
 -9.4977883117577225E-02 a       362     0    15     1    12
 -1.5218009484038228E-01 a       363     0    15     1    13
  4.8278758380099610E-02 a       364     0    15     1    14
 -3.4044442945499895E-02 a       365     0    15     1    15
  4.9339515185407856E-02 a       366     0    15     1    16
 -1.1570251151121390E-01 a       367     0    15     1    17
  1.8230421372673655E-01 a       368     0    15     1    18
  9.2105928391163674E-02 a       369     0    15     1    19
 -1.1044288470051582E-01 a       370     0    15     1    20
  5.5115618992439434E-02 a       371     0    15     1    21
  1.4484936526389111E-01 a       372     0    15     1    22
  8.4859568589708750E-02 a       373     0    15     1    23
 -9.3508754344772502E-02 a       374     0    15     1    24
  7.2461328376213566E-02 a       375     0    15     1    25
 -5.1326723454988399E-02 a       376     0    16     1     1
 -6.1464390593539184E-02 a       377     0    16     1     2
  8.7874408277582569E-02 a       378     0    16     1     3
 -1.2683411128484809E-01 a       379     0    16     1     4
  2.2590815271911399E-01 a       380     0    16     1     5
 -1.8840186371442399E-02 a       381     0    16     1     6
 -1.8474457398364108E-01 a       382     0    16     1     7
 -4.7152460995209526E-02 a       383     0    16     1     8
  1.6492960467884851E-01 a       384     0    16     1     9
  1.5383694587395674E-01 a       385     0    16     1    10
  9.5757173050152841E-02 a       386     0    16     1    11
  2.8074804260240636E-02 a       387     0    16     1    12
  1.8050002405237026E-01 a       388     0    16     1    13
  1.1147177744048126E-01 a       389     0    16     1    14
  1.5683015447652698E-01 a       390     0    16     1    15
  7.5947597678203083E-02 a       391     0    16     1    16
 -7.0877087643923614E-02 a       392     0    16     1    17
 -1.2714225204767263E-01 a       393     0    16     1    18
  5.1286443038920035E-02 a       394     0    16     1    19
 -1.8369926804586001E-01 a       395     0    16     1    20
  4.9640291512333942E-02 a       396     0    16     1    21
 -7.4012255451684411E-02 a       397     0    16     1    22
  1.1790454882185007E-01 a       398     0    16     1    23
 -5.8531462682787624E-02 a       399     0    16     1    24
 -1.4148147734852484E-03 a       400     0    16     1    25
  1.9324651209740662E-01 a       401     0    17     1     1
 -2.7976316486981095E-01 a       402     0    17     1     2
 -8.0800363512343459E-03 a       403     0    17     1     3
 -2.4297818357959589E-01 a       404     0    17     1     4
  1.9092477375323058E-01 a       405     0    17     1     5
  2.0975576870768488E-02 a       406     0    17     1     6
  2.5520776587305960E-01 a       407     0    17     1     7
  1.8244805865173142E-01 a       408     0    17     1     8
 -4.1313811510201232E-01 a       409     0    17     1     9
 -8.4033894610032703E-02 a       410     0    17     1    10
 -2.7955373496598940E-01 a       411     0    17     1    11
 -1.8466726317186939E-02 a       412     0    17     1    12
  3.3942731780404845E-01 a       413     0    17     1    13
  1.2716306462261867E-01 a       414     0    17     1    14
  2.1708191989213154E-02 a       415     0    17     1    15
  1.6582386933922552E-01 a       416     0    17     1    16
  3.5961226420642484E-01 a       417     0    17     1    17
  2.8269017956250836E-01 a       418     0    17     1    18
  1.1095544229749316E-01 a       419     0    17     1    19
  5.8989985415890234E-01 a       420     0    17     1    20
 -7.5228885956130170E-02 a       421     0    17     1    21
 -3.6016004707562049E-01 a       422     0    17     1    22
 -9.6835098093708771E-02 a       423     0    17     1    23
 -1.7657727536153225E-01 a       424     0    17     1    24
 -2.8255432859023416E-01 a       425     0    17     1    25
  2.1755051406379092E-01 a       426     0    18     1     1
  3.9904192747401490E-01 a       427     0    18     1     2
  1.0563734869321756E-01 a       428     0    18     1     3
  2.0112603711615912E-01 a       429     0    18     1     4
  2.1429012706348702E-01 a       430     0    18     1     5
 -1.0423161248982495E-01 a       431     0    18     1     6
 -1.7978168673327868E-01 a       432     0    18     1     7
  1.6101959924570936E-01 a       433     0    18     1     8
  2.9624500528432485E-01 a       434     0    18     1     9
  1.8570464421932567E-01 a       435     0    18     1    10
  1.9028248022845876E-01 a       436     0    18     1    11
  5.0499554579558251E-02 a       437     0    18     1    12
  4.9646417517671659E-01 a       438     0    18     1    13
  6.8303171828539122E-02 a       439     0    18     1    14
 -6.2534181557640164E-02 a       440     0    18     1    15
  2.7468556172230846E-01 a       441     0    18     1    16
  1.0644975487214925E-01 a       442     0    18     1    17
 -3.1584805980527320E-01 a       443     0    18     1    18
 -2.1366762409111509E-01 a       444     0    18     1    19
 -2.8293529017155933E-01 a       445     0    18     1    20
 -2.2596465579108385E-01 a       446     0    18     1    21
  3.9915417752707398E-02 a       447     0    18     1    22
 -2.9652389231967635E-01 a       448     0    18     1    23
  2.1958562549731084E-01 a       449     0    18     1    24
  1.2175610820418109E-01 a       450     0    18     1    25
  6.6774462018805991E-02 a       451     0    19     1     1
 -1.5292287955194495E-01 a       452     0    19     1     2
  2.6443580670345940E-01 a       453     0    19     1     3
 -1.0054437456124068E-01 a       454     0    19     1     4
 -1.1976093561365755E-01 a       455     0    19     1     5
  6.2495526855496031E-02 a       456     0    19     1     6
 -4.6251477025289728E-02 a       457     0    19     1     7
  3.6265879314508608E-02 a       458     0    19     1     8
  2.9679568707339959E-01 a       459     0    19     1     9
 -2.0075393703119410E-01 a       460     0    19     1    10
 -6.7105115687829883E-02 a       461     0    19     1    11
  2.9467500744892350E-01 a       462     0    19     1    12
  1.6564463647154096E-01 a       463     0    19     1    13
 -1.1133255535920493E-01 a       464     0    19     1    14
  1.7679162324491340E-01 a       465     0    19     1    15
  1.2522562282505376E-01 a       466     0    19     1    16
 -2.4699156572281789E-01 a       467     0    19     1    17
 -1.0776800184457780E-01 a       468     0    19     1    18
 -1.8875193767677760E-02 a       469     0    19     1    19
 -1.1376345269217257E-01 a       470     0    19     1    20
  3.1981587189209959E-01 a       471     0    19     1    21
  1.4843856528705762E-01 a       472     0    19     1    22
  1.4592439444305291E-01 a       473     0    19     1    23
  8.9797319092506003E-02 a       474     0    19     1    24
 -5.7170437360153176E-02 a       475     0    19     1    25
 -4.8045355747748979E-02 a       476     0    20     1     1
  1.4218934851362883E-01 a       477     0    20     1     2
 -1.3435705959823116E-02 a       478     0    20     1     3
  1.2458004315155527E-02 a       479     0    20     1     4
  1.5738665457689283E-01 a       480     0    20     1     5
 -1.9917479855611611E-01 a       481     0    20     1     6
  3.6816588487778995E-02 a       482     0    20     1     7
 -3.7399503435461577E-02 a       483     0    20     1     8
 -2.8483425883500193E-02 a       484     0    20     1     9
  1.5857525334125608E-01 a       485     0    20     1    10
  9.6436501118307469E-02 a       486     0    20     1    11
 -1.1107355415710277E-01 a       487     0    20     1    12
 -2.0963831481997975E-02 a       488     0    20     1    13
 -1.0363283509287849E-01 a       489     0    20     1    14
 -1.2764266862651688E-01 a       490     0    20     1    15
  1.0428995811148935E-01 a       491     0    20     1    16
 -1.4845119164329099E-01 a       492     0    20     1    17
  1.3187212186275868E-01 a       493     0    20     1    18
  1.5595595776837398E-01 a       494     0    20     1    19
 -3.0329833648732422E-02 a       495     0    20     1    20
 -5.2248774918985448E-02 a       496     0    20     1    21
 -2.7298183989954072E-01 a       497     0    20     1    22
 -3.4218774312462875E-02 a       498     0    20     1    23
 -3.2853941123655764E-02 a       499     0    20     1    24
  3.4202207851903574E-02 a       500     0    20     1    25
 -3.6781369812817502E-02 a       501     0    21     1     1
 -3.0946784567154173E-01 a       502     0    21     1     2
  6.6669687696216715E-02 a       503     0    21     1     3
  1.0378263701869224E-01 a       504     0    21     1     4
  8.0310130952837483E-02 a       505     0    21     1     5
  3.3015892743642727E-01 a       506     0    21     1     6
 -1.3713968296993206E-01 a       507     0    21     1     7
 -2.0789761530277351E-01 a       508     0    21     1     8
  2.9515572395960588E-01 a       509     0    21     1     9
  6.5430212775518831E-02 a       510     0    21     1    10
  4.0608478596271903E-02 a       511     0    21     1    11
  2.3342013134002010E-01 a       512     0    21     1    12
  2.2380961149822626E-01 a       513     0    21     1    13
  1.0469694231088619E-01 a       514     0    21     1    14
  2.5126215300709148E-01 a       515     0    21     1    15
  1.8876009696051434E-02 a       516     0    21     1    16
 -2.5595694745049684E-02 a       517     0    21     1    17
 -2.8899531421080293E-01 a       518     0    21     1    18
 -2.8996180209981083E-03 a       519     0    21     1    19
 -9.4403470566004233E-02 a       520     0    21     1    20
  9.9695682903438693E-02 a       521     0    21     1    21
 -4.0090780294556802E-02 a       522     0    21     1    22
  1.8192722833982367E-01 a       523     0    21     1    23
  6.8902289938763295E-02 a       524     0    21     1    24
 -2.1635493620585536E-01 a       525     0    21     1    25
  1.5721035769423575E-01 a       526     0    22     1     1
  1.1080928884152166E-01 a       527     0    22     1     2
 -2.5483517020220542E-01 a       528     0    22     1     3
 -2.4290179009409377E-01 a       529     0    22     1     4
 -9.4029504381961337E-02 a       530     0    22     1     5
 -2.4537970754924271E-01 a       531     0    22     1     6
 -5.7701271412488514E-02 a       532     0    22     1     7
 -1.0162045916460354E-01 a       533     0    22     1     8
 -1.3218076352241798E-01 a       534     0    22     1     9
  2.6441869250072941E-01 a       535     0    22     1    10
  4.1473240554639579E-02 a       536     0    22     1    11
 -2.6013294932745146E-01 a       537     0    22     1    12
 -1.7931101531765958E-01 a       538     0    22     1    13
  1.0993055449802153E-01 a       539     0    22     1    14
 -1.7733740401173143E-03 a       540     0    22     1    15
 -1.5972569167317102E-01 a       541     0    22     1    16
 -3.3964736615454061E-01 a       542     0    22     1    17
  6.7760407564868438E-02 a       543     0    22     1    18
  1.4100342041269001E-01 a       544     0    22     1    19
  5.8284160238279106E-02 a       545     0    22     1    20
 -1.7691308713425916E-01 a       546     0    22     1    21
 -7.1371662793046201E-02 a       547     0    22     1    22
 -2.1889540877822695E-02 a       548     0    22     1    23
  1.7711511963714993E-01 a       549     0    22     1    24
 -7.7293095382164903E-02 a       550     0    22     1    25
 -1.4605511221837557E-02 a       551     0    23     1     1
 -1.9110715610197421E-01 a       552     0    23     1     2
 -7.3748861231631241E-02 a       553     0    23     1     3
 -1.1522595726312035E-02 a       554     0    23     1     4
  5.4261678999372176E-02 a       555     0    23     1     5
 -9.3673126054107644E-02 a       556     0    23     1     6
  2.4226297672028124E-01 a       557     0    23     1     7
 -3.0141259490452068E-02 a       558     0    23     1     8
 -4.4070860399426148E-02 a       559     0    23     1     9
 -1.6587642572369898E-02 a       560     0    23     1    10
 -8.1888556313446839E-02 a       561     0    23     1    11
 -3.2384205624944962E-01 a       562     0    23     1    12
 -7.8965973669315806E-02 a       563     0    23     1    13
  9.8299964942780621E-02 a       564     0    23     1    14
  1.7443709103490979E-01 a       565     0    23     1    15
  1.4295373964092339E-01 a       566     0    23     1    16
  1.3589464252960395E-01 a       567     0    23     1    17
 -2.1171204061935717E-01 a       568     0    23     1    18
 -1.5702916684362936E-01 a       569     0    23     1    19
  8.2392634319778932E-02 a       570     0    23     1    20
  1.2831313829888663E-01 a       571     0    23     1    21
 -8.9142656556153610E-02 a       572     0    23     1    22
 -3.8773800676650302E-02 a       573     0    23     1    23
  2.1758132864321461E-01 a       574     0    23     1    24
 -1.0673210696844279E-01 a       575     0    23     1    25
  6.9138057001997349E-02 a       576     0    24     1     1
  7.1801852910194336E-02 a       577     0    24     1     2
 -1.4680976185057784E-01 a       578     0    24     1     3
  4.3204439361542023E-02 a       579     0    24     1     4
  1.0241000862804592E-01 a       580     0    24     1     5
  2.1966659736777380E-01 a       581     0    24     1     6
 -9.4119993443985306E-02 a       582     0    24     1     7
 -2.0351684817443771E-01 a       583     0    24     1     8
 -6.7793832387596314E-02 a       584     0    24     1     9
 -4.4219072611397375E-02 a       585     0    24     1    10
  6.1736881999046922E-02 a       586     0    24     1    11
  1.8647571278802705E-01 a       587     0    24     1    12
 -2.1883762957348282E-01 a       588     0    24     1    13
  4.7787893694104099E-02 a       589     0    24     1    14
  2.5590753246583116E-03 a       590     0    24     1    15
  5.0852540314725359E-02 a       591     0    24     1    16
 -1.3763438932961275E-01 a       592     0    24     1    17
  8.8572233464916536E-02 a       593     0    24     1    18
  3.1530887222328170E-02 a       594     0    24     1    19
 -3.5523907933703087E-02 a       595     0    24     1    20
  4.7764432670268982E-02 a       596     0    24     1    21
 -1.5104298193073531E-01 a       597     0    24     1    22
  5.9958889187766255E-03 a       598     0    24     1    23
  9.8302086076437672E-02 a       599     0    24     1    24
 -1.8670345641152419E-01 a       600     0    24     1    25
  1.8784228546538401E-01 a       601     0    25     1     1
 -1.4419507323084363E-02 a       602     0    25     1     2
 -7.9821211926769414E-02 a       603     0    25     1     3
 -2.4051060881102749E-02 a       604     0    25     1     4
  5.6336330450394316E-02 a       605     0    25     1     5
  4.6807386551598246E-02 a       606     0    25     1     6
 -4.7510417663997745E-02 a       607     0    25     1     7
 -1.7872483167291423E-01 a       608     0    25     1     8
  2.5799848562605435E-02 a       609     0    25     1     9
  6.6431942903949867E-02 a       610     0    25     1    10
 -8.3833918178519318E-02 a       611     0    25     1    11
  7.4699003313402443E-02 a       612     0    25     1    12
  6.2763666156799375E-02 a       613     0    25     1    13
 -3.1750931652556970E-02 a       614     0    25     1    14
  2.1292269663932836E-01 a       615     0    25     1    15
  2.8075985823505602E-02 a       616     0    25     1    16
 -6.2804654806788179E-02 a       617     0    25     1    17
 -7.6758752061232949E-02 a       618     0    25     1    18
 -1.9327432178181103E-01 a       619     0    25     1    19
 -3.8745036837172907E-03 a       620     0    25     1    20
  1.0035737831605362E-01 a       621     0    25     1    21
  1.4049005422467922E-01 a       622     0    25     1    22
 -1.5643565791105629E-01 a       623     0    25     1    23
  1.0058650952934216E-01 a       624     0    25     1    24
 -3.4003910601828030E-02 a       625     0    25     1    25
 -1.2690678678392980E-01 a       626     0    26     1     1
 -3.5240714066895246E-02 a       627     0    26     1     2
 -1.1035108788537428E-02 a       628     0    26     1     3
  6.2380711716286910E-02 a       629     0    26     1     4
 -1.4696887590409236E-01 a       630     0    26     1     5
 -1.5710282166944378E-01 a       631     0    26     1     6
  5.4657712319885008E-03 a       632     0    26     1     7
  8.5727458179097493E-02 a       633     0    26     1     8
 -1.0353378147792180E-01 a       634     0    26     1     9
 -2.0102145554294454E-01 a       635     0    26     1    10
  9.6367841313264271E-02 a       636     0    26     1    11
 -1.2493217279180957E-02 a       637     0    26     1    12
 -2.9722811608379331E-02 a       638     0    26     1    13
  9.7112410629319815E-02 a       639     0    26     1    14
 -1.5176325413608280E-01 a       640     0    26     1    15
  1.0874939212880014E-01 a       641     0    26     1    16
 -1.2529856671511536E-01 a       642     0    26     1    17
  1.0960181843753808E-01 a       643     0    26     1    18
  1.2495664192548132E-01 a       644     0    26     1    19
 -1.1008092053293178E-01 a       645     0    26     1    20
  1.0797920829072161E-01 a       646     0    26     1    21
 -4.3511332826147726E-02 a       647     0    26     1    22
 -6.7187908331086121E-02 a       648     0    26     1    23
 -9.9405583777722711E-02 a       649     0    26     1    24
  1.0651454086022530E-01 a       650     0    26     1    25
  1.8447000093482135E-01 a       651     0    27     1     1
  3.1246076522247185E-01 a       652     0    27     1     2
 -2.3173666133844489E-01 a       653     0    27     1     3
  2.3042618783153282E-01 a       654     0    27     1     4
  3.2266356005236829E-01 a       655     0    27     1     5
  3.1440520314745241E-01 a       656     0    27     1     6
  1.2784559844263011E-02 a       657     0    27     1     7
 -1.2580088225682887E-01 a       658     0    27     1     8
 -1.7146000335825301E-03 a       659     0    27     1     9
  1.3032392146614685E-01 a       660     0    27     1    10
  1.4735399549600492E-01 a       661     0    27     1    11
  1.1491984356502095E-01 a       662     0    27     1    12
  2.9825784773471864E-01 a       663     0    27     1    13
  6.6280088718420789E-03 a       664     0    27     1    14
  8.9644829345016205E-02 a       665     0    27     1    15
 -1.8524004452291387E-01 a       666     0    27     1    16
 -1.0303003081644117E-01 a       667     0    27     1    17
  5.1961740579260236E-02 a       668     0    27     1    18
 -3.6728342385322266E-01 a       669     0    27     1    19
  7.0113685067391018E-02 a       670     0    27     1    20
  1.3650562844835606E-02 a       671     0    27     1    21
  1.5713532416445911E-01 a       672     0    27     1    22
  1.6791582106857070E-01 a       673     0    27     1    23
 -4.7325912635795532E-02 a       674     0    27     1    24
  6.4430829288428512E-02 a       675     0    27     1    25
  4.3724581742267239E-02 a       676     0    28     1     1
  6.8799933517076139E-02 a       677     0    28     1     2
  1.5710210128985580E-01 a       678     0    28     1     3
  1.8119114147319970E-01 a       679     0    28     1     4
  2.9923072009224061E-01 a       680     0    28     1     5
  3.1981991500209761E-01 a       681     0    28     1     6
 -2.3062804903548874E-02 a       682     0    28     1     7
 -2.7778044623012715E-01 a       683     0    28     1     8
 -7.1341335413895285E-02 a       684     0    28     1     9
  2.4887148095177902E-01 a       685     0    28     1    10
 -4.4059751449320006E-02 a       686     0    28     1    11
 -4.6903560212454259E-02 a       687     0    28     1    12
  7.4109351604579932E-02 a       688     0    28     1    13
 -2.9810118470723607E-01 a       689     0    28     1    14
  1.5846245262635977E-02 a       690     0    28     1    15
 -2.8549276157298120E-01 a       691     0    28     1    16
 -1.8905816124659347E-01 a       692     0    28     1    17
  8.7811546279384159E-02 a       693     0    28     1    18
 -2.4292280881392012E-01 a       694     0    28     1    19
  3.4769939839454045E-01 a       695     0    28     1    20
  9.9437781801579167E-03 a       696     0    28     1    21
  2.2852001385574161E-01 a       697     0    28     1    22
  5.6266996859868669E-02 a       698     0    28     1    23
 -2.5157973076781726E-01 a       699     0    28     1    24
 -1.0553572779515132E-01 a       700     0    28     1    25
 -7.7263979474341743E-02 a       701     0    29     1     1
  2.3427103335393495E-01 a       702     0    29     1     2
 -2.0892165492646997E-01 a       703     0    29     1     3
 -3.5575438304728500E-03 a       704     0    29     1     4
  2.7026292037572251E-02 a       705     0    29     1     5
  9.1576986683338218E-02 a       706     0    29     1     6
 -1.9388360769843786E-02 a       707     0    29     1     7
 -7.3312908777496341E-04 a       708     0    29     1     8
  8.8750484470157778E-02 a       709     0    29     1     9
  3.0163658873174698E-01 a       710     0    29     1    10
  5.5789807439430981E-02 a       711     0    29     1    11
  2.1680791067838967E-01 a       712     0    29     1    12
  2.2728160292905433E-01 a       713     0    29     1    13
  9.7598835976590928E-03 a       714     0    29     1    14
 -4.7976937226158936E-02 a       715     0    29     1    15
 -2.5311646659697686E-02 a       716     0    29     1    16
  1.2770491816759263E-02 a       717     0    29     1    17
  8.2929232183153359E-02 a       718     0    29     1    18
 -1.1634414261623140E-01 a       719     0    29     1    19
 -3.1444218795795058E-02 a       720     0    29     1    20
  1.2159281260224257E-01 a       721     0    29     1    21
 -1.1748713556295062E-01 a       722     0    29     1    22
  1.7737396008058137E-02 a       723     0    29     1    23
  1.2342105060712416E-01 a       724     0    29     1    24
  2.9954371308643951E-01 a       725     0    29     1    25
 -1.1648665286868068E-01 a       726     0    30     1     1
  9.6774972159921618E-02 a       727     0    30     1     2
 -3.9545747534143569E-02 a       728     0    30     1     3
  1.4084279501602534E-01 a       729     0    30     1     4
  1.0122173685269614E-01 a       730     0    30     1     5
  3.0665796910730420E-01 a       731     0    30     1     6
  9.6218921925481787E-02 a       732     0    30     1     7
 -3.4390148042345428E-02 a       733     0    30     1     8
 -1.6930894407701563E-01 a       734     0    30     1     9
  1.6631409017614729E-01 a       735     0    30     1    10
 -1.5228644635811811E-01 a       736     0    30     1    11
  7.4783941643335156E-02 a       737     0    30     1    12
  1.0434494239649731E-02 a       738     0    30     1    13
 -3.9659016006983516E-01 a       739     0    30     1    14
  1.1108619135336298E-01 a       740     0    30     1    15
 -4.3987669867193033E-02 a       741     0    30     1    16
  2.7113911538207580E-02 a       742     0    30     1    17
  1.2644773436379050E-01 a       743     0    30     1    18
  3.5809525574976167E-03 a       744     0    30     1    19
 -1.0658566461023297E-01 a       745     0    30     1    20
  1.1927926914400373E-01 a       746     0    30     1    21
  1.2365846584425087E-01 a       747     0    30     1    22
  1.7791293644070702E-01 a       748     0    30     1    23
 -1.3801013931137182E-01 a       749     0    30     1    24
  2.4191667770895384E-01 a       750     0    30     1    25
 -3.6213254407237772E-02 a       751     0    31     1     1
  4.9586099483601244E-02 a       752     0    31     1     2
  5.0518671597960023E-02 a       753     0    31     1     3
 -1.3693603918437294E-01 a       754     0    31     1     4
 -1.2657175543210017E-01 a       755     0    31     1     5
  1.5288156532784983E-01 a       756     0    31     1     6
  4.2819608404846048E-02 a       757     0    31     1     7
  1.1054409297615064E-01 a       758     0    31     1     8
  1.5210891599533033E-01 a       759     0    31     1     9
  1.4070525538581766E-01 a       760     0    31     1    10
 -7.7089113486841790E-02 a       761     0    31     1    11
  2.9953488911213350E-01 a       762     0    31     1    12
 -4.0824482549836019E-02 a       763     0    31     1    13
  2.7788091780324076E-01 a       764     0    31     1    14
 -1.4678791352913773E-01 a       765     0    31     1    15
  1.7905385580793728E-01 a       766     0    31     1    16
 -5.0050857267232844E-02 a       767     0    31     1    17
  3.3108484816371839E-02 a       768     0    31     1    18
  4.2191524641907718E-01 a       769     0    31     1    19
 -1.1200541089572341E-01 a       770     0    31     1    20
  7.6202688900436827E-02 a       771     0    31     1    21
 -1.3624875156646407E-01 a       772     0    31     1    22
  1.0075463742665029E-01 a       773     0    31     1    23
 -2.3195110650799161E-03 a       774     0    31     1    24
 -1.0042759503132087E-01 a       775     0    31     1    25
  2.8316186102341472E-03 a       776     0    32     1     1
 -1.3703275313865312E-01 a       777     0    32     1     2
  6.4036337503751602E-03 a       778     0    32     1     3
  8.9406421763357141E-02 a       779     0    32     1     4
  1.1783889891584859E-01 a       780     0    32     1     5
  1.9302225734565279E-01 a       781     0    32     1     6
  1.8634133211495638E-01 a       782     0    32     1     7
  1.8853793037862951E-01 a       783     0    32     1     8
 -2.0348584232989672E-01 a       784     0    32     1     9
  2.0825001779152189E-01 a       785     0    32     1    10
 -5.6099308446222133E-03 a       786     0    32     1    11
  1.2163264385888317E-01 a       787     0    32     1    12
  1.3793850016143150E-01 a       788     0    32     1    13
 -1.5040484943637472E-01 a       789     0    32     1    14
  1.9212270967990286E-01 a       790     0    32     1    15
 -1.0698384514821660E-01 a       791     0    32     1    16
 -1.5175642341094600E-03 a       792     0    32     1    17
  3.0724483046106407E-03 a       793     0    32     1    18
  1.1660065275304828E-02 a       794     0    32     1    19
 -2.7664244782277092E-01 a       795     0    32     1    20
  1.7121621207999205E-01 a       796     0    32     1    21
  1.2715796549329073E-01 a       797     0    32     1    22
  1.4360312498932590E-01 a       798     0    32     1    23
 -3.5110061659328555E-02 a       799     0    32     1    24
  3.0368012998726257E-01 a       800     0    32     1    25
 -4.9397109099237273E-02 a       801     0    33     1     1
  2.0509106781062930E-01 a       802     0    33     1     2
  7.9143251423387781E-02 a       803     0    33     1     3
  5.2579340940964357E-02 a       804     0    33     1     4
  3.7925748752488031E-01 a       805     0    33     1     5
 -4.9203250153612273E-02 a       806     0    33     1     6
  1.7853868837209877E-01 a       807     0    33     1     7
 -1.7754888245653000E-01 a       808     0    33     1     8
 -8.0084416099133637E-02 a       809     0    33     1     9
 -2.5092216068366097E-01 a       810     0    33     1    10
  1.7059273666858155E-01 a       811     0    33     1    11
 -1.8219935626653269E-01 a       812     0    33     1    12
  6.0276009379773191E-02 a       813     0    33     1    13
  6.9859526541830620E-03 a       814     0    33     1    14
 -2.1091549068740231E-01 a       815     0    33     1    15
  7.3329343938747377E-04 a       816     0    33     1    16
  1.0123012254969911E-01 a       817     0    33     1    17
  1.1129540416533140E-01 a       818     0    33     1    18
 -2.1252179124314666E-02 a       819     0    33     1    19
  1.1693582627096672E-02 a       820     0    33     1    20
 -1.1054154474402503E-01 a       821     0    33     1    21
 -6.6028357498272225E-03 a       822     0    33     1    22
  2.9904697663136977E-02 a       823     0    33     1    23
  1.2152464258440894E-01 a       824     0    33     1    24
 -4.3748901578305237E-02 a       825     0    33     1    25
  3.0115619438728931E-02 a       826     0    34     1     1
  8.4285028777431631E-02 a       827     0    34     1     2
  9.0997929965012950E-02 a       828     0    34     1     3
  2.8529908740717824E-01 a       829     0    34     1     4
  1.3378177606538377E-01 a       830     0    34     1     5
  1.6644028506254691E-01 a       831     0    34     1     6
  1.7768676682718687E-01 a       832     0    34     1     7
 -2.1955448807763962E-02 a       833     0    34     1     8
 -2.1450291168104657E-01 a       834     0    34     1     9
 -2.3666043543946549E-01 a       835     0    34     1    10
  2.2018579169541411E-01 a       836     0    34     1    11
  2.2218904696312480E-01 a       837     0    34     1    12
  3.1584228562100983E-02 a       838     0    34     1    13
 -2.0270594936559266E-01 a       839     0    34     1    14
  1.5505110000187866E-01 a       840     0    34     1    15
 -1.0691489474314474E-01 a       841     0    34     1    16
 -1.8314216235387835E-02 a       842     0    34     1    17
 -1.5440419170248396E-01 a       843     0    34     1    18
 -1.8265995442454455E-01 a       844     0    34     1    19
  5.0375369972735606E-01 a       845     0    34     1    20
  1.2591025498183170E-01 a       846     0    34     1    21
  2.6330254385653097E-04 a       847     0    34     1    22
 -1.0519893389416474E-01 a       848     0    34     1    23
  1.0570800116176778E-01 a       849     0    34     1    24
  1.6882727723144506E-01 a       850     0    34     1    25
 -8.8422017614911419E-02 a       851     0    35     1     1
 -1.0382387095257905E-03 a       852     0    35     1     2
 -1.2961322637516159E-01 a       853     0    35     1     3
  1.0222992884779432E-01 a       854     0    35     1     4
 -1.0325565925303017E-01 a       855     0    35     1     5
  2.5259221182843272E-01 a       856     0    35     1     6
  8.3215009822751818E-02 a       857     0    35     1     7
 -6.1444996847799596E-02 a       858     0    35     1     8
  7.9116565252216643E-04 a       859     0    35     1     9
  4.3482235133063867E-02 a       860     0    35     1    10
 -9.3464439366667776E-02 a       861     0    35     1    11
 -1.0360515047063958E-01 a       862     0    35     1    12
 -5.1430841429815063E-02 a       863     0    35     1    13
 -1.1801964837439308E-01 a       864     0    35     1    14
  7.1707749820973304E-02 a       865     0    35     1    15
 -1.1188187782856078E-01 a       866     0    35     1    16
  4.1472749294212491E-02 a       867     0    35     1    17
  1.2144630963843854E-01 a       868     0    35     1    18
  5.6383958721071686E-02 a       869     0    35     1    19
 -1.6518308562787504E-01 a       870     0    35     1    20
  1.0204177035535861E-01 a       871     0    35     1    21
  7.9823324076537638E-02 a       872     0    35     1    22
 -1.9458072007946404E-02 a       873     0    35     1    23
 -1.0536508592590656E-01 a       874     0    35     1    24
  2.1916181146130084E-01 a       875     0    35     1    25
  9.4554976405514177E-02 a       876     0    36     1     1
  8.7958805736168405E-02 a       877     0    36     1     2
  1.3868135641115531E-01 a       878     0    36     1     3
  8.6651184832707534E-02 a       879     0    36     1     4
  9.2699240965834082E-02 a       880     0    36     1     5
  2.3180546565898571E-02 a       881     0    36     1     6
  9.5071755374206646E-02 a       882     0    36     1     7
  5.5349999979876149E-03 a       883     0    36     1     8
 -6.2865639300819898E-02 a       884     0    36     1     9
 -2.7067606482715678E-01 a       885     0    36     1    10
  1.5469778759140129E-01 a       886     0    36     1    11
  7.7718332454816644E-02 a       887     0    36     1    12
  3.5775944322324296E-02 a       888     0    36     1    13
 -3.8558015180893065E-02 a       889     0    36     1    14
  7.6809764684209317E-02 a       890     0    36     1    15
  6.5173325248876410E-02 a       891     0    36     1    16
 -7.3630920608061213E-03 a       892     0    36     1    17
 -4.0775350069140820E-02 a       893     0    36     1    18
 -1.2582514069162648E-01 a       894     0    36     1    19
  2.7708296693434770E-01 a       895     0    36     1    20
  8.0396935370416062E-02 a       896     0    36     1    21
 -2.5910289147750596E-02 a       897     0    36     1    22
  1.2130368837995790E-02 a       898     0    36     1    23
  1.9312751982534859E-01 a       899     0    36     1    24
  3.4957866549691588E-02 a       900     0    36     1    25
  1.0976066102127616E-01 a       901     0    37     1     1
  4.3449457845198637E-02 a       902     0    37     1     2
  2.4053709652269606E-02 a       903     0    37     1     3
  5.7062294512106732E-02 a       904     0    37     1     4
  2.3869369797428161E-01 a       905     0    37     1     5
  1.1428390604108020E-01 a       906     0    37     1     6
  1.6393059914874969E-01 a       907     0    37     1     7
  2.6839041172805108E-02 a       908     0    37     1     8
  5.0767064497938143E-02 a       909     0    37     1     9
  1.9989615923151627E-02 a       910     0    37     1    10
  2.7783639373576814E-02 a       911     0    37     1    11
  1.2534551584432738E-03 a       912     0    37     1    12
  1.0219810349922481E-01 a       913     0    37     1    13
  1.7201384025967742E-01 a       914     0    37     1    14
 -1.8927753836050974E-02 a       915     0    37     1    15
 -4.6138446652530581E-03 a       916     0    37     1    16
 -3.8585688653553309E-02 a       917     0    37     1    17
 -1.2784066237972350E-01 a       918     0    37     1    18
 -1.7396242512058815E-01 a       919     0    37     1    19
 -5.4903518633860216E-03 a       920     0    37     1    20
  8.1950626037543148E-02 a       921     0    37     1    21
 -5.7416459891592136E-02 a       922     0    37     1    22
 -7.1086735342770851E-02 a       923     0    37     1    23
  3.5688400010011397E-02 a       924     0    37     1    24
  1.6793489074823265E-01 a       925     0    37     1    25
  9.0337807601553202E-02 a       926     0    38     1     1
  8.0337826036313315E-02 a       927     0    38     1     2
 -8.5650378478136346E-03 a       928     0    38     1     3
  2.0279817051906089E-03 a       929     0    38     1     4
  6.4690889223093878E-02 a       930     0    38     1     5
  1.4559244573219832E-01 a       931     0    38     1     6
 -9.4795214124063498E-02 a       932     0    38     1     7
 -1.6702007636875177E-01 a       933     0    38     1     8
  1.5212364910149095E-01 a       934     0    38     1     9
  9.0424328563624021E-02 a       935     0    38     1    10
 -7.7029731435981449E-02 a       936     0    38     1    11
 -2.3871030159385054E-01 a       937     0    38     1    12
 -1.4460847023350235E-01 a       938     0    38     1    13
  1.1838480712920631E-02 a       939     0    38     1    14
 -1.4633857851088172E-01 a       940     0    38     1    15
  7.7765364607795637E-02 a       941     0    38     1    16
 -1.7732743269840748E-01 a       942     0    38     1    17
  4.4359819116514529E-02 a       943     0    38     1    18
  6.1387310515368179E-04 a       944     0    38     1    19
  3.2064807617505248E-01 a       945     0    38     1    20
  6.6970989392288821E-02 a       946     0    38     1    21
 -1.6947380565913508E-03 a       947     0    38     1    22
 -3.0889783462024017E-02 a       948     0    38     1    23
 -3.6173029672482410E-01 a       949     0    38     1    24
 -1.1875859548037698E-01 a       950     0    38     1    25
  9.6403173991091995E-02 a       951     0    39     1     1
  8.2198161647832422E-03 a       952     0    39     1     2
 -3.4052967580120205E-02 a       953     0    39     1     3
 -3.1980875664205360E-03 a       954     0    39     1     4
  6.0558150811206857E-02 a       955     0    39     1     5
  1.4583254858303468E-01 a       956     0    39     1     6
  5.1496956213192710E-02 a       957     0    39     1     7
  1.2977204084176969E-01 a       958     0    39     1     8
  8.9541324483885507E-02 a       959     0    39     1     9
  1.6780813443147857E-01 a       960     0    39     1    10
  6.1464122347939146E-02 a       961     0    39     1    11
  2.7954455159364089E-01 a       962     0    39     1    12
  3.9327884944151820E-02 a       963     0    39     1    13
  1.9141940836544982E-02 a       964     0    39     1    14
 -2.3963576220751726E-03 a       965     0    39     1    15
 -5.0993315306036673E-02 a       966     0    39     1    16
  3.2007891308439083E-02 a       967     0    39     1    17
 -9.7856258120421549E-02 a       968     0    39     1    18
 -1.1260474341629342E-01 a       969     0    39     1    19
 -8.2462272950724738E-02 a       970     0    39     1    20
  4.3907831152173386E-02 a       971     0    39     1    21
 -1.0078220643371444E-01 a       972     0    39     1    22
 -2.4873915339139095E-02 a       973     0    39     1    23
  8.8423004368953326E-02 a       974     0    39     1    24
  4.2474535122297423E-02 a       975     0    39     1    25
  3.0261792553494097E-02 a       976     0    40     1     1
 -2.6340676279564484E-01 a       977     0    40     1     2
 -6.4920379918499152E-02 a       978     0    40     1     3
 -1.4301786017715798E-01 a       979     0    40     1     4
 -3.2699470173045392E-02 a       980     0    40     1     5
 -2.2404532400542881E-02 a       981     0    40     1     6
  8.1331932026496620E-02 a       982     0    40     1     7
  3.0662823889257140E-01 a       983     0    40     1     8
 -4.1864799675482553E-02 a       984     0    40     1     9
 -4.2335829530967921E-02 a       985     0    40     1    10
  1.6546710513093407E-01 a       986     0    40     1    11
 -6.5834059651174753E-02 a       987     0    40     1    12
  1.1115987150553372E-01 a       988     0    40     1    13
  9.8744361704023002E-03 a       989     0    40     1    14
 -1.8253360307261143E-02 a       990     0    40     1    15
  1.4931556785316902E-01 a       991     0    40     1    16
 -6.8021843212993927E-02 a       992     0    40     1    17
 -2.2983275814694559E-02 a       993     0    40     1    18
  1.9076366874841941E-01 a       994     0    40     1    19
 -4.1899121332057715E-01 a       995     0    40     1    20
 -3.4509903914316124E-02 a       996     0    40     1    21
  2.6336326162940300E-04 a       997     0    40     1    22
  1.8408979097270006E-01 a       998     0    40     1    23
  1.1542778449040000E-01 a       999     0    40     1    24
 -1.0426021666840750E-01 a      1000     0    40     1    25
  1.1025454280608075E-01 a      1001     0    41     1     1
  1.0088849742422311E-01 a      1002     0    41     1     2
 -3.3679374671559910E-02 a      1003     0    41     1     3
  1.2950158177281446E-01 a      1004     0    41     1     4
  2.8505427444752024E-01 a      1005     0    41     1     5
 -7.3728697900700260E-02 a      1006     0    41     1     6
  1.3158795639289234E-01 a      1007     0    41     1     7
 -1.4617302066966106E-01 a      1008     0    41     1     8
  1.1837971669287198E-02 a      1009     0    41     1     9
 -1.8391916528843082E-02 a      1010     0    41     1    10
 -5.7741030878757371E-02 a      1011     0    41     1    11
 -9.6913712238186803E-02 a      1012     0    41     1    12
 -5.3727599238198608E-02 a      1013     0    41     1    13
 -9.6096155799126282E-02 a      1014     0    41     1    14
 -1.1017525616453198E-01 a      1015     0    41     1    15
  1.9255209690776301E-01 a      1016     0    41     1    16
  1.2562434461612282E-01 a      1017     0    41     1    17
  3.4863673255819017E-02 a      1018     0    41     1    18
  3.2627795180531133E-02 a      1019     0    41     1    19
 -1.1101016643103943E-01 a      1020     0    41     1    20
  3.7014924981516157E-03 a      1021     0    41     1    21
 -5.1870251758112565E-02 a      1022     0    41     1    22
  4.3267607054002566E-02 a      1023     0    41     1    23
 -3.9954449305381702E-02 a      1024     0    41     1    24
 -4.7362911739682781E-02 a      1025     0    41     1    25
 -4.5002142294892765E-02 a      1026     0    42     1     1
 -2.0329148025154684E-01 a      1027     0    42     1     2
 -1.4573030071529022E-01 a      1028     0    42     1     3
  1.1388658768914516E-01 a      1029     0    42     1     4
 -1.4658940924127944E-01 a      1030     0    42     1     5
 -1.6182328307160437E-01 a      1031     0    42     1     6
 -1.3894026545525609E-01 a      1032     0    42     1     7
  1.2758875642215978E-01 a      1033     0    42     1     8
  1.2886018131226307E-01 a      1034     0    42     1     9
 -1.7956248078434593E-02 a      1035     0    42     1    10
 -2.6362914273955473E-01 a      1036     0    42     1    11
 -1.9811161013533252E-01 a      1037     0    42     1    12
  2.6499012293687660E-02 a      1038     0    42     1    13
  4.6237311987200248E-02 a      1039     0    42     1    14
 -1.6674445293047385E-01 a      1040     0    42     1    15
  6.2685269842442187E-02 a      1041     0    42     1    16
  1.2828225660449660E-01 a      1042     0    42     1    17
 -4.8434118768954558E-02 a      1043     0    42     1    18
 -1.1145159371969306E-02 a      1044     0    42     1    19
  5.4348327098610129E-02 a      1045     0    42     1    20
  1.0822811814679562E-01 a      1046     0    42     1    21
 -1.9700455184489468E-01 a      1047     0    42     1    22
 -1.0150364238469806E-01 a      1048     0    42     1    23
 -2.5029846022824392E-01 a      1049     0    42     1    24
 -7.2933733452297062E-02 a      1050     0    42     1    25
  2.4734917798647584E-02 a      1051     0    43     1     1
 -1.5796603951807217E-01 a      1052     0    43     1     2
 -7.4104711785859839E-02 a      1053     0    43     1     3
  3.7545140723047724E-02 a      1054     0    43     1     4
 -8.8410390272618739E-02 a      1055     0    43     1     5
  3.0623498123168287E-02 a      1056     0    43     1     6
  5.9889632872260505E-02 a      1057     0    43     1     7
  1.0759148649357893E-01 a      1058     0    43     1     8
  1.7193216980640086E-01 a      1059     0    43     1     9
 -7.0741702679633601E-03 a      1060     0    43     1    10
  1.0394359797305359E-01 a      1061     0    43     1    11
 -6.3366415269169113E-02 a      1062     0    43     1    12
  1.6286543240726117E-02 a      1063     0    43     1    13
 -5.1253179697102233E-02 a      1064     0    43     1    14
 -1.8281766550703946E-02 a      1065     0    43     1    15
  2.8251697737169890E-01 a      1066     0    43     1    16
  5.4224557414552970E-03 a      1067     0    43     1    17
 -8.9041103724616481E-03 a      1068     0    43     1    18
 -4.0711476996758943E-02 a      1069     0    43     1    19
 -9.3551428132873059E-03 a      1070     0    43     1    20
 -5.3159919477145490E-02 a      1071     0    43     1    21
  1.5942782494032906E-01 a      1072     0    43     1    22
  2.3596275047233536E-01 a      1073     0    43     1    23
  5.0159800684088145E-02 a      1074     0    43     1    24
 -6.2037399388011109E-02 a      1075     0    43     1    25
  5.9415260093948770E-02 a      1076     0    44     1     1
 -7.7100698488584543E-02 a      1077     0    44     1     2
  1.0277263229477729E-02 a      1078     0    44     1     3
 -6.6416288428541068E-02 a      1079     0    44     1     4
  9.6546570863422693E-02 a      1080     0    44     1     5
 -1.4371943059534331E-01 a      1081     0    44     1     6
  1.3695222201149818E-01 a      1082     0    44     1     7
  1.5854783081446258E-01 a      1083     0    44     1     8
  1.3996788438158364E-01 a      1084     0    44     1     9
 -6.9020586306202766E-02 a      1085     0    44     1    10
 -2.2385619889316311E-02 a      1086     0    44     1    11
 -2.7806915481764605E-01 a      1087     0    44     1    12
  5.5617186922670890E-02 a      1088     0    44     1    13
  2.1687404016531986E-01 a      1089     0    44     1    14
 -7.4879404663648244E-02 a      1090     0    44     1    15
  1.8562606263328726E-01 a      1091     0    44     1    16
 -1.4877707714067243E-01 a      1092     0    44     1    17
 -1.0851600614951845E-01 a      1093     0    44     1    18
 -1.1275184521325034E-01 a      1094     0    44     1    19
 -1.0083784969192253E-01 a      1095     0    44     1    20
  6.0652721095289193E-02 a      1096     0    44     1    21
 -4.3418903173208914E-02 a      1097     0    44     1    22
 -1.4621671973686895E-01 a      1098     0    44     1    23
 -2.9112286437733059E-02 a      1099     0    44     1    24
 -1.9962906865454037E-02 a      1100     0    44     1    25
  2.0630301572508308E-03 a      1101     0    45     1     1
 -1.5701758131294974E-01 a      1102     0    45     1     2
 -2.4345205670084857E-01 a      1103     0    45     1     3
  7.6624497603723044E-02 a      1104     0    45     1     4
 -4.2946334201301534E-02 a      1105     0    45     1     5
 -6.7542438135301339E-03 a      1106     0    45     1     6
  7.1903075067871275E-02 a      1107     0    45     1     7
  8.6439077575836437E-02 a      1108     0    45     1     8
 -6.6129455495868739E-02 a      1109     0    45     1     9
  1.0589163572259112E-01 a      1110     0    45     1    10
  4.8940679229739645E-02 a      1111     0    45     1    11
  9.1999322374696872E-03 a      1112     0    45     1    12
  8.3526945313390111E-02 a      1113     0    45     1    13
 -1.2767174141959264E-01 a      1114     0    45     1    14
  1.4934084440273185E-01 a      1115     0    45     1    15
  1.4419619855344451E-01 a      1116     0    45     1    16
 -3.3949063634639093E-02 a      1117     0    45     1    17
 -4.8418914026549416E-02 a      1118     0    45     1    18
 -9.0428515647934027E-02 a      1119     0    45     1    19
 -2.4668864882365538E-01 a      1120     0    45     1    20
 -7.6567857337410714E-02 a      1121     0    45     1    21
 -5.0727026374055684E-02 a      1122     0    45     1    22
 -9.1057367142529669E-02 a      1123     0    45     1    23
  3.9920137276228167E-02 a      1124     0    45     1    24
  5.9631450154124410E-02 a      1125     0    45     1    25
  1.4704889560537845E-01 a      1126     0    46     1     1
  2.5191718729241390E-03 a      1127     0    46     1     2
 -1.5496123292819203E-02 a      1128     0    46     1     3
 -1.5792632291898512E-01 a      1129     0    46     1     4
 -1.3209359123890652E-01 a      1130     0    46     1     5
  1.3770040805158235E-01 a      1131     0    46     1     6
  7.6707119790660652E-02 a      1132     0    46     1     7
  1.0396286972314514E-01 a      1133     0    46     1     8
 -5.3668697692450980E-02 a      1134     0    46     1     9
  2.0265620278944282E-01 a      1135     0    46     1    10
 -2.0634967951535146E-02 a      1136     0    46     1    11
  2.6835119178024314E-01 a      1137     0    46     1    12
 -2.6911291725682917E-02 a      1138     0    46     1    13
  3.6905168645384873E-02 a      1139     0    46     1    14
 -3.9152064005417847E-02 a      1140     0    46     1    15
  4.9629591732129663E-02 a      1141     0    46     1    16
  3.8911308889442620E-03 a      1142     0    46     1    17
 -1.3381448507135316E-01 a      1143     0    46     1    18
  2.0536460362754391E-01 a      1144     0    46     1    19
  3.0813812098312070E-02 a      1145     0    46     1    20
  6.5584349841478123E-02 a      1146     0    46     1    21
 -1.3857458407491099E-01 a      1147     0    46     1    22
  5.3237368222224260E-02 a      1148     0    46     1    23
  7.2094124008365373E-02 a      1149     0    46     1    24
 -9.2758382497922454E-02 a      1150     0    46     1    25
 -3.8920604286574297E-02 a      1151     0    47     1     1
 -1.4647050063137013E-01 a      1152     0    47     1     2
 -2.7747742481209492E-01 a      1153     0    47     1     3
  1.6015506018010339E-01 a      1154     0    47     1     4
 -2.1161077451751287E-01 a      1155     0    47     1     5
 -4.3985337782033174E-01 a      1156     0    47     1     6
 -2.1004496278525112E-01 a      1157     0    47     1     7
  6.5067009499589032E-02 a      1158     0    47     1     8
  1.2816100762431262E-01 a      1159     0    47     1     9
 -9.1828280598094905E-02 a      1160     0    47     1    10
 -4.8335248587109927E-02 a      1161     0    47     1    11
 -2.3909913049341988E-01 a      1162     0    47     1    12
  3.1119694480272214E-01 a      1163     0    47     1    13
  1.8399019377359413E-01 a      1164     0    47     1    14
 -1.1911704922864613E-01 a      1165     0    47     1    15
 -5.3417607345117968E-02 a      1166     0    47     1    16
 -7.8413248703928795E-02 a      1167     0    47     1    17
 -7.7955507338663715E-02 a      1168     0    47     1    18
  1.5690298800499475E-01 a      1169     0    47     1    19
 -1.1027964422498868E-01 a      1170     0    47     1    20
 -8.2296473304952308E-02 a      1171     0    47     1    21
 -2.7815102927343843E-01 a      1172     0    47     1    22
  1.4561287952408555E-01 a      1173     0    47     1    23
 -1.1093407785260635E-01 a      1174     0    47     1    24
 -2.1103590037000927E-01 a      1175     0    47     1    25
  7.6215969100116077E-02 a      1176     0    48     1     1
  2.9774728881138159E-02 a      1177     0    48     1     2
  8.1865124486501406E-02 a      1178     0    48     1     3
  1.3137261663093214E-01 a      1179     0    48     1     4
  1.2261764564840610E-01 a      1180     0    48     1     5
 -1.4503040598029027E-01 a      1181     0    48     1     6
 -8.0332585125970531E-03 a      1182     0    48     1     7
 -9.6096224548192829E-04 a      1183     0    48     1     8
  2.2844671429291606E-02 a      1184     0    48     1     9
  9.6334297909586048E-03 a      1185     0    48     1    10
  8.3995782617311415E-02 a      1186     0    48     1    11
 -9.7111942742601612E-02 a      1187     0    48     1    12
 -8.4686926670689052E-03 a      1188     0    48     1    13
  1.4674870816531360E-01 a      1189     0    48     1    14
 -1.4732676116615387E-01 a      1190     0    48     1    15
  1.6791174777843604E-01 a      1191     0    48     1    16
 -4.5304204541228674E-02 a      1192     0    48     1    17
  8.0224848917969299E-02 a      1193     0    48     1    18
  5.5213020828119005E-02 a      1194     0    48     1    19
 -1.3019934801711472E-03 a      1195     0    48     1    20
  3.4032381728846997E-02 a      1196     0    48     1    21
 -1.1359756258985165E-02 a      1197     0    48     1    22
 -1.2093826298875611E-01 a      1198     0    48     1    23
  6.2779465322294024E-03 a      1199     0    48     1    24
  1.7519100835317457E-02 a      1200     0    48     1    25
 -1.4061327745241281E-01 a      1201     0    49     1     1
  1.4355383653648104E-01 a      1202     0    49     1     2
 -3.1080800315085939E-02 a      1203     0    49     1     3
  1.5248528747103127E-01 a      1204     0    49     1     4
  1.3697396466184911E-01 a      1205     0    49     1     5
 -2.9054433558376822E-02 a      1206     0    49     1     6
 -7.0536715116059398E-02 a      1207     0    49     1     7
 -8.5862555049016909E-02 a      1208     0    49     1     8
  3.2401342914485390E-02 a      1209     0    49     1     9
  9.5800714384301972E-04 a      1210     0    49     1    10
  1.4200693071827336E-04 a      1211     0    49     1    11
  7.0954473879150118E-02 a      1212     0    49     1    12
  1.2365751174944119E-02 a      1213     0    49     1    13
 -4.8877695582534186E-02 a      1214     0    49     1    14
 -1.4180156034951816E-01 a      1215     0    49     1    15
 -1.2886912210471821E-01 a      1216     0    49     1    16
 -1.7096562803864784E-01 a      1217     0    49     1    17
 -1.1035588972656623E-02 a      1218     0    49     1    18
  4.9299575008609306E-02 a      1219     0    49     1    19
  1.0923824405404237E-01 a      1220     0    49     1    20
  1.4029583257234157E-01 a      1221     0    49     1    21
 -1.6369883948028255E-01 a      1222     0    49     1    22
 -1.0904067439559748E-01 a      1223     0    49     1    23
  3.9605380311107021E-04 a      1224     0    49     1    24
 -2.7206802968893728E-02 a      1225     0    49     1    25
  1.1066190530959769E-03 a      1226     0    50     1     1
 -2.3242697233360084E-02 a      1227     0    50     1     2
  7.8705692440612623E-02 a      1228     0    50     1     3
  3.9309429657575903E-02 a      1229     0    50     1     4
 -6.6093112785044015E-03 a      1230     0    50     1     5
 -1.0089230903037609E-01 a      1231     0    50     1     6
 -3.7584207590004574E-02 a      1232     0    50     1     7
 -1.7720621439371229E-01 a      1233     0    50     1     8
 -6.9209076220315954E-02 a      1234     0    50     1     9
  8.8806838391678078E-02 a      1235     0    50     1    10
 -9.9883718558304288E-02 a      1236     0    50     1    11
 -1.1485936971903123E-01 a      1237     0    50     1    12
  1.1185780103472659E-02 a      1238     0    50     1    13
 -4.0995880823971945E-02 a      1239     0    50     1    14
 -1.3222341920465677E-01 a      1240     0    50     1    15
  4.8647407787265930E-02 a      1241     0    50     1    16
  3.3356130833011371E-03 a      1242     0    50     1    17
 -1.0933625624317013E-01 a      1243     0    50     1    18
  1.1236912300152087E-01 a      1244     0    50     1    19
  1.6787682733180497E-02 a      1245     0    50     1    20
 -1.3443989143239010E-01 a      1246     0    50     1    21
  3.6398425622799421E-02 a      1247     0    50     1    22
 -2.7518454154430427E-01 a      1248     0    50     1    23
  9.4221033512210048E-03 a      1249     0    50     1    24
  1.0083291713246716E-01 a      1250     0    50     1    25
 -8.7000921592970890E-02 a      1251     0    51     1     1
 -1.4476223969405766E-01 a      1252     0    51     1     2
 -1.2890131605576335E-01 a      1253     0    51     1     3
 -4.9372029590663384E-02 a      1254     0    51     1     4
  1.5000219055308611E-01 a      1255     0    51     1     5
  4.7693210260008369E-03 a      1256     0    51     1     6
 -2.1056198546754765E-02 a      1257     0    51     1     7
 -1.5508091006807090E-01 a      1258     0    51     1     8
  2.9552917505785226E-01 a      1259     0    51     1     9
 -6.7973788403378893E-02 a      1260     0    51     1    10
  1.6407219938993120E-02 a      1261     0    51     1    11
 -1.8564235546467020E-01 a      1262     0    51     1    12
  2.3341694241611977E-01 a      1263     0    51     1    13
  1.9172259728232804E-01 a      1264     0    51     1    14
  1.1814990727795228E-01 a      1265     0    51     1    15
 -1.2078587722424201E-01 a      1266     0    51     1    16
 -9.1950162460097240E-02 a      1267     0    51     1    17
 -7.9121545090046166E-02 a      1268     0    51     1    18
  7.8123865102413398E-02 a      1269     0    51     1    19
 -9.0304414019126797E-02 a      1270     0    51     1    20
  6.6691131079720675E-02 a      1271     0    51     1    21
  1.6429459492197700E-02 a      1272     0    51     1    22
  3.2462639882973743E-01 a      1273     0    51     1    23
 -1.2623545029965362E-03 a      1274     0    51     1    24
 -1.2311811057240135E-01 a      1275     0    51     1    25
 -2.3478042186610829E-02 a      1276     0    52     1     1
  4.0148468997398710E-03 a      1277     0    52     1     2
  1.4630717752026140E-01 a      1278     0    52     1     3
  1.4015396673220307E-01 a      1279     0    52     1     4
  5.2452934115204290E-02 a      1280     0    52     1     5
 -7.8003799214694178E-02 a      1281     0    52     1     6
  5.9813576355970649E-02 a      1282     0    52     1     7
 -5.7543923667068640E-02 a      1283     0    52     1     8
 -1.9531524712182632E-01 a      1284     0    52     1     9
 -6.9123088692079004E-02 a      1285     0    52     1    10
  5.6374087348798729E-02 a      1286     0    52     1    11
 -1.0307838355106368E-04 a      1287     0    52     1    12
  8.3483527249696002E-02 a      1288     0    52     1    13
 -5.2742279888165072E-02 a      1289     0    52     1    14
  8.4585035808539977E-03 a      1290     0    52     1    15
 -3.3991346318687617E-02 a      1291     0    52     1    16
 -9.9172576879030125E-02 a      1292     0    52     1    17
 -1.8500919365098328E-02 a      1293     0    52     1    18
 -9.8046548975229186E-02 a      1294     0    52     1    19
  9.3774993911618545E-02 a      1295     0    52     1    20
  6.9082899571073178E-02 a      1296     0    52     1    21
 -1.0267959136444330E-01 a      1297     0    52     1    22
 -8.6431630620055766E-02 a      1298     0    52     1    23
  4.2774959925716692E-02 a      1299     0    52     1    24
 -9.1878596075505137E-02 a      1300     0    52     1    25
  7.9277727704057901E-02 a      1301     0    53     1     1
 -2.1585254114073743E-01 a      1302     0    53     1     2
 -1.6922724650394932E-01 a      1303     0    53     1     3
 -9.4604597444388240E-03 a      1304     0    53     1     4
  2.1462731992787983E-02 a      1305     0    53     1     5
 -1.7790113324534139E-02 a      1306     0    53     1     6
  5.7250867364759706E-02 a      1307     0    53     1     7
  1.4494424537069772E-01 a      1308     0    53     1     8
  6.6398343374578880E-02 a      1309     0    53     1     9
 -1.9290875045944794E-01 a      1310     0    53     1    10
  1.9272716541220478E-01 a      1311     0    53     1    11
 -2.6299940797644156E-01 a      1312     0    53     1    12
 -2.5884237029147350E-01 a      1313     0    53     1    13
  6.4565479707516887E-02 a      1314     0    53     1    14
  5.5046731162183275E-02 a      1315     0    53     1    15
  8.7023594587220601E-02 a      1316     0    53     1    16
 -4.7512413424510729E-02 a      1317     0    53     1    17
  7.3542621619263324E-02 a      1318     0    53     1    18
 -4.9658248491400783E-02 a      1319     0    53     1    19
  6.8689298773415217E-03 a      1320     0    53     1    20
  1.5963185902480154E-01 a      1321     0    53     1    21
 -1.8719807794551846E-01 a      1322     0    53     1    22
 -2.2710491827933027E-02 a      1323     0    53     1    23
  2.0432644573179098E-02 a      1324     0    53     1    24
  2.1524086507268142E-02 a      1325     0    53     1    25
  4.1848484679542171E-02 a      1326     0    54     1     1
 -1.3355653052834571E-01 a      1327     0    54     1     2
 -9.9455015633151539E-02 a      1328     0    54     1     3
 -4.3176692552999843E-02 a      1329     0    54     1     4
 -6.6589844781041005E-02 a      1330     0    54     1     5
 -1.5792693779223856E-02 a      1331     0    54     1     6
 -6.8977278602079070E-02 a      1332     0    54     1     7
  9.2360131605373919E-04 a      1333     0    54     1     8
  1.5371293678121184E-01 a      1334     0    54     1     9
 -5.1441857131355274E-02 a      1335     0    54     1    10
 -3.0949057959133216E-03 a      1336     0    54     1    11
  1.2858549254908133E-01 a      1337     0    54     1    12
 -1.2119418497854622E-02 a      1338     0    54     1    13
 -9.8390158497019667E-02 a      1339     0    54     1    14
  1.4818670429718106E-01 a      1340     0    54     1    15
  1.4664445827453393E-01 a      1341     0    54     1    16
 -7.6057591047605538E-02 a      1342     0    54     1    17
  2.8054208811461617E-02 a      1343     0    54     1    18
  2.0800605825025159E-01 a      1344     0    54     1    19
  7.7865354655625232E-02 a      1345     0    54     1    20
  8.5505824131251601E-02 a      1346     0    54     1    21
  2.6902870684752049E-02 a      1347     0    54     1    22
 -1.2011918965900883E-01 a      1348     0    54     1    23
 -1.2260460581011678E-01 a      1349     0    54     1    24
 -4.0084951556727762E-02 a      1350     0    54     1    25
 -2.1560790560972753E-01 a      1351     0    55     1     1
  1.9692655948946466E-01 a      1352     0    55     1     2
  1.8038072399885816E-01 a      1353     0    55     1     3
  1.6877870250156687E-01 a      1354     0    55     1     4
  1.8346123445414866E-01 a      1355     0    55     1     5
 -5.4931164162299297E-02 a      1356     0    55     1     6
  1.0191086932678496E-01 a      1357     0    55     1     7
 -1.0583631020568629E-01 a      1358     0    55     1     8
 -3.7754639684870528E-02 a      1359     0    55     1     9
  8.7965429910898604E-02 a      1360     0    55     1    10
  7.4476398351206410E-02 a      1361     0    55     1    11
  1.6182535806354434E-01 a      1362     0    55     1    12
  1.7755004428931354E-01 a      1363     0    55     1    13
  3.9193420675660860E-02 a      1364     0    55     1    14
 -1.1184702017922474E-01 a      1365     0    55     1    15
  1.8961845527074958E-02 a      1366     0    55     1    16
 -2.0204971325874944E-02 a      1367     0    55     1    17
  1.3198134760607599E-01 a      1368     0    55     1    18
  1.6217303237117642E-01 a      1369     0    55     1    19
  1.6801892750143707E-01 a      1370     0    55     1    20
 -7.1914514125815537E-04 a      1371     0    55     1    21
 -4.0781276544049193E-02 a      1372     0    55     1    22
 -2.0592468548739379E-01 a      1373     0    55     1    23
 -1.4493575705688355E-01 a      1374     0    55     1    24
  1.7245025759230653E-01 a      1375     0    55     1    25
  2.3843939444500788E-02 a      1376     0    56     1     1
  1.3086819778756978E-01 a      1377     0    56     1     2
 -2.2875217293363358E-02 a      1378     0    56     1     3
  1.5476823609608545E-01 a      1379     0    56     1     4
 -1.3141341790758325E-03 a      1380     0    56     1     5
  1.5384881095503240E-02 a      1381     0    56     1     6
  3.4954747409140938E-02 a      1382     0    56     1     7
  1.3888584539991392E-01 a      1383     0    56     1     8
 -1.6061401866537153E-01 a      1384     0    56     1     9
  1.0306657075233272E-01 a      1385     0    56     1    10
  1.9853325369620070E-01 a      1386     0    56     1    11
  1.2970617743295013E-01 a      1387     0    56     1    12
  5.3552149607659902E-02 a      1388     0    56     1    13
  7.5697933661764416E-02 a      1389     0    56     1    14
 -4.9104737238459366E-03 a      1390     0    56     1    15
 -3.8386657499989763E-02 a      1391     0    56     1    16
 -3.8386599517393462E-02 a      1392     0    56     1    17
 -3.7082294758888482E-02 a      1393     0    56     1    18
  1.3329803089056094E-02 a      1394     0    56     1    19
  5.5320442673289956E-02 a      1395     0    56     1    20
  1.0341171180749935E-01 a      1396     0    56     1    21
 -1.0590209972381394E-01 a      1397     0    56     1    22
 -1.7543045806152022E-01 a      1398     0    56     1    23
 -6.6250125740122442E-02 a      1399     0    56     1    24
 -4.3826406361702437E-02 a      1400     0    56     1    25
  1.0333959621533347E-01 a      1401     0    57     1     1
 -1.8552458355649487E-01 a      1402     0    57     1     2
 -1.3985315451830860E-01 a      1403     0    57     1     3
 -2.9169831767529608E-01 a      1404     0    57     1     4
  1.4476380517305776E-01 a      1405     0    57     1     5
 -2.5590214287041552E-01 a      1406     0    57     1     6
  2.5240549551075248E-01 a      1407     0    57     1     7
  2.4065944521695573E-01 a      1408     0    57     1     8
 -2.6080933869453791E-02 a      1409     0    57     1     9
  2.6044801104836285E-03 a      1410     0    57     1    10
  2.4949315515266554E-01 a      1411     0    57     1    11
 -1.7796003177287106E-01 a      1412     0    57     1    12
  1.4124539271865681E-03 a      1413     0    57     1    13
  1.0989560581321148E-01 a      1414     0    57     1    14
  1.3135397726952786E-01 a      1415     0    57     1    15
  8.6235564297122896E-02 a      1416     0    57     1    16
 -6.7906667542858859E-02 a      1417     0    57     1    17
 -2.6152595731776758E-02 a      1418     0    57     1    18
  1.1659657653199686E-02 a      1419     0    57     1    19
 -2.3231927253549034E-01 a      1420     0    57     1    20
  8.6233610767330868E-02 a      1421     0    57     1    21
 -9.5387363649689999E-02 a      1422     0    57     1    22
  1.1060660471743490E-01 a      1423     0    57     1    23
  9.2089167312263631E-02 a      1424     0    57     1    24
  3.3325200636181759E-02 a      1425     0    57     1    25
 -9.2266594913065075E-02 a      1426     0    58     1     1
 -1.2106507276810245E-01 a      1427     0    58     1     2
 -2.1061567210253881E-01 a      1428     0    58     1     3
 -2.0501771941287300E-01 a      1429     0    58     1     4
  2.6147620128531748E-02 a      1430     0    58     1     5
 -6.3772065264122865E-02 a      1431     0    58     1     6
 -9.7946982447981001E-02 a      1432     0    58     1     7
  1.2004374481363374E-01 a      1433     0    58     1     8
  9.3277203983757745E-02 a      1434     0    58     1     9
 -1.1894421904935250E-01 a      1435     0    58     1    10
  2.2527429372569160E-01 a      1436     0    58     1    11
 -9.9950667926990144E-02 a      1437     0    58     1    12
 -1.5120148508242623E-01 a      1438     0    58     1    13
 -4.2890086888124755E-02 a      1439     0    58     1    14
  1.1533192512596907E-01 a      1440     0    58     1    15
  1.8083112852437491E-01 a      1441     0    58     1    16
 -9.4893002163282211E-02 a      1442     0    58     1    17
 -1.6036285750408341E-01 a      1443     0    58     1    18
  1.1708638410899046E-01 a      1444     0    58     1    19
  1.6321598319336691E-01 a      1445     0    58     1    20
  1.5507825891020267E-02 a      1446     0    58     1    21
 -1.3020790767277157E-01 a      1447     0    58     1    22
  6.0659824739981730E-02 a      1448     0    58     1    23
  4.0917689823396081E-02 a      1449     0    58     1    24
  9.4051429616227644E-02 a      1450     0    58     1    25
 -1.1537775709018580E-01 a      1451     0    59     1     1
 -1.3769669413595065E-01 a      1452     0    59     1     2
 -1.3263099587376145E-01 a      1453     0    59     1     3
 -1.1895207667985910E-01 a      1454     0    59     1     4
 -2.4330183569320221E-02 a      1455     0    59     1     5
 -8.5380205598923509E-02 a      1456     0    59     1     6
 -6.6423435235310219E-02 a      1457     0    59     1     7
 -1.4011833261843440E-01 a      1458     0    59     1     8
  1.3307977360498685E-01 a      1459     0    59     1     9
  1.1813641386062546E-01 a      1460     0    59     1    10
 -1.9837959530023624E-01 a      1461     0    59     1    11
  5.3030529396383398E-02 a      1462     0    59     1    12
 -7.3241060271860614E-02 a      1463     0    59     1    13
  1.3842711785753220E-01 a      1464     0    59     1    14
 -7.9681398446545537E-02 a      1465     0    59     1    15
  2.7858861383303787E-02 a      1466     0    59     1    16
  1.1865886414540268E-01 a      1467     0    59     1    17
 -1.7077192149474951E-01 a      1468     0    59     1    18
 -1.2448701787577188E-01 a      1469     0    59     1    19
  2.5677095514724524E-01 a      1470     0    59     1    20
 -1.4816840692875718E-01 a      1471     0    59     1    21
 -6.1777860378223144E-02 a      1472     0    59     1    22
 -1.1847650354181639E-01 a      1473     0    59     1    23
 -1.4818703765182745E-01 a      1474     0    59     1    24
  2.2864350933265634E-01 a      1475     0    59     1    25
 -5.8880160503606716E-04 a      1476     0    60     1     1
  1.7261468962905593E-01 a      1477     0    60     1     2
  1.5241009339611139E-01 a      1478     0    60     1     3
  2.6454393124491488E-01 a      1479     0    60     1     4
 -2.8978193513558336E-03 a      1480     0    60     1     5
 -6.0418159544094671E-02 a      1481     0    60     1     6
  2.1949514809607554E-02 a      1482     0    60     1     7
  7.5991135308696250E-02 a      1483     0    60     1     8
 -4.6869005348838247E-03 a      1484     0    60     1     9
  2.1576684163330931E-01 a      1485     0    60     1    10
  4.2173322048018679E-02 a      1486     0    60     1    11
  5.7447632658875078E-02 a      1487     0    60     1    12
  1.2113019746295051E-01 a      1488     0    60     1    13
  4.2503783819353602E-02 a      1489     0    60     1    14
 -1.9497589643244029E-01 a      1490     0    60     1    15
  1.0992860151472973E-01 a      1491     0    60     1    16
 -2.0605602311770971E-01 a      1492     0    60     1    17
  1.0792872855569363E-01 a      1493     0    60     1    18
  2.2593286857488276E-01 a      1494     0    60     1    19
 -4.3755158638882699E-02 a      1495     0    60     1    20
  9.1439836424502777E-02 a      1496     0    60     1    21
 -2.2689339830968128E-01 a      1497     0    60     1    22
 -1.8750757476918983E-01 a      1498     0    60     1    23
 -1.6063962224926195E-01 a      1499     0    60     1    24
  9.3706904384650083E-02 a      1500     0    60     1    25
  1.4799455335198133E-01 a      1501     0    61     1     1
 -1.1002324184607839E-02 a      1502     0    61     1     2
  2.9366253256939825E-02 a      1503     0    61     1     3
 -1.3554605354115481E-02 a      1504     0    61     1     4
  1.6955225868869109E-02 a      1505     0    61     1     5
 -2.3431470285922719E-02 a      1506     0    61     1     6
 -1.9988553331792136E-01 a      1507     0    61     1     7
  1.3793853834111763E-01 a      1508     0    61     1     8
 -2.5685729056878381E-01 a      1509     0    61     1     9
  6.4371642176985988E-02 a      1510     0    61     1    10
  2.7822125421163666E-02 a      1511     0    61     1    11
 -8.8011860751868953E-02 a      1512     0    61     1    12
  1.5042570430924740E-01 a      1513     0    61     1    13
 -1.7377746339569851E-02 a      1514     0    61     1    14
  1.4493071543799880E-02 a      1515     0    61     1    15
  5.4229486149348236E-02 a      1516     0    61     1    16
  7.6589182320313642E-02 a      1517     0    61     1    17
 -1.1737604062202282E-01 a      1518     0    61     1    18
 -1.2970822599762102E-01 a      1519     0    61     1    19
  5.0282329920439323E-02 a      1520     0    61     1    20
 -3.0425353756845408E-02 a      1521     0    61     1    21
 -9.1650411968528495E-02 a      1522     0    61     1    22
 -5.1362358316243084E-02 a      1523     0    61     1    23
 -4.2736847895589423E-03 a      1524     0    61     1    24
 -3.2709310825232700E-02 a      1525     0    61     1    25
 -1.8294916387515675E-01 a      1526     0    62     1     1
 -2.4827015744450606E-01 a      1527     0    62     1     2
 -2.1412316754329128E-01 a      1528     0    62     1     3
 -1.1239614709655263E-01 a      1529     0    62     1     4
  2.8595821108495345E-01 a      1530     0    62     1     5
  6.3322303935517937E-02 a      1531     0    62     1     6
  3.6350617201791435E-01 a      1532     0    62     1     7
 -7.1241811787267337E-02 a      1533     0    62     1     8
  1.2877644699698601E-01 a      1534     0    62     1     9
  1.7668516716145077E-01 a      1535     0    62     1    10
  3.9314690231027966E-01 a      1536     0    62     1    11
 -4.3461484960718527E-02 a      1537     0    62     1    12
  1.8203879593559069E-02 a      1538     0    62     1    13
 -8.1493071106113701E-02 a      1539     0    62     1    14
 -2.2586374092960600E-02 a      1540     0    62     1    15
  4.0286733085066390E-02 a      1541     0    62     1    16
 -8.2932663938116075E-02 a      1542     0    62     1    17
 -1.2169724558044414E-02 a      1543     0    62     1    18
  8.0009799014053279E-02 a      1544     0    62     1    19
 -1.3410726365865860E-01 a      1545     0    62     1    20
  2.0302237101792239E-01 a      1546     0    62     1    21
 -3.2267916044612079E-02 a      1547     0    62     1    22
  1.7386790256577478E-01 a      1548     0    62     1    23
  1.0406798187431746E-01 a      1549     0    62     1    24
 -7.9654589985342847E-02 a      1550     0    62     1    25
 -1.7279422829809560E-01 a      1551     0    63     1     1
 -2.9974220880023589E-01 a      1552     0    63     1     2
 -1.1334261350049463E-01 a      1553     0    63     1     3
  4.0845853364176246E-03 a      1554     0    63     1     4
  1.9326269486938827E-01 a      1555     0    63     1     5
 -8.2313957999342983E-03 a      1556     0    63     1     6
  5.9617261802639550E-02 a      1557     0    63     1     7
 -2.1917176961131316E-01 a      1558     0    63     1     8
  1.3035035586911026E-01 a      1559     0    63     1     9
 -4.3170230189616299E-02 a      1560     0    63     1    10
 -7.9620578041896539E-02 a      1561     0    63     1    11
  1.1725310721406711E-01 a      1562     0    63     1    12
  2.5117968428282594E-01 a      1563     0    63     1    13
  1.3029742140734751E-01 a      1564     0    63     1    14
 -7.3545331351247231E-02 a      1565     0    63     1    15
  3.1384901097798720E-02 a      1566     0    63     1    16
  1.3434196238599513E-01 a      1567     0    63     1    17
 -2.6631663441286468E-01 a      1568     0    63     1    18
 -1.7053409938772845E-01 a      1569     0    63     1    19
  8.9676981833671079E-02 a      1570     0    63     1    20
  7.0221124824493372E-02 a      1571     0    63     1    21
  6.2861188271243804E-02 a      1572     0    63     1    22
  1.9339676636506539E-01 a      1573     0    63     1    23
  2.1261036514880365E-02 a      1574     0    63     1    24
  1.1950430012729595E-01 a      1575     0    63     1    25
  2.1920633111816759E-01 a      1576     0    64     1     1
  8.9729287379807232E-03 a      1577     0    64     1     2
  1.6724638376040013E-01 a      1578     0    64     1     3
  4.0821197496813441E-02 a      1579     0    64     1     4
  2.8938166396717438E-02 a      1580     0    64     1     5
  1.3685558626336414E-02 a      1581     0    64     1     6
 -1.4749000413205626E-01 a      1582     0    64     1     7
  2.3304050438645349E-02 a      1583     0    64     1     8
 -2.0545854642563297E-01 a      1584     0    64     1     9
  1.0098272517750284E-01 a      1585     0    64     1    10
  8.9816769975639879E-02 a      1586     0    64     1    11
  1.3385380733200666E-01 a      1587     0    64     1    12
  4.3461365286929309E-02 a      1588     0    64     1    13
  5.4902250465532598E-02 a      1589     0    64     1    14
 -2.9328423898679550E-02 a      1590     0    64     1    15
  1.2907816391004842E-01 a      1591     0    64     1    16
 -1.6444472894983861E-01 a      1592     0    64     1    17
 -9.2502353689951008E-02 a      1593     0    64     1    18
 -1.4919699507579903E-01 a      1594     0    64     1    19
 -1.6471059274418845E-02 a      1595     0    64     1    20
  8.5068810207514375E-02 a      1596     0    64     1    21
 -1.5680402643249389E-01 a      1597     0    64     1    22
 -2.1628646863840495E-01 a      1598     0    64     1    23
  9.0482821853294135E-02 a      1599     0    64     1    24
 -1.2802055341463556E-01 a      1600     0    64     1    25
  2.2538786419079329E-01 a      1601     0    65     1     1
 -2.8902509544382574E-02 a      1602     0    65     1     2
 -4.9235739285586687E-02 a      1603     0    65     1     3
 -3.9134802168044679E-02 a      1604     0    65     1     4
  1.5264927364116024E-01 a      1605     0    65     1     5
  9.9351798599527474E-02 a      1606     0    65     1     6
 -1.1116277941221687E-01 a      1607     0    65     1     7
  2.8277933026809369E-02 a      1608     0    65     1     8
 -2.5643593102523615E-01 a      1609     0    65     1     9
 -7.5810072314819413E-02 a      1610     0    65     1    10
  4.2340379159097892E-02 a      1611     0    65     1    11
  2.6598943189615188E-02 a      1612     0    65     1    12
  9.4895177281117491E-03 a      1613     0    65     1    13
 -2.0227119171386029E-01 a      1614     0    65     1    14
 -2.0382466774136992E-02 a      1615     0    65     1    15
 -6.4139450884436122E-02 a      1616     0    65     1    16
 -1.0214070523606621E-01 a      1617     0    65     1    17
 -1.4481592582765448E-01 a      1618     0    65     1    18
 -2.4843085994144233E-02 a      1619     0    65     1    19
 -7.0432052899826675E-03 a      1620     0    65     1    20
 -1.0495859509943267E-01 a      1621     0    65     1    21
 -2.3054198148484920E-03 a      1622     0    65     1    22
 -7.6471126875297724E-02 a      1623     0    65     1    23
