################################################################################
# Neural network connection values (weights and biases).
################################################################################
# Col  Name       Description
################################################################################
# 1    connection Neural network connection value.
# 2    t          Connection type (a = weight, b = bias).
# 3    index      Index enumerating weights.
# 4    l_s        Starting point layer (end point layer for biases).
# 5    n_s        Starting point neuron in starting layer (end point neuron for biases).
# 6    l_e        End point layer.
# 7    n_e        End point neuron in end layer.
################################################################################
#                      1 2         3     4     5     6     7
#             connection t     index   l_s   n_s   l_e   n_e
############################################################
  2.1728271613821189E-02 a         1     0     1     1     1
 -8.2852616038965932E-02 a         2     0     1     1     2
 -2.3205185661536995E-02 a         3     0     1     1     3
  4.2712298431126519E-02 a         4     0     1     1     4
 -6.3983441396688975E-02 a         5     0     1     1     5
 -1.2201856056906829E-01 a         6     0     1     1     6
 -6.8153927424524363E-02 a         7     0     1     1     7
  1.3601787209821931E-01 a         8     0     1     1     8
  2.2159969655404982E-01 a         9     0     1     1     9
 -1.5055258494298920E-01 a        10     0     1     1    10
  8.9186837788819640E-02 a        11     0     1     1    11
  3.5018117356107728E-02 a        12     0     1     1    12
  2.3433516000980742E-01 a        13     0     1     1    13
 -3.2984364962306900E-01 a        14     0     1     1    14
  3.7662319892420422E-02 a        15     0     1     1    15
 -1.4997634434738077E-01 a        16     0     1     1    16
  1.1814517588112042E-02 a        17     0     1     1    17
 -7.0268507296354810E-02 a        18     0     1     1    18
 -1.7623406573983980E-01 a        19     0     1     1    19
 -6.6501366922230409E-02 a        20     0     1     1    20
 -5.5501656903866110E-02 a        21     0     1     1    21
  1.0521728078451274E-02 a        22     0     1     1    22
  1.9574154679747816E-01 a        23     0     1     1    23
 -1.9071875084687323E-01 a        24     0     1     1    24
 -5.4026386514604022E-02 a        25     0     1     1    25
 -4.3554373192499921E-03 a        26     0     2     1     1
 -3.3139254302407654E-03 a        27     0     2     1     2
 -5.4044078748255987E-02 a        28     0     2     1     3
 -7.8992667637894989E-02 a        29     0     2     1     4
  1.2785278819888674E-01 a        30     0     2     1     5
 -1.4018582907571811E-03 a        31     0     2     1     6
 -1.0537215140095835E-01 a        32     0     2     1     7
 -1.8483287816000088E-01 a        33     0     2     1     8
  3.7064797623225787E-02 a        34     0     2     1     9
 -1.6859908267270539E-02 a        35     0     2     1    10
  2.7796477141390628E-02 a        36     0     2     1    11
  5.1458756716026600E-02 a        37     0     2     1    12
  2.5627323080637276E-01 a        38     0     2     1    13
  4.5347216016618307E-02 a        39     0     2     1    14
  2.5840628056877463E-01 a        40     0     2     1    15
  2.6566069564528567E-02 a        41     0     2     1    16
  1.3035706331953731E-01 a        42     0     2     1    17
  1.9967585045791189E-01 a        43     0     2     1    18
 -1.4390662719331046E-01 a        44     0     2     1    19
  3.4859010974548708E-02 a        45     0     2     1    20
  3.3652158469896463E-02 a        46     0     2     1    21
  1.7689196929348353E-01 a        47     0     2     1    22
  2.2947212507919643E-01 a        48     0     2     1    23
 -8.4931625445203413E-02 a        49     0     2     1    24
  7.0217291499692927E-02 a        50     0     2     1    25
  4.0057936979177367E-02 a        51     0     3     1     1
 -8.0767152669699305E-02 a        52     0     3     1     2
 -6.9353469503981385E-02 a        53     0     3     1     3
  1.7968897352145649E-01 a        54     0     3     1     4
 -1.0333048116871342E-02 a        55     0     3     1     5
  1.1503413886292632E-01 a        56     0     3     1     6
  4.7561309897608470E-03 a        57     0     3     1     7
  3.9629167759674268E-02 a        58     0     3     1     8
 -1.0722226693445513E-01 a        59     0     3     1     9
  1.6014533848139531E-01 a        60     0     3     1    10
 -1.1406464559918444E-01 a        61     0     3     1    11
  1.8266157498704044E-01 a        62     0     3     1    12
 -2.6286579571635066E-01 a        63     0     3     1    13
 -6.0705020812554605E-02 a        64     0     3     1    14
  2.8387796295279717E-02 a        65     0     3     1    15
  2.0270131872028077E-01 a        66     0     3     1    16
 -4.0226227383317943E-02 a        67     0     3     1    17
  1.9505458425125038E-01 a        68     0     3     1    18
  1.5929678588496025E-02 a        69     0     3     1    19
  1.2980020226637842E-01 a        70     0     3     1    20
 -1.7963355421035815E-01 a        71     0     3     1    21
  1.5694318752990194E-01 a        72     0     3     1    22
 -3.1373816827595413E-01 a        73     0     3     1    23
  1.5529498957937587E-01 a        74     0     3     1    24
 -1.1035915135666785E-01 a        75     0     3     1    25
 -1.1972031010140628E-01 a        76     0     4     1     1
  8.1331714023352777E-03 a        77     0     4     1     2
 -1.3082809036273907E-01 a        78     0     4     1     3
  4.3144611404416409E-02 a        79     0     4     1     4
 -4.8135295516289409E-02 a        80     0     4     1     5
 -4.2693066248979741E-02 a        81     0     4     1     6
  1.2616950743943722E-01 a        82     0     4     1     7
  7.1607201114562091E-02 a        83     0     4     1     8
 -4.5414926738670328E-02 a        84     0     4     1     9
 -1.0137873222833077E-01 a        85     0     4     1    10
 -8.4446919742547213E-02 a        86     0     4     1    11
 -1.1375255564777254E-01 a        87     0     4     1    12
  5.4044347187085916E-02 a        88     0     4     1    13
 -7.0567334267753370E-02 a        89     0     4     1    14
  1.1551464500380806E-01 a        90     0     4     1    15
  1.4306042815480274E-01 a        91     0     4     1    16
 -3.8970513607962151E-02 a        92     0     4     1    17
  8.3186245609149903E-02 a        93     0     4     1    18
  1.0316940020448788E-01 a        94     0     4     1    19
  1.1363828517928436E-01 a        95     0     4     1    20
  3.4872217329917084E-02 a        96     0     4     1    21
  3.6969768058908413E-02 a        97     0     4     1    22
 -1.3232107524231024E-01 a        98     0     4     1    23
  1.0541854375902254E-05 a        99     0     4     1    24
 -4.7182629285015348E-02 a       100     0     4     1    25
 -1.2724143621638470E-01 a       101     0     5     1     1
  9.0151596051452648E-02 a       102     0     5     1     2
 -2.2067470772211027E-02 a       103     0     5     1     3
 -1.3167132806108159E-01 a       104     0     5     1     4
 -9.1853752238429346E-03 a       105     0     5     1     5
  4.5495060762201930E-02 a       106     0     5     1     6
 -6.7570705324751304E-02 a       107     0     5     1     7
  7.8675679995744374E-02 a       108     0     5     1     8
  2.1007673879188496E-01 a       109     0     5     1     9
 -1.4511790393936799E-01 a       110     0     5     1    10
  5.4208830747864235E-02 a       111     0     5     1    11
 -7.6519019254796733E-02 a       112     0     5     1    12
  5.4200649284630795E-02 a       113     0     5     1    13
 -1.8831977189916457E-01 a       114     0     5     1    14
 -1.3113513562266615E-01 a       115     0     5     1    15
 -1.6539120113273367E-01 a       116     0     5     1    16
 -8.1795437009423960E-02 a       117     0     5     1    17
 -3.7594495702367940E-02 a       118     0     5     1    18
 -4.8495298523525979E-02 a       119     0     5     1    19
  1.4878896795316088E-01 a       120     0     5     1    20
 -7.9929721636867831E-02 a       121     0     5     1    21
  1.3071453440591077E-01 a       122     0     5     1    22
  1.0713033478695484E-01 a       123     0     5     1    23
 -7.0179127685568762E-02 a       124     0     5     1    24
 -4.4364918613796260E-02 a       125     0     5     1    25
 -2.6186306174064099E-02 a       126     0     6     1     1
 -1.1616063395471209E-01 a       127     0     6     1     2
 -1.9833646851217617E-02 a       128     0     6     1     3
 -6.9832814548064670E-02 a       129     0     6     1     4
 -7.8392566495608135E-02 a       130     0     6     1     5
 -4.1442102206610924E-04 a       131     0     6     1     6
 -1.1050217200373405E-01 a       132     0     6     1     7
 -1.5180822673543382E-01 a       133     0     6     1     8
  2.8546144541403730E-02 a       134     0     6     1     9
 -7.0933927631478849E-02 a       135     0     6     1    10
  5.9648394374326875E-02 a       136     0     6     1    11
  1.2197532380173008E-02 a       137     0     6     1    12
 -9.2763507074858573E-03 a       138     0     6     1    13
  2.3955503626110496E-02 a       139     0     6     1    14
  1.3961406916801791E-01 a       140     0     6     1    15
  3.3831488639385718E-02 a       141     0     6     1    16
  3.4918574684690021E-02 a       142     0     6     1    17
  2.0460783141841010E-01 a       143     0     6     1    18
  1.0166021252597586E-01 a       144     0     6     1    19
  2.2858733981669571E-01 a       145     0     6     1    20
  5.4610607823105825E-02 a       146     0     6     1    21
  1.3076853532222382E-01 a       147     0     6     1    22
  9.2592679277904724E-02 a       148     0     6     1    23
  1.2859995612996017E-01 a       149     0     6     1    24
 -1.9284176987215268E-01 a       150     0     6     1    25
  1.4346969110622287E-01 a       151     0     7     1     1
 -4.7246666089347123E-03 a       152     0     7     1     2
  1.6472807776299309E-01 a       153     0     7     1     3
  8.3208756901620134E-02 a       154     0     7     1     4
  2.1203586760280654E-01 a       155     0     7     1     5
 -3.9669503842047329E-02 a       156     0     7     1     6
 -1.1741525668410699E-01 a       157     0     7     1     7
  7.1912414693031633E-03 a       158     0     7     1     8
  5.1483726610708394E-02 a       159     0     7     1     9
  6.5633165613700806E-02 a       160     0     7     1    10
 -2.6924452887988204E-01 a       161     0     7     1    11
 -2.9852046001515756E-02 a       162     0     7     1    12
 -1.4657513403753730E-01 a       163     0     7     1    13
  1.6612135461794844E-01 a       164     0     7     1    14
  2.0142094777246994E-01 a       165     0     7     1    15
 -3.6274919151446525E-02 a       166     0     7     1    16
 -3.2831350397394182E-02 a       167     0     7     1    17
  1.2194786700213830E-01 a       168     0     7     1    18
  7.0277734260703217E-02 a       169     0     7     1    19
 -6.7186282400265238E-02 a       170     0     7     1    20
 -2.1480094029123165E-01 a       171     0     7     1    21
 -4.7416906289842943E-02 a       172     0     7     1    22
 -1.3708345611414544E-02 a       173     0     7     1    23
  2.7484736678839033E-01 a       174     0     7     1    24
  8.3252323159790392E-02 a       175     0     7     1    25
  3.7674537863532281E-02 a       176     0     8     1     1
 -7.7753248590305385E-02 a       177     0     8     1     2
  9.7572944995551289E-02 a       178     0     8     1     3
 -1.1990437975579320E-01 a       179     0     8     1     4
 -1.6817592572823281E-01 a       180     0     8     1     5
  4.7245478140504796E-02 a       181     0     8     1     6
 -1.2474533613606635E-01 a       182     0     8     1     7
  1.6299359241145564E-01 a       183     0     8     1     8
  1.4739259503063029E-01 a       184     0     8     1     9
  1.8259728254374469E-02 a       185     0     8     1    10
  3.0046972547197508E-02 a       186     0     8     1    11
 -1.6710878039324853E-01 a       187     0     8     1    12
 -1.9258668062486520E-01 a       188     0     8     1    13
  2.2008389350120161E-01 a       189     0     8     1    14
  6.8019370100016158E-02 a       190     0     8     1    15
 -7.6585283869203186E-02 a       191     0     8     1    16
 -1.4145775640947017E-01 a       192     0     8     1    17
  2.3654276376340652E-01 a       193     0     8     1    18
 -7.4845805802736601E-02 a       194     0     8     1    19
  6.0954088843430045E-02 a       195     0     8     1    20
  8.0590083672628668E-02 a       196     0     8     1    21
  1.5074484832667548E-01 a       197     0     8     1    22
 -2.2840980616950998E-01 a       198     0     8     1    23
 -2.1253219089555242E-02 a       199     0     8     1    24
 -8.6119522383849609E-02 a       200     0     8     1    25
  1.4462268078692439E-01 a       201     0     9     1     1
  2.5153802529894587E-01 a       202     0     9     1     2
  3.2962239479885719E-01 a       203     0     9     1     3
  1.4110197425304119E-01 a       204     0     9     1     4
  2.5358609230075636E-02 a       205     0     9     1     5
 -1.0038874998347486E-01 a       206     0     9     1     6
 -8.0252002167487457E-02 a       207     0     9     1     7
 -8.9993774002281573E-03 a       208     0     9     1     8
  3.3046522883521501E-02 a       209     0     9     1     9
 -2.1213245868236402E-01 a       210     0     9     1    10
  1.4129417275181777E-01 a       211     0     9     1    11
 -1.3866742613579852E-01 a       212     0     9     1    12
 -1.3164790512844596E-01 a       213     0     9     1    13
 -1.3085838782769837E-02 a       214     0     9     1    14
  4.4916104933123542E-02 a       215     0     9     1    15
 -1.4558825045989371E-01 a       216     0     9     1    16
 -4.0974647951526368E-02 a       217     0     9     1    17
 -3.7124185779551851E-02 a       218     0     9     1    18
 -9.3953126644627946E-02 a       219     0     9     1    19
  1.6806146633818064E-01 a       220     0     9     1    20
  2.4240153029690636E-02 a       221     0     9     1    21
 -4.3225362124944031E-02 a       222     0     9     1    22
 -2.5849678691989408E-01 a       223     0     9     1    23
 -6.8784773556828840E-02 a       224     0     9     1    24
 -2.3057014822704489E-01 a       225     0     9     1    25
 -1.0548768432783943E-01 a       226     0    10     1     1
  2.0369458143524793E-01 a       227     0    10     1     2
  2.3613487688212306E-01 a       228     0    10     1     3
  4.9097008374579271E-01 a       229     0    10     1     4
 -1.2408795321070892E-01 a       230     0    10     1     5
 -2.7868965138468310E-01 a       231     0    10     1     6
 -1.7650392256476086E-01 a       232     0    10     1     7
 -2.2986417960107464E-01 a       233     0    10     1     8
 -3.6264915799444220E-01 a       234     0    10     1     9
 -8.0896343454223724E-02 a       235     0    10     1    10
 -9.1741306326795113E-02 a       236     0    10     1    11
  1.7045035794926577E-01 a       237     0    10     1    12
 -3.6653594896885250E-01 a       238     0    10     1    13
  2.7287103731689999E-01 a       239     0    10     1    14
 -2.6844361269873823E-01 a       240     0    10     1    15
  8.1563619530806125E-02 a       241     0    10     1    16
 -3.8167369189244599E-02 a       242     0    10     1    17
  1.5821535237996007E-01 a       243     0    10     1    18
  2.0799990215972841E-01 a       244     0    10     1    19
 -6.1906383280921802E-02 a       245     0    10     1    20
  2.7732463993809152E-02 a       246     0    10     1    21
 -2.0800075623105446E-01 a       247     0    10     1    22
 -1.9184317564230954E-01 a       248     0    10     1    23
 -1.9075839569523786E-01 a       249     0    10     1    24
  9.5737278441597150E-03 a       250     0    10     1    25
 -2.9241297094461477E-01 a       251     0    11     1     1
 -2.0837026449246274E-01 a       252     0    11     1     2
 -5.8470167827282615E-01 a       253     0    11     1     3
 -1.6761352785576092E-01 a       254     0    11     1     4
 -3.9935515568453867E-01 a       255     0    11     1     5
  3.2227589055861133E-01 a       256     0    11     1     6
  1.7974800470685909E-01 a       257     0    11     1     7
  2.2044971561766765E-02 a       258     0    11     1     8
  2.5781232148156120E-02 a       259     0    11     1     9
  9.2092999762198507E-02 a       260     0    11     1    10
  2.9736476867873812E-01 a       261     0    11     1    11
 -6.3419681975303815E-02 a       262     0    11     1    12
  3.2117918033530946E-01 a       263     0    11     1    13
 -3.9886403977005008E-01 a       264     0    11     1    14
  5.9615169940332578E-02 a       265     0    11     1    15
  6.4389484210655767E-02 a       266     0    11     1    16
 -4.7164604073245922E-02 a       267     0    11     1    17
 -1.1420619899169041E-01 a       268     0    11     1    18
 -1.7892772252297998E-01 a       269     0    11     1    19
 -3.5863961250497112E-01 a       270     0    11     1    20
  4.2339699182434722E-02 a       271     0    11     1    21
 -2.0303869827811377E-02 a       272     0    11     1    22
  1.5832805965798430E-01 a       273     0    11     1    23
  1.6355785208108986E-01 a       274     0    11     1    24
  3.0940108381140408E-01 a       275     0    11     1    25
 -1.3203358543485694E-01 a       276     0    12     1     1
 -1.8709693415958303E-01 a       277     0    12     1     2
  1.8171196723099404E-02 a       278     0    12     1     3
 -2.4616706938299185E-01 a       279     0    12     1     4
 -2.4433194385002636E-02 a       280     0    12     1     5
 -9.8754032120511454E-03 a       281     0    12     1     6
 -1.8722150533882015E-01 a       282     0    12     1     7
 -2.5779105495448446E-03 a       283     0    12     1     8
 -7.7958452585230070E-02 a       284     0    12     1     9
  1.8419690458414417E-01 a       285     0    12     1    10
  1.1623653130186692E-01 a       286     0    12     1    11
  1.4151997359812728E-02 a       287     0    12     1    12
  1.0882158091010719E-02 a       288     0    12     1    13
 -1.0129647373644274E-01 a       289     0    12     1    14
 -5.2570245613094473E-02 a       290     0    12     1    15
 -2.1788356511271370E-01 a       291     0    12     1    16
 -1.8778367337251534E-01 a       292     0    12     1    17
  1.8061062581867959E-01 a       293     0    12     1    18
 -1.3730086626264934E-01 a       294     0    12     1    19
  6.1935047048514436E-02 a       295     0    12     1    20
 -1.8068827487478872E-01 a       296     0    12     1    21
  1.8655136564265648E-01 a       297     0    12     1    22
  4.8814079225262874E-02 a       298     0    12     1    23
  2.5787498268568232E-01 a       299     0    12     1    24
  6.1151039009317038E-02 a       300     0    12     1    25
  4.4960030095907537E-02 a       301     0    13     1     1
 -2.6480566710666087E-01 a       302     0    13     1     2
  2.8441662499917081E-01 a       303     0    13     1     3
  4.4769408871877373E-02 a       304     0    13     1     4
 -3.4764614050699061E-01 a       305     0    13     1     5
 -3.2857563506892069E-02 a       306     0    13     1     6
 -2.9120270624952677E-01 a       307     0    13     1     7
  1.4259931425708022E-01 a       308     0    13     1     8
 -3.1019259366469633E-02 a       309     0    13     1     9
 -6.8124319298798336E-02 a       310     0    13     1    10
  8.9793006720040286E-02 a       311     0    13     1    11
 -3.0261062390865970E-02 a       312     0    13     1    12
 -6.4859587813522260E-02 a       313     0    13     1    13
  3.7072594191717978E-01 a       314     0    13     1    14
  7.4572925293789782E-02 a       315     0    13     1    15
 -1.4199463733590850E-01 a       316     0    13     1    16
 -6.2469194476166565E-03 a       317     0    13     1    17
  1.2646697702176665E-01 a       318     0    13     1    18
 -2.1504507685087199E-01 a       319     0    13     1    19
  1.4639971330051177E-01 a       320     0    13     1    20
 -1.1437323935849585E-01 a       321     0    13     1    21
  2.3220673401565609E-01 a       322     0    13     1    22
  3.3590435705211363E-02 a       323     0    13     1    23
  6.6908018804714323E-02 a       324     0    13     1    24
  2.4425801143414340E-02 a       325     0    13     1    25
  1.3677889758049239E-01 a       326     0    14     1     1
 -8.0430025296091195E-02 a       327     0    14     1     2
  1.1196532242090075E-01 a       328     0    14     1     3
 -1.0907931809598764E-01 a       329     0    14     1     4
 -3.4719501426683910E-02 a       330     0    14     1     5
  7.8184968242177993E-02 a       331     0    14     1     6
  8.1634504793484566E-02 a       332     0    14     1     7
  2.7261437920366433E-01 a       333     0    14     1     8
  5.6602871384276242E-02 a       334     0    14     1     9
 -9.0598058939157983E-02 a       335     0    14     1    10
 -2.8668297643547092E-01 a       336     0    14     1    11
  1.4714412094868937E-01 a       337     0    14     1    12
 -3.4483077899774822E-01 a       338     0    14     1    13
  1.7836408988008437E-02 a       339     0    14     1    14
 -7.7746348612898919E-02 a       340     0    14     1    15
 -3.6544292426011586E-02 a       341     0    14     1    16
 -2.1666946071166240E-01 a       342     0    14     1    17
 -8.9211647034426848E-03 a       343     0    14     1    18
 -4.9653622855421187E-02 a       344     0    14     1    19
  2.0272608529868216E-01 a       345     0    14     1    20
 -1.3457079855497817E-01 a       346     0    14     1    21
  9.9798327193678260E-02 a       347     0    14     1    22
 -3.8262660645324292E-01 a       348     0    14     1    23
  2.5637380712908085E-02 a       349     0    14     1    24
 -8.0041604631322913E-02 a       350     0    14     1    25
  2.4220811595675343E-01 a       351     0    15     1     1
  1.2136155830688480E-01 a       352     0    15     1     2
  1.9519383753261130E-01 a       353     0    15     1     3
 -2.1135260659788609E-02 a       354     0    15     1     4
  2.6272967139303022E-01 a       355     0    15     1     5
 -2.5390833619448182E-02 a       356     0    15     1     6
  1.4228554830617604E-01 a       357     0    15     1     7
  2.8284907489673373E-04 a       358     0    15     1     8
 -2.9235381737246963E-02 a       359     0    15     1     9
 -1.8470511199317255E-01 a       360     0    15     1    10
 -7.1610091564555320E-03 a       361     0    15     1    11
 -1.0545427808916925E-01 a       362     0    15     1    12
 -1.1609206391054042E-01 a       363     0    15     1    13
  1.2855248584655646E-01 a       364     0    15     1    14
  1.7123720638673490E-01 a       365     0    15     1    15
 -1.3513400937440687E-01 a       366     0    15     1    16
 -6.5775709043331465E-02 a       367     0    15     1    17
 -1.9139639418736563E-02 a       368     0    15     1    18
  2.5858022480879428E-02 a       369     0    15     1    19
 -8.2099330811440718E-02 a       370     0    15     1    20
  1.3257157963985089E-01 a       371     0    15     1    21
  1.3957108081262015E-01 a       372     0    15     1    22
  1.1650929710477008E-01 a       373     0    15     1    23
 -1.4571340513814066E-01 a       374     0    15     1    24
  5.6188368197978747E-02 a       375     0    15     1    25
  6.4690579761897560E-03 a       376     0    16     1     1
 -5.5719900275465334E-02 a       377     0    16     1     2
  3.5929918960724484E-02 a       378     0    16     1     3
  3.6861670776141366E-02 a       379     0    16     1     4
  2.3195598945612544E-01 a       380     0    16     1     5
 -9.7457316384916962E-02 a       381     0    16     1     6
  4.0812407337816915E-03 a       382     0    16     1     7
 -2.2229646811814319E-02 a       383     0    16     1     8
  8.8985097407553157E-02 a       384     0    16     1     9
  1.9225040167434062E-02 a       385     0    16     1    10
  2.0053342620651074E-02 a       386     0    16     1    11
 -1.0953497138690517E-01 a       387     0    16     1    12
  1.2281517550032395E-01 a       388     0    16     1    13
  3.2707407862527661E-02 a       389     0    16     1    14
 -1.1738447078473460E-01 a       390     0    16     1    15
  4.2214729526308899E-02 a       391     0    16     1    16
 -4.3351822821669661E-02 a       392     0    16     1    17
 -1.1486209066272712E-01 a       393     0    16     1    18
  3.8019843752281374E-02 a       394     0    16     1    19
  1.5072375328709994E-02 a       395     0    16     1    20
 -1.4943679768901940E-02 a       396     0    16     1    21
 -8.2007272501764261E-02 a       397     0    16     1    22
 -9.7323526895194759E-02 a       398     0    16     1    23
 -1.2993093680026518E-01 a       399     0    16     1    24
  3.2350670135762191E-02 a       400     0    16     1    25
  9.8644762929302257E-02 a       401     0    17     1     1
 -7.7134588043025976E-02 a       402     0    17     1     2
  6.3139122232817230E-02 a       403     0    17     1     3
  1.9795969569111718E-01 a       404     0    17     1     4
 -1.0641735406783356E-01 a       405     0    17     1     5
 -1.9201423715129440E-01 a       406     0    17     1     6
 -8.0247361444673329E-02 a       407     0    17     1     7
 -1.6908622229494980E-01 a       408     0    17     1     8
  1.6841800847965688E-02 a       409     0    17     1     9
 -1.8555330525964756E-01 a       410     0    17     1    10
  6.5620439342394962E-02 a       411     0    17     1    11
  1.0762664311618067E-01 a       412     0    17     1    12
  6.2625577484166015E-03 a       413     0    17     1    13
  2.3373872117277074E-02 a       414     0    17     1    14
 -4.9958774906867273E-02 a       415     0    17     1    15
 -4.1634623630183325E-02 a       416     0    17     1    16
 -1.5152858144562784E-01 a       417     0    17     1    17
  1.3070213704925752E-02 a       418     0    17     1    18
 -1.6414271769655425E-01 a       419     0    17     1    19
  1.5037050469816535E-01 a       420     0    17     1    20
  7.7152775874281376E-02 a       421     0    17     1    21
 -1.1121115847012406E-01 a       422     0    17     1    22
 -1.1140027180871781E-01 a       423     0    17     1    23
 -2.5346550204943596E-02 a       424     0    17     1    24
 -5.9752430255597289E-02 a       425     0    17     1    25
 -8.1655229673845368E-03 a       426     0    18     1     1
 -6.1482665327261050E-02 a       427     0    18     1     2
 -1.2658913092235280E-01 a       428     0    18     1     3
  1.2765936233211317E-01 a       429     0    18     1     4
 -6.1270391902495794E-02 a       430     0    18     1     5
 -7.3774016709872506E-02 a       431     0    18     1     6
  8.7972544580340775E-02 a       432     0    18     1     7
 -6.4073485841242367E-02 a       433     0    18     1     8
  1.0316563042068383E-02 a       434     0    18     1     9
  6.0140524053174341E-02 a       435     0    18     1    10
  1.2387446390717839E-01 a       436     0    18     1    11
  8.0616275292463332E-02 a       437     0    18     1    12
  8.5690550172808452E-02 a       438     0    18     1    13
 -2.3049501544508633E-01 a       439     0    18     1    14
  1.0274560058977601E-01 a       440     0    18     1    15
  8.7196371231393274E-02 a       441     0    18     1    16
 -3.0121273722613084E-03 a       442     0    18     1    17
  1.3468076300927065E-01 a       443     0    18     1    18
 -7.0822182932497646E-02 a       444     0    18     1    19
  1.1006948951968915E-01 a       445     0    18     1    20
 -8.1839250363096055E-02 a       446     0    18     1    21
  2.3649155180971437E-02 a       447     0    18     1    22
 -1.1426459702567260E-01 a       448     0    18     1    23
  8.5302925012732261E-02 a       449     0    18     1    24
 -1.7054279504370104E-01 a       450     0    18     1    25
  1.0674946593077893E-01 a       451     0    19     1     1
 -2.4293484095915141E-01 a       452     0    19     1     2
 -1.9464514732793964E-01 a       453     0    19     1     3
 -1.5745965004624099E-01 a       454     0    19     1     4
 -1.7243701535923953E-01 a       455     0    19     1     5
 -7.1929712834108109E-02 a       456     0    19     1     6
 -7.7160863767298249E-02 a       457     0    19     1     7
 -5.9779745474991489E-03 a       458     0    19     1     8
 -8.4496850406077864E-02 a       459     0    19     1     9
  3.7560376933528775E-02 a       460     0    19     1    10
  1.6953807783887875E-01 a       461     0    19     1    11
 -3.9561331532607748E-02 a       462     0    19     1    12
  2.6983786220462769E-01 a       463     0    19     1    13
  7.1982342177249276E-02 a       464     0    19     1    14
 -5.3452666896169607E-02 a       465     0    19     1    15
 -1.0285722391274116E-02 a       466     0    19     1    16
  1.6977190386425112E-01 a       467     0    19     1    17
 -1.3300280327747907E-01 a       468     0    19     1    18
 -4.0022145750907817E-02 a       469     0    19     1    19
  2.3029750765820622E-01 a       470     0    19     1    20
  7.2350151346461195E-02 a       471     0    19     1    21
 -3.4993305670191120E-02 a       472     0    19     1    22
  1.5039681691398304E-01 a       473     0    19     1    23
 -1.3086073502670767E-01 a       474     0    19     1    24
  8.1412974479868408E-02 a       475     0    19     1    25
  1.9007557410943768E-01 a       476     0    20     1     1
 -2.5748566268774271E-02 a       477     0    20     1     2
  5.2857405684590950E-02 a       478     0    20     1     3
 -1.0533214847141477E-01 a       479     0    20     1     4
  2.1792479213527707E-01 a       480     0    20     1     5
  1.2568882033715911E-01 a       481     0    20     1     6
 -1.5678474835600181E-02 a       482     0    20     1     7
  1.1618580653256139E-01 a       483     0    20     1     8
 -6.7387764605335729E-02 a       484     0    20     1     9
 -4.4374999651631691E-02 a       485     0    20     1    10
  1.4675659369642327E-01 a       486     0    20     1    11
 -1.6211586978032505E-01 a       487     0    20     1    12
 -1.5793528233424522E-01 a       488     0    20     1    13
  7.7231389191052338E-02 a       489     0    20     1    14
  5.9215788741657373E-02 a       490     0    20     1    15
  1.6798548653726253E-01 a       491     0    20     1    16
  1.5914774044407071E-01 a       492     0    20     1    17
  1.0017392794774352E-01 a       493     0    20     1    18
  4.0600741538727364E-02 a       494     0    20     1    19
 -1.3774452780803723E-01 a       495     0    20     1    20
 -3.1312156391758814E-02 a       496     0    20     1    21
  8.0359831305167523E-02 a       497     0    20     1    22
 -2.2885380150566473E-02 a       498     0    20     1    23
  8.3003317029694088E-02 a       499     0    20     1    24
 -8.5867233884204253E-02 a       500     0    20     1    25
 -1.2869088196661727E-01 a       501     0    21     1     1
 -1.7601457424593148E-01 a       502     0    21     1     2
  8.2733589569173316E-02 a       503     0    21     1     3
 -1.1416333624729244E-01 a       504     0    21     1     4
 -1.4004136375472719E-02 a       505     0    21     1     5
  1.3003504777686453E-01 a       506     0    21     1     6
 -5.6382894364257127E-03 a       507     0    21     1     7
  1.8139843066746469E-01 a       508     0    21     1     8
 -7.8742307558521407E-02 a       509     0    21     1     9
 -2.2123109801340099E-01 a       510     0    21     1    10
  1.2738566399703757E-01 a       511     0    21     1    11
  2.2399139760025688E-01 a       512     0    21     1    12
  1.4003005229928717E-01 a       513     0    21     1    13
  1.5511822745812928E-01 a       514     0    21     1    14
  1.1659821673912797E-01 a       515     0    21     1    15
  7.5168188043614220E-02 a       516     0    21     1    16
  7.1682082350878709E-02 a       517     0    21     1    17
 -1.5275253795523447E-01 a       518     0    21     1    18
 -1.8831444626167482E-01 a       519     0    21     1    19
  1.3442616412173899E-01 a       520     0    21     1    20
  2.5516966324632834E-01 a       521     0    21     1    21
 -1.1105952366697881E-02 a       522     0    21     1    22
 -4.2599166547567680E-02 a       523     0    21     1    23
 -1.7746709485881160E-01 a       524     0    21     1    24
  1.6585669758416157E-02 a       525     0    21     1    25
  2.9465681069586351E-02 a       526     0    22     1     1
 -1.4777274649099503E-01 a       527     0    22     1     2
 -2.7236542711060080E-01 a       528     0    22     1     3
 -2.6455511940118678E-02 a       529     0    22     1     4
  1.4533732886001788E-01 a       530     0    22     1     5
 -1.0280826518852430E-02 a       531     0    22     1     6
 -8.6589843105301878E-02 a       532     0    22     1     7
  5.2451343330194918E-02 a       533     0    22     1     8
  7.7416876109256114E-02 a       534     0    22     1     9
 -5.4510946286142675E-03 a       535     0    22     1    10
  4.9435648605474454E-02 a       536     0    22     1    11
  9.7017991153117850E-02 a       537     0    22     1    12
 -1.0561399104498792E-01 a       538     0    22     1    13
 -1.3279134462220882E-01 a       539     0    22     1    14
 -3.0349398388614182E-02 a       540     0    22     1    15
  8.9091391485949696E-03 a       541     0    22     1    16
 -3.3745570810010089E-02 a       542     0    22     1    17
  7.7007606359167577E-02 a       543     0    22     1    18
 -1.3063893799978515E-01 a       544     0    22     1    19
 -2.3254615950756893E-02 a       545     0    22     1    20
 -1.0477112095747647E-01 a       546     0    22     1    21
 -9.0503336002404580E-02 a       547     0    22     1    22
 -6.8007924490930766E-02 a       548     0    22     1    23
 -1.0205795495134640E-02 a       549     0    22     1    24
  1.7789284095930769E-01 a       550     0    22     1    25
  6.6831065116915708E-02 a       551     0    23     1     1
 -2.8793309587997140E-01 a       552     0    23     1     2
  2.1433595675278624E-01 a       553     0    23     1     3
  8.2425979755549855E-02 a       554     0    23     1     4
  1.6301987990493236E-01 a       555     0    23     1     5
 -9.9784570546007922E-02 a       556     0    23     1     6
 -8.2061778431657503E-02 a       557     0    23     1     7
 -2.2690348060356025E-03 a       558     0    23     1     8
 -1.6052881431776225E-01 a       559     0    23     1     9
  1.2145623751065595E-02 a       560     0    23     1    10
 -1.7548642145448917E-02 a       561     0    23     1    11
  4.2197425173788779E-04 a       562     0    23     1    12
 -3.0254269275634529E-02 a       563     0    23     1    13
  1.1184989049207808E-01 a       564     0    23     1    14
 -8.7021601040007002E-02 a       565     0    23     1    15
  8.6622602681021899E-02 a       566     0    23     1    16
 -1.0616425515714174E-01 a       567     0    23     1    17
  1.0034646430120985E-01 a       568     0    23     1    18
  5.2178722087098964E-02 a       569     0    23     1    19
  1.8107665715660917E-01 a       570     0    23     1    20
  1.3842576051386699E-01 a       571     0    23     1    21
 -1.2361541065575224E-01 a       572     0    23     1    22
 -7.6036873827350568E-02 a       573     0    23     1    23
 -8.8432360217011591E-02 a       574     0    23     1    24
  1.0692163799773154E-01 a       575     0    23     1    25
  5.1215587920782554E-02 a       576     0    24     1     1
 -4.6019500186635212E-02 a       577     0    24     1     2
 -9.8384033845439617E-02 a       578     0    24     1     3
  7.6422908969613429E-02 a       579     0    24     1     4
  4.0604573661562150E-02 a       580     0    24     1     5
 -8.0663337874234603E-02 a       581     0    24     1     6
 -7.1373574761065484E-02 a       582     0    24     1     7
 -1.2491348071219398E-01 a       583     0    24     1     8
  5.9316523008096006E-02 a       584     0    24     1     9
 -3.3017551196511979E-02 a       585     0    24     1    10
  1.4810437673849924E-01 a       586     0    24     1    11
 -7.9501690685561469E-02 a       587     0    24     1    12
  2.1701827172348973E-01 a       588     0    24     1    13
 -1.8576885067150223E-01 a       589     0    24     1    14
 -5.6803217714948874E-02 a       590     0    24     1    15
 -3.3060401137468602E-02 a       591     0    24     1    16
 -2.3319284290095652E-02 a       592     0    24     1    17
  2.3742070439602991E-01 a       593     0    24     1    18
  9.8568041332616242E-03 a       594     0    24     1    19
  1.0991782597301828E-03 a       595     0    24     1    20
  2.2036215741190177E-02 a       596     0    24     1    21
  9.4071958386614640E-02 a       597     0    24     1    22
  1.5949617384868614E-01 a       598     0    24     1    23
  1.0584028241267206E-01 a       599     0    24     1    24
  9.3732401298453477E-02 a       600     0    24     1    25
 -2.2510690502037067E-01 a       601     0    25     1     1
 -2.7216350422282642E-01 a       602     0    25     1     2
  9.8958291322123436E-03 a       603     0    25     1     3
 -3.5977291662685706E-02 a       604     0    25     1     4
 -5.8835772853055662E-02 a       605     0    25     1     5
  1.3615628874614671E-01 a       606     0    25     1     6
 -1.0151425737911614E-01 a       607     0    25     1     7
 -7.6004174724399517E-03 a       608     0    25     1     8
  1.9077372948915492E-03 a       609     0    25     1     9
  6.6587417818687582E-03 a       610     0    25     1    10
  1.7610230485617334E-01 a       611     0    25     1    11
  1.5659159046928037E-01 a       612     0    25     1    12
  1.2627654449262510E-01 a       613     0    25     1    13
  1.5237707196740943E-01 a       614     0    25     1    14
 -1.3889373655127735E-01 a       615     0    25     1    15
 -1.4696229878029457E-01 a       616     0    25     1    16
 -1.2838887262865599E-02 a       617     0    25     1    17
  1.6782646574318749E-01 a       618     0    25     1    18
  2.3543343862256105E-02 a       619     0    25     1    19
  1.6254885368672273E-01 a       620     0    25     1    20
  1.9502394871492132E-01 a       621     0    25     1    21
  1.0346279011060340E-01 a       622     0    25     1    22
  2.6013770245539297E-01 a       623     0    25     1    23
 -2.4716792606362739E-02 a       624     0    25     1    24
  3.0827915236017404E-02 a       625     0    25     1    25
 -2.2943893630028970E-02 a       626     0    26     1     1
 -1.1799655669012553E-01 a       627     0    26     1     2
  1.2915146259442194E-02 a       628     0    26     1     3
 -6.3364793217551743E-02 a       629     0    26     1     4
 -1.7371421200153372E-01 a       630     0    26     1     5
  1.7483668867711361E-01 a       631     0    26     1     6
 -1.7202272423949019E-01 a       632     0    26     1     7
  1.3496721269984374E-01 a       633     0    26     1     8
  6.1545507062863727E-02 a       634     0    26     1     9
 -2.0968178262523410E-01 a       635     0    26     1    10
  1.7423659063061217E-01 a       636     0    26     1    11
 -8.4605992340712893E-02 a       637     0    26     1    12
  7.5592461499795593E-02 a       638     0    26     1    13
  1.5888454902945701E-01 a       639     0    26     1    14
  2.7339600022381734E-02 a       640     0    26     1    15
 -2.4445621104049665E-02 a       641     0    26     1    16
  8.9110566228466970E-02 a       642     0    26     1    17
  2.0397885890070045E-03 a       643     0    26     1    18
  1.6797619789324300E-02 a       644     0    26     1    19
  2.6935726124239407E-02 a       645     0    26     1    20
 -1.7372444844348016E-02 a       646     0    26     1    21
 -1.3556855595775577E-01 a       647     0    26     1    22
  1.8843340642197459E-01 a       648     0    26     1    23
 -1.1351196314339759E-01 a       649     0    26     1    24
  1.4986408736553414E-01 a       650     0    26     1    25
 -9.8908498414710111E-02 a       651     0    27     1     1
  9.3016448253248313E-02 a       652     0    27     1     2
 -1.5381403707260816E-01 a       653     0    27     1     3
 -1.3943077185295219E-01 a       654     0    27     1     4
  1.0955656412810075E-01 a       655     0    27     1     5
  1.6949968094687209E-01 a       656     0    27     1     6
 -9.4427944649561224E-02 a       657     0    27     1     7
  3.3171354144321250E-02 a       658     0    27     1     8
  1.1450129824987083E-01 a       659     0    27     1     9
 -6.0528610120698705E-02 a       660     0    27     1    10
  7.0193155525170470E-02 a       661     0    27     1    11
 -5.9886707612710963E-02 a       662     0    27     1    12
  2.3867591716450198E-01 a       663     0    27     1    13
 -1.5129391678793880E-01 a       664     0    27     1    14
 -6.8132102094620520E-02 a       665     0    27     1    15
  1.0743205417707725E-01 a       666     0    27     1    16
 -8.4387507742109943E-02 a       667     0    27     1    17
 -5.2366119039834874E-03 a       668     0    27     1    18
  1.7641554257079145E-01 a       669     0    27     1    19
 -2.7778022548467521E-02 a       670     0    27     1    20
  1.8758713428230933E-02 a       671     0    27     1    21
  9.0468974628710626E-03 a       672     0    27     1    22
  2.4787155099439950E-01 a       673     0    27     1    23
 -5.2819036184726595E-02 a       674     0    27     1    24
  1.0751226265901151E-01 a       675     0    27     1    25
 -5.3610134545888741E-02 a       676     0    28     1     1
 -1.6722641933684504E-01 a       677     0    28     1     2
 -1.3414766511730178E-01 a       678     0    28     1     3
 -5.1876770421285301E-02 a       679     0    28     1     4
  7.9801316905419140E-02 a       680     0    28     1     5
 -2.9895418318831204E-02 a       681     0    28     1     6
  1.0732068584226193E-01 a       682     0    28     1     7
 -3.8699084399898342E-01 a       683     0    28     1     8
 -1.0362296631860149E-02 a       684     0    28     1     9
 -7.5459058422986544E-02 a       685     0    28     1    10
  9.7333081112049524E-02 a       686     0    28     1    11
  5.4027405129958503E-02 a       687     0    28     1    12
  2.5761933794453867E-01 a       688     0    28     1    13
 -1.6601915029521541E-01 a       689     0    28     1    14
 -1.2264391550338215E-01 a       690     0    28     1    15
 -5.7565860523376020E-02 a       691     0    28     1    16
  2.6246606509051151E-02 a       692     0    28     1    17
 -6.8580921288273700E-02 a       693     0    28     1    18
 -1.2625329960948881E-01 a       694     0    28     1    19
 -5.9532639300404575E-02 a       695     0    28     1    20
  1.5249001451454988E-01 a       696     0    28     1    21
 -3.3306771994984649E-02 a       697     0    28     1    22
 -7.9113132455417429E-02 a       698     0    28     1    23
 -2.2587818798604609E-02 a       699     0    28     1    24
  9.8425909396949673E-02 a       700     0    28     1    25
  1.0256223577323835E-01 a       701     0    29     1     1
  2.2046113958872772E-02 a       702     0    29     1     2
 -6.9336433115765733E-02 a       703     0    29     1     3
  4.9372220345561595E-02 a       704     0    29     1     4
 -1.9740461542360938E-01 a       705     0    29     1     5
  1.0600910040901718E-01 a       706     0    29     1     6
 -1.7371299965860534E-01 a       707     0    29     1     7
  4.6147600896601863E-03 a       708     0    29     1     8
 -1.6754091274130203E-01 a       709     0    29     1     9
 -4.7195780164815349E-02 a       710     0    29     1    10
 -1.1061834088021187E-01 a       711     0    29     1    11
  4.4372887376475198E-02 a       712     0    29     1    12
 -7.0496296527625731E-03 a       713     0    29     1    13
 -7.1760364159235285E-02 a       714     0    29     1    14
  3.3214594431996147E-02 a       715     0    29     1    15
 -5.0666097195649670E-02 a       716     0    29     1    16
 -3.6361483487764329E-02 a       717     0    29     1    17
 -6.5504029040600487E-02 a       718     0    29     1    18
  1.0493015933236342E-01 a       719     0    29     1    19
  9.7087576393802777E-02 a       720     0    29     1    20
 -1.9021071662883072E-02 a       721     0    29     1    21
  1.0933811313613439E-02 a       722     0    29     1    22
  1.5683884343702440E-02 a       723     0    29     1    23
  2.5683422976517923E-02 a       724     0    29     1    24
 -4.8377270370755746E-02 a       725     0    29     1    25
  2.1650998601143115E-01 a       726     0    30     1     1
  1.1063625739371397E-01 a       727     0    30     1     2
 -4.9466215185235252E-02 a       728     0    30     1     3
  4.3034563309514495E-02 a       729     0    30     1     4
  2.2778074069914575E-01 a       730     0    30     1     5
 -3.1198925877268975E-02 a       731     0    30     1     6
 -6.4383450417141969E-02 a       732     0    30     1     7
  1.9649747843775524E-02 a       733     0    30     1     8
 -6.9303310923950326E-02 a       734     0    30     1     9
 -1.5405817503858496E-01 a       735     0    30     1    10
  9.3274963358328494E-02 a       736     0    30     1    11
 -1.1738156968326216E-01 a       737     0    30     1    12
 -1.0323268201888053E-02 a       738     0    30     1    13
 -7.7372497431934771E-03 a       739     0    30     1    14
 -8.5499726122879774E-02 a       740     0    30     1    15
  2.7881380792765184E-02 a       741     0    30     1    16
  8.2330940056035640E-02 a       742     0    30     1    17
  7.1818551459828670E-02 a       743     0    30     1    18
 -9.9856382008462627E-02 a       744     0    30     1    19
 -1.8698354918410248E-01 a       745     0    30     1    20
  4.9344775920738000E-02 a       746     0    30     1    21
  8.7040100166722353E-02 a       747     0    30     1    22
  6.9717641215592180E-02 a       748     0    30     1    23
 -1.0999500791953959E-01 a       749     0    30     1    24
 -9.9080972371347151E-02 a       750     0    30     1    25
 -1.9525012157581435E-02 a       751     0    31     1     1
  6.5390809018026935E-02 a       752     0    31     1     2
 -2.8746532586521555E-02 a       753     0    31     1     3
 -2.5922957034575506E-02 a       754     0    31     1     4
  1.3471808747822483E-01 a       755     0    31     1     5
  9.9581790060544254E-02 a       756     0    31     1     6
 -1.1219115205460052E-01 a       757     0    31     1     7
  9.8935408927160792E-03 a       758     0    31     1     8
 -6.3982826014206007E-03 a       759     0    31     1     9
 -6.0014780172358437E-02 a       760     0    31     1    10
  1.5257198749285050E-01 a       761     0    31     1    11
 -6.7381873388241594E-03 a       762     0    31     1    12
  2.7768408155879276E-01 a       763     0    31     1    13
 -1.9136714333328120E-01 a       764     0    31     1    14
  8.1317815178053393E-02 a       765     0    31     1    15
 -2.1358401898246004E-02 a       766     0    31     1    16
 -4.0935447451584096E-02 a       767     0    31     1    17
 -1.1232008055208398E-01 a       768     0    31     1    18
 -5.9552263570542267E-02 a       769     0    31     1    19
  1.3664021264397097E-01 a       770     0    31     1    20
 -1.2311981864102819E-01 a       771     0    31     1    21
  1.1334007081476324E-01 a       772     0    31     1    22
  2.2415311249334197E-01 a       773     0    31     1    23
 -1.7407108165818416E-01 a       774     0    31     1    24
 -1.1031125552881416E-01 a       775     0    31     1    25
  3.8717804223249254E-02 a       776     0    32     1     1
 -6.6904432202981187E-02 a       777     0    32     1     2
 -2.6488116356684327E-02 a       778     0    32     1     3
  1.3320596334203613E-01 a       779     0    32     1     4
  1.8866418983914135E-01 a       780     0    32     1     5
 -1.0683067870448198E-01 a       781     0    32     1     6
 -7.3758718603822132E-02 a       782     0    32     1     7
 -2.8478602684869195E-02 a       783     0    32     1     8
 -6.2856157946864097E-02 a       784     0    32     1     9
 -2.3414634717476679E-02 a       785     0    32     1    10
 -8.8405530497747409E-02 a       786     0    32     1    11
  2.3009071735583187E-02 a       787     0    32     1    12
 -3.0624194350166123E-01 a       788     0    32     1    13
 -1.2144151968772933E-01 a       789     0    32     1    14
 -8.4229121020629638E-04 a       790     0    32     1    15
 -8.4020300434371753E-02 a       791     0    32     1    16
 -1.0199202586579316E-01 a       792     0    32     1    17
  3.8217594547658537E-02 a       793     0    32     1    18
 -9.6613440044688276E-02 a       794     0    32     1    19
 -4.9374264546267838E-02 a       795     0    32     1    20
 -9.8778278832846067E-02 a       796     0    32     1    21
 -1.9575731525304196E-01 a       797     0    32     1    22
 -2.2999548891854851E-01 a       798     0    32     1    23
 -1.3462564526493781E-01 a       799     0    32     1    24
 -6.4256977366358298E-02 a       800     0    32     1    25
 -1.1979480147924836E-02 a       801     0    33     1     1
 -2.1606734263710070E-02 a       802     0    33     1     2
 -2.1048559917902210E-01 a       803     0    33     1     3
  1.2858356642692510E-02 a       804     0    33     1     4
  1.9698314513448355E-02 a       805     0    33     1     5
  2.9581942941913644E-02 a       806     0    33     1     6
 -1.9842619762469142E-02 a       807     0    33     1     7
 -5.9032883457984180E-02 a       808     0    33     1     8
  2.3555460244359802E-01 a       809     0    33     1     9
 -6.9336901432479323E-02 a       810     0    33     1    10
 -2.6090676456315593E-02 a       811     0    33     1    11
  4.2537593025587871E-02 a       812     0    33     1    12
  1.1930310474277332E-01 a       813     0    33     1    13
 -3.0285408790763169E-01 a       814     0    33     1    14
 -1.2004794085777440E-02 a       815     0    33     1    15
  8.2285438853645754E-02 a       816     0    33     1    16
 -2.4771996885255915E-02 a       817     0    33     1    17
 -8.2034153442042457E-02 a       818     0    33     1    18
  1.3634521191906965E-01 a       819     0    33     1    19
  8.8450768668601756E-02 a       820     0    33     1    20
 -6.9204847146291548E-02 a       821     0    33     1    21
 -5.3042441225799639E-02 a       822     0    33     1    22
  1.9464528606438707E-02 a       823     0    33     1    23
 -1.5006064492261542E-01 a       824     0    33     1    24
  1.4648756222373077E-01 a       825     0    33     1    25
  4.4645506155189349E-02 a       826     0    34     1     1
  1.6364567384071674E-01 a       827     0    34     1     2
 -7.2625236050356215E-02 a       828     0    34     1     3
  6.4312409158425558E-03 a       829     0    34     1     4
 -1.8683948434628408E-02 a       830     0    34     1     5
  9.5325128626817818E-03 a       831     0    34     1     6
  6.6390553503322663E-03 a       832     0    34     1     7
  1.7699196100707240E-01 a       833     0    34     1     8
  4.3504229478187840E-03 a       834     0    34     1     9
 -3.4232745436847548E-03 a       835     0    34     1    10
  2.6658600910214041E-02 a       836     0    34     1    11
 -1.2562311385249439E-01 a       837     0    34     1    12
  2.1177303617252050E-01 a       838     0    34     1    13
 -4.0566284307286961E-02 a       839     0    34     1    14
  1.7398788713971261E-01 a       840     0    34     1    15
  8.0198747634808762E-02 a       841     0    34     1    16
  1.3877613557185353E-01 a       842     0    34     1    17
 -6.1702373604543261E-02 a       843     0    34     1    18
  4.1166585115729265E-02 a       844     0    34     1    19
  1.6860858909448267E-01 a       845     0    34     1    20
  1.1186995491081758E-01 a       846     0    34     1    21
  6.6465643180932385E-02 a       847     0    34     1    22
 -5.7671504018423411E-03 a       848     0    34     1    23
 -5.1450493987595207E-02 a       849     0    34     1    24
  1.6863295748512547E-01 a       850     0    34     1    25
  1.0756679806339042E-01 a       851     0    35     1     1
  1.3932867970421997E-01 a       852     0    35     1     2
  2.0021138467090027E-02 a       853     0    35     1     3
 -1.9960133067442562E-01 a       854     0    35     1     4
 -1.2883673073155566E-01 a       855     0    35     1     5
 -1.3445673911583350E-01 a       856     0    35     1     6
 -1.7293031801144904E-01 a       857     0    35     1     7
 -1.1805361607788771E-01 a       858     0    35     1     8
 -8.4162076513311618E-02 a       859     0    35     1     9
  7.5416523609613970E-02 a       860     0    35     1    10
 -2.4941646963802577E-02 a       861     0    35     1    11
 -1.7935673274436851E-02 a       862     0    35     1    12
  1.7949763492684828E-01 a       863     0    35     1    13
 -4.8442907028180097E-02 a       864     0    35     1    14
 -6.8538168204644687E-02 a       865     0    35     1    15
  1.0858880955053321E-01 a       866     0    35     1    16
  7.3967920962246213E-03 a       867     0    35     1    17
  1.7185903227005328E-01 a       868     0    35     1    18
  1.0127691058926575E-01 a       869     0    35     1    19
  1.5477491129823044E-02 a       870     0    35     1    20
 -1.0931475416114522E-01 a       871     0    35     1    21
 -9.2189090126594153E-02 a       872     0    35     1    22
  1.4146113721941120E-02 a       873     0    35     1    23
 -4.9616562814439706E-02 a       874     0    35     1    24
 -5.3082374881343576E-02 a       875     0    35     1    25
 -1.1786763260109981E-01 a       876     0    36     1     1
  1.2695448434126458E-01 a       877     0    36     1     2
 -1.2889937118685918E-01 a       878     0    36     1     3
  4.8793147953792790E-02 a       879     0    36     1     4
 -1.1822883583972840E-01 a       880     0    36     1     5
 -2.1431203740984939E-01 a       881     0    36     1     6
 -1.8232977343262141E-01 a       882     0    36     1     7
 -2.2079828721808031E-01 a       883     0    36     1     8
 -1.8696726537164496E-01 a       884     0    36     1     9
 -1.3097030802260837E-01 a       885     0    36     1    10
 -4.6807369349455299E-02 a       886     0    36     1    11
 -7.3304722601350403E-02 a       887     0    36     1    12
 -6.8321557434869284E-02 a       888     0    36     1    13
  1.7618982095674932E-01 a       889     0    36     1    14
  5.7733970391538977E-02 a       890     0    36     1    15
 -9.9893999386816770E-03 a       891     0    36     1    16
  1.9129626470549449E-01 a       892     0    36     1    17
  5.3272859879824226E-02 a       893     0    36     1    18
  1.4224155172554337E-01 a       894     0    36     1    19
 -3.5910369019451001E-02 a       895     0    36     1    20
  1.2787447283620551E-02 a       896     0    36     1    21
  6.4955467725590882E-02 a       897     0    36     1    22
 -7.3677791069411015E-03 a       898     0    36     1    23
  9.3479422806543172E-02 a       899     0    36     1    24
  1.0775446517309942E-01 a       900     0    36     1    25
 -2.2933614419014561E-02 a       901     0    37     1     1
 -3.4702858239628754E-03 a       902     0    37     1     2
  9.6345160361052590E-02 a       903     0    37     1     3
  7.0925332605411340E-02 a       904     0    37     1     4
 -4.4189075294350899E-02 a       905     0    37     1     5
  2.4742616777464263E-01 a       906     0    37     1     6
  2.9319138535044087E-01 a       907     0    37     1     7
 -3.9310571123947771E-02 a       908     0    37     1     8
 -3.7659197828110245E-02 a       909     0    37     1     9
  1.1163193439379723E-01 a       910     0    37     1    10
  1.2400303415860198E-01 a       911     0    37     1    11
  6.8604394489396647E-02 a       912     0    37     1    12
  7.6519541391087381E-02 a       913     0    37     1    13
  1.0515900843519263E-01 a       914     0    37     1    14
  9.2032886737661648E-02 a       915     0    37     1    15
 -1.6148038852567845E-01 a       916     0    37     1    16
  6.1527794279342865E-02 a       917     0    37     1    17
 -2.3298473609603555E-02 a       918     0    37     1    18
  1.3584051405577535E-01 a       919     0    37     1    19
  1.3162546828631216E-01 a       920     0    37     1    20
  7.4715195635970150E-02 a       921     0    37     1    21
 -4.0251265886139434E-02 a       922     0    37     1    22
 -1.6901409332951028E-01 a       923     0    37     1    23
 -2.7997946933696498E-02 a       924     0    37     1    24
  1.0778157370254475E-02 a       925     0    37     1    25
 -3.2192600336895125E-02 a       926     0    38     1     1
 -1.1183296302245888E-01 a       927     0    38     1     2
  7.3865740182051734E-03 a       928     0    38     1     3
 -6.7323278103357059E-02 a       929     0    38     1     4
 -7.8844185700272754E-02 a       930     0    38     1     5
  1.0474156225616908E-01 a       931     0    38     1     6
 -1.9055148589106424E-01 a       932     0    38     1     7
  1.0987062552137564E-01 a       933     0    38     1     8
  1.0857456414985102E-01 a       934     0    38     1     9
 -1.3915634225761037E-01 a       935     0    38     1    10
 -1.0469534782748778E-02 a       936     0    38     1    11
 -9.1598375756409695E-02 a       937     0    38     1    12
 -4.6269854474332676E-03 a       938     0    38     1    13
  8.9784593691853275E-04 a       939     0    38     1    14
 -6.6423842519353987E-02 a       940     0    38     1    15
 -5.1564418920113680E-02 a       941     0    38     1    16
 -9.4558259806030165E-02 a       942     0    38     1    17
 -5.3493616941232211E-02 a       943     0    38     1    18
  8.6180795499808935E-02 a       944     0    38     1    19
 -3.5578403145219428E-02 a       945     0    38     1    20
 -1.5524024764413275E-01 a       946     0    38     1    21
 -9.3534114031425267E-02 a       947     0    38     1    22
  1.6638583356329834E-01 a       948     0    38     1    23
  1.6372063569887713E-01 a       949     0    38     1    24
 -1.6687034172780996E-01 a       950     0    38     1    25
 -1.8695978430904367E-01 a       951     0    39     1     1
 -2.5528160601237743E-01 a       952     0    39     1     2
 -7.4254993823496374E-02 a       953     0    39     1     3
 -7.9075612865735986E-02 a       954     0    39     1     4
  6.8494231500644903E-02 a       955     0    39     1     5
  1.9256942191761561E-01 a       956     0    39     1     6
 -2.0073700027627212E-01 a       957     0    39     1     7
  8.2037861890667960E-02 a       958     0    39     1     8
 -5.3691629081822678E-02 a       959     0    39     1     9
 -9.2098324695469205E-02 a       960     0    39     1    10
  1.9660839092043189E-01 a       961     0    39     1    11
 -3.5335998086573506E-02 a       962     0    39     1    12
  6.6781271908240292E-02 a       963     0    39     1    13
  9.9749979677644096E-03 a       964     0    39     1    14
  7.0709218756501713E-02 a       965     0    39     1    15
 -1.8357335883274242E-01 a       966     0    39     1    16
  1.0423475680699450E-01 a       967     0    39     1    17
  2.9974286200866292E-02 a       968     0    39     1    18
 -1.1185975249271264E-01 a       969     0    39     1    19
 -1.2388558387814010E-01 a       970     0    39     1    20
 -1.1323800509478427E-01 a       971     0    39     1    21
 -8.2085269646574088E-02 a       972     0    39     1    22
 -1.8131302980467657E-02 a       973     0    39     1    23
  1.3856387599895220E-01 a       974     0    39     1    24
 -7.9270338093483592E-02 a       975     0    39     1    25
  1.7194258099441637E-01 a       976     0    40     1     1
  3.6535045746089356E-01 a       977     0    40     1     2
  1.2951444185594363E-01 a       978     0    40     1     3
  7.8847544219904364E-02 a       979     0    40     1     4
  3.7254460052703969E-02 a       980     0    40     1     5
  6.8034110665495862E-02 a       981     0    40     1     6
 -1.1311832837514325E-01 a       982     0    40     1     7
  6.8468007429531449E-02 a       983     0    40     1     8
  8.5636502884196428E-02 a       984     0    40     1     9
 -2.1111240587856094E-02 a       985     0    40     1    10
  4.0478739172378320E-02 a       986     0    40     1    11
  9.5013783738581409E-02 a       987     0    40     1    12
 -1.9433171549352904E-01 a       988     0    40     1    13
  4.2761476537158824E-02 a       989     0    40     1    14
 -1.1177127742363968E-01 a       990     0    40     1    15
 -4.8424622324091941E-02 a       991     0    40     1    16
 -1.3718149417945050E-01 a       992     0    40     1    17
  5.9684855387739995E-02 a       993     0    40     1    18
 -7.3861196604813537E-02 a       994     0    40     1    19
  1.8579317029879716E-01 a       995     0    40     1    20
  9.7262300862697618E-02 a       996     0    40     1    21
  1.3291203724199377E-01 a       997     0    40     1    22
  2.2504498075451955E-03 a       998     0    40     1    23
 -1.8244047622032677E-01 a       999     0    40     1    24
 -4.1186075391025381E-02 a      1000     0    40     1    25
  6.9135858586685528E-02 a      1001     0    41     1     1
 -1.7936891984432698E-01 a      1002     0    41     1     2
 -9.1726199743026857E-02 a      1003     0    41     1     3
 -4.8400257527659848E-02 a      1004     0    41     1     4
  1.2948673252527959E-01 a      1005     0    41     1     5
  1.4524208548771245E-01 a      1006     0    41     1     6
 -1.2792767235464139E-01 a      1007     0    41     1     7
 -1.4468094783689994E-02 a      1008     0    41     1     8
  1.1477245757844580E-01 a      1009     0    41     1     9
  8.3152828941467083E-02 a      1010     0    41     1    10
  2.2611204159222861E-01 a      1011     0    41     1    11
  3.1244146621733214E-02 a      1012     0    41     1    12
  2.6061792481782725E-01 a      1013     0    41     1    13
  2.1134014049374816E-02 a      1014     0    41     1    14
 -5.1662001991338878E-02 a      1015     0    41     1    15
 -5.7169466169980088E-02 a      1016     0    41     1    16
 -1.1911584643553528E-02 a      1017     0    41     1    17
 -4.9185769736366389E-02 a      1018     0    41     1    18
 -1.6023437950123462E-01 a      1019     0    41     1    19
  6.6033767371675642E-02 a      1020     0    41     1    20
 -1.2326114798240698E-01 a      1021     0    41     1    21
 -6.5602097234815734E-02 a      1022     0    41     1    22
  4.0669597344393363E-02 a      1023     0    41     1    23
 -5.8051788184306202E-02 a      1024     0    41     1    24
  7.1431384618501834E-02 a      1025     0    41     1    25
  1.1693697356255159E-01 a      1026     0    42     1     1
  9.3212906850830918E-02 a      1027     0    42     1     2
 -2.4397551743869950E-01 a      1028     0    42     1     3
 -5.2043765503410853E-02 a      1029     0    42     1     4
  2.3160743851743847E-02 a      1030     0    42     1     5
  1.0909112761682305E-01 a      1031     0    42     1     6
 -1.0501022790056458E-01 a      1032     0    42     1     7
  2.6202131446985566E-01 a      1033     0    42     1     8
  9.7634532724050219E-02 a      1034     0    42     1     9
  3.3349237310515638E-02 a      1035     0    42     1    10
 -3.6837916037485298E-02 a      1036     0    42     1    11
 -6.2210879953767562E-02 a      1037     0    42     1    12
  1.8753000069461651E-02 a      1038     0    42     1    13
 -1.6123659561627648E-01 a      1039     0    42     1    14
  6.3670937309654396E-02 a      1040     0    42     1    15
  2.9218396952466537E-02 a      1041     0    42     1    16
 -5.5632518562480859E-02 a      1042     0    42     1    17
 -1.1380355626375475E-01 a      1043     0    42     1    18
  1.3238877492490949E-02 a      1044     0    42     1    19
  1.3637131989505299E-01 a      1045     0    42     1    20
 -1.2392025105528381E-01 a      1046     0    42     1    21
  1.8277808704304257E-02 a      1047     0    42     1    22
  7.8741570038780268E-02 a      1048     0    42     1    23
  3.0374041965275950E-01 a      1049     0    42     1    24
 -6.5560538320369607E-02 a      1050     0    42     1    25
 -9.2925305032583783E-02 a      1051     0    43     1     1
 -1.2857848996039684E-01 a      1052     0    43     1     2
  9.3600978529664397E-02 a      1053     0    43     1     3
  1.8216853606754521E-01 a      1054     0    43     1     4
  1.2296601289215786E-01 a      1055     0    43     1     5
  4.1783784529569580E-02 a      1056     0    43     1     6
 -5.7840749210489865E-02 a      1057     0    43     1     7
 -1.4676157869825690E-01 a      1058     0    43     1     8
 -9.5818787858996918E-02 a      1059     0    43     1     9
  4.8593728643078080E-02 a      1060     0    43     1    10
 -1.3091581012203505E-02 a      1061     0    43     1    11
  9.7522747047294647E-02 a      1062     0    43     1    12
 -5.1505236492360620E-02 a      1063     0    43     1    13
  2.2934924304620347E-01 a      1064     0    43     1    14
  4.1968722076894845E-04 a      1065     0    43     1    15
  3.3792452474038183E-03 a      1066     0    43     1    16
  1.4004546522536142E-02 a      1067     0    43     1    17
  1.8829207294645131E-01 a      1068     0    43     1    18
 -1.2230676113243605E-01 a      1069     0    43     1    19
 -2.2196576743792873E-01 a      1070     0    43     1    20
  4.6234754305926558E-02 a      1071     0    43     1    21
  6.9036859024909164E-02 a      1072     0    43     1    22
  1.1150959788055587E-01 a      1073     0    43     1    23
  9.8832423214158110E-02 a      1074     0    43     1    24
 -1.4667430682068949E-01 a      1075     0    43     1    25
  2.8775971358565045E-01 a      1076     0    44     1     1
  5.0475474247053909E-01 a      1077     0    44     1     2
 -1.7766810436829320E-02 a      1078     0    44     1     3
 -1.8676120147265813E-04 a      1079     0    44     1     4
  3.7668606274050431E-01 a      1080     0    44     1     5
 -1.2710155218553060E-01 a      1081     0    44     1     6
 -1.7815138910172182E-01 a      1082     0    44     1     7
 -1.0160717734299015E-02 a      1083     0    44     1     8
 -6.0994306670556608E-02 a      1084     0    44     1     9
 -1.4296483920502651E-01 a      1085     0    44     1    10
 -1.3952157335035131E-01 a      1086     0    44     1    11
 -2.1466158819486228E-03 a      1087     0    44     1    12
 -2.3845258125882673E-01 a      1088     0    44     1    13
  2.6142150166330141E-01 a      1089     0    44     1    14
  3.2372517381871586E-02 a      1090     0    44     1    15
  8.4434756002550210E-02 a      1091     0    44     1    16
  4.4969194318790678E-02 a      1092     0    44     1    17
 -1.3047383522036049E-01 a      1093     0    44     1    18
  4.4030885435477396E-02 a      1094     0    44     1    19
  3.9451343079521820E-02 a      1095     0    44     1    20
 -1.8417276106152972E-01 a      1096     0    44     1    21
 -6.5844540299892562E-02 a      1097     0    44     1    22
 -2.1350358068320904E-01 a      1098     0    44     1    23
  3.7497213600241920E-02 a      1099     0    44     1    24
 -2.1295544860826057E-01 a      1100     0    44     1    25
  3.9167357595600930E-02 a      1101     0    45     1     1
  2.3680470810214876E-01 a      1102     0    45     1     2
  2.8820664159959986E-01 a      1103     0    45     1     3
  1.6825695603666535E-01 a      1104     0    45     1     4
  4.0769453182753837E-02 a      1105     0    45     1     5
  1.0947529233995089E-01 a      1106     0    45     1     6
 -4.2423679280733123E-02 a      1107     0    45     1     7
 -1.5589976874779027E-01 a      1108     0    45     1     8
  1.1822777546144266E-01 a      1109     0    45     1     9
 -1.9447937530449377E-01 a      1110     0    45     1    10
 -1.6075604378237238E-01 a      1111     0    45     1    11
  1.3391516736447065E-01 a      1112     0    45     1    12
 -2.4467251321848629E-01 a      1113     0    45     1    13
  3.0290505269189527E-01 a      1114     0    45     1    14
 -1.3633653606929119E-01 a      1115     0    45     1    15
 -1.2503459678961656E-01 a      1116     0    45     1    16
 -1.8693602997295142E-01 a      1117     0    45     1    17
  1.4173909585946762E-01 a      1118     0    45     1    18
  1.6760351684058919E-01 a      1119     0    45     1    19
  2.0902863757650110E-02 a      1120     0    45     1    20
 -3.7880052902961335E-02 a      1121     0    45     1    21
  1.7456815577019370E-02 a      1122     0    45     1    22
 -1.4033748240099173E-01 a      1123     0    45     1    23
 -2.6781207969020682E-01 a      1124     0    45     1    24
 -2.3250930348008619E-01 a      1125     0    45     1    25
 -1.1255574664132049E-01 a      1126     0    46     1     1
  5.8382661541352965E-02 a      1127     0    46     1     2
 -2.4222972442814991E-01 a      1128     0    46     1     3
 -1.8654220362060989E-01 a      1129     0    46     1     4
  1.4096198676879501E-02 a      1130     0    46     1     5
 -1.1020989606071308E-01 a      1131     0    46     1     6
 -1.1695808679260093E-02 a      1132     0    46     1     7
  7.0968121667950274E-02 a      1133     0    46     1     8
 -1.5367882685195175E-03 a      1134     0    46     1     9
 -3.9577502171528237E-02 a      1135     0    46     1    10
  9.0789980773288786E-02 a      1136     0    46     1    11
 -9.1902243692165694E-02 a      1137     0    46     1    12
  5.7087692272028506E-02 a      1138     0    46     1    13
 -8.8969530931164179E-02 a      1139     0    46     1    14
  1.6428902263167550E-01 a      1140     0    46     1    15
  1.7516561328599389E-01 a      1141     0    46     1    16
 -5.6991039013721594E-02 a      1142     0    46     1    17
 -1.0773509134388604E-01 a      1143     0    46     1    18
  1.0185542719439300E-01 a      1144     0    46     1    19
 -7.6837367056557943E-02 a      1145     0    46     1    20
 -2.5763667535615233E-02 a      1146     0    46     1    21
  1.2694719843790195E-01 a      1147     0    46     1    22
  1.0913548280680960E-02 a      1148     0    46     1    23
 -8.4598856970794500E-03 a      1149     0    46     1    24
  1.8196514015647453E-03 a      1150     0    46     1    25
  5.1345792755609423E-02 a      1151     0    47     1     1
  1.3740233258883162E-02 a      1152     0    47     1     2
  2.0874026130703668E-01 a      1153     0    47     1     3
 -2.7710219812732081E-02 a      1154     0    47     1     4
  1.8285491165132724E-02 a      1155     0    47     1     5
 -6.6690714925864661E-02 a      1156     0    47     1     6
 -9.3129622900252049E-02 a      1157     0    47     1     7
  6.4585632727385068E-03 a      1158     0    47     1     8
 -4.5390925252933464E-02 a      1159     0    47     1     9
  1.4460840909406736E-01 a      1160     0    47     1    10
  1.5146835745940132E-01 a      1161     0    47     1    11
  1.4902434425390107E-01 a      1162     0    47     1    12
  2.2061736032563645E-02 a      1163     0    47     1    13
  2.3796452613406360E-02 a      1164     0    47     1    14
  1.0579640882262119E-01 a      1165     0    47     1    15
 -4.2320830158550111E-03 a      1166     0    47     1    16
 -9.4351768743245242E-03 a      1167     0    47     1    17
  1.4776592199437266E-01 a      1168     0    47     1    18
 -1.0189332173431086E-01 a      1169     0    47     1    19
  8.9253867975791323E-02 a      1170     0    47     1    20
 -7.5500497796264762E-02 a      1171     0    47     1    21
  1.6416298772711432E-01 a      1172     0    47     1    22
  1.6100455242096939E-02 a      1173     0    47     1    23
  1.8135697391514022E-01 a      1174     0    47     1    24
 -9.9161424288407143E-02 a      1175     0    47     1    25
  1.2500063522615831E-01 a      1176     0    48     1     1
 -2.1755069359341569E-02 a      1177     0    48     1     2
 -1.4141926343098732E-01 a      1178     0    48     1     3
 -1.6881317351211295E-01 a      1179     0    48     1     4
  1.4253530770564429E-01 a      1180     0    48     1     5
 -7.4101607795206040E-02 a      1181     0    48     1     6
 -1.6517538762163633E-01 a      1182     0    48     1     7
 -1.1227676860646567E-02 a      1183     0    48     1     8
  2.7408604910847573E-01 a      1184     0    48     1     9
  1.0776788082303330E-02 a      1185     0    48     1    10
  1.7896293449472633E-01 a      1186     0    48     1    11
  1.8662973963699125E-01 a      1187     0    48     1    12
  8.3831027149819617E-02 a      1188     0    48     1    13
 -4.3300562133684092E-02 a      1189     0    48     1    14
  9.2082890600559505E-02 a      1190     0    48     1    15
  1.7350974940668679E-01 a      1191     0    48     1    16
  1.8076986172826590E-01 a      1192     0    48     1    17
  2.8064176912708438E-01 a      1193     0    48     1    18
  2.3495627876526707E-02 a      1194     0    48     1    19
 -2.1605753309344219E-04 a      1195     0    48     1    20
  7.6300684326099891E-02 a      1196     0    48     1    21
  2.7576590102330198E-02 a      1197     0    48     1    22
  2.9749570054866760E-02 a      1198     0    48     1    23
  2.3381036857901803E-02 a      1199     0    48     1    24
  4.0231154184413351E-02 a      1200     0    48     1    25
  1.3614990766679896E-01 a      1201     0    49     1     1
 -7.1483255115011385E-02 a      1202     0    49     1     2
  1.9281565840118683E-01 a      1203     0    49     1     3
 -8.3959452767933210E-03 a      1204     0    49     1     4
  1.5438309414786355E-02 a      1205     0    49     1     5
 -2.5765064183215218E-02 a      1206     0    49     1     6
 -7.5852272643220350E-02 a      1207     0    49     1     7
  1.6292326712250213E-01 a      1208     0    49     1     8
  4.5409857263796802E-02 a      1209     0    49     1     9
  4.8525639243600309E-02 a      1210     0    49     1    10
 -1.2947580812156931E-01 a      1211     0    49     1    11
 -5.7861417493517576E-03 a      1212     0    49     1    12
  4.2050937964751525E-02 a      1213     0    49     1    13
  2.8542998555523996E-01 a      1214     0    49     1    14
  7.4151141648979166E-02 a      1215     0    49     1    15
  5.2661879243500222E-02 a      1216     0    49     1    16
 -7.3221577560265497E-02 a      1217     0    49     1    17
 -9.7002707223723977E-02 a      1218     0    49     1    18
 -7.8946558155923816E-02 a      1219     0    49     1    19
  3.0501439250034880E-02 a      1220     0    49     1    20
  1.4366226580493782E-01 a      1221     0    49     1    21
  4.0864543319772012E-04 a      1222     0    49     1    22
  1.1863939699972886E-01 a      1223     0    49     1    23
  1.8386153895291940E-02 a      1224     0    49     1    24
 -7.7519074360057026E-03 a      1225     0    49     1    25
  1.1098832471297973E-01 a      1226     0    50     1     1
  2.4774840024777794E-01 a      1227     0    50     1     2
  5.3895006270170784E-02 a      1228     0    50     1     3
  9.0113281111190935E-02 a      1229     0    50     1     4
  1.8205633244684527E-01 a      1230     0    50     1     5
  4.5577250942653857E-02 a      1231     0    50     1     6
  5.4401783785651414E-02 a      1232     0    50     1     7
 -5.7295262387214052E-02 a      1233     0    50     1     8
 -1.9012101524157686E-02 a      1234     0    50     1     9
 -2.7574790745258465E-01 a      1235     0    50     1    10
 -4.9115953444578399E-02 a      1236     0    50     1    11
  8.0694632059157154E-02 a      1237     0    50     1    12
 -1.7501342863737189E-02 a      1238     0    50     1    13
  2.8755362800189643E-01 a      1239     0    50     1    14
 -7.7863720238140005E-02 a      1240     0    50     1    15
 -8.7767860520522420E-02 a      1241     0    50     1    16
 -1.0389835474275708E-01 a      1242     0    50     1    17
 -8.4835896756434173E-02 a      1243     0    50     1    18
  1.6520293139186440E-01 a      1244     0    50     1    19
  1.5773074962220857E-01 a      1245     0    50     1    20
 -6.7457878090602030E-03 a      1246     0    50     1    21
 -1.3298590381807218E-01 a      1247     0    50     1    22
 -3.1403847889762082E-02 a      1248     0    50     1    23
  8.7355543110844008E-02 a      1249     0    50     1    24
  7.9116742813091820E-02 a      1250     0    50     1    25
  2.0337892303630983E-01 a      1251     0    51     1     1
 -2.4094093229434725E-02 a      1252     0    51     1     2
  8.7083083929928085E-02 a      1253     0    51     1     3
  6.1121355723317464E-02 a      1254     0    51     1     4
  1.4892629467882199E-01 a      1255     0    51     1     5
 -3.4390579097569991E-02 a      1256     0    51     1     6
 -2.9536030330433249E-01 a      1257     0    51     1     7
 -8.4758880644471971E-02 a      1258     0    51     1     8
  9.8786593633559461E-02 a      1259     0    51     1     9
 -3.1082385090906633E-02 a      1260     0    51     1    10
  4.1810844626673241E-02 a      1261     0    51     1    11
  1.3839049477188040E-02 a      1262     0    51     1    12
  1.1233715554359980E-01 a      1263     0    51     1    13
 -6.7956548144198197E-03 a      1264     0    51     1    14
 -1.4256098393156613E-01 a      1265     0    51     1    15
  3.9068432055658672E-02 a      1266     0    51     1    16
 -1.5355148794203938E-02 a      1267     0    51     1    17
 -6.1598002260740466E-03 a      1268     0    51     1    18
 -2.4169172618105875E-02 a      1269     0    51     1    19
  2.3876578286072783E-01 a      1270     0    51     1    20
 -5.9679365812608527E-02 a      1271     0    51     1    21
 -1.2275886791002566E-01 a      1272     0    51     1    22
  4.5945661219287851E-02 a      1273     0    51     1    23
 -2.1975048854765360E-02 a      1274     0    51     1    24
 -1.1573585098442177E-01 a      1275     0    51     1    25
  1.6952649264351138E-01 a      1276     0    52     1     1
  1.0524822565116405E-02 a      1277     0    52     1     2
  2.6482319185719372E-01 a      1278     0    52     1     3
 -8.5174473115767702E-02 a      1279     0    52     1     4
  2.1503165551358180E-01 a      1280     0    52     1     5
 -1.1553257567629735E-01 a      1281     0    52     1     6
  5.2181281952410431E-02 a      1282     0    52     1     7
  5.2352921461743321E-03 a      1283     0    52     1     8
  4.0060935686013904E-02 a      1284     0    52     1     9
 -6.3098460014730545E-02 a      1285     0    52     1    10
  6.2597769935214390E-02 a      1286     0    52     1    11
 -6.5577122965001441E-03 a      1287     0    52     1    12
 -3.2381972916892099E-01 a      1288     0    52     1    13
  1.7798596356125998E-01 a      1289     0    52     1    14
  3.0627795580841170E-03 a      1290     0    52     1    15
  2.0327259981989840E-01 a      1291     0    52     1    16
  3.1680333314558225E-02 a      1292     0    52     1    17
  1.0831302632732517E-01 a      1293     0    52     1    18
 -9.8784375660657925E-02 a      1294     0    52     1    19
  7.4738376841172807E-02 a      1295     0    52     1    20
 -1.4255470380921662E-01 a      1296     0    52     1    21
 -8.9656334932470258E-02 a      1297     0    52     1    22
 -2.7443418320507329E-01 a      1298     0    52     1    23
 -2.0380308158136282E-01 a      1299     0    52     1    24
  3.1544505872642167E-02 a      1300     0    52     1    25
 -9.2982568533914373E-02 a      1301     0    53     1     1
 -1.6268612310331595E-01 a      1302     0    53     1     2
  1.7777210452146537E-02 a      1303     0    53     1     3
  9.8188881697938171E-02 a      1304     0    53     1     4
 -1.1932663447091132E-01 a      1305     0    53     1     5
  2.3170796830518481E-02 a      1306     0    53     1     6
 -2.5680188825902467E-01 a      1307     0    53     1     7
  1.3516441595188800E-01 a      1308     0    53     1     8
 -6.7987188557768835E-02 a      1309     0    53     1     9
  3.8044369919987296E-02 a      1310     0    53     1    10
  7.3892992098536989E-02 a      1311     0    53     1    11
 -1.2290278707796762E-01 a      1312     0    53     1    12
  1.1040171472871994E-01 a      1313     0    53     1    13
  2.1085996594823161E-01 a      1314     0    53     1    14
  1.0698360692691962E-01 a      1315     0    53     1    15
 -1.9394505259209740E-02 a      1316     0    53     1    16
  1.0784008946370192E-01 a      1317     0    53     1    17
  1.9192844250998120E-01 a      1318     0    53     1    18
 -7.1022816127250060E-02 a      1319     0    53     1    19
  2.4476702182979837E-01 a      1320     0    53     1    20
 -1.1023467050380160E-02 a      1321     0    53     1    21
  8.2406360903129625E-02 a      1322     0    53     1    22
 -3.1294537901984290E-02 a      1323     0    53     1    23
 -1.0492205844382624E-01 a      1324     0    53     1    24
  9.3443904386082119E-02 a      1325     0    53     1    25
 -8.8647776344994416E-03 a      1326     0    54     1     1
  9.4069832156383926E-02 a      1327     0    54     1     2
 -1.7396998756480525E-01 a      1328     0    54     1     3
  3.9818147608035905E-03 a      1329     0    54     1     4
  8.0387082281238365E-02 a      1330     0    54     1     5
  3.5999715151075092E-02 a      1331     0    54     1     6
  9.6504310832108892E-02 a      1332     0    54     1     7
  7.2309763974530539E-02 a      1333     0    54     1     8
 -9.8952498571726444E-02 a      1334     0    54     1     9
 -1.8581263880489665E-01 a      1335     0    54     1    10
  2.4514735658266801E-01 a      1336     0    54     1    11
 -1.3585039551811001E-01 a      1337     0    54     1    12
 -5.1021787413163391E-02 a      1338     0    54     1    13
  7.4900623069355049E-02 a      1339     0    54     1    14
  1.5084092806200794E-02 a      1340     0    54     1    15
  1.3804624954259934E-01 a      1341     0    54     1    16
  1.8374634777937415E-01 a      1342     0    54     1    17
  8.0546389671017321E-02 a      1343     0    54     1    18
  8.9783043828492490E-02 a      1344     0    54     1    19
  3.1960172775181754E-02 a      1345     0    54     1    20
  8.8282406537559352E-02 a      1346     0    54     1    21
 -2.8086448868352591E-02 a      1347     0    54     1    22
 -7.6052542286228875E-02 a      1348     0    54     1    23
  3.4428208006948069E-02 a      1349     0    54     1    24
 -5.8422610324997439E-03 a      1350     0    54     1    25
  1.2164289150862229E-01 a      1351     0    55     1     1
  2.3918569690153205E-01 a      1352     0    55     1     2
  1.1033844802966003E-01 a      1353     0    55     1     3
  1.0421756801793063E-01 a      1354     0    55     1     4
 -4.1979003932307676E-02 a      1355     0    55     1     5
  2.6648844773131330E-01 a      1356     0    55     1     6
 -9.3789977590936213E-02 a      1357     0    55     1     7
  2.8182691062240736E-02 a      1358     0    55     1     8
 -5.3074578750825184E-03 a      1359     0    55     1     9
  2.7575456933327427E-02 a      1360     0    55     1    10
 -2.1208660711702335E-01 a      1361     0    55     1    11
  1.0771154695491460E-01 a      1362     0    55     1    12
  1.0283976193745469E-01 a      1363     0    55     1    13
  9.2665999463838050E-02 a      1364     0    55     1    14
  1.4785788120730853E-01 a      1365     0    55     1    15
 -1.0586018833483155E-01 a      1366     0    55     1    16
  1.2534274315990937E-01 a      1367     0    55     1    17
  1.6359436412028835E-01 a      1368     0    55     1    18
  3.7783161055078382E-02 a      1369     0    55     1    19
  1.4654381858530194E-01 a      1370     0    55     1    20
 -7.1170140859635661E-02 a      1371     0    55     1    21
  1.1964867911040421E-01 a      1372     0    55     1    22
 -1.9929420004019005E-01 a      1373     0    55     1    23
 -7.6459871488275252E-02 a      1374     0    55     1    24
  8.3526161362422566E-02 a      1375     0    55     1    25
  2.0699180386223145E-02 a      1376     0    56     1     1
 -1.7193012919047870E-01 a      1377     0    56     1     2
 -8.6217534135758472E-02 a      1378     0    56     1     3
 -2.0509121554865101E-01 a      1379     0    56     1     4
  1.7826708682063816E-01 a      1380     0    56     1     5
  1.2948271824862643E-02 a      1381     0    56     1     6
  9.3311357685601781E-02 a      1382     0    56     1     7
 -7.1043428788304733E-02 a      1383     0    56     1     8
  6.5964481284257834E-03 a      1384     0    56     1     9
 -6.1188083392094209E-02 a      1385     0    56     1    10
  6.2751185933405271E-02 a      1386     0    56     1    11
 -6.9362323449886021E-02 a      1387     0    56     1    12
 -1.5451899433858216E-01 a      1388     0    56     1    13
 -1.2099722826865388E-01 a      1389     0    56     1    14
  5.8892096025979813E-02 a      1390     0    56     1    15
 -1.1960138317603509E-01 a      1391     0    56     1    16
  3.9505778103142812E-02 a      1392     0    56     1    17
  8.9120735496017081E-02 a      1393     0    56     1    18
  1.4409825138934865E-01 a      1394     0    56     1    19
  1.7259841163478973E-01 a      1395     0    56     1    20
 -2.4253820659727546E-02 a      1396     0    56     1    21
 -9.5323135372877052E-02 a      1397     0    56     1    22
 -2.1144872034172292E-02 a      1398     0    56     1    23
  2.5295792303068831E-02 a      1399     0    56     1    24
  2.9950673477778328E-02 a      1400     0    56     1    25
 -1.0330241054790724E-01 a      1401     0    57     1     1
 -6.1119401182972995E-02 a      1402     0    57     1     2
 -1.1883821472368161E-01 a      1403     0    57     1     3
 -6.6932756570220575E-02 a      1404     0    57     1     4
 -1.4838920346817107E-02 a      1405     0    57     1     5
 -1.4754638565017303E-02 a      1406     0    57     1     6
 -1.6400362234014773E-01 a      1407     0    57     1     7
  2.0516741005196088E-02 a      1408     0    57     1     8
 -1.6355230405662388E-01 a      1409     0    57     1     9
 -1.3064504820044176E-01 a      1410     0    57     1    10
  4.5897644949458010E-03 a      1411     0    57     1    11
  1.7610419000279190E-01 a      1412     0    57     1    12
 -8.0869428597002413E-02 a      1413     0    57     1    13
  2.2235646488641689E-01 a      1414     0    57     1    14
 -1.3561793666725446E-03 a      1415     0    57     1    15
  1.9496585582451254E-01 a      1416     0    57     1    16
 -1.3395128860116021E-01 a      1417     0    57     1    17
 -3.6995073598791769E-02 a      1418     0    57     1    18
  3.7086265568808369E-02 a      1419     0    57     1    19
  2.2027824584063579E-01 a      1420     0    57     1    20
  9.1084399518768774E-02 a      1421     0    57     1    21
 -6.9002178796508995E-02 a      1422     0    57     1    22
 -1.6314200107959562E-01 a      1423     0    57     1    23
 -2.3295605745840017E-01 a      1424     0    57     1    24
  1.2574255066008420E-02 a      1425     0    57     1    25
  5.4887160348835812E-02 a      1426     0    58     1     1
  1.5251654140351509E-01 a      1427     0    58     1     2
 -2.9791218265761799E-02 a      1428     0    58     1     3
 -2.1784103803953250E-02 a      1429     0    58     1     4
  4.3403637411527002E-02 a      1430     0    58     1     5
  1.1431435522929330E-01 a      1431     0    58     1     6
 -7.4208793747965573E-02 a      1432     0    58     1     7
 -7.7677538410643968E-02 a      1433     0    58     1     8
  1.3990779127313122E-01 a      1434     0    58     1     9
 -8.8730054988622978E-02 a      1435     0    58     1    10
  5.1123583996325245E-02 a      1436     0    58     1    11
 -5.9189317715496424E-02 a      1437     0    58     1    12
 -1.0161832334845079E-01 a      1438     0    58     1    13
 -4.6772315297383571E-02 a      1439     0    58     1    14
  1.5142254397899177E-01 a      1440     0    58     1    15
  1.1833884962992497E-01 a      1441     0    58     1    16
  3.1518281545605403E-02 a      1442     0    58     1    17
 -6.6421381469095195E-02 a      1443     0    58     1    18
 -2.3854901766509590E-02 a      1444     0    58     1    19
  2.4981620187859435E-01 a      1445     0    58     1    20
 -1.1546308018804542E-01 a      1446     0    58     1    21
  2.3829804371205583E-03 a      1447     0    58     1    22
 -2.1800569706592798E-01 a      1448     0    58     1    23
 -4.9927343613903274E-02 a      1449     0    58     1    24
 -4.7993197985445511E-02 a      1450     0    58     1    25
  7.7190158306069609E-02 a      1451     0    59     1     1
 -2.7238428628313127E-01 a      1452     0    59     1     2
 -2.2576855381882893E-02 a      1453     0    59     1     3
 -9.4383587199250857E-02 a      1454     0    59     1     4
  2.6682976726605231E-02 a      1455     0    59     1     5
  1.6481185388334060E-01 a      1456     0    59     1     6
  4.4318666715754955E-02 a      1457     0    59     1     7
  5.9783172767896790E-02 a      1458     0    59     1     8
 -1.5222067273266113E-01 a      1459     0    59     1     9
 -1.1447216050238815E-01 a      1460     0    59     1    10
 -7.4696791058813808E-03 a      1461     0    59     1    11
 -5.9839701393750507E-02 a      1462     0    59     1    12
  2.4460776441453611E-01 a      1463     0    59     1    13
 -1.0309844179208837E-01 a      1464     0    59     1    14
 -1.1915355548778267E-01 a      1465     0    59     1    15
 -6.0733724924645523E-02 a      1466     0    59     1    16
 -5.0624747351130830E-02 a      1467     0    59     1    17
 -4.5059626190642299E-02 a      1468     0    59     1    18
  3.9139596935645879E-02 a      1469     0    59     1    19
 -5.5666597333438664E-02 a      1470     0    59     1    20
  2.1841160614234612E-01 a      1471     0    59     1    21
  7.2407061418102464E-02 a      1472     0    59     1    22
  1.2180398463283680E-01 a      1473     0    59     1    23
  1.9597943239310800E-02 a      1474     0    59     1    24
 -6.7861407444972918E-02 a      1475     0    59     1    25
  2.2421151476053774E-01 a      1476     0    60     1     1
 -2.1003800924789792E-01 a      1477     0    60     1     2
  6.9422368044800287E-02 a      1478     0    60     1     3
  3.2726653535676983E-02 a      1479     0    60     1     4
 -2.6990264474758252E-01 a      1480     0    60     1     5
  1.5299984642503810E-02 a      1481     0    60     1     6
 -2.0629849667220354E-01 a      1482     0    60     1     7
  6.7612643419028770E-02 a      1483     0    60     1     8
 -1.4774721939581495E-01 a      1484     0    60     1     9
 -1.9128198284861359E-01 a      1485     0    60     1    10
  4.6664686904496953E-02 a      1486     0    60     1    11
  1.0383745659964026E-01 a      1487     0    60     1    12
 -5.6625127187038236E-02 a      1488     0    60     1    13
  9.3067707107761383E-02 a      1489     0    60     1    14
  9.4292314138935560E-02 a      1490     0    60     1    15
  1.1513731729881053E-01 a      1491     0    60     1    16
 -4.8198373701072203E-02 a      1492     0    60     1    17
 -1.0755625604771715E-01 a      1493     0    60     1    18
  6.3852618934942346E-02 a      1494     0    60     1    19
  1.9003465706095582E-02 a      1495     0    60     1    20
  7.2456140009478573E-02 a      1496     0    60     1    21
  1.2158251909942180E-01 a      1497     0    60     1    22
  1.0861209032145824E-01 a      1498     0    60     1    23
 -1.3142113444968348E-01 a      1499     0    60     1    24
 -7.6986430531876329E-02 a      1500     0    60     1    25
  2.2491730488532899E-01 a      1501     0    61     1     1
 -3.3534216130244994E-02 a      1502     0    61     1     2
 -1.6087457413395534E-01 a      1503     0    61     1     3
  2.4891942590199034E-01 a      1504     0    61     1     4
  5.7304847242697382E-02 a      1505     0    61     1     5
 -2.7185769397890797E-01 a      1506     0    61     1     6
  1.5208677646082489E-01 a      1507     0    61     1     7
 -3.9497559629334635E-02 a      1508     0    61     1     8
  7.0033610628147003E-02 a      1509     0    61     1     9
 -3.9245338369185475E-03 a      1510     0    61     1    10
  3.0958940632300952E-02 a      1511     0    61     1    11
  1.9778866227481456E-01 a      1512     0    61     1    12
 -2.5506719779686388E-01 a      1513     0    61     1    13
 -1.4201563408957724E-01 a      1514     0    61     1    14
  1.2730636003359458E-01 a      1515     0    61     1    15
  6.4393517701582401E-02 a      1516     0    61     1    16
  5.3621282149017895E-02 a      1517     0    61     1    17
 -5.4128999839415638E-02 a      1518     0    61     1    18
 -6.8630614245195620E-02 a      1519     0    61     1    19
 -2.3602797216530302E-01 a      1520     0    61     1    20
 -1.5317616430083678E-01 a      1521     0    61     1    21
 -1.4239119481902135E-01 a      1522     0    61     1    22
 -2.0640307120962562E-01 a      1523     0    61     1    23
 -1.9904197062175430E-01 a      1524     0    61     1    24
 -2.0251411588086868E-02 a      1525     0    61     1    25
  1.3862131270540823E-01 a      1526     0    62     1     1
 -1.4028306125028339E-01 a      1527     0    62     1     2
 -2.1489355564887389E-01 a      1528     0    62     1     3
  9.2829208637800933E-02 a      1529     0    62     1     4
  9.8356041801766856E-03 a      1530     0    62     1     5
 -4.7500470103722485E-02 a      1531     0    62     1     6
  9.0998218918923179E-03 a      1532     0    62     1     7
 -1.8190630870612642E-01 a      1533     0    62     1     8
  5.4786232229553297E-02 a      1534     0    62     1     9
 -4.1520173315664162E-02 a      1535     0    62     1    10
  1.2061787930208557E-02 a      1536     0    62     1    11
  3.6163525605842684E-03 a      1537     0    62     1    12
  9.9411681313930272E-02 a      1538     0    62     1    13
  8.7072806481592296E-02 a      1539     0    62     1    14
  1.3538851922877612E-01 a      1540     0    62     1    15
 -1.1544391384167904E-01 a      1541     0    62     1    16
  1.0693405400043336E-01 a      1542     0    62     1    17
  1.1898176726292864E-01 a      1543     0    62     1    18
  9.7102669977343695E-02 a      1544     0    62     1    19
  4.5398009033190287E-02 a      1545     0    62     1    20
 -2.2753874136092286E-01 a      1546     0    62     1    21
 -1.7579123977861252E-01 a      1547     0    62     1    22
  7.7726555768595799E-03 a      1548     0    62     1    23
  1.4490628681400997E-01 a      1549     0    62     1    24
  7.8950871211789453E-02 a      1550     0    62     1    25
  3.2547353756915212E-03 a      1551     0    63     1     1
  1.9474452598805952E-01 a      1552     0    63     1     2
 -2.1805366794438222E-01 a      1553     0    63     1     3
 -1.4215349413238790E-01 a      1554     0    63     1     4
  2.8133195925555315E-01 a      1555     0    63     1     5
  3.1486864678045220E-03 a      1556     0    63     1     6
  6.2941248102190202E-03 a      1557     0    63     1     7
  5.5811968101700034E-02 a      1558     0    63     1     8
  7.9635847296877046E-02 a      1559     0    63     1     9
 -4.3216094860080823E-02 a      1560     0    63     1    10
  3.7260912362053394E-02 a      1561     0    63     1    11
 -1.4419451448771975E-01 a      1562     0    63     1    12
 -8.6448879215817162E-02 a      1563     0    63     1    13
 -8.1851504142388967E-02 a      1564     0    63     1    14
 -1.5383816973202352E-01 a      1565     0    63     1    15
  1.8544490156142908E-02 a      1566     0    63     1    16
 -9.7308433588137400E-02 a      1567     0    63     1    17
  7.8023545972377373E-02 a      1568     0    63     1    18
 -2.3403897252754144E-03 a      1569     0    63     1    19
  3.7938713496855903E-02 a      1570     0    63     1    20
  1.0896007512697331E-01 a      1571     0    63     1    21
 -2.0422607895220990E-02 a      1572     0    63     1    22
 -1.1027771235497157E-01 a      1573     0    63     1    23
  5.7115988676553625E-02 a      1574     0    63     1    24
  1.9870279940488772E-01 a      1575     0    63     1    25
  9.3584266442083633E-02 a      1576     0    64     1     1
  4.7576811061762307E-03 a      1577     0    64     1     2
  1.4867986133268358E-02 a      1578     0    64     1     3
 -1.5866723499608526E-01 a      1579     0    64     1     4
 -1.4734121501291189E-01 a      1580     0    64     1     5
 -1.1536407833079437E-01 a      1581     0    64     1     6
  2.0510715031651486E-01 a      1582     0    64     1     7
  8.8489437393512588E-02 a      1583     0    64     1     8
  1.8238207803181528E-01 a      1584     0    64     1     9
 -1.1723500684157087E-01 a      1585     0    64     1    10
 -1.1414992656265119E-01 a      1586     0    64     1    11
  3.2349227400763833E-03 a      1587     0    64     1    12
 -1.4043952024361292E-01 a      1588     0    64     1    13
  3.3318225855961101E-02 a      1589     0    64     1    14
  1.0030852344027323E-01 a      1590     0    64     1    15
  2.1882745178228337E-02 a      1591     0    64     1    16
  8.9197045273531506E-02 a      1592     0    64     1    17
 -1.6846324731355211E-01 a      1593     0    64     1    18
 -7.1340408477418099E-02 a      1594     0    64     1    19
  1.3965378675704870E-01 a      1595     0    64     1    20
 -9.4656229437053721E-02 a      1596     0    64     1    21
 -8.6200922994502854E-02 a      1597     0    64     1    22
 -1.6576233574046126E-01 a      1598     0    64     1    23
 -1.1586316062843580E-02 a      1599     0    64     1    24
 -1.5881183330896625E-01 a      1600     0    64     1    25
  3.6350080747891499E-02 b      1601     1     1
  1.9095471599901234E-01 b      1602     1     2
 -1.5695509571575406E-01 b      1603     1     3
  7.4232845778852430E-01 b      1604     1     4
  4.3090545591983342E-01 b      1605     1     5
 -1.2178824078785429E-01 b      1606     1     6
 -3.0643982659103275E-01 b      1607     1     7
  2.7230378487248907E-02 b      1608     1     8
  1.2895954973448695E-01 b      1609     1     9
 -6.2896927070057651E-01 b      1610     1    10
  2.1575678514039603E-01 b      1611     1    11
 -3.0117874236506337E-01 b      1612     1    12
  2.3649540308607220E-01 b      1613     1    13
 -2.2615169281935232E-01 b      1614     1    14
  2.3892506992941362E-01 b      1615     1    15
  4.3356304128571699E-01 b      1616     1    16
 -2.8771748485644483E-02 b      1617     1    17
 -1.9968446306984830E-01 b      1618     1    18
  2.7825693553771802E-01 b      1619     1    19
  1.6721120949440255E-01 b      1620     1    20
 -5.8437199458841249E-01 b      1621     1    21
 -1.5340457849419897E-01 b      1622     1    22
  2.6716066701942076E-01 b      1623     1    23
 -6.9372382115002884E-01 b      1624     1    24
  5.5333311684528064E-01 b      1625     1    25
  1.3100955718316359E-01 a      1626     1     1     2     1
  1.1622007645220974E-02 a      1627     1     1     2     2
  2.7231684800922035E-01 a      1628     1     1     2     3
