################################################################################
# Neural network connection values (weights and biases).
################################################################################
# Col  Name       Description
################################################################################
# 1    connection Neural network connection value.
# 2    t          Connection type (a = weight, b = bias).
# 3    index      Index enumerating weights.
# 4    l_s        Starting point layer (end point layer for biases).
# 5    n_s        Starting point neuron in starting layer (end point neuron for biases).
# 6    l_e        End point layer.
# 7    n_e        End point neuron in end layer.
################################################################################
#                      1 2         3     4     5     6     7
#             connection t     index   l_s   n_s   l_e   n_e
############################################################
  1.3302839373829828E-01 a         1     0     1     1     1
  1.4816681158245408E-02 a         2     0     1     1     2
  1.6791561914341610E-01 a         3     0     1     1     3
 -1.1944971351356550E-02 a         4     0     1     1     4
  6.4364798465595938E-02 a         5     0     1     1     5
  5.8142707201424573E-02 a         6     0     1     1     6
  9.0791607884450343E-02 a         7     0     1     1     7
 -1.2168235698532207E-01 a         8     0     1     1     8
  5.9833118804545400E-02 a         9     0     1     1     9
  1.2345592326772066E-01 a        10     0     1     1    10
  5.4948086971218446E-02 a        11     0     1     1    11
 -4.6867685402690047E-02 a        12     0     1     1    12
  2.2249095033106330E-02 a        13     0     1     1    13
  1.3870292743546075E-01 a        14     0     1     1    14
 -1.1394828821925714E-01 a        15     0     1     1    15
  7.8565533604691248E-02 a        16     0     1     1    16
  1.1643644983157882E-01 a        17     0     1     1    17
 -1.7738948632312071E-01 a        18     0     1     1    18
  1.5311892867376392E-01 a        19     0     1     1    19
 -1.6574806802871153E-01 a        20     0     1     1    20
  1.0466370763827898E-02 a        21     0     1     1    21
 -1.5343132393720466E-01 a        22     0     1     1    22
  1.3055712678013144E-02 a        23     0     1     1    23
 -2.6918127881256602E-03 a        24     0     1     1    24
 -8.5129461703793805E-02 a        25     0     1     1    25
 -3.4048877333558458E-01 a        26     0     2     1     1
  1.4710384274281188E-01 a        27     0     2     1     2
  1.4484656617710226E-01 a        28     0     2     1     3
 -2.8359952056818974E-02 a        29     0     2     1     4
  1.4461226138331892E-01 a        30     0     2     1     5
 -1.2938919337522525E-01 a        31     0     2     1     6
 -6.1960546634970796E-02 a        32     0     2     1     7
  5.2821257693189475E-02 a        33     0     2     1     8
 -3.5273842540447964E-02 a        34     0     2     1     9
  3.1462669585387548E-01 a        35     0     2     1    10
 -1.2223915920974900E-01 a        36     0     2     1    11
 -1.1137104774332830E-01 a        37     0     2     1    12
 -8.5642701745484273E-02 a        38     0     2     1    13
  4.8461240797616718E-02 a        39     0     2     1    14
 -7.7126872317114931E-02 a        40     0     2     1    15
  7.4187942273252136E-02 a        41     0     2     1    16
  1.4070014645459444E-01 a        42     0     2     1    17
 -1.6616324609268301E-01 a        43     0     2     1    18
 -2.0070998558523848E-01 a        44     0     2     1    19
  7.4721253344688932E-02 a        45     0     2     1    20
 -5.9211075519233256E-02 a        46     0     2     1    21
 -6.0172271837864555E-02 a        47     0     2     1    22
 -2.1110368210139899E-01 a        48     0     2     1    23
 -1.3221486966773149E-01 a        49     0     2     1    24
  3.4773555158643568E-02 a        50     0     2     1    25
 -3.8691857069690076E-02 a        51     0     3     1     1
 -1.5733506097674768E-01 a        52     0     3     1     2
 -4.4100701228730443E-02 a        53     0     3     1     3
 -1.1954213431837786E-04 a        54     0     3     1     4
  1.1664675261027176E-01 a        55     0     3     1     5
 -4.7567848522770337E-02 a        56     0     3     1     6
  1.9241703206479327E-01 a        57     0     3     1     7
 -6.9161474366872269E-02 a        58     0     3     1     8
 -4.4889955192034654E-02 a        59     0     3     1     9
  8.6306468279511134E-02 a        60     0     3     1    10
 -6.6863740586705397E-02 a        61     0     3     1    11
  5.0124765452845561E-02 a        62     0     3     1    12
 -2.2754673212819577E-02 a        63     0     3     1    13
  7.3891247261774892E-03 a        64     0     3     1    14
 -6.3009231770823446E-02 a        65     0     3     1    15
 -1.1687332645068026E-01 a        66     0     3     1    16
 -1.1444724393180053E-01 a        67     0     3     1    17
 -5.9750446766766468E-02 a        68     0     3     1    18
  2.3254495846342824E-01 a        69     0     3     1    19
 -9.1025461270906563E-02 a        70     0     3     1    20
  1.9722701475157815E-02 a        71     0     3     1    21
  1.5194441335869752E-01 a        72     0     3     1    22
 -5.4541757351219883E-02 a        73     0     3     1    23
  1.0813477229251765E-01 a        74     0     3     1    24
  1.4971427987689340E-01 a        75     0     3     1    25
 -1.5963469261337304E-01 a        76     0     4     1     1
 -1.3487983116943450E-01 a        77     0     4     1     2
  6.0609582768020184E-02 a        78     0     4     1     3
  6.9863521612813465E-02 a        79     0     4     1     4
 -3.5622836766628051E-02 a        80     0     4     1     5
 -1.0839668163415749E-01 a        81     0     4     1     6
 -1.0277062847202290E-01 a        82     0     4     1     7
  1.3752207256472754E-01 a        83     0     4     1     8
 -8.9144515781437852E-02 a        84     0     4     1     9
  1.5671259174485505E-01 a        85     0     4     1    10
  3.2771246384354837E-02 a        86     0     4     1    11
  9.3541901705183422E-02 a        87     0     4     1    12
  1.2856711230865631E-01 a        88     0     4     1    13
 -2.3892212822687550E-02 a        89     0     4     1    14
  1.6319609050788306E-02 a        90     0     4     1    15
  1.1148185699475927E-01 a        91     0     4     1    16
 -9.2948578581081819E-04 a        92     0     4     1    17
 -2.5653257863589872E-02 a        93     0     4     1    18
  1.7821743979356621E-02 a        94     0     4     1    19
  1.2723263954474720E-01 a        95     0     4     1    20
  1.2457500898447065E-02 a        96     0     4     1    21
  1.3164547704761290E-01 a        97     0     4     1    22
 -2.6028713814975988E-02 a        98     0     4     1    23
  5.8369966541836960E-02 a        99     0     4     1    24
  9.2059222007495348E-02 a       100     0     4     1    25
 -1.4532760844391521E-02 a       101     0     5     1     1
  1.3418358893255846E-02 a       102     0     5     1     2
  1.4198832065004980E-02 a       103     0     5     1     3
 -1.3413123823687645E-01 a       104     0     5     1     4
  3.4769019225114113E-02 a       105     0     5     1     5
  3.4142688428897228E-02 a       106     0     5     1     6
  2.3277105891390152E-02 a       107     0     5     1     7
 -1.6761690232257007E-01 a       108     0     5     1     8
 -6.8712487250526311E-02 a       109     0     5     1     9
 -1.0760988913618405E-01 a       110     0     5     1    10
 -5.5275771417367170E-02 a       111     0     5     1    11
 -6.0239596862783143E-02 a       112     0     5     1    12
 -1.1032189132654301E-01 a       113     0     5     1    13
 -2.9165535194992490E-02 a       114     0     5     1    14
 -1.5456080419785537E-02 a       115     0     5     1    15
  1.3941623048025270E-01 a       116     0     5     1    16
  4.2285390007092041E-02 a       117     0     5     1    17
  1.2376897999226549E-01 a       118     0     5     1    18
  1.5251674796400280E-01 a       119     0     5     1    19
  1.4769467453383403E-01 a       120     0     5     1    20
 -1.6545961461186207E-01 a       121     0     5     1    21
 -9.7193912689738510E-02 a       122     0     5     1    22
 -1.0436496738068476E-01 a       123     0     5     1    23
 -2.0574039816074797E-02 a       124     0     5     1    24
 -2.6965466052874115E-02 a       125     0     5     1    25
  1.6900583328638495E-02 a       126     0     6     1     1
  9.6560429776726214E-02 a       127     0     6     1     2
 -4.5584956733208323E-02 a       128     0     6     1     3
  1.0200994006936745E-01 a       129     0     6     1     4
 -1.1633090971791157E-01 a       130     0     6     1     5
 -2.3094771714624384E-02 a       131     0     6     1     6
 -2.7829278827661338E-02 a       132     0     6     1     7
 -1.6667468243293359E-03 a       133     0     6     1     8
 -2.6026165811222879E-01 a       134     0     6     1     9
  1.6839164657978523E-01 a       135     0     6     1    10
  3.7013879868240437E-02 a       136     0     6     1    11
 -1.5064717839043085E-01 a       137     0     6     1    12
  3.5685770269787594E-04 a       138     0     6     1    13
 -1.8812150810711342E-01 a       139     0     6     1    14
 -2.4945319501143126E-01 a       140     0     6     1    15
 -3.6546483130740375E-02 a       141     0     6     1    16
 -6.2954541900875800E-03 a       142     0     6     1    17
  1.9692178747841845E-02 a       143     0     6     1    18
  2.1820133395794569E-01 a       144     0     6     1    19
 -5.5009551393556330E-02 a       145     0     6     1    20
 -1.8741031209054571E-02 a       146     0     6     1    21
 -2.1897688835009123E-02 a       147     0     6     1    22
 -1.2792203618073686E-01 a       148     0     6     1    23
 -3.8029054387036611E-02 a       149     0     6     1    24
  1.4941135397355292E-02 a       150     0     6     1    25
 -1.4818138154448535E-01 a       151     0     7     1     1
 -1.0693303413433410E-02 a       152     0     7     1     2
  2.1948241720416775E-03 a       153     0     7     1     3
 -1.8866161201674721E-02 a       154     0     7     1     4
 -9.8719091888141736E-02 a       155     0     7     1     5
  1.4774867857256888E-01 a       156     0     7     1     6
 -2.1137001140354272E-02 a       157     0     7     1     7
  1.1401524734815577E-01 a       158     0     7     1     8
 -3.6128730392812242E-01 a       159     0     7     1     9
  1.3729817159924423E-01 a       160     0     7     1    10
 -4.4482247232432555E-02 a       161     0     7     1    11
  1.2929569808877350E-01 a       162     0     7     1    12
 -1.5480823744954808E-01 a       163     0     7     1    13
 -3.6373985976292302E-02 a       164     0     7     1    14
 -1.4247411196901222E-01 a       165     0     7     1    15
 -3.5245557301494063E-02 a       166     0     7     1    16
  2.8107912411639631E-02 a       167     0     7     1    17
 -1.2550126543380322E-02 a       168     0     7     1    18
  1.5366117368951354E-01 a       169     0     7     1    19
  1.1232130712510952E-01 a       170     0     7     1    20
 -5.9743333676773119E-02 a       171     0     7     1    21
 -3.1964051492368535E-02 a       172     0     7     1    22
  7.4009215715742871E-02 a       173     0     7     1    23
  3.3323597049658059E-02 a       174     0     7     1    24
 -1.5226125661912079E-01 a       175     0     7     1    25
  1.6227740587589252E-02 a       176     0     8     1     1
  2.3651836440990598E-01 a       177     0     8     1     2
  1.1388078262573144E-01 a       178     0     8     1     3
  3.2230400715806864E-02 a       179     0     8     1     4
 -5.1019428550110144E-02 a       180     0     8     1     5
 -2.2339866591863369E-01 a       181     0     8     1     6
  2.6680547748100009E-01 a       182     0     8     1     7
  7.2977847807192048E-02 a       183     0     8     1     8
  1.7089416475399469E-02 a       184     0     8     1     9
  6.5591338675024501E-03 a       185     0     8     1    10
 -2.5618164950017695E-02 a       186     0     8     1    11
 -1.6238022715302258E-01 a       187     0     8     1    12
 -1.3358006203578894E-02 a       188     0     8     1    13
 -3.2228325747146333E-02 a       189     0     8     1    14
  7.4423862584606162E-02 a       190     0     8     1    15
 -4.4124127889647417E-02 a       191     0     8     1    16
  2.6292136886305956E-01 a       192     0     8     1    17
 -1.3880896081454736E-02 a       193     0     8     1    18
 -1.5863561298302761E-01 a       194     0     8     1    19
 -2.3860904852206993E-01 a       195     0     8     1    20
  2.2753306546995922E-01 a       196     0     8     1    21
  2.7298009507431765E-02 a       197     0     8     1    22
 -1.2545900048527189E-01 a       198     0     8     1    23
 -1.2311034178331758E-01 a       199     0     8     1    24
  5.4296432401377624E-02 a       200     0     8     1    25
  1.2550703170286545E-01 a       201     0     9     1     1
 -1.1961412857927912E-01 a       202     0     9     1     2
  7.0498009410158310E-02 a       203     0     9     1     3
 -1.0684166491812266E-01 a       204     0     9     1     4
 -6.7557530575419203E-02 a       205     0     9     1     5
 -1.2212431336483345E-01 a       206     0     9     1     6
 -1.4652559250170105E-01 a       207     0     9     1     7
 -7.4918802723448284E-03 a       208     0     9     1     8
 -1.2764450385697143E-01 a       209     0     9     1     9
 -1.8099588891956875E-01 a       210     0     9     1    10
  1.4206359049597819E-01 a       211     0     9     1    11
 -1.9405086905405430E-02 a       212     0     9     1    12
 -1.2500715715026468E-02 a       213     0     9     1    13
  5.7493706134202086E-02 a       214     0     9     1    14
  4.3988062779476540E-02 a       215     0     9     1    15
  5.2872193885358659E-02 a       216     0     9     1    16
  8.3344057531434729E-02 a       217     0     9     1    17
 -3.9308033770794039E-02 a       218     0     9     1    18
  1.1475335204669508E-01 a       219     0     9     1    19
 -1.5894726148748969E-02 a       220     0     9     1    20
 -8.4838661988477629E-02 a       221     0     9     1    21
  1.4293548308487042E-01 a       222     0     9     1    22
  2.5744190081046035E-02 a       223     0     9     1    23
 -8.8545346488377558E-02 a       224     0     9     1    24
  5.0231040139690500E-02 a       225     0     9     1    25
 -1.3704142543050996E-01 a       226     0    10     1     1
 -1.2612651754048501E-01 a       227     0    10     1     2
  5.6991048646790603E-02 a       228     0    10     1     3
 -6.3992442107678751E-02 a       229     0    10     1     4
 -9.5403933177556952E-02 a       230     0    10     1     5
  6.6819087496655730E-02 a       231     0    10     1     6
  3.9084549281983579E-02 a       232     0    10     1     7
 -1.3424687140331706E-01 a       233     0    10     1     8
 -4.5816911076725225E-03 a       234     0    10     1     9
 -2.5682141716219058E-02 a       235     0    10     1    10
 -2.3487347692642980E-03 a       236     0    10     1    11
 -1.1569357276601243E-01 a       237     0    10     1    12
  9.7564840240608797E-02 a       238     0    10     1    13
 -3.5487459550878675E-02 a       239     0    10     1    14
  3.9415478179238621E-02 a       240     0    10     1    15
  1.2150653595520257E-01 a       241     0    10     1    16
 -2.5272991270486368E-02 a       242     0    10     1    17
  7.5545993219400698E-02 a       243     0    10     1    18
 -1.8323886632698697E-01 a       244     0    10     1    19
  4.6969788943246535E-02 a       245     0    10     1    20
 -8.7543341193257757E-04 a       246     0    10     1    21
 -3.1000596610632775E-03 a       247     0    10     1    22
  1.1777254333568959E-01 a       248     0    10     1    23
  6.0716206003515677E-03 a       249     0    10     1    24
  1.2084989346767248E-01 a       250     0    10     1    25
 -7.5086155254861522E-02 a       251     0    11     1     1
 -1.5830187035498244E-01 a       252     0    11     1     2
 -5.6749274659834169E-02 a       253     0    11     1     3
  1.3815298941183982E-01 a       254     0    11     1     4
  6.3529888885425254E-02 a       255     0    11     1     5
 -8.1109671052745011E-02 a       256     0    11     1     6
  6.8380496293841450E-02 a       257     0    11     1     7
 -8.5262594860424160E-02 a       258     0    11     1     8
  8.3129707486986393E-02 a       259     0    11     1     9
  6.7072771967449764E-03 a       260     0    11     1    10
 -1.2578299205373719E-01 a       261     0    11     1    11
  1.5462470299630565E-01 a       262     0    11     1    12
 -1.3525980535621471E-02 a       263     0    11     1    13
  3.4468175224267900E-02 a       264     0    11     1    14
 -9.7306625577095684E-02 a       265     0    11     1    15
 -1.3023112297856822E-02 a       266     0    11     1    16
 -5.8451048975207982E-02 a       267     0    11     1    17
 -1.3553834066316128E-01 a       268     0    11     1    18
 -9.7535962257265574E-02 a       269     0    11     1    19
 -1.0861550903019385E-01 a       270     0    11     1    20
  2.3751047694154637E-02 a       271     0    11     1    21
 -1.6144192404707325E-02 a       272     0    11     1    22
  1.0939480077210598E-01 a       273     0    11     1    23
  1.4694013483953869E-01 a       274     0    11     1    24
  3.5090426232132627E-02 a       275     0    11     1    25
  1.9969787453986552E-02 a       276     0    12     1     1
  2.5412153085539530E-02 a       277     0    12     1     2
  1.8374505131183361E-01 a       278     0    12     1     3
 -8.7262144012396806E-02 a       279     0    12     1     4
 -4.6260171164764413E-02 a       280     0    12     1     5
  1.8651652093743684E-02 a       281     0    12     1     6
  1.5385355212549734E-01 a       282     0    12     1     7
 -7.8121357940860628E-02 a       283     0    12     1     8
  1.2515402793743882E-01 a       284     0    12     1     9
  3.7628165176492326E-02 a       285     0    12     1    10
 -9.7620896310182226E-02 a       286     0    12     1    11
  1.2109058319550547E-01 a       287     0    12     1    12
  5.3303101563351822E-03 a       288     0    12     1    13
 -1.5897262995499990E-02 a       289     0    12     1    14
 -8.4271621196923635E-02 a       290     0    12     1    15
  3.7741301501090903E-02 a       291     0    12     1    16
 -9.4386533239503041E-03 a       292     0    12     1    17
 -4.4721941778941271E-01 a       293     0    12     1    18
  1.2328610709742939E-01 a       294     0    12     1    19
 -1.4354810790097206E-01 a       295     0    12     1    20
  3.0804641525948941E-02 a       296     0    12     1    21
  1.9114518467677401E-02 a       297     0    12     1    22
 -2.8373194278334540E-01 a       298     0    12     1    23
  8.3845980352323740E-02 a       299     0    12     1    24
 -2.9245689977776013E-01 a       300     0    12     1    25
 -1.3271844070118863E-01 a       301     0    13     1     1
  2.5137888882548615E-01 a       302     0    13     1     2
 -5.0590160065314110E-02 a       303     0    13     1     3
 -1.5615540141201789E-01 a       304     0    13     1     4
 -4.8335502500957958E-02 a       305     0    13     1     5
 -1.1114170410601597E-01 a       306     0    13     1     6
 -6.0599797648503179E-02 a       307     0    13     1     7
 -1.0669426607464789E-01 a       308     0    13     1     8
 -1.2450299509990839E-01 a       309     0    13     1     9
 -1.2803281453308379E-01 a       310     0    13     1    10
 -9.2239829484347002E-02 a       311     0    13     1    11
 -1.6825452648083802E-01 a       312     0    13     1    12
 -1.0963725273130012E-01 a       313     0    13     1    13
 -7.1035965045458269E-02 a       314     0    13     1    14
 -6.9247198168995383E-02 a       315     0    13     1    15
 -3.8111225141098326E-02 a       316     0    13     1    16
 -4.3409161961220265E-02 a       317     0    13     1    17
 -1.4457415064215431E-01 a       318     0    13     1    18
  8.2804594940188048E-02 a       319     0    13     1    19
 -1.2853310412142735E-01 a       320     0    13     1    20
  1.1748084454068308E-01 a       321     0    13     1    21
  3.1566776355986093E-01 a       322     0    13     1    22
 -2.2795499954667756E-01 a       323     0    13     1    23
 -2.9454196572260130E-02 a       324     0    13     1    24
  1.0316003973216939E-01 a       325     0    13     1    25
  5.3927392147088894E-02 a       326     0    14     1     1
  1.3138110599842839E-01 a       327     0    14     1     2
 -1.0305512633570591E-02 a       328     0    14     1     3
  4.6017450179902615E-02 a       329     0    14     1     4
  1.2986421146014504E-01 a       330     0    14     1     5
  1.5718919730959968E-01 a       331     0    14     1     6
  1.1848452340981367E-02 a       332     0    14     1     7
 -3.9309201149309025E-02 a       333     0    14     1     8
 -1.6950595377642214E-01 a       334     0    14     1     9
 -3.8609457894536653E-02 a       335     0    14     1    10
 -2.1272794632439699E-02 a       336     0    14     1    11
 -1.3665696798591778E-02 a       337     0    14     1    12
 -3.5352924979589501E-02 a       338     0    14     1    13
 -5.6154767149339639E-02 a       339     0    14     1    14
 -1.6496075707873807E-02 a       340     0    14     1    15
  1.0430261086499590E-01 a       341     0    14     1    16
 -1.6596802704388580E-01 a       342     0    14     1    17
 -8.7201876582046853E-02 a       343     0    14     1    18
  1.2392006408773878E-01 a       344     0    14     1    19
  6.8529037194078560E-02 a       345     0    14     1    20
  1.7467420303933856E-01 a       346     0    14     1    21
  7.7089514070419460E-02 a       347     0    14     1    22
 -1.2501847020789425E-01 a       348     0    14     1    23
 -1.8124263307977721E-02 a       349     0    14     1    24
 -1.2974248397359263E-02 a       350     0    14     1    25
 -2.8501915848370564E-02 a       351     0    15     1     1
 -6.0124226986630898E-02 a       352     0    15     1     2
  8.7705898870031079E-02 a       353     0    15     1     3
  9.9877997803305668E-02 a       354     0    15     1     4
  8.0907442533856802E-02 a       355     0    15     1     5
  1.6402987428816479E-01 a       356     0    15     1     6
  1.2105498120851639E-01 a       357     0    15     1     7
  5.6953700748104991E-02 a       358     0    15     1     8
  2.1864491861315928E-02 a       359     0    15     1     9
  7.5040005103366517E-02 a       360     0    15     1    10
  5.8894772175130228E-02 a       361     0    15     1    11
  1.0105990155373094E-01 a       362     0    15     1    12
  1.6968024542699269E-02 a       363     0    15     1    13
  7.9476177618671498E-02 a       364     0    15     1    14
  1.0933420253443368E-01 a       365     0    15     1    15
  6.7111097156032903E-02 a       366     0    15     1    16
  9.1633351138151728E-02 a       367     0    15     1    17
 -3.5600581197925817E-03 a       368     0    15     1    18
  1.8948669627014060E-02 a       369     0    15     1    19
  1.2433516180325244E-01 a       370     0    15     1    20
 -1.4491906020232204E-01 a       371     0    15     1    21
 -3.1290912300668584E-02 a       372     0    15     1    22
 -1.1304149270346221E-02 a       373     0    15     1    23
 -1.0083597812147467E-01 a       374     0    15     1    24
 -1.0677798881916264E-02 a       375     0    15     1    25
  1.9242133966711128E-01 a       376     0    16     1     1
  1.0424534747815887E-02 a       377     0    16     1     2
  8.7801203940957584E-03 a       378     0    16     1     3
 -4.7931390596844051E-02 a       379     0    16     1     4
  8.5183513724777213E-02 a       380     0    16     1     5
  1.1943412818423887E-01 a       381     0    16     1     6
 -2.3607871156412732E-02 a       382     0    16     1     7
 -4.7850068069363955E-02 a       383     0    16     1     8
  3.5046309226171685E-01 a       384     0    16     1     9
 -1.3895893856343813E-01 a       385     0    16     1    10
  4.0335859193359150E-02 a       386     0    16     1    11
 -1.1597598735880187E-01 a       387     0    16     1    12
 -1.0618346304159539E-01 a       388     0    16     1    13
 -7.3073691260683721E-02 a       389     0    16     1    14
 -2.9491830382605642E-02 a       390     0    16     1    15
  3.8611325570565333E-02 a       391     0    16     1    16
  2.3700410830166657E-01 a       392     0    16     1    17
  3.4280822108761259E-02 a       393     0    16     1    18
  3.1361934040226892E-02 a       394     0    16     1    19
 -2.0607071738903922E-02 a       395     0    16     1    20
 -2.2512865315339515E-02 a       396     0    16     1    21
 -9.4247142609899401E-02 a       397     0    16     1    22
  1.7633988034677883E-01 a       398     0    16     1    23
  9.2902461822959026E-02 a       399     0    16     1    24
  1.5409704896492898E-01 a       400     0    16     1    25
 -2.5717292643260320E-01 a       401     0    17     1     1
  6.0604304571569782E-02 a       402     0    17     1     2
  2.2744204704723586E-01 a       403     0    17     1     3
 -1.9575904758747700E-01 a       404     0    17     1     4
  1.3699001305163333E-01 a       405     0    17     1     5
 -3.7986324710736769E-01 a       406     0    17     1     6
  9.1444101100898439E-03 a       407     0    17     1     7
 -1.1772856944372886E-01 a       408     0    17     1     8
 -4.4024585472092265E-01 a       409     0    17     1     9
  1.1762751996230691E-01 a       410     0    17     1    10
 -6.4419922174876715E-02 a       411     0    17     1    11
  8.7956099642697003E-02 a       412     0    17     1    12
  1.5955660223822890E-01 a       413     0    17     1    13
 -6.4854991179469038E-02 a       414     0    17     1    14
  1.7901861839376330E-02 a       415     0    17     1    15
  4.1881206881643783E-02 a       416     0    17     1    16
  8.1758789836671550E-02 a       417     0    17     1    17
 -2.3954883789728182E-01 a       418     0    17     1    18
 -2.3886931182266386E-02 a       419     0    17     1    19
 -3.0726440610229122E-01 a       420     0    17     1    20
  1.9686419944439429E-01 a       421     0    17     1    21
 -1.3353131068786453E-01 a       422     0    17     1    22
 -5.7074717492308080E-02 a       423     0    17     1    23
 -5.8852340339663849E-02 a       424     0    17     1    24
  1.3681329144663520E-01 a       425     0    17     1    25
 -1.5951615012701797E-01 a       426     0    18     1     1
  3.8427769588859337E-02 a       427     0    18     1     2
 -1.0263203849185631E-01 a       428     0    18     1     3
  7.7026872888933021E-02 a       429     0    18     1     4
 -8.5059715289800733E-02 a       430     0    18     1     5
 -3.6787388539105279E-02 a       431     0    18     1     6
  3.0915720264485066E-02 a       432     0    18     1     7
 -1.3192336222821868E-01 a       433     0    18     1     8
 -8.1233239433634950E-03 a       434     0    18     1     9
  2.1186664048063958E-01 a       435     0    18     1    10
  9.5876616537305337E-02 a       436     0    18     1    11
 -3.0679289671501075E-02 a       437     0    18     1    12
  7.7192474896967928E-02 a       438     0    18     1    13
 -1.0422277350365217E-02 a       439     0    18     1    14
 -5.5222403528778920E-02 a       440     0    18     1    15
  5.6008172215349823E-03 a       441     0    18     1    16
 -1.9042398561629578E-01 a       442     0    18     1    17
  2.5336167321553266E-01 a       443     0    18     1    18
 -2.2178678958293584E-02 a       444     0    18     1    19
  3.2365108150191849E-02 a       445     0    18     1    20
  3.8911638611118481E-04 a       446     0    18     1    21
  4.4327914571654650E-02 a       447     0    18     1    22
 -4.6613204090011309E-02 a       448     0    18     1    23
 -7.9505540944824257E-03 a       449     0    18     1    24
 -9.7734980376071284E-02 a       450     0    18     1    25
  8.4202827022411039E-02 a       451     0    19     1     1
 -2.0810152269976356E-01 a       452     0    19     1     2
 -1.0333087725504915E-01 a       453     0    19     1     3
 -5.1541541596265845E-02 a       454     0    19     1     4
  5.4904933082825853E-02 a       455     0    19     1     5
  1.2005518397672811E-01 a       456     0    19     1     6
 -2.6918606356975697E-02 a       457     0    19     1     7
 -1.0225015411201605E-01 a       458     0    19     1     8
 -1.5298664563524952E-01 a       459     0    19     1     9
 -1.8092984975502494E-01 a       460     0    19     1    10
  1.1548475271845748E-01 a       461     0    19     1    11
 -1.0126434651782772E-01 a       462     0    19     1    12
  1.2402061027182812E-01 a       463     0    19     1    13
  6.8580298418744912E-02 a       464     0    19     1    14
 -6.3219965933318231E-02 a       465     0    19     1    15
 -1.6862681879398855E-01 a       466     0    19     1    16
  8.5378082711336886E-02 a       467     0    19     1    17
  1.4153727121369195E-01 a       468     0    19     1    18
  7.9783252244824604E-02 a       469     0    19     1    19
  1.4070077344583046E-01 a       470     0    19     1    20
  6.2397816351128690E-02 a       471     0    19     1    21
 -5.5146107926024888E-02 a       472     0    19     1    22
  5.1932446290778062E-02 a       473     0    19     1    23
 -1.3006063999114478E-01 a       474     0    19     1    24
  1.0755438167195272E-01 a       475     0    19     1    25
 -1.6668755997134249E-01 a       476     0    20     1     1
 -6.6616600026575726E-02 a       477     0    20     1     2
  1.1086799627809962E-01 a       478     0    20     1     3
 -5.3188016968049770E-02 a       479     0    20     1     4
  1.0702450727560563E-01 a       480     0    20     1     5
 -1.1324549391592960E-01 a       481     0    20     1     6
  3.8494277279037172E-04 a       482     0    20     1     7
 -1.7452519392175692E-01 a       483     0    20     1     8
  1.0359665654844689E-02 a       484     0    20     1     9
  1.3125120453464675E-01 a       485     0    20     1    10
 -4.0863495062171046E-02 a       486     0    20     1    11
 -8.8612362395257646E-02 a       487     0    20     1    12
  7.0081150999910871E-02 a       488     0    20     1    13
 -8.6651411854819661E-03 a       489     0    20     1    14
  1.4666955394851511E-01 a       490     0    20     1    15
 -7.0659116592397212E-03 a       491     0    20     1    16
  1.7709992230405600E-01 a       492     0    20     1    17
 -6.0849497834378111E-02 a       493     0    20     1    18
 -7.1131497903722210E-02 a       494     0    20     1    19
 -1.3521742953863822E-01 a       495     0    20     1    20
 -7.1835874636918443E-02 a       496     0    20     1    21
 -1.5155524304558404E-01 a       497     0    20     1    22
  4.0865190544108219E-02 a       498     0    20     1    23
  4.4262021720040873E-02 a       499     0    20     1    24
  1.9908050677604652E-03 a       500     0    20     1    25
 -1.1529191322035008E-01 a       501     0    21     1     1
 -2.6061731456069920E-01 a       502     0    21     1     2
  1.0278537406250284E-01 a       503     0    21     1     3
  8.5108777669115759E-03 a       504     0    21     1     4
 -6.5807352997143104E-02 a       505     0    21     1     5
  1.1683491697439373E-01 a       506     0    21     1     6
 -1.7089573483865803E-01 a       507     0    21     1     7
  3.7509379104515905E-02 a       508     0    21     1     8
  3.4687639388351071E-01 a       509     0    21     1     9
  4.9768961217371822E-02 a       510     0    21     1    10
 -4.8730113479194169E-02 a       511     0    21     1    11
 -1.2211671222034767E-01 a       512     0    21     1    12
 -4.0684319984903981E-02 a       513     0    21     1    13
  1.7181779930711116E-01 a       514     0    21     1    14
  1.1950103285603124E-01 a       515     0    21     1    15
 -1.0672505516773462E-01 a       516     0    21     1    16
 -1.0275120530490127E-01 a       517     0    21     1    17
 -3.2267275438806475E-02 a       518     0    21     1    18
 -1.2561575002737807E-01 a       519     0    21     1    19
  5.5845155880647326E-02 a       520     0    21     1    20
 -3.0895769361172798E-01 a       521     0    21     1    21
 -1.8246539353047930E-01 a       522     0    21     1    22
 -2.0292842848732812E-02 a       523     0    21     1    23
 -1.7686119880662396E-01 a       524     0    21     1    24
 -1.8855703879191765E-01 a       525     0    21     1    25
  6.2706921229291973E-02 a       526     0    22     1     1
 -2.9717060899725711E-01 a       527     0    22     1     2
  7.9551290928091850E-02 a       528     0    22     1     3
 -7.6162829529906190E-02 a       529     0    22     1     4
 -5.4202492684364854E-02 a       530     0    22     1     5
 -4.4945286982741819E-02 a       531     0    22     1     6
 -1.2611052707490701E-02 a       532     0    22     1     7
 -6.9123640454128638E-02 a       533     0    22     1     8
  2.8078274474220810E-01 a       534     0    22     1     9
 -2.8776207672382176E-02 a       535     0    22     1    10
 -1.6322675684372116E-02 a       536     0    22     1    11
  1.7305746725717677E-02 a       537     0    22     1    12
 -6.1727965850473458E-02 a       538     0    22     1    13
 -4.6091178308566509E-02 a       539     0    22     1    14
  7.1221642052357800E-02 a       540     0    22     1    15
 -9.0449739967177464E-02 a       541     0    22     1    16
 -1.4972477328927078E-01 a       542     0    22     1    17
 -1.6032326613702522E-01 a       543     0    22     1    18
  8.7547427050374931E-03 a       544     0    22     1    19
 -1.0684554313037570E-01 a       545     0    22     1    20
 -2.1673116275756102E-01 a       546     0    22     1    21
 -1.2928206145209253E-01 a       547     0    22     1    22
  1.7847241718714130E-02 a       548     0    22     1    23
 -2.0119975372873983E-01 a       549     0    22     1    24
  5.5274387984805232E-02 a       550     0    22     1    25
  1.0745305865807760E-01 a       551     0    23     1     1
 -1.0759211364262675E-01 a       552     0    23     1     2
  1.0412810394971642E-01 a       553     0    23     1     3
  3.6206621773364714E-02 a       554     0    23     1     4
  3.1130372695416290E-02 a       555     0    23     1     5
 -1.3207343103580904E-03 a       556     0    23     1     6
 -1.2464454043027391E-01 a       557     0    23     1     7
  1.1359545561351055E-01 a       558     0    23     1     8
  5.0596255473696956E-02 a       559     0    23     1     9
 -4.9347803534957942E-02 a       560     0    23     1    10
  1.2752700337844411E-01 a       561     0    23     1    11
  8.8499084745952333E-02 a       562     0    23     1    12
 -1.5351099799973478E-01 a       563     0    23     1    13
  7.2014590561982644E-02 a       564     0    23     1    14
 -9.9084266354311473E-02 a       565     0    23     1    15
 -2.2534682211578467E-02 a       566     0    23     1    16
  3.9692727383131787E-02 a       567     0    23     1    17
 -1.7168659233656308E-01 a       568     0    23     1    18
 -1.9567236420194270E-01 a       569     0    23     1    19
  1.4865896620250105E-02 a       570     0    23     1    20
 -1.9298942855305465E-01 a       571     0    23     1    21
 -8.1025036705917944E-02 a       572     0    23     1    22
  9.3474646856138668E-02 a       573     0    23     1    23
 -1.3487809819400745E-01 a       574     0    23     1    24
  1.2976767833532005E-01 a       575     0    23     1    25
 -1.3939794460010846E-01 a       576     0    24     1     1
 -1.2647919235178859E-01 a       577     0    24     1     2
  2.4402290854660355E-01 a       578     0    24     1     3
 -9.7042534252795992E-02 a       579     0    24     1     4
 -3.0346966016577048E-02 a       580     0    24     1     5
  1.8236256438867379E-03 a       581     0    24     1     6
 -2.0942386311329230E-02 a       582     0    24     1     7
  1.3371498667395718E-01 a       583     0    24     1     8
 -4.6820974503240562E-02 a       584     0    24     1     9
  3.2535347861263109E-02 a       585     0    24     1    10
  1.4962684494461839E-01 a       586     0    24     1    11
  1.2227580586973333E-02 a       587     0    24     1    12
 -9.9957699611030446E-02 a       588     0    24     1    13
 -1.6218920187615362E-02 a       589     0    24     1    14
 -7.6079447058159430E-02 a       590     0    24     1    15
 -3.7651981810509806E-02 a       591     0    24     1    16
 -1.6479617568890909E-02 a       592     0    24     1    17
 -1.0822973167676769E-01 a       593     0    24     1    18
 -6.0199769325975719E-02 a       594     0    24     1    19
 -6.9846291257842349E-02 a       595     0    24     1    20
 -7.5918906345535553E-02 a       596     0    24     1    21
 -1.6721355169916771E-01 a       597     0    24     1    22
 -9.3613301735390814E-02 a       598     0    24     1    23
 -1.5861371346142888E-01 a       599     0    24     1    24
  2.3979573729982794E-02 a       600     0    24     1    25
  2.8284122737211526E-02 a       601     0    25     1     1
 -4.9157683990197057E-02 a       602     0    25     1     2
  1.6659652485663382E-02 a       603     0    25     1     3
 -8.2076049597859741E-04 a       604     0    25     1     4
 -2.8840933282954467E-03 a       605     0    25     1     5
 -2.3970850085340750E-02 a       606     0    25     1     6
 -1.3205109972120765E-01 a       607     0    25     1     7
  2.0867204483174832E-03 a       608     0    25     1     8
 -4.7951235487464147E-02 a       609     0    25     1     9
  1.5684286105594772E-01 a       610     0    25     1    10
 -1.2031911941367815E-01 a       611     0    25     1    11
  2.3130744464629416E-02 a       612     0    25     1    12
 -1.1625079234128159E-01 a       613     0    25     1    13
  1.0300563745016968E-01 a       614     0    25     1    14
  3.1569563528359865E-02 a       615     0    25     1    15
  2.8977099108956142E-02 a       616     0    25     1    16
  1.4331792743647109E-01 a       617     0    25     1    17
 -9.6261109856705732E-02 a       618     0    25     1    18
  9.8692750893777839E-02 a       619     0    25     1    19
  4.2753926979881403E-02 a       620     0    25     1    20
 -1.4554636743440197E-01 a       621     0    25     1    21
  8.8923504209593482E-02 a       622     0    25     1    22
  8.1771641594857433E-02 a       623     0    25     1    23
  1.9656750098354575E-02 a       624     0    25     1    24
 -1.1913154541935750E-01 a       625     0    25     1    25
 -3.3122639818076220E-02 a       626     0    26     1     1
 -2.1387216764087691E-01 a       627     0    26     1     2
  1.1302576289791050E-01 a       628     0    26     1     3
  8.7761286537181172E-03 a       629     0    26     1     4
 -9.7951775329586974E-02 a       630     0    26     1     5
  4.9913681775819695E-02 a       631     0    26     1     6
 -7.7338181288682858E-03 a       632     0    26     1     7
  2.7854032477357508E-05 a       633     0    26     1     8
 -1.6671383974865195E-01 a       634     0    26     1     9
  5.7808206436695389E-02 a       635     0    26     1    10
 -7.5293329562034592E-02 a       636     0    26     1    11
  9.6617956274655026E-02 a       637     0    26     1    12
 -1.7657426276489193E-02 a       638     0    26     1    13
 -6.8349539295524217E-02 a       639     0    26     1    14
  8.4640140455243984E-02 a       640     0    26     1    15
  1.4667978973342663E-01 a       641     0    26     1    16
  2.8090869087688760E-02 a       642     0    26     1    17
 -9.2916727110878325E-02 a       643     0    26     1    18
 -9.5047645562197428E-02 a       644     0    26     1    19
  1.4495926576309701E-01 a       645     0    26     1    20
  9.8732271938440599E-02 a       646     0    26     1    21
 -6.0865752609862794E-02 a       647     0    26     1    22
 -9.3491125638859057E-02 a       648     0    26     1    23
  8.3520686482773998E-02 a       649     0    26     1    24
  1.3317710664264990E-01 a       650     0    26     1    25
 -1.5057728994136013E-01 a       651     0    27     1     1
 -8.9359571197691459E-02 a       652     0    27     1     2
 -8.7210210678114922E-02 a       653     0    27     1     3
 -3.1913631088691885E-02 a       654     0    27     1     4
 -1.0871183836061829E-02 a       655     0    27     1     5
 -4.4921031388005364E-02 a       656     0    27     1     6
 -1.4070160798526521E-01 a       657     0    27     1     7
 -1.3663709440548863E-01 a       658     0    27     1     8
  6.1410635066347544E-02 a       659     0    27     1     9
  3.3942424201348506E-02 a       660     0    27     1    10
 -6.5983721230496867E-02 a       661     0    27     1    11
 -1.4973501109266324E-01 a       662     0    27     1    12
  1.3344607296009552E-02 a       663     0    27     1    13
  2.6955483224094636E-03 a       664     0    27     1    14
  6.9347283902507925E-02 a       665     0    27     1    15
  7.9645951581204216E-02 a       666     0    27     1    16
  1.8022910078536736E-01 a       667     0    27     1    17
  3.8851831000198345E-02 a       668     0    27     1    18
 -7.4939848741065532E-02 a       669     0    27     1    19
 -3.0842076631724787E-02 a       670     0    27     1    20
 -1.8291512576966479E-01 a       671     0    27     1    21
  7.8661929468746727E-02 a       672     0    27     1    22
 -1.1655962282102512E-01 a       673     0    27     1    23
 -8.7878544339445530E-02 a       674     0    27     1    24
  8.7401591150924815E-02 a       675     0    27     1    25
 -7.7331487879021929E-02 a       676     0    28     1     1
 -1.0040977130014110E-01 a       677     0    28     1     2
  1.7859639059228608E-01 a       678     0    28     1     3
  5.2057985391603355E-02 a       679     0    28     1     4
 -1.0249727109661873E-01 a       680     0    28     1     5
 -1.5842925516638531E-01 a       681     0    28     1     6
  7.0406566433623280E-03 a       682     0    28     1     7
  9.6825762122241893E-02 a       683     0    28     1     8
 -2.3712308593591774E-01 a       684     0    28     1     9
 -8.4191293356993602E-02 a       685     0    28     1    10
 -6.1461684485485626E-02 a       686     0    28     1    11
 -1.3039032516324633E-01 a       687     0    28     1    12
  1.6063030397868416E-01 a       688     0    28     1    13
  4.3271658360756401E-02 a       689     0    28     1    14
  5.2092688103228320E-02 a       690     0    28     1    15
  3.4522670880540431E-02 a       691     0    28     1    16
  8.0116105421776385E-02 a       692     0    28     1    17
  1.3213522222818358E-01 a       693     0    28     1    18
 -1.9161285349078369E-01 a       694     0    28     1    19
  6.0083213245522980E-02 a       695     0    28     1    20
  1.4895840894596460E-01 a       696     0    28     1    21
  1.4309813595226753E-01 a       697     0    28     1    22
 -1.7733503246887167E-01 a       698     0    28     1    23
  1.1298589706101184E-01 a       699     0    28     1    24
  1.2651083456077594E-01 a       700     0    28     1    25
 -1.1241163285327704E-01 a       701     0    29     1     1
 -1.4992303132774731E-01 a       702     0    29     1     2
 -7.0332806515598090E-02 a       703     0    29     1     3
 -1.0803830252989015E-01 a       704     0    29     1     4
  6.1557750920818437E-02 a       705     0    29     1     5
 -7.9283470305261707E-03 a       706     0    29     1     6
 -3.5908975656085723E-02 a       707     0    29     1     7
  1.6027984713154701E-02 a       708     0    29     1     8
  1.7681751157637249E-01 a       709     0    29     1     9
 -4.3650033641771099E-02 a       710     0    29     1    10
  1.3566344744999920E-01 a       711     0    29     1    11
  1.2733151872782724E-04 a       712     0    29     1    12
  1.0883407496989617E-02 a       713     0    29     1    13
 -1.5471955941260471E-01 a       714     0    29     1    14
 -1.3982277259212855E-01 a       715     0    29     1    15
 -1.2338986280356058E-01 a       716     0    29     1    16
  8.6265916255695657E-02 a       717     0    29     1    17
  9.9350661524752762E-02 a       718     0    29     1    18
  5.5052195655021167E-02 a       719     0    29     1    19
  1.2692651403880781E-01 a       720     0    29     1    20
  8.4143421809920474E-02 a       721     0    29     1    21
 -8.9049617385675656E-02 a       722     0    29     1    22
 -4.2905765650811716E-02 a       723     0    29     1    23
  1.3957522114676458E-02 a       724     0    29     1    24
  6.7961941061551179E-02 a       725     0    29     1    25
 -1.3014276682028400E-01 a       726     0    30     1     1
 -4.3095417332253340E-02 a       727     0    30     1     2
 -1.1941019514744369E-01 a       728     0    30     1     3
 -7.5225258418060492E-02 a       729     0    30     1     4
 -5.1892633524980331E-02 a       730     0    30     1     5
 -1.6055869748429433E-01 a       731     0    30     1     6
  5.3947355841781119E-02 a       732     0    30     1     7
  3.3190516731965138E-02 a       733     0    30     1     8
 -8.1890198444897019E-02 a       734     0    30     1     9
  8.5002252027337032E-03 a       735     0    30     1    10
  9.8121047359310112E-02 a       736     0    30     1    11
  1.3038741703246065E-02 a       737     0    30     1    12
  7.2978262523624729E-02 a       738     0    30     1    13
 -1.2352543096203229E-01 a       739     0    30     1    14
  3.5969271945979354E-02 a       740     0    30     1    15
 -5.2619720238324480E-02 a       741     0    30     1    16
  1.6731335572655726E-01 a       742     0    30     1    17
 -1.2514366951765885E-01 a       743     0    30     1    18
 -1.0067135945960295E-01 a       744     0    30     1    19
  6.3526080442807789E-02 a       745     0    30     1    20
  1.0306544548997455E-01 a       746     0    30     1    21
 -3.8946765862179052E-02 a       747     0    30     1    22
 -1.1217556335130655E-01 a       748     0    30     1    23
 -4.7051539076292170E-02 a       749     0    30     1    24
 -8.5701999843718249E-02 a       750     0    30     1    25
  7.5187935873310156E-03 a       751     0    31     1     1
  2.4424599261702137E-02 a       752     0    31     1     2
 -2.7162433533067017E-04 a       753     0    31     1     3
 -9.8381534040030041E-02 a       754     0    31     1     4
 -5.8582676847009636E-02 a       755     0    31     1     5
  1.0396555316596487E-01 a       756     0    31     1     6
  1.3959932433990405E-01 a       757     0    31     1     7
  6.1521176217130658E-02 a       758     0    31     1     8
 -2.1301990972978216E-01 a       759     0    31     1     9
  1.6136081941641756E-01 a       760     0    31     1    10
 -1.3223407100709450E-01 a       761     0    31     1    11
  2.4622631076040256E-03 a       762     0    31     1    12
  2.7783338608116187E-02 a       763     0    31     1    13
  1.3582222834755911E-01 a       764     0    31     1    14
 -8.2005835880018599E-02 a       765     0    31     1    15
 -2.6514717306500311E-02 a       766     0    31     1    16
  2.9561052366839844E-02 a       767     0    31     1    17
 -3.7625469210326452E-02 a       768     0    31     1    18
 -1.8500806135676062E-01 a       769     0    31     1    19
 -2.5807968237098473E-02 a       770     0    31     1    20
 -1.1723518543204609E-01 a       771     0    31     1    21
  2.6564206622318062E-02 a       772     0    31     1    22
 -6.3117936774798447E-02 a       773     0    31     1    23
  9.4114220788467928E-02 a       774     0    31     1    24
  1.2692700680090313E-01 a       775     0    31     1    25
  1.4387859163656291E-01 a       776     0    32     1     1
  1.1124761738889742E-01 a       777     0    32     1     2
  9.4859262576941744E-02 a       778     0    32     1     3
  1.4964270886491038E-01 a       779     0    32     1     4
  1.1241370561022987E-01 a       780     0    32     1     5
 -2.5082428628366078E-02 a       781     0    32     1     6
  4.2575095919161456E-02 a       782     0    32     1     7
  1.3323970910856417E-01 a       783     0    32     1     8
  3.3547328209958455E-02 a       784     0    32     1     9
  1.4413735382958806E-01 a       785     0    32     1    10
 -1.3827457716259495E-01 a       786     0    32     1    11
 -1.1034814590103501E-01 a       787     0    32     1    12
  3.3175861521555772E-03 a       788     0    32     1    13
  1.4182675276465412E-01 a       789     0    32     1    14
  2.3804161318484084E-02 a       790     0    32     1    15
  6.5743782656662877E-02 a       791     0    32     1    16
 -1.4432093116264136E-01 a       792     0    32     1    17
  1.2205480281337036E-01 a       793     0    32     1    18
  9.2240911636815068E-02 a       794     0    32     1    19
 -9.1816916932323328E-02 a       795     0    32     1    20
  1.9323544248951652E-02 a       796     0    32     1    21
  2.7730581052350156E-02 a       797     0    32     1    22
  1.1366550716138425E-01 a       798     0    32     1    23
 -1.1646863992443074E-01 a       799     0    32     1    24
 -1.1554953489967291E-01 a       800     0    32     1    25
  5.8398789140674066E-03 a       801     0    33     1     1
 -1.6292108883979464E-01 a       802     0    33     1     2
  1.1277832716633686E-01 a       803     0    33     1     3
  1.0787495596948551E-01 a       804     0    33     1     4
 -8.2328708966396408E-02 a       805     0    33     1     5
  8.1445846615298759E-02 a       806     0    33     1     6
 -8.0202044115706805E-02 a       807     0    33     1     7
  4.0555338445581443E-02 a       808     0    33     1     8
 -1.2802812284273099E-01 a       809     0    33     1     9
  1.1132449800128974E-01 a       810     0    33     1    10
 -4.9945671090845793E-02 a       811     0    33     1    11
 -2.0957100387566620E-02 a       812     0    33     1    12
  9.7055266508065119E-02 a       813     0    33     1    13
  1.3816595086817762E-01 a       814     0    33     1    14
 -3.8685086528038398E-02 a       815     0    33     1    15
 -1.7276091527097431E-01 a       816     0    33     1    16
 -1.0784398530021427E-02 a       817     0    33     1    17
  6.3897524827654567E-02 a       818     0    33     1    18
 -7.7711629877827898E-02 a       819     0    33     1    19
  5.3717511565077640E-02 a       820     0    33     1    20
 -3.0151562258731476E-03 a       821     0    33     1    21
 -1.3621237455695773E-01 a       822     0    33     1    22
  1.4749709738965720E-02 a       823     0    33     1    23
 -1.3613599700479184E-01 a       824     0    33     1    24
  1.2126030840322259E-01 a       825     0    33     1    25
  3.0130854062207047E-02 a       826     0    34     1     1
  1.1717476512423436E-01 a       827     0    34     1     2
 -1.3618867475465721E-01 a       828     0    34     1     3
  5.9666315992878464E-02 a       829     0    34     1     4
 -1.3984380241679756E-01 a       830     0    34     1     5
  8.7886153626215241E-02 a       831     0    34     1     6
 -1.3710143592378699E-01 a       832     0    34     1     7
  1.6121350686969163E-01 a       833     0    34     1     8
  1.0286900354074799E-01 a       834     0    34     1     9
  8.4261905941982282E-02 a       835     0    34     1    10
 -1.0460703932666053E-01 a       836     0    34     1    11
 -1.3857401895211899E-01 a       837     0    34     1    12
  8.3478879206332443E-02 a       838     0    34     1    13
  5.9359220989139524E-02 a       839     0    34     1    14
  5.9157306784679883E-02 a       840     0    34     1    15
 -3.5073386320595409E-02 a       841     0    34     1    16
  1.1936365272253088E-01 a       842     0    34     1    17
 -1.2215425311623523E-01 a       843     0    34     1    18
  1.0435114497623046E-01 a       844     0    34     1    19
 -1.2347691427903549E-02 a       845     0    34     1    20
 -3.0068926524211725E-02 a       846     0    34     1    21
 -7.1227618304530685E-02 a       847     0    34     1    22
  4.8133600906839547E-02 a       848     0    34     1    23
 -5.9520811997861092E-02 a       849     0    34     1    24
 -5.4708679052525140E-02 a       850     0    34     1    25
  3.7054741060290233E-02 a       851     0    35     1     1
  5.6316106639721440E-02 a       852     0    35     1     2
 -5.7251995787849196E-02 a       853     0    35     1     3
 -1.1196201339758423E-01 a       854     0    35     1     4
  7.1591132276920627E-02 a       855     0    35     1     5
  7.0100880856241055E-02 a       856     0    35     1     6
  5.7817547089124101E-02 a       857     0    35     1     7
 -2.3094152084045236E-02 a       858     0    35     1     8
 -2.7490239558965324E-01 a       859     0    35     1     9
 -6.3072085063581917E-02 a       860     0    35     1    10
  1.1032561613645056E-01 a       861     0    35     1    11
 -7.8975532987517000E-02 a       862     0    35     1    12
 -1.7803890039963072E-01 a       863     0    35     1    13
 -1.5965693437810932E-01 a       864     0    35     1    14
  4.0062731201680413E-02 a       865     0    35     1    15
  3.9801406475378678E-02 a       866     0    35     1    16
  7.6760271408690434E-02 a       867     0    35     1    17
 -2.8953214885593603E-02 a       868     0    35     1    18
  1.3395107417969881E-01 a       869     0    35     1    19
  2.2604823456691303E-01 a       870     0    35     1    20
  4.5760344738597539E-02 a       871     0    35     1    21
 -9.1862902630472643E-02 a       872     0    35     1    22
  1.3410507802922586E-01 a       873     0    35     1    23
  4.7212228221153348E-02 a       874     0    35     1    24
  9.0556007652356024E-02 a       875     0    35     1    25
  1.7727119059752325E-01 a       876     0    36     1     1
 -4.1360784640171240E-02 a       877     0    36     1     2
 -6.9278087785779818E-02 a       878     0    36     1     3
 -7.0014351505524611E-02 a       879     0    36     1     4
 -5.3037222612585380E-02 a       880     0    36     1     5
 -2.9065768561043696E-02 a       881     0    36     1     6
  5.6547566912412993E-02 a       882     0    36     1     7
 -1.2290267288251655E-01 a       883     0    36     1     8
  1.1391711424795229E-02 a       884     0    36     1     9
  1.8689417506761022E-02 a       885     0    36     1    10
  7.6805818380599605E-02 a       886     0    36     1    11
 -3.5420491809711421E-02 a       887     0    36     1    12
  1.2100149778957159E-01 a       888     0    36     1    13
  7.5973611909231922E-02 a       889     0    36     1    14
 -1.9800862941478559E-01 a       890     0    36     1    15
  2.0592505145575846E-01 a       891     0    36     1    16
 -3.7822988951723632E-02 a       892     0    36     1    17
 -9.8011273809753024E-02 a       893     0    36     1    18
  1.4572340526151095E-01 a       894     0    36     1    19
 -5.0162332069430299E-02 a       895     0    36     1    20
  2.8498007473545955E-02 a       896     0    36     1    21
  2.1595721341345819E-01 a       897     0    36     1    22
 -1.2683986580085996E-01 a       898     0    36     1    23
  1.1685617504180592E-02 a       899     0    36     1    24
  5.9999501349598180E-02 a       900     0    36     1    25
  1.1258025184769255E-01 a       901     0    37     1     1
 -2.1803474267717643E-01 a       902     0    37     1     2
  3.2792727197323554E-02 a       903     0    37     1     3
  1.8532251272450981E-01 a       904     0    37     1     4
 -1.3949389678223184E-01 a       905     0    37     1     5
 -7.9286246985147718E-02 a       906     0    37     1     6
 -2.0660932254522502E-01 a       907     0    37     1     7
  9.2788263382899153E-02 a       908     0    37     1     8
 -2.4781302402853184E-01 a       909     0    37     1     9
  1.8144979901974026E-01 a       910     0    37     1    10
 -6.8884520152452666E-02 a       911     0    37     1    11
  1.9668027259197451E-01 a       912     0    37     1    12
 -1.6127591806906871E-01 a       913     0    37     1    13
 -8.4555706109138790E-02 a       914     0    37     1    14
 -2.4983844659281440E-01 a       915     0    37     1    15
 -1.4498053171289743E-01 a       916     0    37     1    16
  1.3211531843988833E-01 a       917     0    37     1    17
  8.0347942864354344E-02 a       918     0    37     1    18
 -9.1314881971450795E-02 a       919     0    37     1    19
  3.4323141886313989E-02 a       920     0    37     1    20
 -1.0912939429101971E-02 a       921     0    37     1    21
 -3.2407572427697234E-02 a       922     0    37     1    22
  1.2041160977958565E-01 a       923     0    37     1    23
  1.2258348468443273E-01 a       924     0    37     1    24
 -1.9467118453582286E-01 a       925     0    37     1    25
  9.0810490108084577E-02 a       926     0    38     1     1
 -4.3159729224276955E-01 a       927     0    38     1     2
 -2.4072691571965319E-02 a       928     0    38     1     3
 -1.5363023784423014E-02 a       929     0    38     1     4
 -1.5171138839827306E-01 a       930     0    38     1     5
  5.8560942364786518E-02 a       931     0    38     1     6
  9.6031082003583505E-03 a       932     0    38     1     7
 -1.1864013840082849E-01 a       933     0    38     1     8
 -1.6837115019326307E-01 a       934     0    38     1     9
  3.2499553051098840E-01 a       935     0    38     1    10
 -2.2322230873904250E-02 a       936     0    38     1    11
  8.2067049969100955E-02 a       937     0    38     1    12
 -9.5034792867246740E-02 a       938     0    38     1    13
 -1.7103628090237100E-01 a       939     0    38     1    14
 -2.7877969047443968E-01 a       940     0    38     1    15
 -1.9994514763969518E-01 a       941     0    38     1    16
  1.9236619123452273E-03 a       942     0    38     1    17
  2.7222524639151519E-01 a       943     0    38     1    18
  1.4193962245111666E-02 a       944     0    38     1    19
  4.7429659793563617E-01 a       945     0    38     1    20
 -3.2367017374342477E-01 a       946     0    38     1    21
 -1.0282467051608551E-03 a       947     0    38     1    22
  5.5521874464481993E-02 a       948     0    38     1    23
  2.1007676258322332E-02 a       949     0    38     1    24
 -1.5308832564100330E-01 a       950     0    38     1    25
 -1.7573417120745916E-01 a       951     0    39     1     1
 -8.5223233696495579E-02 a       952     0    39     1     2
 -9.3129662374492717E-02 a       953     0    39     1     3
  8.4311948342537170E-04 a       954     0    39     1     4
 -3.9070820634722205E-02 a       955     0    39     1     5
 -5.9491127633334390E-02 a       956     0    39     1     6
 -6.3279708052244019E-02 a       957     0    39     1     7
 -1.6457531964741148E-01 a       958     0    39     1     8
 -7.9936407823592820E-02 a       959     0    39     1     9
 -1.5560799555674642E-02 a       960     0    39     1    10
 -7.0348931414583815E-02 a       961     0    39     1    11
  6.9013677095063610E-03 a       962     0    39     1    12
  1.4146903238001171E-01 a       963     0    39     1    13
 -1.0717070219668356E-01 a       964     0    39     1    14
 -2.8887662695456134E-01 a       965     0    39     1    15
  1.0597183372130604E-01 a       966     0    39     1    16
 -7.8429262015718884E-02 a       967     0    39     1    17
 -1.2121674393478611E-01 a       968     0    39     1    18
  7.8522505658472713E-02 a       969     0    39     1    19
 -8.5200838194624359E-02 a       970     0    39     1    20
 -2.6647919553703797E-02 a       971     0    39     1    21
  2.2830393939584565E-01 a       972     0    39     1    22
  1.0352266533398977E-01 a       973     0    39     1    23
  3.1987315522655252E-03 a       974     0    39     1    24
 -8.5399242786678500E-02 a       975     0    39     1    25
 -1.8660885544717915E-03 a       976     0    40     1     1
 -1.2125039621611595E-01 a       977     0    40     1     2
  2.4849931203523579E-03 a       978     0    40     1     3
  1.6738278715880958E-01 a       979     0    40     1     4
  8.7536320265669376E-02 a       980     0    40     1     5
  8.7483028356965448E-02 a       981     0    40     1     6
 -1.1384781796236727E-01 a       982     0    40     1     7
 -1.2336196878903012E-01 a       983     0    40     1     8
  9.8285990021971303E-02 a       984     0    40     1     9
 -1.8453676314298555E-02 a       985     0    40     1    10
 -7.4547271596561854E-02 a       986     0    40     1    11
 -7.9884006898835236E-02 a       987     0    40     1    12
 -1.4838357461846985E-01 a       988     0    40     1    13
  1.2314053414776975E-01 a       989     0    40     1    14
 -1.2679300968974744E-01 a       990     0    40     1    15
  9.8198002046023442E-02 a       991     0    40     1    16
  5.9340910585788442E-02 a       992     0    40     1    17
 -1.6411565627254605E-02 a       993     0    40     1    18
  1.9612753777691458E-01 a       994     0    40     1    19
 -1.5657217202819107E-01 a       995     0    40     1    20
  2.4135232046909871E-02 a       996     0    40     1    21
  1.4813198267053390E-01 a       997     0    40     1    22
  1.4435564245161100E-01 a       998     0    40     1    23
 -3.6315233749790671E-03 a       999     0    40     1    24
  8.8321165572066804E-02 a      1000     0    40     1    25
  1.9172833180570178E-01 a      1001     0    41     1     1
  1.2421881813554604E-01 a      1002     0    41     1     2
 -4.9151960917168343E-02 a      1003     0    41     1     3
  1.8682764006100308E-01 a      1004     0    41     1     4
 -1.0644348694601066E-01 a      1005     0    41     1     5
  1.4225348865371887E-01 a      1006     0    41     1     6
  1.2158855130573264E-02 a      1007     0    41     1     7
 -4.2481909108511968E-02 a      1008     0    41     1     8
 -5.4120370036560575E-02 a      1009     0    41     1     9
 -1.7460104616482033E-02 a      1010     0    41     1    10
 -2.9556473995867034E-02 a      1011     0    41     1    11
 -1.2525382893657705E-02 a      1012     0    41     1    12
 -2.0535027790649821E-02 a      1013     0    41     1    13
  1.7309075909254235E-02 a      1014     0    41     1    14
 -2.3164232734572102E-01 a      1015     0    41     1    15
 -8.4112535762903812E-02 a      1016     0    41     1    16
 -1.1893105124494853E-02 a      1017     0    41     1    17
 -2.4210976059008771E-01 a      1018     0    41     1    18
  5.8751257887749812E-02 a      1019     0    41     1    19
 -1.7652420329704507E-01 a      1020     0    41     1    20
 -5.2281375114804823E-02 a      1021     0    41     1    21
  8.4652237160280530E-02 a      1022     0    41     1    22
 -1.1504097969282835E-01 a      1023     0    41     1    23
 -6.4009383334801592E-02 a      1024     0    41     1    24
 -1.3869502109190276E-01 a      1025     0    41     1    25
  1.5225857701403372E-01 a      1026     0    42     1     1
 -1.9339324508659064E-01 a      1027     0    42     1     2
 -1.5574180573643301E-01 a      1028     0    42     1     3
 -3.3866260079934922E-02 a      1029     0    42     1     4
  1.1314806215182992E-01 a      1030     0    42     1     5
 -2.3916907621683865E-02 a      1031     0    42     1     6
 -1.3980469230723849E-01 a      1032     0    42     1     7
 -1.2501321089796291E-01 a      1033     0    42     1     8
 -1.9139048619128909E-01 a      1034     0    42     1     9
  1.2744572897906775E-01 a      1035     0    42     1    10
  1.0783697780478117E-01 a      1036     0    42     1    11
  2.5678104196484076E-02 a      1037     0    42     1    12
 -4.8606029431615870E-02 a      1038     0    42     1    13
 -4.4027528437425564E-02 a      1039     0    42     1    14
 -1.2764475419912530E-01 a      1040     0    42     1    15
  1.2700775789114860E-01 a      1041     0    42     1    16
  1.4910420017612067E-01 a      1042     0    42     1    17
 -8.3921665968283266E-02 a      1043     0    42     1    18
  1.5982586391368320E-02 a      1044     0    42     1    19
  2.9853389579618284E-01 a      1045     0    42     1    20
 -2.2254065999318690E-01 a      1046     0    42     1    21
 -7.8623621338985150E-02 a      1047     0    42     1    22
  3.8960801622289598E-02 a      1048     0    42     1    23
  1.5717832089148082E-01 a      1049     0    42     1    24
 -9.6627215082113527E-02 a      1050     0    42     1    25
  3.0517735151694661E-02 a      1051     0    43     1     1
 -1.1589739200267921E-01 a      1052     0    43     1     2
  2.9338794756518502E-02 a      1053     0    43     1     3
 -4.1051607631112499E-02 a      1054     0    43     1     4
  1.3460631011549237E-01 a      1055     0    43     1     5
  1.9714459744643922E-01 a      1056     0    43     1     6
 -9.6548568720104991E-02 a      1057     0    43     1     7
  9.0645163593575967E-02 a      1058     0    43     1     8
 -7.2304820472357229E-02 a      1059     0    43     1     9
 -1.1633084518824183E-01 a      1060     0    43     1    10
  7.3441025848655112E-02 a      1061     0    43     1    11
  1.1894188194964410E-01 a      1062     0    43     1    12
  8.0519249380894942E-02 a      1063     0    43     1    13
 -7.8731625768144187E-02 a      1064     0    43     1    14
 -6.7818600791488867E-02 a      1065     0    43     1    15
  1.4931233488255483E-01 a      1066     0    43     1    16
  1.8133787587063027E-01 a      1067     0    43     1    17
 -1.7190518282099412E-01 a      1068     0    43     1    18
  7.2586361729481436E-02 a      1069     0    43     1    19
 -1.9313656871677734E-01 a      1070     0    43     1    20
 -6.3546265690018852E-02 a      1071     0    43     1    21
  1.2067539102484389E-02 a      1072     0    43     1    22
  6.9577217178495798E-02 a      1073     0    43     1    23
  3.7208887036340905E-02 a      1074     0    43     1    24
  5.0996397551359367E-02 a      1075     0    43     1    25
  2.1599481942190141E-01 a      1076     0    44     1     1
 -4.8936061299126303E-02 a      1077     0    44     1     2
  1.9671974171560450E-01 a      1078     0    44     1     3
  8.2735042790530386E-03 a      1079     0    44     1     4
  1.5868487062237394E-01 a      1080     0    44     1     5
  1.6687658738729985E-01 a      1081     0    44     1     6
 -1.0712909244755942E-01 a      1082     0    44     1     7
  1.2696784141475814E-01 a      1083     0    44     1     8
  1.0661300826010119E-01 a      1084     0    44     1     9
  8.2861833545597244E-02 a      1085     0    44     1    10
  1.3729510778764573E-01 a      1086     0    44     1    11
 -7.1852407282526232E-02 a      1087     0    44     1    12
 -1.0899332351633427E-02 a      1088     0    44     1    13
 -9.9547782180910302E-02 a      1089     0    44     1    14
 -1.0331668413314343E-01 a      1090     0    44     1    15
  2.8119017841255339E-02 a      1091     0    44     1    16
  7.6858733759257142E-02 a      1092     0    44     1    17
 -2.0889240527142697E-01 a      1093     0    44     1    18
  1.2744699082116351E-01 a      1094     0    44     1    19
 -1.7737318463028170E-02 a      1095     0    44     1    20
  8.9298771342902997E-02 a      1096     0    44     1    21
 -6.3916641166590999E-03 a      1097     0    44     1    22
 -7.4177433223033169E-03 a      1098     0    44     1    23
  4.9982228961800192E-04 a      1099     0    44     1    24
 -1.1428356427211733E-01 a      1100     0    44     1    25
  1.3834911820980449E-02 a      1101     0    45     1     1
 -9.7867852470680930E-02 a      1102     0    45     1     2
  1.8298938371111004E-01 a      1103     0    45     1     3
 -9.9298774389201094E-02 a      1104     0    45     1     4
  1.7583222647997179E-02 a      1105     0    45     1     5
  1.8553743759091174E-01 a      1106     0    45     1     6
 -5.4145921265335642E-02 a      1107     0    45     1     7
  4.7709877974803583E-02 a      1108     0    45     1     8
 -2.8419325820319905E-02 a      1109     0    45     1     9
 -7.4775612159345070E-02 a      1110     0    45     1    10
 -9.5970241552727611E-02 a      1111     0    45     1    11
 -1.0648255999670285E-01 a      1112     0    45     1    12
  1.3888420334762697E-02 a      1113     0    45     1    13
  6.3861785905082987E-03 a      1114     0    45     1    14
 -8.3532212007955881E-02 a      1115     0    45     1    15
  8.6884290065762759E-02 a      1116     0    45     1    16
  1.1087782635038970E-01 a      1117     0    45     1    17
 -7.8102828780365618E-02 a      1118     0    45     1    18
  9.7883265315099555E-02 a      1119     0    45     1    19
 -1.3957180646997355E-01 a      1120     0    45     1    20
  1.1522252543770291E-01 a      1121     0    45     1    21
  2.5439508140070455E-01 a      1122     0    45     1    22
  1.3266940511080960E-01 a      1123     0    45     1    23
  9.7629635378121429E-02 a      1124     0    45     1    24
  1.8429098201255492E-01 a      1125     0    45     1    25
  9.3783181772734564E-02 a      1126     0    46     1     1
 -1.3685580742424033E-01 a      1127     0    46     1     2
  7.0690918120326074E-02 a      1128     0    46     1     3
  8.7191142667143812E-02 a      1129     0    46     1     4
 -1.5886144978867223E-01 a      1130     0    46     1     5
  5.1957039462308778E-03 a      1131     0    46     1     6
 -5.9666615068980959E-02 a      1132     0    46     1     7
 -1.3429401106199743E-01 a      1133     0    46     1     8
 -9.4098803998078073E-03 a      1134     0    46     1     9
  4.5429260782466285E-02 a      1135     0    46     1    10
 -8.9011813377966723E-02 a      1136     0    46     1    11
 -1.3283605128340295E-01 a      1137     0    46     1    12
 -5.6406698287304505E-02 a      1138     0    46     1    13
 -2.3282130775601213E-02 a      1139     0    46     1    14
 -3.1108588630730925E-02 a      1140     0    46     1    15
 -3.6320067388683264E-02 a      1141     0    46     1    16
 -1.7589221267791161E-01 a      1142     0    46     1    17
  6.4030720798998519E-02 a      1143     0    46     1    18
  8.4828285952441573E-02 a      1144     0    46     1    19
  7.0287825944927843E-02 a      1145     0    46     1    20
 -1.2450173586674249E-03 a      1146     0    46     1    21
 -9.3694555396604415E-02 a      1147     0    46     1    22
 -8.2158470279952406E-02 a      1148     0    46     1    23
 -8.2355499610644048E-02 a      1149     0    46     1    24
 -9.6351975633873779E-02 a      1150     0    46     1    25
  6.2632122154054068E-03 a      1151     0    47     1     1
  8.0141042004271079E-02 a      1152     0    47     1     2
  1.0685549947791056E-01 a      1153     0    47     1     3
  1.5836856609528202E-01 a      1154     0    47     1     4
  1.2915942948715056E-01 a      1155     0    47     1     5
  7.0653743149142648E-02 a      1156     0    47     1     6
  3.7892754304809338E-02 a      1157     0    47     1     7
  6.7448149327122897E-02 a      1158     0    47     1     8
  1.3076586231663140E-01 a      1159     0    47     1     9
 -2.9922395306618207E-02 a      1160     0    47     1    10
 -6.6611925913189152E-02 a      1161     0    47     1    11
 -7.4109957869100407E-02 a      1162     0    47     1    12
 -6.6415866163158255E-02 a      1163     0    47     1    13
 -1.2955604116372507E-01 a      1164     0    47     1    14
 -1.8190894668483243E-01 a      1165     0    47     1    15
  1.4605429930210995E-01 a      1166     0    47     1    16
 -4.8856443717030656E-02 a      1167     0    47     1    17
 -2.4720967148571071E-01 a      1168     0    47     1    18
  2.2455646848192601E-01 a      1169     0    47     1    19
 -1.2550038399791416E-01 a      1170     0    47     1    20
 -1.1979355629427250E-01 a      1171     0    47     1    21
  4.5122706538136839E-02 a      1172     0    47     1    22
  1.2675233352109616E-01 a      1173     0    47     1    23
 -5.8179089770461441E-02 a      1174     0    47     1    24
 -2.3554791686265647E-02 a      1175     0    47     1    25
  1.5961144543223844E-02 a      1176     0    48     1     1
 -1.7224036449417848E-01 a      1177     0    48     1     2
 -9.6741212374382685E-02 a      1178     0    48     1     3
 -6.0401457459283873E-02 a      1179     0    48     1     4
  6.4562862037764526E-02 a      1180     0    48     1     5
  3.7450067771096252E-01 a      1181     0    48     1     6
 -8.7066019997509153E-02 a      1182     0    48     1     7
  9.5249486765053654E-02 a      1183     0    48     1     8
  1.4503481794534850E-01 a      1184     0    48     1     9
 -1.5594793001637763E-01 a      1185     0    48     1    10
  1.8540362021417532E-02 a      1186     0    48     1    11
  6.0963998827366070E-02 a      1187     0    48     1    12
  8.9560576473654382E-02 a      1188     0    48     1    13
 -1.2303447794259155E-01 a      1189     0    48     1    14
  9.2787972409402869E-02 a      1190     0    48     1    15
 -8.3579112314136894E-02 a      1191     0    48     1    16
 -1.3922597621567503E-01 a      1192     0    48     1    17
 -3.8720029517004671E-02 a      1193     0    48     1    18
  5.6416857273178057E-02 a      1194     0    48     1    19
 -5.4210628303869246E-02 a      1195     0    48     1    20
 -5.0359997146268487E-02 a      1196     0    48     1    21
 -2.1830831098330430E-01 a      1197     0    48     1    22
 -4.6971850120325544E-02 a      1198     0    48     1    23
 -6.0662294829929887E-02 a      1199     0    48     1    24
 -5.5331287539855854E-02 a      1200     0    48     1    25
  6.3253165874516029E-02 a      1201     0    49     1     1
  5.8935584721155468E-02 a      1202     0    49     1     2
  9.7054749874829566E-02 a      1203     0    49     1     3
  1.2966161820103175E-02 a      1204     0    49     1     4
  6.5522568821577101E-02 a      1205     0    49     1     5
  1.3015678806775824E-01 a      1206     0    49     1     6
 -1.0250878517021524E-01 a      1207     0    49     1     7
 -1.4448720952877420E-01 a      1208     0    49     1     8
 -1.7074236169247142E-01 a      1209     0    49     1     9
  2.1018488970538823E-01 a      1210     0    49     1    10
  7.0084368527722110E-02 a      1211     0    49     1    11
 -3.4569920070516343E-03 a      1212     0    49     1    12
 -1.1378828119041610E-01 a      1213     0    49     1    13
 -3.8748430391112101E-02 a      1214     0    49     1    14
  9.5431255249208813E-02 a      1215     0    49     1    15
  1.4330749527148828E-01 a      1216     0    49     1    16
  1.7650209470234743E-01 a      1217     0    49     1    17
 -2.0035938648173501E-01 a      1218     0    49     1    18
  7.8420351598622623E-02 a      1219     0    49     1    19
  2.1910889664851027E-01 a      1220     0    49     1    20
 -5.4450698037966358E-02 a      1221     0    49     1    21
 -8.5315861873237753E-02 a      1222     0    49     1    22
 -1.7757333809778214E-01 a      1223     0    49     1    23
  1.1272291903182502E-01 a      1224     0    49     1    24
 -2.2698702963536910E-01 a      1225     0    49     1    25
 -1.4338998832487891E-02 a      1226     0    50     1     1
 -6.6640994522668556E-02 a      1227     0    50     1     2
  1.6926665564548179E-01 a      1228     0    50     1     3
 -1.2755277704449661E-01 a      1229     0    50     1     4
  7.5046542954011947E-02 a      1230     0    50     1     5
  1.3636732745172583E-01 a      1231     0    50     1     6
  1.9282514445582996E-01 a      1232     0    50     1     7
 -5.7728660323996928E-02 a      1233     0    50     1     8
  1.4394234738099235E-01 a      1234     0    50     1     9
  4.8103096869530050E-02 a      1235     0    50     1    10
  2.0049542644847124E-01 a      1236     0    50     1    11
 -2.5429245789080145E-02 a      1237     0    50     1    12
 -1.1576642426142791E-01 a      1238     0    50     1    13
 -1.1680696100497346E-03 a      1239     0    50     1    14
  1.1922985465969824E-01 a      1240     0    50     1    15
  1.2524967990426985E-02 a      1241     0    50     1    16
  8.8364714423398646E-02 a      1242     0    50     1    17
  3.1852318516344333E-02 a      1243     0    50     1    18
 -1.0711216490909492E-01 a      1244     0    50     1    19
 -1.7867604056997158E-01 a      1245     0    50     1    20
 -5.2828649628368661E-02 a      1246     0    50     1    21
  2.0941143853798659E-02 a      1247     0    50     1    22
 -4.0427101216077760E-02 a      1248     0    50     1    23
 -1.2905155158062090E-01 a      1249     0    50     1    24
  6.1323502159015580E-02 a      1250     0    50     1    25
  2.1058062130079225E-01 a      1251     0    51     1     1
 -1.1777545393718396E-01 a      1252     0    51     1     2
 -1.2616654929246188E-01 a      1253     0    51     1     3
  6.0247319914918503E-02 a      1254     0    51     1     4
 -1.7248817077319005E-02 a      1255     0    51     1     5
  1.0365878124176645E-01 a      1256     0    51     1     6
 -1.6741837133486587E-01 a      1257     0    51     1     7
  3.2107806030178557E-02 a      1258     0    51     1     8
 -7.8899058736453948E-03 a      1259     0    51     1     9
 -1.4674867859759039E-02 a      1260     0    51     1    10
 -9.8391067020422093E-02 a      1261     0    51     1    11
  1.1791076207376151E-01 a      1262     0    51     1    12
  9.8337059985133327E-02 a      1263     0    51     1    13
  1.0953270438886217E-01 a      1264     0    51     1    14
 -1.9769476972112043E-01 a      1265     0    51     1    15
  6.4706352970411080E-02 a      1266     0    51     1    16
 -1.7068528324540710E-01 a      1267     0    51     1    17
 -2.9344572895604323E-02 a      1268     0    51     1    18
  1.1809700086291643E-01 a      1269     0    51     1    19
 -1.8460784094618266E-03 a      1270     0    51     1    20
 -4.7359799339885544E-02 a      1271     0    51     1    21
 -9.1153636887752576E-02 a      1272     0    51     1    22
 -4.3620318927567722E-02 a      1273     0    51     1    23
 -8.4502804561539718E-02 a      1274     0    51     1    24
  2.4041652024964708E-02 a      1275     0    51     1    25
  1.3500481407902998E-02 a      1276     0    52     1     1
  5.0827446450629074E-02 a      1277     0    52     1     2
  2.4396498636238814E-02 a      1278     0    52     1     3
  8.3565957512822864E-02 a      1279     0    52     1     4
  4.3140196087023366E-02 a      1280     0    52     1     5
  1.1449746827888098E-01 a      1281     0    52     1     6
 -2.1645309786136235E-01 a      1282     0    52     1     7
  1.7173811803888016E-02 a      1283     0    52     1     8
  2.2510856302721205E-01 a      1284     0    52     1     9
  1.0084980392598104E-02 a      1285     0    52     1    10
  6.9019237372948281E-02 a      1286     0    52     1    11
 -1.2222342226997673E-01 a      1287     0    52     1    12
 -1.9159026987331115E-01 a      1288     0    52     1    13
  6.7106545397639245E-02 a      1289     0    52     1    14
  1.6205449456716828E-01 a      1290     0    52     1    15
 -1.1101180635897423E-01 a      1291     0    52     1    16
 -1.2684931308694691E-01 a      1292     0    52     1    17
 -2.3159911818100945E-01 a      1293     0    52     1    18
  2.8213724799445859E-02 a      1294     0    52     1    19
 -1.5708157654250965E-01 a      1295     0    52     1    20
 -3.2155441034715321E-02 a      1296     0    52     1    21
 -1.7013404423159742E-01 a      1297     0    52     1    22
  3.1850821382408120E-02 a      1298     0    52     1    23
 -9.3152297931967415E-02 a      1299     0    52     1    24
 -6.9780670653301888E-02 a      1300     0    52     1    25
 -6.0767315161091587E-02 a      1301     0    53     1     1
  4.1946119491981565E-01 a      1302     0    53     1     2
  5.3113620963379925E-02 a      1303     0    53     1     3
 -2.1486722388706619E-01 a      1304     0    53     1     4
  3.3712949751300361E-02 a      1305     0    53     1     5
 -2.0244741727494606E-01 a      1306     0    53     1     6
  2.7871426203109517E-01 a      1307     0    53     1     7
 -7.3039550226617900E-02 a      1308     0    53     1     8
 -5.3195831911168068E-01 a      1309     0    53     1     9
  1.2423641059059454E-01 a      1310     0    53     1    10
 -1.5820728995628190E-02 a      1311     0    53     1    11
  7.6776118306036298E-02 a      1312     0    53     1    12
 -1.2549798979953455E-01 a      1313     0    53     1    13
  1.2093647012846227E-01 a      1314     0    53     1    14
  1.7716576884326088E-01 a      1315     0    53     1    15
  2.0952080581206442E-02 a      1316     0    53     1    16
  3.0910956085755542E-01 a      1317     0    53     1    17
 -5.2535335868371646E-01 a      1318     0    53     1    18
 -1.1657038688790411E-01 a      1319     0    53     1    19
 -1.2176807022515186E-01 a      1320     0    53     1    20
  2.6514279178876887E-01 a      1321     0    53     1    21
 -1.0560218838273600E-02 a      1322     0    53     1    22
 -2.5661814309247621E-01 a      1323     0    53     1    23
  5.6401874368143867E-02 a      1324     0    53     1    24
 -1.7369184282486583E-01 a      1325     0    53     1    25
  4.3677205518862033E-02 a      1326     0    54     1     1
 -6.4812701783143620E-02 a      1327     0    54     1     2
 -2.2890238777550052E-03 a      1328     0    54     1     3
  1.1145522965528422E-01 a      1329     0    54     1     4
  8.9219634911152493E-02 a      1330     0    54     1     5
 -8.5976410706712580E-02 a      1331     0    54     1     6
  1.2759888054068019E-01 a      1332     0    54     1     7
  1.3270349939979559E-01 a      1333     0    54     1     8
  1.1175515571527286E-01 a      1334     0    54     1     9
  7.3012016708423458E-02 a      1335     0    54     1    10
 -6.2591413986782571E-02 a      1336     0    54     1    11
  1.4783744678277960E-01 a      1337     0    54     1    12
 -8.7615638833439917E-03 a      1338     0    54     1    13
 -1.1846932661403051E-01 a      1339     0    54     1    14
 -7.6515052514334117E-02 a      1340     0    54     1    15
  1.2154718424770443E-01 a      1341     0    54     1    16
 -4.0951697628017411E-03 a      1342     0    54     1    17
  1.7607102996804368E-02 a      1343     0    54     1    18
  2.3662124936297876E-01 a      1344     0    54     1    19
  1.4674175035147924E-01 a      1345     0    54     1    20
  2.2752079642905289E-02 a      1346     0    54     1    21
 -3.8897211296329559E-02 a      1347     0    54     1    22
  2.1755343217630597E-02 a      1348     0    54     1    23
  2.9065657606316148E-02 a      1349     0    54     1    24
 -1.3342200689207023E-02 a      1350     0    54     1    25
 -1.4635504200121047E-01 a      1351     0    55     1     1
 -6.1301640272992446E-02 a      1352     0    55     1     2
  1.7402538015347205E-01 a      1353     0    55     1     3
  8.0659008891088596E-02 a      1354     0    55     1     4
 -3.3457455372488870E-02 a      1355     0    55     1     5
 -1.1521152748013791E-01 a      1356     0    55     1     6
  1.6159191723333476E-03 a      1357     0    55     1     7
  3.5938985450110213E-02 a      1358     0    55     1     8
  1.6419365725485202E-01 a      1359     0    55     1     9
  3.2525867959251997E-02 a      1360     0    55     1    10
  1.1155030784283676E-01 a      1361     0    55     1    11
 -1.4858033291222025E-01 a      1362     0    55     1    12
 -5.4367809685921455E-02 a      1363     0    55     1    13
  1.2761087192222653E-01 a      1364     0    55     1    14
  1.4404498312209443E-01 a      1365     0    55     1    15
 -8.9552798382444315E-02 a      1366     0    55     1    16
  6.5238258379720443E-02 a      1367     0    55     1    17
 -7.4586731126731753E-02 a      1368     0    55     1    18
  1.3761246411914360E-01 a      1369     0    55     1    19
 -1.8695731874041885E-01 a      1370     0    55     1    20
 -5.1331905392649653E-02 a      1371     0    55     1    21
 -1.5058556184592767E-01 a      1372     0    55     1    22
  9.8817382352011287E-03 a      1373     0    55     1    23
 -1.1967012835373661E-01 a      1374     0    55     1    24
  2.3978150075234982E-02 a      1375     0    55     1    25
  1.4493924181247425E-01 a      1376     0    56     1     1
 -2.4577096269482973E-01 a      1377     0    56     1     2
  1.1009856442193048E-02 a      1378     0    56     1     3
  1.5217866610833311E-01 a      1379     0    56     1     4
 -1.3916192752348480E-01 a      1380     0    56     1     5
  2.1317045131324053E-01 a      1381     0    56     1     6
 -1.2936722717048751E-02 a      1382     0    56     1     7
 -5.6615584129852729E-02 a      1383     0    56     1     8
  2.8117131171751292E-01 a      1384     0    56     1     9
 -4.1354419984867892E-02 a      1385     0    56     1    10
 -7.3449061650170760E-02 a      1386     0    56     1    11
 -3.7374338328498631E-02 a      1387     0    56     1    12
 -8.5157499949499990E-02 a      1388     0    56     1    13
 -4.9836479704973381E-02 a      1389     0    56     1    14
 -1.9144145101621546E-01 a      1390     0    56     1    15
 -1.6601654309915689E-01 a      1391     0    56     1    16
 -8.7883864438417378E-02 a      1392     0    56     1    17
 -5.2967512873564854E-02 a      1393     0    56     1    18
 -6.8381200833952438E-02 a      1394     0    56     1    19
 -1.0904365109698207E-01 a      1395     0    56     1    20
 -1.5996760474597066E-01 a      1396     0    56     1    21
 -5.5169088279637311E-02 a      1397     0    56     1    22
  1.0819891527496588E-01 a      1398     0    56     1    23
  1.1433334952721816E-01 a      1399     0    56     1    24
  5.8065052012741682E-02 a      1400     0    56     1    25
 -2.9040882697838960E-01 a      1401     0    57     1     1
  4.6217859659265547E-03 a      1402     0    57     1     2
 -1.9591398642740569E-02 a      1403     0    57     1     3
  2.9933980870872050E-02 a      1404     0    57     1     4
 -2.4171199802430435E-02 a      1405     0    57     1     5
 -9.0750432063874856E-02 a      1406     0    57     1     6
 -1.4724044591569674E-02 a      1407     0    57     1     7
  1.2841682658719270E-01 a      1408     0    57     1     8
 -6.3287733008095426E-02 a      1409     0    57     1     9
  1.7518758328694378E-01 a      1410     0    57     1    10
 -6.5506801344081100E-02 a      1411     0    57     1    11
 -8.5244070418397336E-02 a      1412     0    57     1    12
 -9.1526188446474227E-02 a      1413     0    57     1    13
  1.3745212524419950E-01 a      1414     0    57     1    14
  9.2056931941738543E-02 a      1415     0    57     1    15
  2.5355800069775093E-02 a      1416     0    57     1    16
  1.1054478893002484E-01 a      1417     0    57     1    17
 -1.6127538977136635E-01 a      1418     0    57     1    18
  6.0508569868268490E-02 a      1419     0    57     1    19
 -1.3231544979707982E-01 a      1420     0    57     1    20
  1.6433038260755012E-01 a      1421     0    57     1    21
 -1.3441230273887750E-01 a      1422     0    57     1    22
  1.0763888837065880E-01 a      1423     0    57     1    23
 -1.1163334326751172E-02 a      1424     0    57     1    24
  1.2264546278790978E-02 a      1425     0    57     1    25
 -9.8617854663018714E-02 a      1426     0    58     1     1
 -3.4850691589155963E-02 a      1427     0    58     1     2
 -1.2895903223854779E-01 a      1428     0    58     1     3
 -1.0091021306616470E-01 a      1429     0    58     1     4
  4.9420392455850733E-02 a      1430     0    58     1     5
 -3.5160686022551665E-02 a      1431     0    58     1     6
 -1.6927536783001088E-03 a      1432     0    58     1     7
  5.0806038873308007E-02 a      1433     0    58     1     8
  3.4208253592472521E-01 a      1434     0    58     1     9
 -3.7124147962445751E-02 a      1435     0    58     1    10
  3.0484235918125196E-02 a      1436     0    58     1    11
  2.7586732985735364E-02 a      1437     0    58     1    12
  5.1947908237846951E-02 a      1438     0    58     1    13
 -1.1798084726117018E-01 a      1439     0    58     1    14
  1.0389379625342272E-01 a      1440     0    58     1    15
 -2.8866024652972271E-02 a      1441     0    58     1    16
 -1.4321045575065602E-01 a      1442     0    58     1    17
 -3.2575524866199409E-03 a      1443     0    58     1    18
 -8.3363959605209967E-02 a      1444     0    58     1    19
 -1.7591179680893002E-01 a      1445     0    58     1    20
  5.9428512172591361E-02 a      1446     0    58     1    21
 -2.2025485194174810E-01 a      1447     0    58     1    22
 -1.1410052557859873E-01 a      1448     0    58     1    23
 -7.1935321948992173E-02 a      1449     0    58     1    24
 -1.8356948824271233E-02 a      1450     0    58     1    25
  1.6873801347135883E-01 a      1451     0    59     1     1
 -1.3029959833599297E-01 a      1452     0    59     1     2
  5.1434731422728294E-02 a      1453     0    59     1     3
  7.7299989991654215E-03 a      1454     0    59     1     4
  5.4575719442240121E-02 a      1455     0    59     1     5
 -4.6487013693312720E-02 a      1456     0    59     1     6
  1.1505666487579265E-01 a      1457     0    59     1     7
 -8.1653350533885324E-02 a      1458     0    59     1     8
  5.0216690704742689E-02 a      1459     0    59     1     9
  4.8377813308735772E-02 a      1460     0    59     1    10
 -7.5096518701705306E-02 a      1461     0    59     1    11
 -5.6477539071211662E-02 a      1462     0    59     1    12
  1.2592556411625722E-01 a      1463     0    59     1    13
  1.4760543095113465E-01 a      1464     0    59     1    14
 -2.0767847955791319E-01 a      1465     0    59     1    15
  1.4444801358530822E-02 a      1466     0    59     1    16
 -6.2377267173176938E-02 a      1467     0    59     1    17
 -1.6317305944094185E-01 a      1468     0    59     1    18
  9.9855050701824599E-02 a      1469     0    59     1    19
  6.5720180132509215E-02 a      1470     0    59     1    20
  2.0486877346770779E-01 a      1471     0    59     1    21
  4.6797323856935968E-02 a      1472     0    59     1    22
  1.2486701944510613E-01 a      1473     0    59     1    23
 -1.1034559139362013E-01 a      1474     0    59     1    24
  1.0457172588199030E-01 a      1475     0    59     1    25
 -1.7508721875256317E-01 a      1476     0    60     1     1
  6.1123924559168386E-01 a      1477     0    60     1     2
  3.4388840590547026E-01 a      1478     0    60     1     3
  3.4396873442631135E-02 a      1479     0    60     1     4
  9.8934975265911468E-03 a      1480     0    60     1     5
 -1.6073961956433272E-01 a      1481     0    60     1     6
  4.0157987980799503E-01 a      1482     0    60     1     7
 -4.2881205435489501E-03 a      1483     0    60     1     8
 -4.0405247977922149E-01 a      1484     0    60     1     9
 -5.7697458284493913E-03 a      1485     0    60     1    10
 -7.2644399124980920E-03 a      1486     0    60     1    11
 -2.2877956368487831E-01 a      1487     0    60     1    12
  6.4281311719793094E-02 a      1488     0    60     1    13
 -6.3002619979744601E-02 a      1489     0    60     1    14
  2.4823149998105221E-01 a      1490     0    60     1    15
  1.0727326500995665E-01 a      1491     0    60     1    16
  2.4209167609876184E-01 a      1492     0    60     1    17
 -7.5262047664549037E-01 a      1493     0    60     1    18
 -3.2720965591398060E-01 a      1494     0    60     1    19
 -2.0465036759714009E-01 a      1495     0    60     1    20
  4.7494398627096324E-01 a      1496     0    60     1    21
  3.6304832357681960E-01 a      1497     0    60     1    22
 -1.6424786292869098E-01 a      1498     0    60     1    23
  4.5040204067459844E-02 a      1499     0    60     1    24
 -1.9115272784480362E-02 a      1500     0    60     1    25
  1.7336713696278336E-01 a      1501     0    61     1     1
 -9.4863625788988978E-02 a      1502     0    61     1     2
 -1.1140507287367259E-01 a      1503     0    61     1     3
  1.9361497114346737E-01 a      1504     0    61     1     4
 -1.6234381458474142E-01 a      1505     0    61     1     5
 -6.9334473944128144E-02 a      1506     0    61     1     6
  1.8132941187189017E-01 a      1507     0    61     1     7
  2.7562157607675310E-02 a      1508     0    61     1     8
 -1.9931272751167019E-03 a      1509     0    61     1     9
  1.7093088511021048E-01 a      1510     0    61     1    10
  2.1025737747304936E-02 a      1511     0    61     1    11
  6.4725091517203071E-02 a      1512     0    61     1    12
  1.5346735806054546E-01 a      1513     0    61     1    13
 -7.3774509870562541E-02 a      1514     0    61     1    14
 -1.8332415672410310E-01 a      1515     0    61     1    15
  1.5946515639327971E-01 a      1516     0    61     1    16
 -7.9499440838936286E-02 a      1517     0    61     1    17
 -6.9366118081702288E-02 a      1518     0    61     1    18
  1.4790658320942668E-01 a      1519     0    61     1    19
 -1.3480326610604745E-02 a      1520     0    61     1    20
  1.7467120604963332E-01 a      1521     0    61     1    21
 -5.2624274182864438E-03 a      1522     0    61     1    22
 -1.1017754975820322E-01 a      1523     0    61     1    23
 -1.2374347369196548E-01 a      1524     0    61     1    24
  2.3173363155275914E-01 a      1525     0    61     1    25
  1.1968649646775929E-02 a      1526     0    62     1     1
 -2.2936628309055587E-01 a      1527     0    62     1     2
 -2.2330213686335318E-01 a      1528     0    62     1     3
 -4.0284434596037332E-02 a      1529     0    62     1     4
 -1.9243473078346496E-02 a      1530     0    62     1     5
 -2.0214626061295211E-02 a      1531     0    62     1     6
 -1.7299749099163717E-01 a      1532     0    62     1     7
 -1.4366516971400059E-01 a      1533     0    62     1     8
  2.5954282925783062E-01 a      1534     0    62     1     9
  1.1998031651881404E-02 a      1535     0    62     1    10
 -4.5171105476123914E-02 a      1536     0    62     1    11
  1.3504655830731266E-01 a      1537     0    62     1    12
  2.1547432009388218E-03 a      1538     0    62     1    13
  4.0340315772335419E-02 a      1539     0    62     1    14
 -1.7506474099698743E-02 a      1540     0    62     1    15
 -6.0031091588639007E-02 a      1541     0    62     1    16
  1.1787918793595913E-01 a      1542     0    62     1    17
  9.5060380445666295E-02 a      1543     0    62     1    18
 -6.7028954355301609E-02 a      1544     0    62     1    19
  1.4192997394838161E-01 a      1545     0    62     1    20
 -9.9528454962014956E-02 a      1546     0    62     1    21
 -5.9792311417338512E-02 a      1547     0    62     1    22
 -8.3463940928610147E-02 a      1548     0    62     1    23
 -1.3982041302999848E-01 a      1549     0    62     1    24
 -1.3430027146077000E-01 a      1550     0    62     1    25
 -4.1627823575172161E-02 a      1551     0    63     1     1
 -8.5611365512565707E-02 a      1552     0    63     1     2
  2.9657201198381656E-02 a      1553     0    63     1     3
  1.0915388571416487E-01 a      1554     0    63     1     4
  1.2388627394780639E-01 a      1555     0    63     1     5
  4.9168267210691605E-02 a      1556     0    63     1     6
  9.0684469535244380E-02 a      1557     0    63     1     7
 -7.1859814482274395E-02 a      1558     0    63     1     8
 -1.4128873196871261E-01 a      1559     0    63     1     9
  1.0373898366121964E-01 a      1560     0    63     1    10
 -7.0764308307065787E-02 a      1561     0    63     1    11
 -5.1944950944521090E-02 a      1562     0    63     1    12
  1.0337004316823940E-01 a      1563     0    63     1    13
  1.4873782634159674E-01 a      1564     0    63     1    14
 -1.1523790307742028E-01 a      1565     0    63     1    15
  1.5372822530550614E-01 a      1566     0    63     1    16
 -6.6471265305667659E-02 a      1567     0    63     1    17
  4.1264366971467403E-02 a      1568     0    63     1    18
  1.3448214504822364E-01 a      1569     0    63     1    19
  1.2584412971600104E-01 a      1570     0    63     1    20
 -6.5906942435154242E-02 a      1571     0    63     1    21
  1.5411386273522878E-01 a      1572     0    63     1    22
 -1.3926941920695396E-01 a      1573     0    63     1    23
 -1.0803855686037463E-01 a      1574     0    63     1    24
 -2.1972834708349789E-02 a      1575     0    63     1    25
  7.1111566514013194E-02 a      1576     0    64     1     1
 -2.7819868760935833E-02 a      1577     0    64     1     2
  8.1202990433207084E-02 a      1578     0    64     1     3
  7.5177046346911677E-02 a      1579     0    64     1     4
  1.4508008470644884E-01 a      1580     0    64     1     5
  1.0432884540188048E-01 a      1581     0    64     1     6
 -1.0785996259393471E-02 a      1582     0    64     1     7
  6.7598078444100054E-02 a      1583     0    64     1     8
  6.9866820589859754E-02 a      1584     0    64     1     9
 -9.5939104576392917E-02 a      1585     0    64     1    10
  1.2940389003825156E-01 a      1586     0    64     1    11
 -8.6336386750593824E-02 a      1587     0    64     1    12
  1.1739772382971640E-01 a      1588     0    64     1    13
 -2.4691339755327332E-02 a      1589     0    64     1    14
  1.1874324867158038E-01 a      1590     0    64     1    15
 -8.9747085320469669E-03 a      1591     0    64     1    16
 -1.5181766632396276E-01 a      1592     0    64     1    17
  1.5620660258632876E-01 a      1593     0    64     1    18
 -4.5945759852889179E-02 a      1594     0    64     1    19
  2.0622575223175066E-02 a      1595     0    64     1    20
 -9.2709113701166052E-02 a      1596     0    64     1    21
 -4.9608222368686290E-02 a      1597     0    64     1    22
 -1.6022806171259021E-02 a      1598     0    64     1    23
  1.5131130170507376E-01 a      1599     0    64     1    24
  6.2440144812039522E-02 a      1600     0    64     1    25
  1.3733672484348342E-01 b      1601     1     1
  1.3938241201559778E-01 b      1602     1     2
 -2.1221539037957635E-01 b      1603     1     3
 -2.6271613583130921E-01 b      1604     1     4
  9.3676534839690878E-02 b      1605     1     5
 -6.5593628859312902E-01 b      1606     1     6
  6.1688128103598594E-01 b      1607     1     7
 -6.1162079134942982E-01 b      1608     1     8
  4.0677654954732945E-01 b      1609     1     9
  2.8119822586667592E-01 b      1610     1    10
  4.0080071603911249E-01 b      1611     1    11
  5.0049449401035029E-01 b      1612     1    12
 -6.3915049957105441E-01 b      1613     1    13
  6.5076137713345722E-02 b      1614     1    14
  4.1319613813308770E-01 b      1615     1    15
  2.0473497420182096E-01 b      1616     1    16
 -2.3647513111199714E-01 b      1617     1    17
  6.2598914046627618E-01 b      1618     1    18
  3.6775454328837837E-01 b      1619     1    19
  5.3653791367225190E-01 b      1620     1    20
 -5.6564416337447232E-01 b      1621     1    21
  6.8762504201045371E-01 b      1622     1    22
  4.0002241362426488E-01 b      1623     1    23
 -6.4820164333976393E-01 b      1624     1    24
 -4.0551283823644435E-01 b      1625     1    25
 -7.1640983377752682E-02 a      1626     1     1     2     1
 -1.8588539048972105E-01 a      1627     1     1     2     2
  7.4497476369307800E-02 a      1628     1     1     2     3
