################################################################################
# Neural network connection values (weights and biases).
################################################################################
# Col  Name       Description
################################################################################
# 1    connection Neural network connection value.
# 2    t          Connection type (a = weight, b = bias).
# 3    index      Index enumerating weights.
# 4    l_s        Starting point layer (end point layer for biases).
# 5    n_s        Starting point neuron in starting layer (end point neuron for biases).
# 6    l_e        End point layer.
# 7    n_e        End point neuron in end layer.
################################################################################
#                      1 2         3     4     5     6     7
#             connection t     index   l_s   n_s   l_e   n_e
############################################################
  1.9041910451329771E-02 a         1     0     1     1     1
  4.8202114928557610E-01 a         2     0     1     1     2
 -1.8409679070375683E-02 a         3     0     1     1     3
 -1.9200908161391256E-01 a         4     0     1     1     4
  9.2576093358083273E-03 a         5     0     1     1     5
  1.2980878725898901E-01 a         6     0     1     1     6
  1.1980641822931140E-01 a         7     0     1     1     7
  4.9484226547681137E-01 a         8     0     1     1     8
  2.8184770776003798E-01 a         9     0     1     1     9
  4.5317593654885593E-03 a        10     0     1     1    10
 -1.9401909459091548E-02 a        11     0     1     1    11
  1.5342231547036780E-01 a        12     0     1     1    12
  4.5565664563857100E-01 a        13     0     1     1    13
  2.6491269754951818E-01 a        14     0     1     1    14
  5.6760249988333422E-01 a        15     0     1     1    15
  1.4177461484468898E-01 a        16     0     1     1    16
  1.5157525749614534E-01 a        17     0     1     1    17
  2.9675842766288824E-01 a        18     0     1     1    18
 -1.3388575350932769E-01 a        19     0     1     1    19
 -4.2393666855761472E-02 a        20     0     1     1    20
  2.9832404731024477E-02 a        21     0     1     1    21
  4.4525187922039794E-01 a        22     0     1     1    22
 -1.6101206735094797E-01 a        23     0     1     1    23
 -4.4729056333077291E-02 a        24     0     1     1    24
 -1.5832967019465136E-01 a        25     0     1     1    25
 -5.7501380378271616E-01 a        26     0     2     1     1
  4.9432818437035442E-01 a        27     0     2     1     2
  6.8705428078037950E-02 a        28     0     2     1     3
  1.1271874732833687E+00 a        29     0     2     1     4
 -3.9052698783671397E-01 a        30     0     2     1     5
  6.9668846779003157E-01 a        31     0     2     1     6
 -1.6931153310239863E-01 a        32     0     2     1     7
  1.7871219435810576E-01 a        33     0     2     1     8
 -3.9367639235859342E-01 a        34     0     2     1     9
 -5.8075382707165923E-01 a        35     0     2     1    10
 -2.1867148765819266E-01 a        36     0     2     1    11
 -3.0158338875347102E-01 a        37     0     2     1    12
  6.3770026877733910E-01 a        38     0     2     1    13
 -1.5405506682091993E-01 a        39     0     2     1    14
 -7.6924995356343021E-02 a        40     0     2     1    15
  1.7324452059417647E-01 a        41     0     2     1    16
  1.9240057143488312E-01 a        42     0     2     1    17
 -2.3703978153629696E-01 a        43     0     2     1    18
 -2.3040621630527894E-01 a        44     0     2     1    19
 -2.4285944229808842E-01 a        45     0     2     1    20
  8.1213898248742944E-01 a        46     0     2     1    21
 -3.9812681908483749E-01 a        47     0     2     1    22
  4.6081119415824490E-01 a        48     0     2     1    23
 -4.4724002232713883E-01 a        49     0     2     1    24
 -1.9849994687554337E-01 a        50     0     2     1    25
  4.9481338803379245E-02 a        51     0     3     1     1
  5.8942316836921349E-01 a        52     0     3     1     2
 -2.5427071957400049E-01 a        53     0     3     1     3
 -3.2691134501058844E-01 a        54     0     3     1     4
 -2.4650993700670469E-02 a        55     0     3     1     5
  2.8702499557339989E-01 a        56     0     3     1     6
  2.2252164635224608E-01 a        57     0     3     1     7
  2.8099537718285522E-01 a        58     0     3     1     8
  8.7169574677137873E-01 a        59     0     3     1     9
  3.5517606821480957E-01 a        60     0     3     1    10
  4.5721544867243991E-01 a        61     0     3     1    11
  4.0915042220769457E-02 a        62     0     3     1    12
  4.3500217184926548E-01 a        63     0     3     1    13
  2.0825755424145548E-01 a        64     0     3     1    14
  8.3615061119660250E-01 a        65     0     3     1    15
  6.5090395389461264E-02 a        66     0     3     1    16
 -4.8430616268006835E-02 a        67     0     3     1    17
  2.8786628714792611E-01 a        68     0     3     1    18
 -2.0884715156661848E-01 a        69     0     3     1    19
  1.4879489443507499E-01 a        70     0     3     1    20
 -5.8543496999538835E-01 a        71     0     3     1    21
  6.3239242308655141E-01 a        72     0     3     1    22
 -2.9301755319542533E-01 a        73     0     3     1    23
  3.2180052871552056E-01 a        74     0     3     1    24
 -6.5377385580553271E-01 a        75     0     3     1    25
  3.0520546246376784E-01 a        76     0     4     1     1
 -3.1187373189034923E-01 a        77     0     4     1     2
  2.5820223188763780E-01 a        78     0     4     1     3
 -7.0236524414631699E-02 a        79     0     4     1     4
 -3.3611584738048950E-01 a        80     0     4     1     5
 -7.4147677174982746E-02 a        81     0     4     1     6
  3.5760349119174084E-02 a        82     0     4     1     7
 -3.1409009266196747E-01 a        83     0     4     1     8
 -3.9336296417737870E-01 a        84     0     4     1     9
  1.1244005403534481E-02 a        85     0     4     1    10
 -7.9022632759016720E-01 a        86     0     4     1    11
  7.3598404081813784E-02 a        87     0     4     1    12
  3.3437247921591084E-01 a        88     0     4     1    13
 -1.0221214640987299E-01 a        89     0     4     1    14
  2.2955483265533044E-01 a        90     0     4     1    15
  1.1392101214585962E-02 a        91     0     4     1    16
 -4.5790541690856884E-01 a        92     0     4     1    17
 -4.4798776058204717E-02 a        93     0     4     1    18
  2.5664185535959805E-01 a        94     0     4     1    19
  2.2462440669481584E-01 a        95     0     4     1    20
 -7.2836426890310710E-02 a        96     0     4     1    21
  3.5743363977706201E-02 a        97     0     4     1    22
 -1.3126221905999164E-01 a        98     0     4     1    23
 -6.7353831864890940E-02 a        99     0     4     1    24
 -1.1999365006339784E-01 a       100     0     4     1    25
  4.4608658177245736E-01 a       101     0     5     1     1
 -4.2579423095120561E-01 a       102     0     5     1     2
 -2.1101604692997218E-02 a       103     0     5     1     3
 -8.9376807896297594E-02 a       104     0     5     1     4
  4.1886328909305354E-01 a       105     0     5     1     5
 -2.3714042775885122E-01 a       106     0     5     1     6
  1.7658521202453958E-01 a       107     0     5     1     7
  2.7909068646079638E-01 a       108     0     5     1     8
 -7.1235810461466348E-02 a       109     0     5     1     9
 -1.9089743557757798E-02 a       110     0     5     1    10
 -4.5998622510938059E-01 a       111     0     5     1    11
  4.4559955671392465E-01 a       112     0     5     1    12
 -1.9897395563277201E-01 a       113     0     5     1    13
  6.5757228802374068E-01 a       114     0     5     1    14
 -5.8222456942850653E-01 a       115     0     5     1    15
  4.9370892663469340E-01 a       116     0     5     1    16
  4.1527496367235278E-01 a       117     0     5     1    17
 -1.1528719563531942E-01 a       118     0     5     1    18
  5.7538172581795846E-02 a       119     0     5     1    19
 -2.0933114779689857E-01 a       120     0     5     1    20
 -2.3192448634772189E-01 a       121     0     5     1    21
  3.4705566717930131E-01 a       122     0     5     1    22
  2.4893396867431899E-01 a       123     0     5     1    23
 -7.7079085780733592E-01 a       124     0     5     1    24
 -3.8929896585553109E-01 a       125     0     5     1    25
  1.7459163392680332E-02 a       126     0     6     1     1
  3.7144155994010591E-01 a       127     0     6     1     2
 -9.3685810249571927E-02 a       128     0     6     1     3
  6.7414940614828278E-02 a       129     0     6     1     4
  7.4366459997734682E-02 a       130     0     6     1     5
 -2.3014644358861452E-02 a       131     0     6     1     6
  1.7667947821508814E-01 a       132     0     6     1     7
  3.4189188564429934E-01 a       133     0     6     1     8
  1.1532099006740831E-01 a       134     0     6     1     9
  1.8161933623819648E-01 a       135     0     6     1    10
  2.7922245057149137E-01 a       136     0     6     1    11
 -3.2971586107887590E-01 a       137     0     6     1    12
 -9.5187571491270967E-02 a       138     0     6     1    13
 -2.6953015645753309E-01 a       139     0     6     1    14
  6.8051226634836137E-01 a       140     0     6     1    15
  3.6363904491670748E-02 a       141     0     6     1    16
 -3.5693352709074960E-01 a       142     0     6     1    17
  6.5641320045064320E-03 a       143     0     6     1    18
  4.4294381015090381E-02 a       144     0     6     1    19
  4.1025079659053421E-01 a       145     0     6     1    20
  1.7186903262508696E-01 a       146     0     6     1    21
 -1.0813860787103328E-01 a       147     0     6     1    22
 -1.5872866362426814E-02 a       148     0     6     1    23
  3.3887285993036975E-01 a       149     0     6     1    24
  1.2433257153252444E-01 a       150     0     6     1    25
  2.5986038266889933E-01 a       151     0     7     1     1
 -4.3006328828134904E-02 a       152     0     7     1     2
  4.5975528995734316E-01 a       153     0     7     1     3
 -8.7347410870337691E-02 a       154     0     7     1     4
  8.2803196976219973E-01 a       155     0     7     1     5
 -8.9963575715927835E-01 a       156     0     7     1     6
  1.9304533211595573E-01 a       157     0     7     1     7
  3.4495840508928188E-01 a       158     0     7     1     8
 -1.0225335219159918E-02 a       159     0     7     1     9
  6.2474739868071072E-01 a       160     0     7     1    10
 -2.0419268432084281E-01 a       161     0     7     1    11
 -3.7968383192677146E-01 a       162     0     7     1    12
  2.5066675304887270E-01 a       163     0     7     1    13
 -6.6978301830381315E-01 a       164     0     7     1    14
  4.9216650219359059E-01 a       165     0     7     1    15
  1.4522901467911378E-01 a       166     0     7     1    16
 -5.2466256252020238E-01 a       167     0     7     1    17
  6.4402022459376751E-01 a       168     0     7     1    18
  2.6790621199983389E-01 a       169     0     7     1    19
  2.5189419700985227E-01 a       170     0     7     1    20
  2.1643138413728064E-01 a       171     0     7     1    21
  5.6617126203331314E-02 a       172     0     7     1    22
  4.7202706860100391E-03 a       173     0     7     1    23
  3.7873111345302968E-01 a       174     0     7     1    24
 -9.8938095787021285E-02 a       175     0     7     1    25
  1.1928589685113568E-01 a       176     0     8     1     1
 -4.7732360937899254E-01 a       177     0     8     1     2
 -2.9209813420803804E-01 a       178     0     8     1     3
  5.6706372594116083E-01 a       179     0     8     1     4
 -8.6382484086245048E-01 a       180     0     8     1     5
  9.1199135543624277E-01 a       181     0     8     1     6
 -1.4487696320274432E-01 a       182     0     8     1     7
 -6.6068861998171802E-02 a       183     0     8     1     8
  2.1922139805275614E-01 a       184     0     8     1     9
 -5.9675930217304074E-01 a       185     0     8     1    10
  3.9919183656855432E-03 a       186     0     8     1    11
 -4.6894029621770955E-01 a       187     0     8     1    12
 -6.3974492770917235E-01 a       188     0     8     1    13
 -1.3047701082452876E-01 a       189     0     8     1    14
 -1.0072050882035671E-01 a       190     0     8     1    15
  4.3018214584839454E-01 a       191     0     8     1    16
  1.8335447912567326E-01 a       192     0     8     1    17
 -5.5888340421927696E-01 a       193     0     8     1    18
  6.2125701433987005E-02 a       194     0     8     1    19
 -7.0477852105307714E-01 a       195     0     8     1    20
  2.3308889969260430E-01 a       196     0     8     1    21
  2.6327469436373457E-01 a       197     0     8     1    22
 -7.3980254762916836E-02 a       198     0     8     1    23
  2.6936800529703275E-01 a       199     0     8     1    24
 -4.5030403418121795E-01 a       200     0     8     1    25
 -1.0582692403402118E-01 a       201     0     9     1     1
  3.2566489709945712E-01 a       202     0     9     1     2
  1.3106762259485084E-02 a       203     0     9     1     3
 -1.5560374087491871E-01 a       204     0     9     1     4
  8.7437115890460111E-03 a       205     0     9     1     5
 -7.5714235252338169E-02 a       206     0     9     1     6
  1.2247553656930915E-01 a       207     0     9     1     7
  1.2819028604059368E-01 a       208     0     9     1     8
 -5.6322582250327491E-02 a       209     0     9     1     9
 -2.8441565159614077E-03 a       210     0     9     1    10
  3.3744782417734370E-01 a       211     0     9     1    11
 -6.2493089630180597E-02 a       212     0     9     1    12
 -9.6087771702780808E-02 a       213     0     9     1    13
  1.2885945538983043E-01 a       214     0     9     1    14
  3.7572295969517708E-02 a       215     0     9     1    15
  4.4315605442395982E-02 a       216     0     9     1    16
 -1.5467016031084175E-03 a       217     0     9     1    17
  2.8118836081958454E-01 a       218     0     9     1    18
  2.6271878928777070E-01 a       219     0     9     1    19
 -2.6641421464070777E-02 a       220     0     9     1    20
  9.6012870412495704E-02 a       221     0     9     1    21
 -1.8644656178325339E-01 a       222     0     9     1    22
 -3.1606205322199848E-01 a       223     0     9     1    23
 -2.0340802066526920E-01 a       224     0     9     1    24
  9.7911496678881084E-03 a       225     0     9     1    25
 -3.9938462281209253E-01 a       226     0    10     1     1
  3.0627788503959857E-01 a       227     0    10     1     2
 -2.5693600031477370E-01 a       228     0    10     1     3
  1.5048919812265790E-02 a       229     0    10     1     4
 -2.4123510932246850E-02 a       230     0    10     1     5
  2.8510510463979966E-01 a       231     0    10     1     6
  2.1852780111510284E-01 a       232     0    10     1     7
  4.5880729471811948E-01 a       233     0    10     1     8
  3.8537495058062826E-01 a       234     0    10     1     9
 -1.6860916213388277E-01 a       235     0    10     1    10
  7.1027055333094635E-01 a       236     0    10     1    11
  5.6472302426539937E-03 a       237     0    10     1    12
  8.0378722033525507E-01 a       238     0    10     1    13
 -2.4419202783309529E-02 a       239     0    10     1    14
  4.0286522477900724E-02 a       240     0    10     1    15
 -4.8216678220835435E-01 a       241     0    10     1    16
 -8.5009659968249551E-03 a       242     0    10     1    17
  3.3767172412574875E-01 a       243     0    10     1    18
 -3.5966740795897283E-02 a       244     0    10     1    19
 -3.0234710016428695E-01 a       245     0    10     1    20
 -6.4534544817451925E-02 a       246     0    10     1    21
 -1.5987531054743834E-02 a       247     0    10     1    22
  1.1414636992869240E-01 a       248     0    10     1    23
  2.6096956426285950E-01 a       249     0    10     1    24
  1.1107923825640565E-02 a       250     0    10     1    25
 -1.0911885977609780E-01 a       251     0    11     1     1
  4.6138323952145432E-01 a       252     0    11     1     2
  4.3360163411568753E-01 a       253     0    11     1     3
  1.3035347440121720E-01 a       254     0    11     1     4
 -6.8738459314654568E-02 a       255     0    11     1     5
  5.8248525610560020E-01 a       256     0    11     1     6
  5.4973926203220880E-01 a       257     0    11     1     7
 -4.7400207432096225E-01 a       258     0    11     1     8
  5.8064910253223534E-01 a       259     0    11     1     9
 -7.4903822075018514E-02 a       260     0    11     1    10
 -4.6852236370475871E-02 a       261     0    11     1    11
 -2.4026574057864017E-01 a       262     0    11     1    12
 -2.5529691888361888E-01 a       263     0    11     1    13
  1.7825733497717172E-01 a       264     0    11     1    14
 -1.1222892315796126E-01 a       265     0    11     1    15
  1.0326957170904866E-01 a       266     0    11     1    16
  3.3675051653389609E-01 a       267     0    11     1    17
 -2.6418380258691487E-01 a       268     0    11     1    18
 -5.5177413842291478E-01 a       269     0    11     1    19
  7.4699158209691918E-02 a       270     0    11     1    20
  9.5395776276050470E-01 a       271     0    11     1    21
  2.7754733157181366E-01 a       272     0    11     1    22
 -4.8576031586423030E-01 a       273     0    11     1    23
 -3.8537240191257000E-01 a       274     0    11     1    24
 -3.3113800487204620E-01 a       275     0    11     1    25
 -1.2284907771029235E-01 a       276     0    12     1     1
  2.3293049887526063E-01 a       277     0    12     1     2
 -2.6046226809482209E-01 a       278     0    12     1     3
 -1.0267180091777168E+00 a       279     0    12     1     4
 -5.2141492799357952E-02 a       280     0    12     1     5
 -3.3934946624050655E-01 a       281     0    12     1     6
  6.6629622565028412E-02 a       282     0    12     1     7
 -3.7175625377703075E-01 a       283     0    12     1     8
 -2.0923024283027317E-01 a       284     0    12     1     9
 -1.0034114378222944E-01 a       285     0    12     1    10
  7.2052625369942280E-02 a       286     0    12     1    11
  2.6634114285540350E-01 a       287     0    12     1    12
  2.7132922544946442E-01 a       288     0    12     1    13
  6.4084561558178499E-01 a       289     0    12     1    14
 -6.2619239017254147E-01 a       290     0    12     1    15
  1.1988767891142128E-02 a       291     0    12     1    16
  2.1973861463160374E-01 a       292     0    12     1    17
  5.7426156023451380E-01 a       293     0    12     1    18
  5.4098311876886318E-01 a       294     0    12     1    19
 -2.2018082810625961E-01 a       295     0    12     1    20
 -1.1326776737970282E-01 a       296     0    12     1    21
 -1.9026500372029378E-01 a       297     0    12     1    22
 -3.3360233162930969E-01 a       298     0    12     1    23
 -1.7666441958108331E-01 a       299     0    12     1    24
 -5.3519709207514032E-02 a       300     0    12     1    25
 -8.7477905829921945E-02 a       301     0    13     1     1
  4.4203259323951821E-01 a       302     0    13     1     2
 -1.5819662067586654E-01 a       303     0    13     1     3
  1.3664384786430028E-01 a       304     0    13     1     4
 -4.0610960465634283E-02 a       305     0    13     1     5
  2.8748770576906885E-01 a       306     0    13     1     6
  3.1874082181412994E-01 a       307     0    13     1     7
  3.6294642292432050E-01 a       308     0    13     1     8
  4.6987710156561208E-01 a       309     0    13     1     9
  4.4780913053588872E-01 a       310     0    13     1    10
  6.1983658146175336E-01 a       311     0    13     1    11
 -4.4827158439653209E-01 a       312     0    13     1    12
 -5.3429303329452817E-02 a       313     0    13     1    13
 -1.5402521607637479E-01 a       314     0    13     1    14
  6.2118542044922254E-01 a       315     0    13     1    15
 -2.8080088537769837E-01 a       316     0    13     1    16
 -2.2192354102363435E-01 a       317     0    13     1    17
  1.2356135323173023E-01 a       318     0    13     1    18
  5.1467342614086996E-02 a       319     0    13     1    19
  3.0488984370408062E-01 a       320     0    13     1    20
  6.1563744369705797E-02 a       321     0    13     1    21
  1.4131639611794869E-01 a       322     0    13     1    22
 -1.0050293612050037E-02 a       323     0    13     1    23
  3.0084052740045819E-01 a       324     0    13     1    24
 -2.1146577897445651E-01 a       325     0    13     1    25
 -2.5225741954611081E-02 a       326     0    14     1     1
  9.0267787840931785E-02 a       327     0    14     1     2
  7.6604694063633461E-02 a       328     0    14     1     3
 -5.9401031832574697E-02 a       329     0    14     1     4
 -6.2477618442805610E-02 a       330     0    14     1     5
  2.5612135479238008E-02 a       331     0    14     1     6
 -2.1353691287778989E-02 a       332     0    14     1     7
  3.3657216327064970E-01 a       333     0    14     1     8
 -8.3645217614970360E-02 a       334     0    14     1     9
  9.8886549181080127E-02 a       335     0    14     1    10
  5.4068160293151172E-03 a       336     0    14     1    11
 -5.5154917249504228E-02 a       337     0    14     1    12
 -9.5086041573921448E-02 a       338     0    14     1    13
 -6.7473878415486757E-02 a       339     0    14     1    14
  2.1567862357680870E-01 a       340     0    14     1    15
  7.2947152595049830E-02 a       341     0    14     1    16
 -9.6515529357234273E-02 a       342     0    14     1    17
 -4.4318114880779358E-02 a       343     0    14     1    18
 -1.5861699378747565E-01 a       344     0    14     1    19
  1.5097461286518565E-01 a       345     0    14     1    20
 -2.5573510507001733E-02 a       346     0    14     1    21
 -1.1516422986868249E-01 a       347     0    14     1    22
 -1.2338904742178240E-02 a       348     0    14     1    23
  1.1140543122876741E-01 a       349     0    14     1    24
  3.1302895700522616E-02 a       350     0    14     1    25
 -4.9243736870988111E-03 a       351     0    15     1     1
  2.3086323355357791E-01 a       352     0    15     1     2
  5.4153337377952172E-02 a       353     0    15     1     3
 -7.0876834641151243E-02 a       354     0    15     1     4
 -1.9824332627915583E-01 a       355     0    15     1     5
  1.4051174235783576E-01 a       356     0    15     1     6
 -1.3341017713186387E-01 a       357     0    15     1     7
  1.9903317581138075E-01 a       358     0    15     1     8
 -1.2702261182524174E-01 a       359     0    15     1     9
 -9.5220831640567046E-03 a       360     0    15     1    10
  5.5398564631957227E-02 a       361     0    15     1    11
 -9.1909007876924520E-02 a       362     0    15     1    12
  2.7095780572401432E-02 a       363     0    15     1    13
  5.2356939358660329E-02 a       364     0    15     1    14
  4.3645556561360949E-01 a       365     0    15     1    15
  4.9743409100508326E-02 a       366     0    15     1    16
  5.7646628770837621E-02 a       367     0    15     1    17
 -1.4384476712123817E-01 a       368     0    15     1    18
 -1.2389616398449578E-01 a       369     0    15     1    19
  3.3885160884372517E-02 a       370     0    15     1    20
 -7.4399298746129813E-02 a       371     0    15     1    21
 -1.8564037199507852E-01 a       372     0    15     1    22
 -1.4924849756558131E-01 a       373     0    15     1    23
 -4.6575119946970708E-02 a       374     0    15     1    24
  1.2229269456449060E-01 a       375     0    15     1    25
  2.1248675797711758E-01 a       376     0    16     1     1
 -4.8259771833681658E-02 a       377     0    16     1     2
  2.4369879006894510E-01 a       378     0    16     1     3
 -1.7054618739416928E-02 a       379     0    16     1     4
  6.0900103943973383E-01 a       380     0    16     1     5
 -6.6215061670187014E-01 a       381     0    16     1     6
  1.6638060547580863E-01 a       382     0    16     1     7
  9.8447041238078542E-02 a       383     0    16     1     8
 -9.6578411621071780E-02 a       384     0    16     1     9
  5.6540088034094704E-01 a       385     0    16     1    10
 -2.0098434987269584E-01 a       386     0    16     1    11
 -1.4408918227174125E-01 a       387     0    16     1    12
  1.8736219395441039E-01 a       388     0    16     1    13
 -4.3040168381870103E-01 a       389     0    16     1    14
 -9.3297119543163554E-02 a       390     0    16     1    15
 -1.6689417951537309E-02 a       391     0    16     1    16
 -2.1593409180344747E-01 a       392     0    16     1    17
  1.5648162561664145E-01 a       393     0    16     1    18
  1.4308662718076082E-01 a       394     0    16     1    19
  3.1692772504196931E-01 a       395     0    16     1    20
 -3.9814511627032839E-02 a       396     0    16     1    21
 -1.9630684919916302E-01 a       397     0    16     1    22
  9.7044819870635610E-02 a       398     0    16     1    23
 -1.1251688523611428E-03 a       399     0    16     1    24
  2.7091639426600193E-02 a       400     0    16     1    25
 -3.7528468461454592E-02 a       401     0    17     1     1
 -1.1568329403954040E-01 a       402     0    17     1     2
 -7.5815388013035667E-02 a       403     0    17     1     3
 -4.3282607936180151E-01 a       404     0    17     1     4
  1.9290495028627536E-01 a       405     0    17     1     5
 -3.0932905419568352E-01 a       406     0    17     1     6
 -9.1541362527225015E-02 a       407     0    17     1     7
 -2.7768997113624488E-01 a       408     0    17     1     8
 -3.8405906070866619E-01 a       409     0    17     1     9
  2.0121475331624339E-01 a       410     0    17     1    10
 -4.8618731041729993E-02 a       411     0    17     1    11
 -1.9251254101623949E-01 a       412     0    17     1    12
 -4.5859561459756759E-01 a       413     0    17     1    13
  2.6820664423339685E-01 a       414     0    17     1    14
 -7.5534096200731149E-02 a       415     0    17     1    15
  3.1755997930707575E-01 a       416     0    17     1    16
  9.4882916523340757E-02 a       417     0    17     1    17
 -1.1139035491445334E-01 a       418     0    17     1    18
  1.3506589275470804E-01 a       419     0    17     1    19
  4.2979492993443869E-01 a       420     0    17     1    20
  1.4815331744564639E-01 a       421     0    17     1    21
 -6.6371373753866580E-01 a       422     0    17     1    22
  1.1786188489868886E-01 a       423     0    17     1    23
 -1.5000107381394467E-02 a       424     0    17     1    24
  1.7752400916598815E-01 a       425     0    17     1    25
 -1.1178305630203669E-01 a       426     0    18     1     1
  2.0970493040520868E-01 a       427     0    18     1     2
 -7.9416542611402741E-02 a       428     0    18     1     3
 -3.6951271193509427E-01 a       429     0    18     1     4
  1.3185044242140154E-01 a       430     0    18     1     5
 -1.3392518360457634E-01 a       431     0    18     1     6
  1.0632715629316548E-02 a       432     0    18     1     7
 -4.1801969670317282E-02 a       433     0    18     1     8
 -1.4010508509393105E-01 a       434     0    18     1     9
  2.4608630918906922E-02 a       435     0    18     1    10
  5.1090665182576170E-02 a       436     0    18     1    11
 -1.0364315898992105E-01 a       437     0    18     1    12
 -2.2738300218052718E-01 a       438     0    18     1    13
  3.6594922476421554E-01 a       439     0    18     1    14
 -1.7070496434459698E-01 a       440     0    18     1    15
  1.6805768735211277E-01 a       441     0    18     1    16
  1.7264384288122339E-01 a       442     0    18     1    17
  6.3714337867351048E-02 a       443     0    18     1    18
  2.0027556909053312E-01 a       444     0    18     1    19
  1.9159727709895441E-01 a       445     0    18     1    20
  1.3339806602700408E-01 a       446     0    18     1    21
 -3.0592404015672531E-01 a       447     0    18     1    22
 -1.7046549478229944E-01 a       448     0    18     1    23
 -6.6169636529328141E-02 a       449     0    18     1    24
 -8.1503061701424795E-02 a       450     0    18     1    25
 -3.8167596519212615E-01 a       451     0    19     1     1
 -5.5468733644420759E-02 a       452     0    19     1     2
  4.0359111682009591E-02 a       453     0    19     1     3
  1.7617669773981678E-01 a       454     0    19     1     4
  5.2498762401614579E-02 a       455     0    19     1     5
  5.3095311824479918E-01 a       456     0    19     1     6
  2.2753682998722538E-01 a       457     0    19     1     7
 -3.0284727355854862E-01 a       458     0    19     1     8
 -5.3149551369366027E-02 a       459     0    19     1     9
 -2.2900904913490241E-02 a       460     0    19     1    10
  1.5768724118575111E-01 a       461     0    19     1    11
  1.9741888764851906E-01 a       462     0    19     1    12
  3.4311241870138365E-01 a       463     0    19     1    13
 -4.0122281079109084E-01 a       464     0    19     1    14
 -2.7043033760465457E-01 a       465     0    19     1    15
  8.4604030381737083E-02 a       466     0    19     1    16
 -1.6431782936673722E-01 a       467     0    19     1    17
  1.6932021938114084E-01 a       468     0    19     1    18
 -1.8512732112033768E-02 a       469     0    19     1    19
  2.8944348916450530E-01 a       470     0    19     1    20
  4.8897858527687674E-02 a       471     0    19     1    21
 -2.4775311799547367E-02 a       472     0    19     1    22
  2.9572645958434945E-01 a       473     0    19     1    23
  1.6267083453429856E-01 a       474     0    19     1    24
  4.3072826405655601E-01 a       475     0    19     1    25
  7.6341374834097031E-02 a       476     0    20     1     1
  2.2105416756159232E-01 a       477     0    20     1     2
  9.5256584865759539E-02 a       478     0    20     1     3
 -4.0375904995630441E-01 a       479     0    20     1     4
 -5.6118509945847876E-02 a       480     0    20     1     5
 -1.2258144774246527E-01 a       481     0    20     1     6
 -1.3547989429796539E-01 a       482     0    20     1     7
 -3.8800745593970409E-01 a       483     0    20     1     8
  5.6764695092558581E-01 a       484     0    20     1     9
 -2.1777190806622135E-01 a       485     0    20     1    10
 -2.3420799893432556E-01 a       486     0    20     1    11
 -2.1289913606489755E-01 a       487     0    20     1    12
 -3.1124704914200280E-01 a       488     0    20     1    13
  1.1247152022228896E-02 a       489     0    20     1    14
  1.0396774296947607E-01 a       490     0    20     1    15
  1.9898964885745130E-01 a       491     0    20     1    16
  2.6007557331805148E-01 a       492     0    20     1    17
 -2.4404655562879053E-02 a       493     0    20     1    18
 -1.4809762871654600E-01 a       494     0    20     1    19
 -2.4294378187486165E-01 a       495     0    20     1    20
 -2.0975671314376343E-01 a       496     0    20     1    21
 -1.7145310583892276E-01 a       497     0    20     1    22
 -3.2329709182447697E-01 a       498     0    20     1    23
 -5.6352494416111287E-01 a       499     0    20     1    24
 -4.7911350603220770E-01 a       500     0    20     1    25
  9.7054015559080109E-02 a       501     0    21     1     1
 -4.6951840253489840E-01 a       502     0    21     1     2
  1.2846746453770524E-01 a       503     0    21     1     3
 -2.1269749361690693E-01 a       504     0    21     1     4
  3.0993086265399772E-01 a       505     0    21     1     5
 -3.5507247841321349E-01 a       506     0    21     1     6
 -4.4387278208885855E-01 a       507     0    21     1     7
 -1.4167129957100696E-01 a       508     0    21     1     8
 -3.2828372759678381E-01 a       509     0    21     1     9
  4.6687270633074623E-02 a       510     0    21     1    10
 -1.1180269672671420E-01 a       511     0    21     1    11
 -4.5866526111624040E-01 a       512     0    21     1    12
 -3.7399690985837170E-01 a       513     0    21     1    13
  3.2279530934777131E-02 a       514     0    21     1    14
 -3.8571015650328465E-02 a       515     0    21     1    15
 -1.2624267718600490E-01 a       516     0    21     1    16
  2.2850863581063474E-01 a       517     0    21     1    17
 -2.6176051175235837E-01 a       518     0    21     1    18
  1.6579754626589373E-02 a       519     0    21     1    19
  1.7590062069194468E-01 a       520     0    21     1    20
  9.3218800105896560E-02 a       521     0    21     1    21
 -4.9575712116174342E-01 a       522     0    21     1    22
  1.8522323668796309E-01 a       523     0    21     1    23
  2.8087672751847537E-01 a       524     0    21     1    24
  3.3336575716047512E-01 a       525     0    21     1    25
 -2.3900277057857650E-01 a       526     0    22     1     1
  6.2394119446816321E-01 a       527     0    22     1     2
 -1.6499993999804696E-01 a       528     0    22     1     3
  3.8320558763649842E-01 a       529     0    22     1     4
 -1.5193883487252063E-02 a       530     0    22     1     5
  9.0926460266492370E-02 a       531     0    22     1     6
  2.9947594896332763E-01 a       532     0    22     1     7
 -3.8401402667323881E-01 a       533     0    22     1     8
 -5.2707268630815429E-02 a       534     0    22     1     9
 -1.9509649430112536E-01 a       535     0    22     1    10
  6.7913706395977247E-01 a       536     0    22     1    11
  1.0807319142508680E-01 a       537     0    22     1    12
 -3.2207069104120190E-01 a       538     0    22     1    13
  2.2045647807794652E-01 a       539     0    22     1    14
 -7.0271110417845717E-01 a       540     0    22     1    15
  1.5730771050410031E-01 a       541     0    22     1    16
 -1.5132594146462366E-01 a       542     0    22     1    17
 -1.3559877058817399E-01 a       543     0    22     1    18
  1.4484909709234814E-01 a       544     0    22     1    19
 -9.0968656478905327E-02 a       545     0    22     1    20
  1.5026922305265239E-01 a       546     0    22     1    21
 -7.7626608767495486E-01 a       547     0    22     1    22
  2.9533108169607802E-02 a       548     0    22     1    23
 -3.7801115985704287E-01 a       549     0    22     1    24
  1.0862558564312313E-01 a       550     0    22     1    25
 -1.8319083084965007E-01 a       551     0    23     1     1
  1.6826243513093725E-02 a       552     0    23     1     2
  1.2018657474769737E-01 a       553     0    23     1     3
 -4.4562296585761768E-01 a       554     0    23     1     4
 -2.0445464610655642E-01 a       555     0    23     1     5
 -1.1060222424000773E-01 a       556     0    23     1     6
 -1.4461671409980312E-01 a       557     0    23     1     7
  2.7574641511175502E-02 a       558     0    23     1     8
 -2.3291351442420588E-01 a       559     0    23     1     9
  5.4511028167207994E-02 a       560     0    23     1    10
 -4.0965917843187968E-02 a       561     0    23     1    11
 -1.8864479280107968E-01 a       562     0    23     1    12
  1.1652098047517151E-01 a       563     0    23     1    13
  4.2721245813280302E-02 a       564     0    23     1    14
 -2.7791089449130291E-01 a       565     0    23     1    15
 -1.6403952707730890E-01 a       566     0    23     1    16
  2.0140457712903637E-01 a       567     0    23     1    17
  1.8833244613124003E-01 a       568     0    23     1    18
  2.9437542324901045E-01 a       569     0    23     1    19
 -5.3168333257116368E-02 a       570     0    23     1    20
  4.6241055438182560E-01 a       571     0    23     1    21
  5.8286775170599714E-02 a       572     0    23     1    22
 -3.5678166806072487E-01 a       573     0    23     1    23
  5.5563896671051709E-02 a       574     0    23     1    24
  1.1192525990075447E-02 a       575     0    23     1    25
  6.4832719135468772E-02 a       576     0    24     1     1
  5.3031700529284143E-01 a       577     0    24     1     2
 -1.6881175432681536E-01 a       578     0    24     1     3
 -5.8523728641001682E-01 a       579     0    24     1     4
 -2.3002809476365977E-04 a       580     0    24     1     5
  1.0337836612890994E-01 a       581     0    24     1     6
  7.9920766949112487E-02 a       582     0    24     1     7
  2.1193079381119906E-01 a       583     0    24     1     8
  5.9122441264071246E-01 a       584     0    24     1     9
  5.8920436642651730E-02 a       585     0    24     1    10
  2.3029140452698778E-02 a       586     0    24     1    11
  4.0659393811939765E-01 a       587     0    24     1    12
  5.9983095649005225E-01 a       588     0    24     1    13
  4.2923893857468381E-01 a       589     0    24     1    14
  4.4851133817392108E-01 a       590     0    24     1    15
  3.4968509282944948E-01 a       591     0    24     1    16
  3.6364007491142825E-01 a       592     0    24     1    17
  2.4337918740853087E-01 a       593     0    24     1    18
 -3.8297275879648862E-01 a       594     0    24     1    19
 -2.0863359405482323E-01 a       595     0    24     1    20
 -6.8822407580779377E-01 a       596     0    24     1    21
  9.7893904752213801E-01 a       597     0    24     1    22
 -1.3652042534790454E-01 a       598     0    24     1    23
 -2.4177868657773208E-01 a       599     0    24     1    24
 -6.9485359830327598E-01 a       600     0    24     1    25
  1.9358237595003627E-01 a       601     0    25     1     1
 -1.8620934190749280E-02 a       602     0    25     1     2
 -6.1561829935510759E-01 a       603     0    25     1     3
  3.1266545564561599E-01 a       604     0    25     1     4
  5.3918463578583697E-01 a       605     0    25     1     5
  8.9050471001882070E-02 a       606     0    25     1     6
  4.6001315945893839E-01 a       607     0    25     1     7
  4.1044040843749530E-01 a       608     0    25     1     8
  7.6859730741715745E-02 a       609     0    25     1     9
  1.2862028788296934E-01 a       610     0    25     1    10
  2.0662640415081834E-01 a       611     0    25     1    11
 -5.4846012132057387E-01 a       612     0    25     1    12
 -9.4208460586695364E-01 a       613     0    25     1    13
 -4.2157499998018316E-01 a       614     0    25     1    14
  3.9736090482530778E-01 a       615     0    25     1    15
 -3.0298126091882187E-02 a       616     0    25     1    16
 -3.9136054646270019E-01 a       617     0    25     1    17
 -1.9173880273823049E-01 a       618     0    25     1    18
  5.1380168471920329E-01 a       619     0    25     1    19
  5.5139051721202526E-01 a       620     0    25     1    20
  3.7907878912083159E-01 a       621     0    25     1    21
 -3.6595338772306957E-01 a       622     0    25     1    22
  3.6903445082310454E-01 a       623     0    25     1    23
  3.0761378736824052E-01 a       624     0    25     1    24
  5.9454742556859175E-01 a       625     0    25     1    25
  2.3696854170541748E-01 a       626     0    26     1     1
 -5.7688394828059697E-01 a       627     0    26     1     2
  9.0128952146016378E-02 a       628     0    26     1     3
  2.1283223072364887E-01 a       629     0    26     1     4
 -1.2089552177694030E+00 a       630     0    26     1     5
  3.0797629022569756E-01 a       631     0    26     1     6
  6.8986835132975238E-02 a       632     0    26     1     7
 -3.5017163610617102E-01 a       633     0    26     1     8
 -3.2766289804825877E-01 a       634     0    26     1     9
 -2.7584083284647865E-01 a       635     0    26     1    10
 -1.1181416912513840E+00 a       636     0    26     1    11
  4.5540416450347249E-01 a       637     0    26     1    12
  6.1613536258383261E-01 a       638     0    26     1    13
  4.5503183689180132E-01 a       639     0    26     1    14
  4.7615955508369845E-01 a       640     0    26     1    15
  3.4697616449279191E-02 a       641     0    26     1    16
 -6.3061352810010263E-01 a       642     0    26     1    17
 -2.7340404705846899E-01 a       643     0    26     1    18
  3.0975445679778746E-01 a       644     0    26     1    19
 -3.1856732649226456E-02 a       645     0    26     1    20
  1.7208592532843814E-01 a       646     0    26     1    21
  4.7319860993646257E-01 a       647     0    26     1    22
 -4.0995892663234629E-01 a       648     0    26     1    23
 -1.1335170035892794E-01 a       649     0    26     1    24
 -3.8817877036667503E-01 a       650     0    26     1    25
  2.5826372116866381E-01 a       651     0    27     1     1
  4.8103939669149576E-01 a       652     0    27     1     2
  8.1262887320596597E-02 a       653     0    27     1     3
  1.4662648547454668E-01 a       654     0    27     1     4
  2.1315233220517682E-01 a       655     0    27     1     5
  4.1908823755409122E-02 a       656     0    27     1     6
  1.5094720077443732E-01 a       657     0    27     1     7
  2.6318959290714250E-01 a       658     0    27     1     8
 -5.2035643369906202E-02 a       659     0    27     1     9
  2.0625163626221402E-01 a       660     0    27     1    10
  5.8844375120914741E-02 a       661     0    27     1    11
  1.1412434241178252E-02 a       662     0    27     1    12
 -8.9514412174422311E-02 a       663     0    27     1    13
  1.1145390799871462E-01 a       664     0    27     1    14
 -5.8272354819198201E-03 a       665     0    27     1    15
 -1.9091834160818669E-01 a       666     0    27     1    16
 -2.0398713425714039E-02 a       667     0    27     1    17
  4.8146653967421016E-02 a       668     0    27     1    18
  5.4350557886165128E-02 a       669     0    27     1    19
  3.4100393849390276E-01 a       670     0    27     1    20
 -9.0935314874223572E-02 a       671     0    27     1    21
  2.3322371821174165E-01 a       672     0    27     1    22
  3.3172141330739827E-02 a       673     0    27     1    23
 -7.2977361099390889E-02 a       674     0    27     1    24
  1.3717168979186845E-02 a       675     0    27     1    25
 -9.2369292545650766E-02 a       676     0    28     1     1
  1.2501842542296898E-01 a       677     0    28     1     2
  3.3386212217420264E-01 a       678     0    28     1     3
  1.8657532299312676E-01 a       679     0    28     1     4
  2.5110439654515604E-01 a       680     0    28     1     5
 -1.7981038518178491E-01 a       681     0    28     1     6
 -2.4812985631382412E-01 a       682     0    28     1     7
 -4.0847349645134567E-01 a       683     0    28     1     8
 -3.5391138624788199E-01 a       684     0    28     1     9
  2.7381764203271286E-01 a       685     0    28     1    10
 -9.3535412324518730E-02 a       686     0    28     1    11
 -1.4839674896580043E-01 a       687     0    28     1    12
  2.7774401402581489E-01 a       688     0    28     1    13
  1.3201699406423367E-01 a       689     0    28     1    14
 -1.8771596602108986E-01 a       690     0    28     1    15
  9.8871553309015800E-02 a       691     0    28     1    16
 -2.9894204890184051E-01 a       692     0    28     1    17
  1.1375474878546213E-01 a       693     0    28     1    18
  3.9985061583513809E-01 a       694     0    28     1    19
  2.7153311605420000E-01 a       695     0    28     1    20
 -5.4470839391335839E-02 a       696     0    28     1    21
 -1.4375310446769438E-01 a       697     0    28     1    22
  1.8886714099020041E-01 a       698     0    28     1    23
 -1.3819203252040813E-01 a       699     0    28     1    24
 -2.5711794613660460E-01 a       700     0    28     1    25
  1.8156606469833234E-01 a       701     0    29     1     1
  2.3161138072281509E-01 a       702     0    29     1     2
  1.3730056906439486E-01 a       703     0    29     1     3
  2.3182407174783884E-02 a       704     0    29     1     4
  1.0365074645248804E-01 a       705     0    29     1     5
  2.0914623661690568E-01 a       706     0    29     1     6
  4.3406273803556897E-02 a       707     0    29     1     7
  1.4267702916849856E-01 a       708     0    29     1     8
 -1.5516990163470492E-02 a       709     0    29     1     9
  1.6487650179052907E-02 a       710     0    29     1    10
  1.0518716692679664E-01 a       711     0    29     1    11
 -1.0761564777958256E-01 a       712     0    29     1    12
  6.9252043429680804E-02 a       713     0    29     1    13
 -3.6918108287385676E-03 a       714     0    29     1    14
  1.7154094310983431E-01 a       715     0    29     1    15
 -5.5509073702656120E-02 a       716     0    29     1    16
  5.4065040921100593E-02 a       717     0    29     1    17
  4.4510856506397821E-03 a       718     0    29     1    18
 -1.7123894222326036E-01 a       719     0    29     1    19
 -1.4098503824317855E-02 a       720     0    29     1    20
 -5.5977464385498221E-02 a       721     0    29     1    21
 -2.5410660881757280E-02 a       722     0    29     1    22
 -1.5977969640692560E-01 a       723     0    29     1    23
  8.9116202367811349E-03 a       724     0    29     1    24
  1.3814691091379977E-01 a       725     0    29     1    25
  2.2175183289994715E-01 a       726     0    30     1     1
 -1.1885896659338716E-02 a       727     0    30     1     2
  8.4308039498117784E-02 a       728     0    30     1     3
 -5.4523135279242026E-02 a       729     0    30     1     4
 -8.1946823531394139E-02 a       730     0    30     1     5
  6.0237046834918380E-02 a       731     0    30     1     6
  7.9828144771096315E-02 a       732     0    30     1     7
  6.5802848357273153E-02 a       733     0    30     1     8
 -4.3672674302795017E-01 a       734     0    30     1     9
  7.9811433614474653E-03 a       735     0    30     1    10
 -3.9416279865901835E-02 a       736     0    30     1    11
 -1.0164409428237171E-01 a       737     0    30     1    12
  6.8244979988035304E-02 a       738     0    30     1    13
  9.0394572632878464E-02 a       739     0    30     1    14
  5.5053623487188258E-02 a       740     0    30     1    15
  6.9942347652153625E-02 a       741     0    30     1    16
 -1.1757449735519951E-01 a       742     0    30     1    17
 -7.5079776148398447E-02 a       743     0    30     1    18
  1.5083429550656688E-01 a       744     0    30     1    19
 -4.4855197133071394E-02 a       745     0    30     1    20
 -7.5289089346798260E-02 a       746     0    30     1    21
 -1.8199109195356285E-02 a       747     0    30     1    22
 -3.1792505065371945E-01 a       748     0    30     1    23
 -1.8085428813375012E-01 a       749     0    30     1    24
  7.2048331696123374E-02 a       750     0    30     1    25
 -1.6251272303209531E-02 a       751     0    31     1     1
 -5.3959047289513833E-02 a       752     0    31     1     2
  9.2746985368096502E-02 a       753     0    31     1     3
  6.2962415463106436E-02 a       754     0    31     1     4
 -7.9974230826962256E-02 a       755     0    31     1     5
  1.4201945385448733E-01 a       756     0    31     1     6
 -2.2202392221782333E-01 a       757     0    31     1     7
 -2.0725225250280457E-01 a       758     0    31     1     8
 -1.3043675494395607E-01 a       759     0    31     1     9
  1.3325167530531559E-01 a       760     0    31     1    10
 -1.4636888264426817E-01 a       761     0    31     1    11
 -1.6253689837136082E-01 a       762     0    31     1    12
  3.5140866890295236E-01 a       763     0    31     1    13
  2.0989490224966767E-01 a       764     0    31     1    14
  2.8810929017535103E-01 a       765     0    31     1    15
  2.1060625158222315E-01 a       766     0    31     1    16
  7.0890621927567246E-02 a       767     0    31     1    17
  9.5646972955888337E-02 a       768     0    31     1    18
 -2.4413848322620982E-01 a       769     0    31     1    19
  9.6480360641300417E-02 a       770     0    31     1    20
 -2.6851285735295938E-01 a       771     0    31     1    21
 -2.3664685975619881E-02 a       772     0    31     1    22
 -5.3180877719794628E-02 a       773     0    31     1    23
 -2.3553497607327326E-01 a       774     0    31     1    24
 -2.5621458234437933E-01 a       775     0    31     1    25
  2.0185562819998629E-01 a       776     0    32     1     1
 -3.5524282636305060E-01 a       777     0    32     1     2
 -1.1291851587620484E-01 a       778     0    32     1     3
 -1.3623871005877361E-01 a       779     0    32     1     4
  3.5141938189386018E-02 a       780     0    32     1     5
  8.7582537018546375E-02 a       781     0    32     1     6
  3.8836229925316670E-02 a       782     0    32     1     7
 -1.1507159759234029E-01 a       783     0    32     1     8
 -2.9207057672174624E-01 a       784     0    32     1     9
  4.4786223238968883E-03 a       785     0    32     1    10
 -4.0032471979011797E-01 a       786     0    32     1    11
  1.6441579022037342E-01 a       787     0    32     1    12
  4.5084577408770771E-01 a       788     0    32     1    13
  3.4348090773331098E-02 a       789     0    32     1    14
 -6.3132611056879884E-01 a       790     0    32     1    15
  2.2865171265756899E-02 a       791     0    32     1    16
  1.8116138037700175E-01 a       792     0    32     1    17
  3.7833752921451948E-02 a       793     0    32     1    18
  4.2841650829539757E-01 a       794     0    32     1    19
  1.2613919407746789E-02 a       795     0    32     1    20
 -5.0246448319729721E-02 a       796     0    32     1    21
  3.5293607389041626E-01 a       797     0    32     1    22
 -9.6147635347178836E-02 a       798     0    32     1    23
  1.1707495550287821E-02 a       799     0    32     1    24
 -7.3778983810313892E-02 a       800     0    32     1    25
 -1.5663361260766388E-02 a       801     0    33     1     1
  4.7486936939391350E-01 a       802     0    33     1     2
  3.0553392945982027E-01 a       803     0    33     1     3
  1.9746322889167855E-01 a       804     0    33     1     4
  9.0479231624840423E-02 a       805     0    33     1     5
 -3.5848755324118847E-01 a       806     0    33     1     6
 -2.1104939316584639E-01 a       807     0    33     1     7
  2.0154761140704781E-02 a       808     0    33     1     8
 -3.9292740289028549E-01 a       809     0    33     1     9
  2.6255831328147755E-01 a       810     0    33     1    10
 -1.0045415826728875E-01 a       811     0    33     1    11
 -1.0595604570630685E-01 a       812     0    33     1    12
 -2.9855398338587785E-01 a       813     0    33     1    13
  2.9602549293349867E-01 a       814     0    33     1    14
 -6.3070649301362278E-03 a       815     0    33     1    15
  1.8506178128599998E-01 a       816     0    33     1    16
 -6.9144660048849699E-02 a       817     0    33     1    17
 -3.0543710467974061E-01 a       818     0    33     1    18
  1.7203023953400828E-01 a       819     0    33     1    19
  2.9767158383579312E-01 a       820     0    33     1    20
 -7.9432137430814942E-01 a       821     0    33     1    21
 -1.6489963108032474E-01 a       822     0    33     1    22
 -9.2856598252508943E-02 a       823     0    33     1    23
  8.3250216750080985E-02 a       824     0    33     1    24
  1.0223827681714005E-01 a       825     0    33     1    25
 -4.0288167469792635E-02 a       826     0    34     1     1
  1.9161073608493595E-01 a       827     0    34     1     2
  9.1727042085444133E-02 a       828     0    34     1     3
  1.7436958591384805E-01 a       829     0    34     1     4
  5.4470597893705369E-02 a       830     0    34     1     5
 -2.0705082041329034E-01 a       831     0    34     1     6
 -1.4771243908129847E-02 a       832     0    34     1     7
 -2.1770470418015211E-01 a       833     0    34     1     8
 -3.4016159105265514E-01 a       834     0    34     1     9
  7.0755348600491624E-02 a       835     0    34     1    10
 -1.2975089641090190E-01 a       836     0    34     1    11
 -3.8376441817897483E-02 a       837     0    34     1    12
  1.3996973914139027E-01 a       838     0    34     1    13
  2.9997983204060696E-01 a       839     0    34     1    14
 -2.0074064852558784E-01 a       840     0    34     1    15
  1.7555951268001410E-01 a       841     0    34     1    16
 -2.3846744244176860E-01 a       842     0    34     1    17
  9.5751006479523393E-02 a       843     0    34     1    18
  2.6054765632645277E-01 a       844     0    34     1    19
  3.5057903889337921E-01 a       845     0    34     1    20
  8.3906422955436988E-02 a       846     0    34     1    21
 -1.3663811368569476E-01 a       847     0    34     1    22
  1.6402781141956474E-01 a       848     0    34     1    23
 -2.8145472675096328E-01 a       849     0    34     1    24
 -2.1048122918910017E-01 a       850     0    34     1    25
 -2.1959626320699716E-01 a       851     0    35     1     1
 -1.8904954879411415E-01 a       852     0    35     1     2
  1.7316520893092111E-01 a       853     0    35     1     3
  2.0672740629053873E-02 a       854     0    35     1     4
 -1.3197440126730089E-01 a       855     0    35     1     5
  1.1797338582474973E-01 a       856     0    35     1     6
 -1.1894723174143711E-01 a       857     0    35     1     7
 -3.3405835908727360E-01 a       858     0    35     1     8
 -1.9800354272867743E-01 a       859     0    35     1     9
 -1.9148046436594895E-01 a       860     0    35     1    10
 -1.5158244415752442E-01 a       861     0    35     1    11
 -8.0406197729142967E-02 a       862     0    35     1    12
  3.2062266966207820E-01 a       863     0    35     1    13
  5.8858234405591014E-02 a       864     0    35     1    14
 -6.3543670673893160E-02 a       865     0    35     1    15
  3.3486978824924479E-01 a       866     0    35     1    16
 -1.5968627695998994E-02 a       867     0    35     1    17
  2.4757767936962974E-01 a       868     0    35     1    18
 -9.5848683443990182E-02 a       869     0    35     1    19
  3.5581602282814956E-02 a       870     0    35     1    20
  4.6468548697623548E-02 a       871     0    35     1    21
 -2.2742000621927411E-01 a       872     0    35     1    22
  1.4479787022960721E-02 a       873     0    35     1    23
 -3.6106524569215315E-01 a       874     0    35     1    24
 -2.8953266729183857E-01 a       875     0    35     1    25
 -9.0762386368845885E-02 a       876     0    36     1     1
 -1.7371882569071784E-01 a       877     0    36     1     2
 -1.7308219527814660E-02 a       878     0    36     1     3
  3.6691489536406087E-02 a       879     0    36     1     4
 -2.2415590894742909E-01 a       880     0    36     1     5
  1.2782628428282491E-01 a       881     0    36     1     6
 -1.0282412889244036E-01 a       882     0    36     1     7
 -1.8921263737794444E-01 a       883     0    36     1     8
 -2.3953531446125420E-01 a       884     0    36     1     9
 -1.6805991890403135E-01 a       885     0    36     1    10
 -1.4739452876740372E-01 a       886     0    36     1    11
  8.0416045423811811E-02 a       887     0    36     1    12
  5.0824557546286153E-01 a       888     0    36     1    13
  6.6165726147763601E-02 a       889     0    36     1    14
 -3.0603821106005888E-02 a       890     0    36     1    15
  3.2658499334729857E-01 a       891     0    36     1    16
  2.5870928782222363E-01 a       892     0    36     1    17
  1.7922545697467279E-01 a       893     0    36     1    18
 -8.7043053483637348E-02 a       894     0    36     1    19
 -1.3722279917837887E-01 a       895     0    36     1    20
 -9.1878633447605371E-03 a       896     0    36     1    21
 -7.3588789356646978E-02 a       897     0    36     1    22
 -7.2105925392951103E-02 a       898     0    36     1    23
 -2.4829450171764805E-01 a       899     0    36     1    24
 -1.5140996413656413E-01 a       900     0    36     1    25
  8.1692670824118574E-02 a       901     0    37     1     1
  3.0437476547904607E-01 a       902     0    37     1     2
 -1.6202783070359075E-02 a       903     0    37     1     3
  6.4910237702968457E-02 a       904     0    37     1     4
  1.4761135717370077E-01 a       905     0    37     1     5
 -8.7058728031093865E-02 a       906     0    37     1     6
  1.4607848295463297E-01 a       907     0    37     1     7
  2.1790054465456304E-01 a       908     0    37     1     8
 -1.2062279749870862E-01 a       909     0    37     1     9
  1.6646283357610456E-02 a       910     0    37     1    10
  1.3664994345884615E-01 a       911     0    37     1    11
  8.2745289774821720E-02 a       912     0    37     1    12
 -1.3298096224458691E-01 a       913     0    37     1    13
  8.4321059371687920E-02 a       914     0    37     1    14
  1.3394530003029914E-01 a       915     0    37     1    15
 -2.8576079727105921E-02 a       916     0    37     1    16
  3.5441729077412130E-02 a       917     0    37     1    17
  1.1373303848588556E-01 a       918     0    37     1    18
  1.1393577643477500E-01 a       919     0    37     1    19
  2.9834552096290984E-01 a       920     0    37     1    20
  1.3375197622672613E-01 a       921     0    37     1    21
 -7.8350306638858683E-02 a       922     0    37     1    22
 -6.9294851668005655E-02 a       923     0    37     1    23
 -1.8285145049838518E-02 a       924     0    37     1    24
 -5.5467924238262280E-02 a       925     0    37     1    25
 -1.4386828202690496E-01 a       926     0    38     1     1
 -3.3705182170240888E-01 a       927     0    38     1     2
 -2.5190004848985054E-02 a       928     0    38     1     3
  9.7791187924969769E-02 a       929     0    38     1     4
 -3.7195715992543499E-01 a       930     0    38     1     5
 -1.2137525646782088E-02 a       931     0    38     1     6
 -8.0390950876946636E-03 a       932     0    38     1     7
  8.4464375381899631E-02 a       933     0    38     1     8
 -1.6249567740578594E-01 a       934     0    38     1     9
 -3.5194816719015048E-01 a       935     0    38     1    10
 -1.4897198380416282E-01 a       936     0    38     1    11
  1.3039866532866817E-01 a       937     0    38     1    12
  7.5679712569240529E-03 a       938     0    38     1    13
  1.7653704465506387E-01 a       939     0    38     1    14
 -3.2297776483079221E-01 a       940     0    38     1    15
  1.6190011347240890E-01 a       941     0    38     1    16
 -8.3218520795555362E-02 a       942     0    38     1    17
 -2.5173144385778754E-02 a       943     0    38     1    18
 -1.2566104374634221E-01 a       944     0    38     1    19
  3.1509697704631723E-01 a       945     0    38     1    20
  4.5138358735893513E-01 a       946     0    38     1    21
 -2.0090320021127286E-01 a       947     0    38     1    22
  2.9263028976805189E-01 a       948     0    38     1    23
 -2.6799613006842271E-01 a       949     0    38     1    24
 -4.2561969589609588E-02 a       950     0    38     1    25
 -2.6693662748470892E-01 a       951     0    39     1     1
 -4.3271180355427941E-01 a       952     0    39     1     2
  4.9514297771595828E-02 a       953     0    39     1     3
  1.1619812005201521E-01 a       954     0    39     1     4
 -4.2660753671203960E-01 a       955     0    39     1     5
  1.9696378403376508E-01 a       956     0    39     1     6
 -2.2615915474361822E-01 a       957     0    39     1     7
 -1.7218077342118007E-01 a       958     0    39     1     8
 -1.1817231306757808E-01 a       959     0    39     1     9
 -4.6483471946843075E-01 a       960     0    39     1    10
 -1.5004506672664522E-01 a       961     0    39     1    11
  7.3395076912981527E-02 a       962     0    39     1    12
  4.2886397509119500E-01 a       963     0    39     1    13
 -1.3952132892989660E-01 a       964     0    39     1    14
 -1.8631498639201813E-01 a       965     0    39     1    15
  3.0002848684301320E-01 a       966     0    39     1    16
  8.6485812082017027E-02 a       967     0    39     1    17
  2.4232826155348414E-02 a       968     0    39     1    18
 -1.6647838022801276E-01 a       969     0    39     1    19
 -2.0457373168071574E-01 a       970     0    39     1    20
  3.4943528535300633E-01 a       971     0    39     1    21
 -1.7182949209809152E-02 a       972     0    39     1    22
  1.8331528701510830E-01 a       973     0    39     1    23
 -3.1356402723798454E-01 a       974     0    39     1    24
 -2.2829257915791959E-01 a       975     0    39     1    25
  1.9330674991066117E-02 a       976     0    40     1     1
  1.3228980789905645E-01 a       977     0    40     1     2
  8.8856756812431659E-02 a       978     0    40     1     3
 -5.8359299108358853E-02 a       979     0    40     1     4
 -1.4806720948043625E-01 a       980     0    40     1     5
  1.4535626042890512E-01 a       981     0    40     1     6
 -8.3116118189734786E-02 a       982     0    40     1     7
 -6.6995176351570665E-02 a       983     0    40     1     8
 -3.2175268982471938E-01 a       984     0    40     1     9
  6.2893789739892778E-02 a       985     0    40     1    10
  1.2310624554944907E-02 a       986     0    40     1    11
 -5.4991241938726725E-02 a       987     0    40     1    12
  4.8067183580710063E-02 a       988     0    40     1    13
  8.7072010457349996E-02 a       989     0    40     1    14
 -1.1095956405917649E-02 a       990     0    40     1    15
 -6.8598595718138228E-02 a       991     0    40     1    16
 -6.6768790167945388E-02 a       992     0    40     1    17
 -9.0383038560999648E-02 a       993     0    40     1    18
  8.4565731722909404E-03 a       994     0    40     1    19
  6.1409899867189290E-02 a       995     0    40     1    20
 -2.8540457549883130E-02 a       996     0    40     1    21
 -1.1294419657430692E-01 a       997     0    40     1    22
 -1.7455302368569711E-01 a       998     0    40     1    23
 -6.9570152940039751E-02 a       999     0    40     1    24
  1.2107156427990856E-01 a      1000     0    40     1    25
  3.1479860122791159E-01 a      1001     0    41     1     1
 -1.9781986285699271E-01 a      1002     0    41     1     2
  7.9472567773857611E-02 a      1003     0    41     1     3
 -7.1902960438043839E-02 a      1004     0    41     1     4
  1.1363839604120761E-01 a      1005     0    41     1     5
  1.0987143673736999E-01 a      1006     0    41     1     6
  1.6117287678949646E-01 a      1007     0    41     1     7
 -3.7837078876466329E-01 a      1008     0    41     1     8
 -5.3157284051272158E-01 a      1009     0    41     1     9
 -6.0401517700534202E-02 a      1010     0    41     1    10
 -3.6566291326702510E-01 a      1011     0    41     1    11
  3.4007517369866375E-02 a      1012     0    41     1    12
  3.7196538206786095E-01 a      1013     0    41     1    13
  2.2858882426679170E-01 a      1014     0    41     1    14
 -5.5083916562547031E-01 a      1015     0    41     1    15
 -8.5325867307740555E-02 a      1016     0    41     1    16
  4.4966341965384585E-02 a      1017     0    41     1    17
 -8.1379990396711691E-04 a      1018     0    41     1    18
  3.2131723324424344E-01 a      1019     0    41     1    19
 -2.0619961361124178E-02 a      1020     0    41     1    20
 -6.7745300442699871E-02 a      1021     0    41     1    21
  7.5955346145946206E-02 a      1022     0    41     1    22
 -2.3243805044411112E-01 a      1023     0    41     1    23
 -1.9419741946277097E-01 a      1024     0    41     1    24
  1.4711935594164857E-01 a      1025     0    41     1    25
 -7.8719375772560662E-02 a      1026     0    42     1     1
  2.2328662725925760E-01 a      1027     0    42     1     2
 -7.0375668271402153E-02 a      1028     0    42     1     3
 -1.1754551432921402E-01 a      1029     0    42     1     4
 -2.4466027291858025E-01 a      1030     0    42     1     5
 -3.7187814623146093E-01 a      1031     0    42     1     6
  1.3385587281897556E-03 a      1032     0    42     1     7
  7.7902563837724675E-02 a      1033     0    42     1     8
 -4.9483092121701194E-01 a      1034     0    42     1     9
  1.3614975925569636E-01 a      1035     0    42     1    10
  8.1715405420009379E-02 a      1036     0    42     1    11
  1.6142608543882717E-01 a      1037     0    42     1    12
  1.1679030131074244E-01 a      1038     0    42     1    13
 -2.3995446090187431E-01 a      1039     0    42     1    14
 -3.1089875501248682E-01 a      1040     0    42     1    15
  8.6612302389181217E-02 a      1041     0    42     1    16
  2.8128271970782312E-02 a      1042     0    42     1    17
 -2.2549123409211780E-01 a      1043     0    42     1    18
  3.2041127528841462E-01 a      1044     0    42     1    19
  3.2650013412810789E-04 a      1045     0    42     1    20
 -4.2647364729807175E-01 a      1046     0    42     1    21
 -3.5305210284701094E-01 a      1047     0    42     1    22
 -1.1550367169126380E-01 a      1048     0    42     1    23
  7.4336928831609209E-02 a      1049     0    42     1    24
 -1.1925853031265474E-01 a      1050     0    42     1    25
 -1.3361263804563020E-01 a      1051     0    43     1     1
 -3.4351426033132781E-01 a      1052     0    43     1     2
 -1.2200203336480736E-01 a      1053     0    43     1     3
  1.5576831737064806E-01 a      1054     0    43     1     4
 -4.4674775565386027E-01 a      1055     0    43     1     5
  3.4130750144412986E-01 a      1056     0    43     1     6
 -1.0928634099170109E-01 a      1057     0    43     1     7
  6.5104543934612596E-02 a      1058     0    43     1     8
 -2.0884705967042776E-02 a      1059     0    43     1     9
 -5.6082218351239199E-01 a      1060     0    43     1    10
 -2.2228293478120839E-01 a      1061     0    43     1    11
  1.7263558283503319E-01 a      1062     0    43     1    12
 -4.8562627740089473E-02 a      1063     0    43     1    13
 -6.6245830330380423E-02 a      1064     0    43     1    14
  1.3053343686074291E-02 a      1065     0    43     1    15
  2.3851931054364292E-01 a      1066     0    43     1    16
 -1.9708442834767432E-02 a      1067     0    43     1    17
 -7.4589778581041349E-02 a      1068     0    43     1    18
 -2.5118925764009276E-01 a      1069     0    43     1    19
  7.7064618268783913E-02 a      1070     0    43     1    20
  4.2134427180990458E-01 a      1071     0    43     1    21
  7.4976738162070723E-03 a      1072     0    43     1    22
  1.1671635142496646E-01 a      1073     0    43     1    23
  1.7173070394020176E-03 a      1074     0    43     1    24
 -5.2472237934798230E-02 a      1075     0    43     1    25
  8.8803462058666856E-03 a      1076     0    44     1     1
  1.2429743649992035E-01 a      1077     0    44     1     2
 -3.5885941962394718E-01 a      1078     0    44     1     3
 -2.9671868097875109E-01 a      1079     0    44     1     4
 -1.9390579785131606E-01 a      1080     0    44     1     5
 -4.1071298906937970E-01 a      1081     0    44     1     6
  2.1366737782297709E-01 a      1082     0    44     1     7
 -2.7494666390572350E-02 a      1083     0    44     1     8
 -4.3696415597543514E-01 a      1084     0    44     1     9
  1.0701153508220487E-01 a      1085     0    44     1    10
  2.7804065670910555E-01 a      1086     0    44     1    11
  9.6470686363562833E-02 a      1087     0    44     1    12
  1.2089377377625023E-01 a      1088     0    44     1    13
 -2.8431739243600729E-01 a      1089     0    44     1    14
 -1.6059135415326581E-01 a      1090     0    44     1    15
 -4.2469886095018922E-02 a      1091     0    44     1    16
 -6.9187871017051206E-02 a      1092     0    44     1    17
 -1.7825960942632740E-01 a      1093     0    44     1    18
  1.4635434509160231E-01 a      1094     0    44     1    19
 -7.6811434337337461E-02 a      1095     0    44     1    20
 -2.9116039832043528E-01 a      1096     0    44     1    21
  8.7721037202855304E-02 a      1097     0    44     1    22
 -1.8067986367127920E-02 a      1098     0    44     1    23
  3.2845676025712367E-01 a      1099     0    44     1    24
 -1.3352668145524932E-01 a      1100     0    44     1    25
 -6.5342632795513653E-02 a      1101     0    45     1     1
  2.2965649229741519E-01 a      1102     0    45     1     2
 -6.2719457967469602E-04 a      1103     0    45     1     3
  3.6221869639256762E-02 a      1104     0    45     1     4
  2.7186584418498966E-01 a      1105     0    45     1     5
 -5.4974728840100490E-02 a      1106     0    45     1     6
  9.8699808281201507E-02 a      1107     0    45     1     7
  2.1995424762458701E-01 a      1108     0    45     1     8
  2.3722949463843954E-01 a      1109     0    45     1     9
 -1.0835669965208751E-01 a      1110     0    45     1    10
  7.2713611053842844E-02 a      1111     0    45     1    11
  7.2864713300585984E-02 a      1112     0    45     1    12
 -1.3275482368807820E-01 a      1113     0    45     1    13
 -3.2846147484214064E-02 a      1114     0    45     1    14
  1.6440065542760079E-01 a      1115     0    45     1    15
 -8.7433700287669947E-02 a      1116     0    45     1    16
  8.6341258785988431E-02 a      1117     0    45     1    17
  1.8221918577799295E-01 a      1118     0    45     1    18
 -6.0294575999296128E-02 a      1119     0    45     1    19
  8.8815437214477114E-02 a      1120     0    45     1    20
  9.7412510230392144E-02 a      1121     0    45     1    21
 -1.1234434621588181E-01 a      1122     0    45     1    22
  6.3317244979430198E-02 a      1123     0    45     1    23
  1.7698740315098532E-01 a      1124     0    45     1    24
  1.2599012411876737E-02 a      1125     0    45     1    25
 -1.3863904621181222E-01 a      1126     0    46     1     1
 -1.1478516841967500E-01 a      1127     0    46     1     2
 -7.9406033446371815E-02 a      1128     0    46     1     3
  1.9375758343714566E-01 a      1129     0    46     1     4
 -1.5959172285650944E-01 a      1130     0    46     1     5
  1.9136745738658309E-01 a      1131     0    46     1     6
  8.2345317342446281E-02 a      1132     0    46     1     7
  1.4845733379822418E-01 a      1133     0    46     1     8
  3.0105921544260661E-01 a      1134     0    46     1     9
 -4.0309946269456881E-01 a      1135     0    46     1    10
 -8.9756364741441136E-02 a      1136     0    46     1    11
  1.8485808114053783E-02 a      1137     0    46     1    12
  5.1299492809105174E-02 a      1138     0    46     1    13
 -6.5793115350296069E-02 a      1139     0    46     1    14
  1.5807782083823751E-01 a      1140     0    46     1    15
  2.6089891000798393E-02 a      1141     0    46     1    16
 -2.3980459098432927E-01 a      1142     0    46     1    17
 -2.3625450061810289E-02 a      1143     0    46     1    18
 -1.9961922461327369E-01 a      1144     0    46     1    19
 -2.6840353861377125E-01 a      1145     0    46     1    20
  1.7739842196082994E-01 a      1146     0    46     1    21
  2.7297641019326191E-01 a      1147     0    46     1    22
  3.6285216144279230E-02 a      1148     0    46     1    23
  9.7627803824429815E-02 a      1149     0    46     1    24
  3.7919067354325001E-02 a      1150     0    46     1    25
  5.5558409254568536E-02 a      1151     0    47     1     1
 -9.4689540699178898E-02 a      1152     0    47     1     2
 -2.3297289943052718E-01 a      1153     0    47     1     3
 -8.5303014015700146E-02 a      1154     0    47     1     4
 -1.0731983796312597E-01 a      1155     0    47     1     5
  2.0413144004657248E-02 a      1156     0    47     1     6
  1.3370726359178245E-01 a      1157     0    47     1     7
 -1.7460730816554186E-02 a      1158     0    47     1     8
  1.5496999942515402E-01 a      1159     0    47     1     9
 -1.5224305894784432E-01 a      1160     0    47     1    10
  1.8135476604750445E-01 a      1161     0    47     1    11
  1.8033479932207452E-01 a      1162     0    47     1    12
  1.3120362217578432E-01 a      1163     0    47     1    13
 -7.6136427382585900E-02 a      1164     0    47     1    14
  8.4034768192865705E-02 a      1165     0    47     1    15
 -1.1341361245265902E-01 a      1166     0    47     1    16
 -1.4405415515710793E-01 a      1167     0    47     1    17
  7.3876139979643540E-02 a      1168     0    47     1    18
  5.6019197687642491E-02 a      1169     0    47     1    19
 -4.4149246629511502E-01 a      1170     0    47     1    20
  1.1313085515237699E-01 a      1171     0    47     1    21
  4.7175449757039822E-01 a      1172     0    47     1    22
 -1.1181631296367936E-01 a      1173     0    47     1    23
  2.0768994655642273E-01 a      1174     0    47     1    24
  1.5080769751332460E-01 a      1175     0    47     1    25
  3.4533962822720626E-01 a      1176     0    48     1     1
 -2.4489668191837691E-01 a      1177     0    48     1     2
  5.4302631810818749E-02 a      1178     0    48     1     3
 -9.5811837470270972E-02 a      1179     0    48     1     4
  1.4630341089475307E-01 a      1180     0    48     1     5
  1.7881225652148061E-01 a      1181     0    48     1     6
 -6.9459850773512834E-03 a      1182     0    48     1     7
 -4.3325451126089776E-01 a      1183     0    48     1     8
 -3.6154653236007417E-01 a      1184     0    48     1     9
 -5.1199982696731983E-02 a      1185     0    48     1    10
 -3.3784692259082771E-01 a      1186     0    48     1    11
 -1.8741908687361489E-01 a      1187     0    48     1    12
  3.8004426616320647E-01 a      1188     0    48     1    13
  1.8863489897919616E-01 a      1189     0    48     1    14
 -3.0263146305675748E-01 a      1190     0    48     1    15
 -7.7834929823928395E-02 a      1191     0    48     1    16
 -7.9895228566613699E-02 a      1192     0    48     1    17
 -8.3374924316354251E-02 a      1193     0    48     1    18
  1.6911834623835803E-01 a      1194     0    48     1    19
  1.2369158351914943E-01 a      1195     0    48     1    20
  4.0745914220838952E-02 a      1196     0    48     1    21
 -1.0557425661798127E-01 a      1197     0    48     1    22
 -1.8144420067983769E-01 a      1198     0    48     1    23
 -2.8432624776177340E-01 a      1199     0    48     1    24
  7.2713794939165993E-02 a      1200     0    48     1    25
  3.2397796947675681E-02 a      1201     0    49     1     1
  2.5267766474276532E-01 a      1202     0    49     1     2
 -3.0477458273880687E-01 a      1203     0    49     1     3
 -3.3108357419746831E-01 a      1204     0    49     1     4
  4.9539337432769608E-02 a      1205     0    49     1     5
 -2.6217301706558105E-01 a      1206     0    49     1     6
  1.7390265876751934E-01 a      1207     0    49     1     7
  7.5301397720871036E-02 a      1208     0    49     1     8
 -2.0551715681131483E-01 a      1209     0    49     1     9
  1.8929615463275373E-01 a      1210     0    49     1    10
  3.9102743966718212E-01 a      1211     0    49     1    11
  1.2471354433574100E-01 a      1212     0    49     1    12
 -6.5295416623155425E-02 a      1213     0    49     1    13
 -1.7094392423902810E-01 a      1214     0    49     1    14
 -4.3753395739843520E-02 a      1215     0    49     1    15
 -1.4436108742544032E-01 a      1216     0    49     1    16
 -1.9368061848302887E-01 a      1217     0    49     1    17
  1.4568504004416824E-01 a      1218     0    49     1    18
  3.2081770369225060E-01 a      1219     0    49     1    19
 -2.2219048659222085E-01 a      1220     0    49     1    20
 -3.6474597318075835E-01 a      1221     0    49     1    21
  1.3139438363148725E-01 a      1222     0    49     1    22
  4.6591965915129298E-02 a      1223     0    49     1    23
  4.0810749449650546E-01 a      1224     0    49     1    24
  4.9480483492474754E-02 a      1225     0    49     1    25
  1.7479670534073363E-01 a      1226     0    50     1     1
  7.2026914896927352E-01 a      1227     0    50     1     2
 -1.2052921291528992E-01 a      1228     0    50     1     3
  2.8821725645973190E-01 a      1229     0    50     1     4
  3.7775882942425199E-01 a      1230     0    50     1     5
  1.7332419504431741E-02 a      1231     0    50     1     6
 -2.2660598145683386E-01 a      1232     0    50     1     7
 -6.2061883265126065E-02 a      1233     0    50     1     8
 -4.4456408816627012E-02 a      1234     0    50     1     9
  1.2562682540335843E-01 a      1235     0    50     1    10
  2.0830524278485096E-01 a      1236     0    50     1    11
  5.3475343528757407E-02 a      1237     0    50     1    12
 -2.3843691998926389E-01 a      1238     0    50     1    13
 -1.2276436373566405E-02 a      1239     0    50     1    14
  3.8033982332684763E-02 a      1240     0    50     1    15
 -2.5166976458572560E-01 a      1241     0    50     1    16
  4.9824742484251106E-01 a      1242     0    50     1    17
 -5.0343295054290305E-02 a      1243     0    50     1    18
 -2.2944164624175709E-01 a      1244     0    50     1    19
 -2.5543836419157423E-01 a      1245     0    50     1    20
 -1.4686460837489184E-02 a      1246     0    50     1    21
 -4.1755371650357809E-01 a      1247     0    50     1    22
 -1.4087596541673905E-01 a      1248     0    50     1    23
  6.3337980226925009E-02 a      1249     0    50     1    24
  1.7563088835686136E-01 a      1250     0    50     1    25
  2.2252963166257772E-02 a      1251     0    51     1     1
  2.5681191759795868E-01 a      1252     0    51     1     2
 -4.5557565549736306E-02 a      1253     0    51     1     3
 -9.5067291524746550E-02 a      1254     0    51     1     4
  1.2809989523598397E-01 a      1255     0    51     1     5
 -1.0231251395282295E-01 a      1256     0    51     1     6
  1.6299285080601636E-01 a      1257     0    51     1     7
  7.1380195157277372E-04 a      1258     0    51     1     8
  3.6363156240808425E-01 a      1259     0    51     1     9
  9.9660830802396766E-02 a      1260     0    51     1    10
  2.8257259728173534E-01 a      1261     0    51     1    11
  6.2409178956920136E-02 a      1262     0    51     1    12
 -1.2538884635172387E-01 a      1263     0    51     1    13
 -8.3832476991379037E-02 a      1264     0    51     1    14
  3.6881261712639002E-01 a      1265     0    51     1    15
 -1.3069415236029159E-02 a      1266     0    51     1    16
 -1.4688142279071004E-01 a      1267     0    51     1    17
  1.3121853735090275E-01 a      1268     0    51     1    18
  6.6479550421383635E-02 a      1269     0    51     1    19
 -1.1989119056217222E-01 a      1270     0    51     1    20
 -6.4388383618662975E-02 a      1271     0    51     1    21
  3.3390243114341139E-01 a      1272     0    51     1    22
 -4.1334663740945465E-02 a      1273     0    51     1    23
  1.0245103944334247E-01 a      1274     0    51     1    24
  1.2999763624535329E-01 a      1275     0    51     1    25
  6.2792954864262146E-02 a      1276     0    52     1     1
  1.8467610359839770E-01 a      1277     0    52     1     2
 -5.3022784684272461E-02 a      1278     0    52     1     3
  2.9134339757046862E-01 a      1279     0    52     1     4
 -1.8116988662885075E-01 a      1280     0    52     1     5
 -7.4573380961149835E-02 a      1281     0    52     1     6
 -1.7368992440203659E-01 a      1282     0    52     1     7
 -1.1163641215185902E-02 a      1283     0    52     1     8
 -4.2860618602540523E-01 a      1284     0    52     1     9
  7.1737922646254310E-02 a      1285     0    52     1    10
  6.1543133968686325E-01 a      1286     0    52     1    11
 -1.2993052966778171E-01 a      1287     0    52     1    12
 -7.2359593212226903E-01 a      1288     0    52     1    13
  2.1886783075080171E-01 a      1289     0    52     1    14
  5.5519854236665958E-02 a      1290     0    52     1    15
 -2.3501927043695289E-01 a      1291     0    52     1    16
  3.9981447730769060E-01 a      1292     0    52     1    17
 -4.8531583019121943E-01 a      1293     0    52     1    18
 -2.8112461518734799E-01 a      1294     0    52     1    19
 -2.8765951660423866E-01 a      1295     0    52     1    20
 -3.6294675321069148E-01 a      1296     0    52     1    21
 -3.8188654637089098E-01 a      1297     0    52     1    22
 -1.5473909399218808E-01 a      1298     0    52     1    23
 -2.7813921556629434E-01 a      1299     0    52     1    24
  9.1147171221224649E-02 a      1300     0    52     1    25
  2.2395500571729521E-01 a      1301     0    53     1     1
 -8.8526528706891938E-01 a      1302     0    53     1     2
 -2.1796747836575644E-02 a      1303     0    53     1     3
 -6.5546716840371844E-01 a      1304     0    53     1     4
  2.8505598473335314E-01 a      1305     0    53     1     5
 -3.9396531017076375E-01 a      1306     0    53     1     6
  1.6588104087238931E-01 a      1307     0    53     1     7
 -1.7875420876856088E-01 a      1308     0    53     1     8
 -5.1786539930583797E-02 a      1309     0    53     1     9
 -8.1250583472038340E-02 a      1310     0    53     1    10
 -2.5380576689428574E-01 a      1311     0    53     1    11
 -8.0716863925229948E-02 a      1312     0    53     1    12
  3.6344328883457844E-01 a      1313     0    53     1    13
  5.5255610208677908E-01 a      1314     0    53     1    14
 -4.5393108503040935E-01 a      1315     0    53     1    15
 -4.8384253900558571E-01 a      1316     0    53     1    16
 -4.4797322968906866E-01 a      1317     0    53     1    17
 -7.0344181108134035E-02 a      1318     0    53     1    18
  1.4817672703847826E-01 a      1319     0    53     1    19
  5.8205061837016914E-01 a      1320     0    53     1    20
  1.2062551375895637E-01 a      1321     0    53     1    21
 -8.8934322580056756E-03 a      1322     0    53     1    22
 -2.0552862884057548E-02 a      1323     0    53     1    23
 -4.7129897204301319E-01 a      1324     0    53     1    24
 -1.7180318310105225E-01 a      1325     0    53     1    25
  2.8480243645787956E-01 a      1326     0    54     1     1
  4.4489967445611689E-01 a      1327     0    54     1     2
 -1.0601713700780861E-01 a      1328     0    54     1     3
 -1.9139725203679317E-01 a      1329     0    54     1     4
  3.3337100112828805E-01 a      1330     0    54     1     5
  3.5944884631355517E-01 a      1331     0    54     1     6
 -7.1172735541265714E-02 a      1332     0    54     1     7
 -6.9814104310060465E-01 a      1333     0    54     1     8
 -4.5382126985764867E-02 a      1334     0    54     1     9
 -1.7607222836832964E-01 a      1335     0    54     1    10
 -3.0248494652767710E-01 a      1336     0    54     1    11
  2.7206034277799002E-01 a      1337     0    54     1    12
  7.1155446097484254E-02 a      1338     0    54     1    13
 -5.8819214648894287E-02 a      1339     0    54     1    14
 -1.5870974828718795E-01 a      1340     0    54     1    15
  1.4448722089148776E-02 a      1341     0    54     1    16
 -1.2491988928147019E-01 a      1342     0    54     1    17
 -3.6539356102003429E-02 a      1343     0    54     1    18
  8.9888036410738156E-02 a      1344     0    54     1    19
 -3.9019200146357513E-01 a      1345     0    54     1    20
  4.9063656053653676E-02 a      1346     0    54     1    21
  2.7819695268335037E-01 a      1347     0    54     1    22
  1.9001713667640308E-01 a      1348     0    54     1    23
  2.4922822717009022E-01 a      1349     0    54     1    24
  3.8163784967512870E-01 a      1350     0    54     1    25
  1.4941049888754752E-02 a      1351     0    55     1     1
  4.3442208772169827E-01 a      1352     0    55     1     2
 -1.8440212660127991E-01 a      1353     0    55     1     3
 -2.0650277977949810E-01 a      1354     0    55     1     4
  3.3789960684310677E-01 a      1355     0    55     1     5
 -2.7981836458108711E-01 a      1356     0    55     1     6
  3.8942252320200743E-01 a      1357     0    55     1     7
 -3.9811250100514568E-02 a      1358     0    55     1     8
  2.1990406909307539E-01 a      1359     0    55     1     9
  3.2209931076314269E-01 a      1360     0    55     1    10
  4.5907589489859280E-01 a      1361     0    55     1    11
  1.9764225565252386E-01 a      1362     0    55     1    12
 -8.4902135037049492E-02 a      1363     0    55     1    13
 -2.3777677717086629E-01 a      1364     0    55     1    14
  4.7911681468073858E-01 a      1365     0    55     1    15
 -1.2389743855890931E-01 a      1366     0    55     1    16
 -4.1050656030671442E-02 a      1367     0    55     1    17
  3.4366213462868694E-01 a      1368     0    55     1    18
  5.9825300772173629E-02 a      1369     0    55     1    19
  1.1358200147999414E-01 a      1370     0    55     1    20
 -1.0418810234747757E-01 a      1371     0    55     1    21
 -3.1031514411939777E-02 a      1372     0    55     1    22
 -1.0376519647657806E-01 a      1373     0    55     1    23
 -1.3751538263622112E-01 a      1374     0    55     1    24
  1.6651159801638934E-01 a      1375     0    55     1    25
 -1.8958662904845192E-01 a      1376     0    56     1     1
 -1.1518892342429410E-01 a      1377     0    56     1     2
  1.6142900825974335E-01 a      1378     0    56     1     3
 -1.1075798902737746E-01 a      1379     0    56     1     4
 -5.3828065298919453E-02 a      1380     0    56     1     5
 -6.3547711548949073E-02 a      1381     0    56     1     6
  3.2055872602898022E-02 a      1382     0    56     1     7
  3.1934869097891516E-01 a      1383     0    56     1     8
 -5.2950428701259811E-01 a      1384     0    56     1     9
 -2.3302201260793191E-02 a      1385     0    56     1    10
  2.0057080878262046E-01 a      1386     0    56     1    11
  7.8855897670856462E-02 a      1387     0    56     1    12
 -1.7508109777125991E-01 a      1388     0    56     1    13
  3.4266622030807203E-01 a      1389     0    56     1    14
 -1.1223049895694318E-02 a      1390     0    56     1    15
  1.8962144976906281E-01 a      1391     0    56     1    16
  1.6285087480979676E-01 a      1392     0    56     1    17
 -3.1617135647390326E-01 a      1393     0    56     1    18
 -2.9105040614250944E-02 a      1394     0    56     1    19
 -1.1857795803812869E-01 a      1395     0    56     1    20
 -3.7167867320745340E-01 a      1396     0    56     1    21
 -1.5261642311018803E-01 a      1397     0    56     1    22
 -2.5130269757693002E-01 a      1398     0    56     1    23
 -2.9996428786460366E-01 a      1399     0    56     1    24
 -4.0778289268411300E-01 a      1400     0    56     1    25
  1.2243570475544355E-01 a      1401     0    57     1     1
  1.4541324333100460E-02 a      1402     0    57     1     2
  9.7951838699227266E-03 a      1403     0    57     1     3
 -2.4532202905664199E-01 a      1404     0    57     1     4
 -1.4463352965324300E-01 a      1405     0    57     1     5
  1.1844843274436601E-01 a      1406     0    57     1     6
 -1.7245067718801468E-01 a      1407     0    57     1     7
 -5.1866063677124791E-02 a      1408     0    57     1     8
 -3.0309371389322426E-01 a      1409     0    57     1     9
 -2.1198521680415056E-02 a      1410     0    57     1    10
  2.0981193112518816E-02 a      1411     0    57     1    11
  1.1964821112381573E-01 a      1412     0    57     1    12
  9.9262689648666330E-02 a      1413     0    57     1    13
 -1.6284842279136957E-01 a      1414     0    57     1    14
 -2.6166321679197968E-01 a      1415     0    57     1    15
  1.9730359668409150E-02 a      1416     0    57     1    16
  2.2008746365355658E-01 a      1417     0    57     1    17
  2.9142367437348269E-03 a      1418     0    57     1    18
  1.4563258691720299E-01 a      1419     0    57     1    19
  1.6617427774437982E-01 a      1420     0    57     1    20
 -1.5749778242813359E-01 a      1421     0    57     1    21
 -8.2702472884446182E-02 a      1422     0    57     1    22
  1.5784737496960896E-01 a      1423     0    57     1    23
  1.0209281476373276E-01 a      1424     0    57     1    24
  6.4382605508566199E-02 a      1425     0    57     1    25
 -6.9035389259083493E-02 a      1426     0    58     1     1
 -1.3626107275269424E-02 a      1427     0    58     1     2
 -2.0477515556037729E-01 a      1428     0    58     1     3
 -8.0255104646852274E-03 a      1429     0    58     1     4
 -1.0930323234549266E-01 a      1430     0    58     1     5
 -1.7305051699755974E-01 a      1431     0    58     1     6
 -9.3983823359306676E-02 a      1432     0    58     1     7
  4.6942613546858425E-01 a      1433     0    58     1     8
  1.3711579883048994E-01 a      1434     0    58     1     9
 -7.1670568633937240E-02 a      1435     0    58     1    10
  1.4490236932714148E-01 a      1436     0    58     1    11
  1.0920677416059439E-01 a      1437     0    58     1    12
  8.2665691314879830E-02 a      1438     0    58     1    13
 -3.0854789749445721E-01 a      1439     0    58     1    14
  1.8891065525214554E-01 a      1440     0    58     1    15
 -4.4825058788302077E-02 a      1441     0    58     1    16
  3.1719845845731726E-01 a      1442     0    58     1    17
  2.3171887393553151E-02 a      1443     0    58     1    18
 -4.1037999846957138E-03 a      1444     0    58     1    19
  1.1167343441617909E-01 a      1445     0    58     1    20
  1.5380342099112704E-01 a      1446     0    58     1    21
  1.0195414174207398E-02 a      1447     0    58     1    22
  2.9918744906346117E-01 a      1448     0    58     1    23
  1.4700289820501411E-01 a      1449     0    58     1    24
 -2.4065941429108900E-01 a      1450     0    58     1    25
 -1.4494927224336909E-01 a      1451     0    59     1     1
 -3.4344431683053284E-01 a      1452     0    59     1     2
  1.5387978943808173E-01 a      1453     0    59     1     3
  3.7808556463714099E-01 a      1454     0    59     1     4
  1.3673140223987457E-01 a      1455     0    59     1     5
 -1.6827220625322539E-01 a      1456     0    59     1     6
 -2.3559731249965299E-02 a      1457     0    59     1     7
  3.8038909376822705E-01 a      1458     0    59     1     8
  7.3137635204350349E-02 a      1459     0    59     1     9
 -1.7820230285280056E-01 a      1460     0    59     1    10
 -1.3922184313124800E-01 a      1461     0    59     1    11
 -1.6227469481076923E-01 a      1462     0    59     1    12
 -2.2889804717235435E-01 a      1463     0    59     1    13
  1.0791661246799839E-01 a      1464     0    59     1    14
  5.8890371415546275E-02 a      1465     0    59     1    15
 -3.5544481142603168E-02 a      1466     0    59     1    16
  1.6181964485590566E-01 a      1467     0    59     1    17
 -5.0883054026276714E-02 a      1468     0    59     1    18
 -1.6427941156923256E-01 a      1469     0    59     1    19
 -2.1140642267789286E-01 a      1470     0    59     1    20
  1.6447675559562441E-01 a      1471     0    59     1    21
 -1.2252114416483642E-01 a      1472     0    59     1    22
 -1.6419778162595297E-01 a      1473     0    59     1    23
 -1.1638919579084281E-01 a      1474     0    59     1    24
 -4.9087410346677024E-01 a      1475     0    59     1    25
 -2.3361417495272610E-01 a      1476     0    60     1     1
 -5.4220575571237356E-02 a      1477     0    60     1     2
 -8.6395802539602287E-02 a      1478     0    60     1     3
 -9.9876383395094831E-03 a      1479     0    60     1     4
  8.8441070787563525E-02 a      1480     0    60     1     5
  5.1232038361148230E-02 a      1481     0    60     1     6
  1.3865511226147034E-01 a      1482     0    60     1     7
  1.9494601901986075E-01 a      1483     0    60     1     8
  1.4671219901963301E-01 a      1484     0    60     1     9
  2.8263435528824044E-02 a      1485     0    60     1    10
  7.0720817807778100E-02 a      1486     0    60     1    11
  1.0779748882193881E-01 a      1487     0    60     1    12
 -1.1500789294182873E-01 a      1488     0    60     1    13
 -2.4205936378370230E-01 a      1489     0    60     1    14
  1.8078476072448382E-01 a      1490     0    60     1    15
  7.9849574873394075E-03 a      1491     0    60     1    16
  3.3685374701908292E-02 a      1492     0    60     1    17
  1.4016217754128030E-01 a      1493     0    60     1    18
  1.3282630857429653E-01 a      1494     0    60     1    19
 -1.0942426919192203E-03 a      1495     0    60     1    20
  1.7971845637409439E-01 a      1496     0    60     1    21
  6.3051550861994612E-02 a      1497     0    60     1    22
 -1.8446031102099117E-01 a      1498     0    60     1    23
 -2.7671652590664114E-01 a      1499     0    60     1    24
 -3.4857932632042821E-01 a      1500     0    60     1    25
 -1.6288069815154788E-01 a      1501     0    61     1     1
 -4.8539939333524629E-02 a      1502     0    61     1     2
 -2.7007053940372222E-01 a      1503     0    61     1     3
 -1.5522229473366420E-01 a      1504     0    61     1     4
  2.4220129092633799E-01 a      1505     0    61     1     5
  8.8538964801633119E-02 a      1506     0    61     1     6
  1.0608555746134198E-01 a      1507     0    61     1     7
  1.1796759353542605E-01 a      1508     0    61     1     8
 -9.3728247616517171E-02 a      1509     0    61     1     9
  2.0398262445800217E-01 a      1510     0    61     1    10
  3.5541333909843648E-01 a      1511     0    61     1    11
  8.6534819976966534E-02 a      1512     0    61     1    12
 -1.4849810619303848E-02 a      1513     0    61     1    13
 -3.8391131768998410E-01 a      1514     0    61     1    14
  3.7811837942247478E-01 a      1515     0    61     1    15
 -3.6710623929963201E-02 a      1516     0    61     1    16
 -2.3073079733459398E-01 a      1517     0    61     1    17
  2.7624220698519925E-01 a      1518     0    61     1    18
  4.9167422580021325E-02 a      1519     0    61     1    19
  1.3647410823594169E-01 a      1520     0    61     1    20
  3.9659991341270345E-01 a      1521     0    61     1    21
  1.8219239809246224E-03 a      1522     0    61     1    22
 -4.3750972541726635E-02 a      1523     0    61     1    23
 -3.7261922343670051E-01 a      1524     0    61     1    24
 -1.2916608086112719E-01 a      1525     0    61     1    25
 -3.5811796100919424E-01 a      1526     0    62     1     1
 -3.2422061561003779E-01 a      1527     0    62     1     2
  2.7866949755585824E-01 a      1528     0    62     1     3
  3.8540142804864036E-01 a      1529     0    62     1     4
 -3.3593346554371101E-02 a      1530     0    62     1     5
 -3.9843952695868309E-02 a      1531     0    62     1     6
 -2.2411527572702584E-02 a      1532     0    62     1     7
  1.6385025878663576E-01 a      1533     0    62     1     8
  2.6597464063614774E-02 a      1534     0    62     1     9
 -1.4640112606826569E-01 a      1535     0    62     1    10
 -1.1274494972984818E-01 a      1536     0    62     1    11
 -2.0078832193123017E-01 a      1537     0    62     1    12
 -2.0533536485723322E-01 a      1538     0    62     1    13
 -3.2572497578887680E-02 a      1539     0    62     1    14
  1.0316332409674665E-01 a      1540     0    62     1    15
  3.2137710865094871E-02 a      1541     0    62     1    16
  3.1978074854695809E-01 a      1542     0    62     1    17
 -2.5696621124139479E-01 a      1543     0    62     1    18
 -1.1932673362218045E-01 a      1544     0    62     1    19
 -2.9072565841917752E-01 a      1545     0    62     1    20
  1.0328752844432412E-01 a      1546     0    62     1    21
  8.0918057180370553E-02 a      1547     0    62     1    22
 -8.6833828776081146E-02 a      1548     0    62     1    23
  9.0855134831127005E-02 a      1549     0    62     1    24
 -3.5518841806885321E-01 a      1550     0    62     1    25
  2.3076347262660291E-01 a      1551     0    63     1     1
  1.3840531399006256E-01 a      1552     0    63     1     2
  2.5772546403597142E-03 a      1553     0    63     1     3
 -7.0468235286226222E-01 a      1554     0    63     1     4
 -1.9051955361610382E-01 a      1555     0    63     1     5
  1.4845514541050595E-01 a      1556     0    63     1     6
  4.2080535250353913E-02 a      1557     0    63     1     7
 -4.3350404974388766E-03 a      1558     0    63     1     8
 -3.5467997570030357E-01 a      1559     0    63     1     9
 -4.8045843870347833E-03 a      1560     0    63     1    10
  5.5049800552317139E-02 a      1561     0    63     1    11
  1.4156639986336672E-01 a      1562     0    63     1    12
  1.7138992727722471E-02 a      1563     0    63     1    13
 -8.6471920200886787E-02 a      1564     0    63     1    14
  2.0220087898091182E-01 a      1565     0    63     1    15
  3.8388012615899657E-02 a      1566     0    63     1    16
 -1.2398215049380011E-02 a      1567     0    63     1    17
  1.0792646673917057E-01 a      1568     0    63     1    18
 -6.0734385601572474E-03 a      1569     0    63     1    19
  2.3463382370870386E-01 a      1570     0    63     1    20
 -2.0498602827386198E-01 a      1571     0    63     1    21
 -1.2120574238816233E-03 a      1572     0    63     1    22
  1.1365206835247237E-01 a      1573     0    63     1    23
  9.1926196652144382E-02 a      1574     0    63     1    24
  3.4218220152107842E-01 a      1575     0    63     1    25
  1.4487244679156477E-01 a      1576     0    64     1     1
  1.9592672099113922E-01 a      1577     0    64     1     2
 -2.8066757262602976E-01 a      1578     0    64     1     3
 -4.7135041064095473E-01 a      1579     0    64     1     4
 -1.4694546182350104E-01 a      1580     0    64     1     5
 -5.1127284618010319E-03 a      1581     0    64     1     6
 -3.2332832474800274E-02 a      1582     0    64     1     7
  1.5030569501292876E-01 a      1583     0    64     1     8
 -1.8985573148290860E-01 a      1584     0    64     1     9
  1.3490603887862682E-01 a      1585     0    64     1    10
  1.0534094644098208E-01 a      1586     0    64     1    11
 -7.6420029560300029E-02 a      1587     0    64     1    12
  2.4678143599089103E-01 a      1588     0    64     1    13
 -1.5335293807215536E-01 a      1589     0    64     1    14
  1.5625960062917740E-01 a      1590     0    64     1    15
  1.8956807711995316E-02 a      1591     0    64     1    16
  1.6471179924517040E-01 a      1592     0    64     1    17
  7.7323258265762015E-02 a      1593     0    64     1    18
  1.0349000566338902E-01 a      1594     0    64     1    19
  1.5744405605995521E-01 a      1595     0    64     1    20
 -2.1724553198729388E-01 a      1596     0    64     1    21
 -1.6736544807597994E-02 a      1597     0    64     1    22
  7.0367811703084274E-02 a      1598     0    64     1    23
  7.1195585811703460E-02 a      1599     0    64     1    24
  3.4785176450168362E-02 a      1600     0    64     1    25
 -6.4136303542416478E-02 a      1601     0    65     1     1
  4.6055302465996784E-01 a      1602     0    65     1     2
 -3.3247257779982586E-01 a      1603     0    65     1     3
  1.0989189996543493E-01 a      1604     0    65     1     4
 -5.5556366292930537E-02 a      1605     0    65     1     5
 -1.1640080084409841E-01 a      1606     0    65     1     6
 -7.7070127148063952E-02 a      1607     0    65     1     7
  6.1385031123351785E-01 a      1608     0    65     1     8
 -1.7037377261225181E-01 a      1609     0    65     1     9
  1.1854968863135068E-01 a      1610     0    65     1    10
  4.5597539393176172E-02 a      1611     0    65     1    11
  5.9171961481835081E-02 a      1612     0    65     1    12
  2.8824636974983975E-01 a      1613     0    65     1    13
 -3.0151622117354709E-01 a      1614     0    65     1    14
  2.1414516315186119E-01 a      1615     0    65     1    15
 -4.9782386174343676E-02 a      1616     0    65     1    16
  3.9841933911345551E-01 a      1617     0    65     1    17
  9.4049157363008701E-02 a      1618     0    65     1    18
  4.9657243317036026E-02 a      1619     0    65     1    19
 -2.1559887202392131E-01 a      1620     0    65     1    20
 -1.9811703356386842E-01 a      1621     0    65     1    21
 -1.2484981485355440E-01 a      1622     0    65     1    22
  3.2981221302293051E-01 a      1623     0    65     1    23
